<?xml version='1.0' encoding='utf-8'?>
<BIF VERSION="0.3">
  <NETWORK>
    <NAME>UNTITLED</NAME>
    <VARIABLE TYPE="nature">
      <NAME>consumption</NAME>
      <OUTCOME>7</OUTCOME>
      <OUTCOME>22</OUTCOME>
      <OUTCOME>88</OUTCOME>
      <PROPERTY>weight = None</PROPERTY>
    </VARIABLE>
    <VARIABLE TYPE="nature">
      <NAME>cpu</NAME>
      <OUTCOME>15</OUTCOME>
      <OUTCOME>20</OUTCOME>
      <OUTCOME>25</OUTCOME>
      <PROPERTY>weight = None</PROPERTY>
    </VARIABLE>
    <VARIABLE TYPE="nature">
      <NAME>device_type</NAME>
      <OUTCOME>Orin</OUTCOME>
      <OUTCOME>PC</OUTCOME>
      <PROPERTY>weight = None</PROPERTY>
    </VARIABLE>
    <VARIABLE TYPE="nature">
      <NAME>latency</NAME>
      <OUTCOME>11</OUTCOME>
      <OUTCOME>12</OUTCOME>
      <OUTCOME>14</OUTCOME>
      <OUTCOME>15</OUTCOME>
      <OUTCOME>16</OUTCOME>
      <OUTCOME>17</OUTCOME>
      <OUTCOME>18</OUTCOME>
      <OUTCOME>19</OUTCOME>
      <OUTCOME>20</OUTCOME>
      <OUTCOME>21</OUTCOME>
      <OUTCOME>22</OUTCOME>
      <OUTCOME>23</OUTCOME>
      <OUTCOME>24</OUTCOME>
      <OUTCOME>25</OUTCOME>
      <OUTCOME>26</OUTCOME>
      <OUTCOME>27</OUTCOME>
      <OUTCOME>28</OUTCOME>
      <OUTCOME>29</OUTCOME>
      <OUTCOME>30</OUTCOME>
      <OUTCOME>31</OUTCOME>
      <OUTCOME>32</OUTCOME>
      <OUTCOME>33</OUTCOME>
      <OUTCOME>34</OUTCOME>
      <OUTCOME>35</OUTCOME>
      <OUTCOME>36</OUTCOME>
      <OUTCOME>37</OUTCOME>
      <OUTCOME>38</OUTCOME>
      <OUTCOME>39</OUTCOME>
      <OUTCOME>40</OUTCOME>
      <OUTCOME>41</OUTCOME>
      <OUTCOME>42</OUTCOME>
      <OUTCOME>43</OUTCOME>
      <OUTCOME>44</OUTCOME>
      <OUTCOME>45</OUTCOME>
      <OUTCOME>46</OUTCOME>
      <OUTCOME>47</OUTCOME>
      <OUTCOME>48</OUTCOME>
      <OUTCOME>49</OUTCOME>
      <OUTCOME>50</OUTCOME>
      <OUTCOME>51</OUTCOME>
      <OUTCOME>52</OUTCOME>
      <OUTCOME>53</OUTCOME>
      <OUTCOME>54</OUTCOME>
      <OUTCOME>55</OUTCOME>
      <OUTCOME>56</OUTCOME>
      <OUTCOME>57</OUTCOME>
      <OUTCOME>58</OUTCOME>
      <OUTCOME>59</OUTCOME>
      <OUTCOME>60</OUTCOME>
      <OUTCOME>61</OUTCOME>
      <OUTCOME>62</OUTCOME>
      <OUTCOME>63</OUTCOME>
      <OUTCOME>64</OUTCOME>
      <OUTCOME>65</OUTCOME>
      <OUTCOME>66</OUTCOME>
      <OUTCOME>67</OUTCOME>
      <OUTCOME>68</OUTCOME>
      <OUTCOME>69</OUTCOME>
      <OUTCOME>70</OUTCOME>
      <OUTCOME>71</OUTCOME>
      <OUTCOME>72</OUTCOME>
      <OUTCOME>73</OUTCOME>
      <OUTCOME>74</OUTCOME>
      <OUTCOME>75</OUTCOME>
      <OUTCOME>76</OUTCOME>
      <OUTCOME>77</OUTCOME>
      <OUTCOME>78</OUTCOME>
      <OUTCOME>79</OUTCOME>
      <OUTCOME>80</OUTCOME>
      <OUTCOME>81</OUTCOME>
      <OUTCOME>82</OUTCOME>
      <OUTCOME>83</OUTCOME>
      <OUTCOME>84</OUTCOME>
      <OUTCOME>85</OUTCOME>
      <OUTCOME>86</OUTCOME>
      <OUTCOME>87</OUTCOME>
      <OUTCOME>88</OUTCOME>
      <OUTCOME>89</OUTCOME>
      <OUTCOME>90</OUTCOME>
      <OUTCOME>91</OUTCOME>
      <OUTCOME>92</OUTCOME>
      <OUTCOME>93</OUTCOME>
      <OUTCOME>94</OUTCOME>
      <OUTCOME>95</OUTCOME>
      <OUTCOME>96</OUTCOME>
      <OUTCOME>97</OUTCOME>
      <OUTCOME>98</OUTCOME>
      <OUTCOME>101</OUTCOME>
      <OUTCOME>111</OUTCOME>
      <OUTCOME>271</OUTCOME>
      <OUTCOME>2395</OUTCOME>
      <OUTCOME>9824</OUTCOME>
      <OUTCOME>14908</OUTCOME>
      <PROPERTY>weight = None</PROPERTY>
    </VARIABLE>
    <VARIABLE TYPE="nature">
      <NAME>latency_slo</NAME>
      <OUTCOME>False</OUTCOME>
      <PROPERTY>weight = None</PROPERTY>
    </VARIABLE>
    <VARIABLE TYPE="nature">
      <NAME>memory</NAME>
      <OUTCOME>20</OUTCOME>
      <OUTCOME>30</OUTCOME>
      <OUTCOME>45</OUTCOME>
      <PROPERTY>weight = None</PROPERTY>
    </VARIABLE>
    <DEFINITION>
      <FOR>consumption</FOR>
      <GIVEN>device_type</GIVEN>
      <TABLE>1.0 0.0 0.0 0.0 1.0 0.0 0.0 0.0 1.0 </TABLE>
    </DEFINITION>
    <DEFINITION>
      <FOR>cpu</FOR>
      <GIVEN>device_type</GIVEN>
      <TABLE>0.0 0.0 1.0 1.0 0.0 0.0 </TABLE>
    </DEFINITION>
    <DEFINITION>
      <FOR>device_type</FOR>
      <TABLE>0.33 0.33 </TABLE>
    </DEFINITION>
    <DEFINITION>
      <FOR>latency</FOR>
      <TABLE>6.969612489545581e-05 0.00013939224979091162 0.00020908837468636745 0.00020908837468636745 0.00013939224979091162 0.00020908837468636745 0.00013939224979091162 6.969612489545581e-05 0.0004878728742681907 0.00020908837468636745 0.00027878449958182325 0.0004181767493727349 0.0020211876219682185 0.004878728742681907 0.008363534987454697 0.009199888486200167 0.010245330359632005 0.009548369110677446 0.011011987733482019 0.010733203233900195 0.011290772233063842 0.011499860607750208 0.01533314747700028 0.016936158349595762 0.01930582659604126 0.022581544466127684 0.02376637858935043 0.02446333983830499 0.0269724003345414 0.028226930582659605 0.02927237245609144 0.029899637580150542 0.031223863953164205 0.03143295232785057 0.032199609701700584 0.033245051575132425 0.032687482575968776 0.03247839420128241 0.029690549205464177 0.02982994145525509 0.028923891831614163 0.027739057708391412 0.026066350710900472 0.0269724003345414 0.02348759408976861 0.025857262336214108 0.023208809590186785 0.02014218009478673 0.019445218845832172 0.01826038472260942 0.015193755227209367 0.014775578477836632 0.0119877334820184 0.010942291608586563 0.009060496236409256 0.01080289935879565 0.008433231112350153 0.008015054362977418 0.00731809311402286 0.0050878171173682745 0.005366601616950097 0.005436297741845553 0.006551435740172846 0.004948424867577363 0.003972679119040982 0.004599944243100083 0.0035545023696682463 0.0034848062447727906 0.003763590744354614 0.0031363256202955117 0.0027878449958182324 0.0029969333705046 0.002648452746027321 0.0028575411207136885 0.0027181488709227767 0.002369668246445498 0.002090883746863674 0.0021605798717591303 0.002369668246445498 0.0027181488709227767 0.002648452746027321 0.0013242263730136605 0.0009060496236409256 0.0008363534987454698 0.00027878449958182325 0.00027878449958182325 0.00013939224979091162 6.969612489545581e-05 6.969612489545581e-05 6.969612489545581e-05 6.969612489545581e-05 6.969612489545581e-05 6.969612489545581e-05 </TABLE>
    </DEFINITION>
    <DEFINITION>
      <FOR>latency_slo</FOR>
      <TABLE>1.0 </TABLE>
    </DEFINITION>
    <DEFINITION>
      <FOR>memory</FOR>
      <GIVEN>device_type</GIVEN>
      <TABLE>0.0 0.0 1.0 1.0 0.0 0.0 </TABLE>
    </DEFINITION>
  </NETWORK>
</BIF>
