<?xml version='1.0' encoding='utf-8'?>
<BIF VERSION="0.3">
  <NETWORK>
    <NAME>Consumer_B</NAME>
    <VARIABLE TYPE="nature">
      <NAME>consumption</NAME>
      <OUTCOME>7</OUTCOME>
      <OUTCOME>22</OUTCOME>
      <OUTCOME>88</OUTCOME>
      <PROPERTY>weight = None</PROPERTY>
    </VARIABLE>
    <VARIABLE TYPE="nature">
      <NAME>cpu</NAME>
      <OUTCOME>15</OUTCOME>
      <OUTCOME>20</OUTCOME>
      <OUTCOME>25</OUTCOME>
      <PROPERTY>weight = None</PROPERTY>
    </VARIABLE>
    <VARIABLE TYPE="nature">
      <NAME>device_type</NAME>
      <OUTCOME>Orin</OUTCOME>
      <OUTCOME>Laptop</OUTCOME>
      <OUTCOME>PC</OUTCOME>
      <PROPERTY>weight = None</PROPERTY>
    </VARIABLE>
    <VARIABLE TYPE="nature">
      <NAME>latency</NAME>
      <OUTCOME>12</OUTCOME>
      <OUTCOME>13</OUTCOME>
      <OUTCOME>14</OUTCOME>
      <OUTCOME>15</OUTCOME>
      <OUTCOME>16</OUTCOME>
      <OUTCOME>17</OUTCOME>
      <OUTCOME>18</OUTCOME>
      <OUTCOME>19</OUTCOME>
      <OUTCOME>20</OUTCOME>
      <OUTCOME>21</OUTCOME>
      <OUTCOME>22</OUTCOME>
      <OUTCOME>23</OUTCOME>
      <OUTCOME>24</OUTCOME>
      <OUTCOME>25</OUTCOME>
      <OUTCOME>26</OUTCOME>
      <OUTCOME>27</OUTCOME>
      <OUTCOME>28</OUTCOME>
      <OUTCOME>29</OUTCOME>
      <OUTCOME>30</OUTCOME>
      <OUTCOME>31</OUTCOME>
      <OUTCOME>32</OUTCOME>
      <OUTCOME>33</OUTCOME>
      <OUTCOME>34</OUTCOME>
      <OUTCOME>35</OUTCOME>
      <OUTCOME>36</OUTCOME>
      <OUTCOME>37</OUTCOME>
      <OUTCOME>38</OUTCOME>
      <OUTCOME>39</OUTCOME>
      <OUTCOME>40</OUTCOME>
      <OUTCOME>41</OUTCOME>
      <OUTCOME>42</OUTCOME>
      <OUTCOME>43</OUTCOME>
      <OUTCOME>44</OUTCOME>
      <OUTCOME>45</OUTCOME>
      <OUTCOME>46</OUTCOME>
      <OUTCOME>47</OUTCOME>
      <OUTCOME>48</OUTCOME>
      <OUTCOME>49</OUTCOME>
      <OUTCOME>50</OUTCOME>
      <OUTCOME>51</OUTCOME>
      <OUTCOME>52</OUTCOME>
      <OUTCOME>53</OUTCOME>
      <OUTCOME>54</OUTCOME>
      <OUTCOME>55</OUTCOME>
      <OUTCOME>56</OUTCOME>
      <OUTCOME>57</OUTCOME>
      <OUTCOME>58</OUTCOME>
      <OUTCOME>59</OUTCOME>
      <OUTCOME>60</OUTCOME>
      <OUTCOME>61</OUTCOME>
      <OUTCOME>62</OUTCOME>
      <OUTCOME>63</OUTCOME>
      <OUTCOME>66</OUTCOME>
      <OUTCOME>83</OUTCOME>
      <OUTCOME>96</OUTCOME>
      <OUTCOME>266</OUTCOME>
      <OUTCOME>2378</OUTCOME>
      <PROPERTY>weight = None</PROPERTY>
    </VARIABLE>
    <VARIABLE TYPE="nature">
      <NAME>latency_slo</NAME>
      <OUTCOME>False</OUTCOME>
      <OUTCOME>True</OUTCOME>
      <PROPERTY>weight = None</PROPERTY>
    </VARIABLE>
    <VARIABLE TYPE="nature">
      <NAME>memory</NAME>
      <OUTCOME>20</OUTCOME>
      <OUTCOME>30</OUTCOME>
      <OUTCOME>45</OUTCOME>
      <PROPERTY>weight = None</PROPERTY>
    </VARIABLE>
    <VARIABLE TYPE="nature">
      <NAME>rate</NAME>
      <OUTCOME>15</OUTCOME>
      <OUTCOME>20</OUTCOME>
      <OUTCOME>25</OUTCOME>
      <OUTCOME>30</OUTCOME>
      <OUTCOME>35</OUTCOME>
      <PROPERTY>weight = None</PROPERTY>
    </VARIABLE>
    <VARIABLE TYPE="nature">
      <NAME>rate_slo</NAME>
      <OUTCOME>False</OUTCOME>
      <OUTCOME>True</OUTCOME>
      <PROPERTY>weight = None</PROPERTY>
    </VARIABLE>
    <DEFINITION>
      <FOR>consumption</FOR>
      <GIVEN>device_type</GIVEN>
      <TABLE>1.0 0.0 0.0 0.0 1.0 0.0 0.0 0.0 1.0 </TABLE>
    </DEFINITION>
    <DEFINITION>
      <FOR>cpu</FOR>
      <GIVEN>device_type</GIVEN>
      <TABLE>0.0 0.0 1.0 0.0 1.0 0.0 1.0 0.0 0.0 </TABLE>
    </DEFINITION>
    <DEFINITION>
      <FOR>device_type</FOR>
      <TABLE>0.33 0.33 0.33 </TABLE>
    </DEFINITION>
    <DEFINITION>
      <FOR>latency</FOR>
      <GIVEN>latency_slo</GIVEN>
      <TABLE>0.0 0.0 0.0 0.0 0.0 0.0 0.0 0.0 0.0 0.0 0.0 0.0 0.0 0.0 0.0 0.0 0.0 0.0 0.0 0.0055658627087198514 0.012987012987012988 0.01855287569573284 0.022263450834879406 0.022263450834879406 0.03710575139146568 0.04452690166975881 0.03339517625231911 0.03710575139146568 0.03896103896103896 0.04823747680890538 0.04081632653061224 0.04081632653061224 0.03896103896103896 0.029684601113172542 0.04081632653061224 0.03896103896103896 0.03710575139146568 0.04452690166975881 0.04267161410018553 0.03896103896103896 0.04267161410018553 0.04638218923933209 0.055658627087198514 0.03896103896103896 0.02040816326530612 0.025974025974025976 0.016697588126159554 0.014842300556586271 0.0037105751391465678 0.0055658627087198514 0.0037105751391465678 0.0018552875695732839 0.0018552875695732839 0.0018552875695732839 0.0018552875695732839 0.0018552875695732839 0.0018552875695732839 0.0005227391531625719 0.00026136957658128593 0.00026136957658128593 0.0007841087297438578 0.0007841087297438578 0.0010454783063251437 0.0013068478829064297 0.0013068478829064297 0.00026136957658128593 0.0007841087297438578 0.0013068478829064297 0.002875065342394145 0.010454783063251438 0.020386826973340304 0.029796131730266597 0.03920543648719289 0.03606900156821746 0.03842132775744903 0.04417145844223733 0.03763721902770518 0.039466806063774174 0.037114479874542604 0.042341871406168324 0.037114479874542604 0.038159958180867745 0.03763721902770518 0.03998954521693675 0.03763721902770518 0.035807631991636175 0.03920543648719289 0.04260324098274961 0.037114479874542604 0.037114479874542604 0.042341871406168324 0.03998954521693675 0.03789858860428646 0.03633037114479874 0.033716675378985886 0.018295870360690015 0.013068478829064296 0.004443282801881861 0.003920543648719289 0.0010454783063251437 0.0 0.0 0.0 0.0 0.0 0.0 0.0 0.0 0.0 0.0 0.0 0.0 0.0 0.0 </TABLE>
    </DEFINITION>
    <DEFINITION>
      <FOR>latency_slo</FOR>
      <TABLE>0.12348224513172967 0.8765177548682703 </TABLE>
    </DEFINITION>
    <DEFINITION>
      <FOR>memory</FOR>
      <GIVEN>device_type</GIVEN>
      <TABLE>0.0 0.0 1.0 0.0 1.0 0.0 1.0 0.0 0.0 </TABLE>
    </DEFINITION>
    <DEFINITION>
      <FOR>rate</FOR>
      <GIVEN>latency_slo</GIVEN>
      <TABLE>0.0074211502782931356 0.3784786641929499 0.19294990723562153 0.20222634508348794 0.2189239332096475 0.22713016204913747 0.1748562467328803 0.20099320439100887 0.19968635650810246 0.1973340303188709 </TABLE>
    </DEFINITION>
    <DEFINITION>
      <FOR>rate_slo</FOR>
      <GIVEN>rate</GIVEN>
      <TABLE>1.0 0.0 1.0 0.0 1.0 0.0 0.0 1.0 0.0 1.0 </TABLE>
    </DEFINITION>
  </NETWORK>
</BIF>
