<?xml version='1.0' encoding='utf-8'?>
<BIF VERSION="0.3">
  <NETWORK>
    <NAME>Consumer_A</NAME>
    <VARIABLE TYPE="nature">
      <NAME>consumption</NAME>
      <OUTCOME>7</OUTCOME>
      <OUTCOME>22</OUTCOME>
      <OUTCOME>88</OUTCOME>
      <PROPERTY>weight = None</PROPERTY>
    </VARIABLE>
    <VARIABLE TYPE="nature">
      <NAME>cpu</NAME>
      <OUTCOME>15</OUTCOME>
      <OUTCOME>20</OUTCOME>
      <OUTCOME>25</OUTCOME>
      <OUTCOME>35</OUTCOME>
      <PROPERTY>weight = None</PROPERTY>
    </VARIABLE>
    <VARIABLE TYPE="nature">
      <NAME>device_type</NAME>
      <OUTCOME>Xavier</OUTCOME>
      <OUTCOME>Orin</OUTCOME>
      <OUTCOME>Laptop</OUTCOME>
      <OUTCOME>PC</OUTCOME>
      <PROPERTY>weight = None</PROPERTY>
    </VARIABLE>
    <VARIABLE TYPE="nature">
      <NAME>latency</NAME>
      <OUTCOME>4</OUTCOME>
      <OUTCOME>7</OUTCOME>
      <OUTCOME>8</OUTCOME>
      <OUTCOME>15</OUTCOME>
      <OUTCOME>16</OUTCOME>
      <OUTCOME>17</OUTCOME>
      <OUTCOME>18</OUTCOME>
      <OUTCOME>19</OUTCOME>
      <OUTCOME>20</OUTCOME>
      <OUTCOME>21</OUTCOME>
      <OUTCOME>22</OUTCOME>
      <OUTCOME>23</OUTCOME>
      <OUTCOME>24</OUTCOME>
      <OUTCOME>25</OUTCOME>
      <OUTCOME>26</OUTCOME>
      <OUTCOME>27</OUTCOME>
      <OUTCOME>28</OUTCOME>
      <OUTCOME>29</OUTCOME>
      <OUTCOME>30</OUTCOME>
      <OUTCOME>31</OUTCOME>
      <OUTCOME>32</OUTCOME>
      <OUTCOME>33</OUTCOME>
      <OUTCOME>34</OUTCOME>
      <OUTCOME>35</OUTCOME>
      <OUTCOME>36</OUTCOME>
      <OUTCOME>37</OUTCOME>
      <OUTCOME>38</OUTCOME>
      <OUTCOME>39</OUTCOME>
      <OUTCOME>40</OUTCOME>
      <OUTCOME>41</OUTCOME>
      <OUTCOME>42</OUTCOME>
      <OUTCOME>43</OUTCOME>
      <OUTCOME>44</OUTCOME>
      <OUTCOME>45</OUTCOME>
      <OUTCOME>46</OUTCOME>
      <OUTCOME>47</OUTCOME>
      <OUTCOME>48</OUTCOME>
      <OUTCOME>49</OUTCOME>
      <OUTCOME>50</OUTCOME>
      <OUTCOME>51</OUTCOME>
      <OUTCOME>52</OUTCOME>
      <OUTCOME>53</OUTCOME>
      <OUTCOME>54</OUTCOME>
      <OUTCOME>55</OUTCOME>
      <OUTCOME>56</OUTCOME>
      <OUTCOME>57</OUTCOME>
      <OUTCOME>58</OUTCOME>
      <OUTCOME>59</OUTCOME>
      <OUTCOME>60</OUTCOME>
      <OUTCOME>61</OUTCOME>
      <OUTCOME>62</OUTCOME>
      <OUTCOME>63</OUTCOME>
      <OUTCOME>64</OUTCOME>
      <OUTCOME>65</OUTCOME>
      <OUTCOME>66</OUTCOME>
      <OUTCOME>67</OUTCOME>
      <OUTCOME>68</OUTCOME>
      <OUTCOME>69</OUTCOME>
      <OUTCOME>70</OUTCOME>
      <OUTCOME>71</OUTCOME>
      <OUTCOME>72</OUTCOME>
      <OUTCOME>73</OUTCOME>
      <OUTCOME>74</OUTCOME>
      <OUTCOME>75</OUTCOME>
      <OUTCOME>76</OUTCOME>
      <OUTCOME>77</OUTCOME>
      <OUTCOME>78</OUTCOME>
      <OUTCOME>79</OUTCOME>
      <OUTCOME>80</OUTCOME>
      <OUTCOME>81</OUTCOME>
      <OUTCOME>82</OUTCOME>
      <OUTCOME>83</OUTCOME>
      <OUTCOME>84</OUTCOME>
      <OUTCOME>85</OUTCOME>
      <OUTCOME>86</OUTCOME>
      <OUTCOME>87</OUTCOME>
      <OUTCOME>88</OUTCOME>
      <OUTCOME>89</OUTCOME>
      <OUTCOME>90</OUTCOME>
      <OUTCOME>91</OUTCOME>
      <OUTCOME>92</OUTCOME>
      <OUTCOME>93</OUTCOME>
      <OUTCOME>94</OUTCOME>
      <OUTCOME>95</OUTCOME>
      <OUTCOME>96</OUTCOME>
      <OUTCOME>97</OUTCOME>
      <OUTCOME>1600</OUTCOME>
      <OUTCOME>8593</OUTCOME>
      <OUTCOME>11383</OUTCOME>
      <PROPERTY>weight = None</PROPERTY>
    </VARIABLE>
    <VARIABLE TYPE="nature">
      <NAME>latency_slo</NAME>
      <OUTCOME>False</OUTCOME>
      <OUTCOME>True</OUTCOME>
      <PROPERTY>weight = None</PROPERTY>
    </VARIABLE>
    <VARIABLE TYPE="nature">
      <NAME>memory</NAME>
      <OUTCOME>20</OUTCOME>
      <OUTCOME>30</OUTCOME>
      <OUTCOME>45</OUTCOME>
      <PROPERTY>weight = None</PROPERTY>
    </VARIABLE>
    <VARIABLE TYPE="nature">
      <NAME>size</NAME>
      <OUTCOME>480</OUTCOME>
      <OUTCOME>720</OUTCOME>
      <OUTCOME>1080</OUTCOME>
      <PROPERTY>weight = None</PROPERTY>
    </VARIABLE>
    <VARIABLE TYPE="nature">
      <NAME>size_slo</NAME>
      <OUTCOME>False</OUTCOME>
      <OUTCOME>True</OUTCOME>
      <PROPERTY>weight = None</PROPERTY>
    </VARIABLE>
    <DEFINITION>
      <FOR>consumption</FOR>
      <GIVEN>device_type</GIVEN>
      <TABLE>1.0 0.0 0.0 1.0 0.0 0.0 0.0 1.0 0.0 0.0 0.0 1.0 </TABLE>
    </DEFINITION>
    <DEFINITION>
      <FOR>cpu</FOR>
      <GIVEN>device_type</GIVEN>
      <TABLE>0.0 0.0 0.0 1.0 0.0 0.0 1.0 0.0 0.0 1.0 0.0 0.0 1.0 0.0 0.0 0.0 </TABLE>
    </DEFINITION>
    <DEFINITION>
      <FOR>device_type</FOR>
      <TABLE>0.25 0.25 0.25 0.25 </TABLE>
    </DEFINITION>
    <DEFINITION>
      <FOR>latency</FOR>
      <GIVEN>size</GIVEN>
      <TABLE>0.0 0.0 0.0 0.0003436426116838488 0.008762886597938144 0.010652920962199313 0.007903780068728522 0.008934707903780068 0.01013745704467354 0.01168384879725086 0.008934707903780068 0.00859106529209622 0.009278350515463918 0.008075601374570448 0.00979381443298969 0.010309278350515464 0.009621993127147767 0.00979381443298969 0.012027491408934709 0.017353951890034365 0.014604810996563574 0.01563573883161512 0.01872852233676976 0.023195876288659795 0.019759450171821305 0.020446735395189004 0.024398625429553265 0.02852233676975945 0.03006872852233677 0.02302405498281787 0.02611683848797251 0.02216494845360825 0.023195876288659795 0.028350515463917526 0.02972508591065292 0.024398625429553265 0.02542955326460481 0.02663230240549828 0.02577319587628866 0.02663230240549828 0.026460481099656357 0.025601374570446735 0.025085910652920963 0.02388316151202749 0.021649484536082474 0.01958762886597938 0.017869415807560136 0.018556701030927835 0.01752577319587629 0.01838487972508591 0.016666666666666666 0.012371134020618556 0.010481099656357388 0.007388316151202749 0.01013745704467354 0.006357388316151203 0.004982817869415807 0.005670103092783505 0.00584192439862543 0.004123711340206186 0.003780068728522337 0.004467353951890034 0.003951890034364261 0.00429553264604811 0.003780068728522337 0.003951890034364261 0.003436426116838488 0.004123711340206186 0.004982817869415807 0.004467353951890034 0.004982817869415807 0.0032646048109965637 0.002920962199312715 0.0015463917525773195 0.0024054982817869417 0.001718213058419244 0.0015463917525773195 0.0015463917525773195 0.0005154639175257732 0.0001718213058419244 0.0003436426116838488 0.0001718213058419244 0.0 0.0 0.0 0.0 0.0 0.0 0.0 0.0 0.0 0.0 0.0 0.00859106529209622 0.010824742268041237 0.009106529209621994 0.006013745704467354 0.008075601374570448 0.007388316151202749 0.007903780068728522 0.007731958762886598 0.00979381443298969 0.0070446735395189005 0.006529209621993127 0.010309278350515464 0.008762886597938144 0.009621993127147767 0.010481099656357388 0.011168384879725086 0.012199312714776632 0.010309278350515464 0.014948453608247423 0.016666666666666666 0.014948453608247423 0.01752577319587629 0.020103092783505156 0.021305841924398626 0.027663230240549827 0.017697594501718213 0.021649484536082474 0.025085910652920963 0.02542955326460481 0.026804123711340205 0.0288659793814433 0.026804123711340205 0.027491408934707903 0.031958762886597936 0.024398625429553265 0.028350515463917526 0.0288659793814433 0.027663230240549827 0.0288659793814433 0.02457044673539519 0.028178694158075602 0.025257731958762887 0.022852233676975944 0.019759450171821305 0.02027491408934708 0.02027491408934708 0.01872852233676976 0.01632302405498282 0.015807560137457044 0.010824742268041237 0.010481099656357388 0.00979381443298969 0.005154639175257732 0.006357388316151203 0.004639175257731959 0.006357388316151203 0.003436426116838488 0.004467353951890034 0.0036082474226804126 0.0036082474226804126 0.002920962199312715 0.0032646048109965637 0.003092783505154639 0.002233676975945017 0.003951890034364261 0.003092783505154639 0.004123711340206186 0.003780068728522337 0.0036082474226804126 0.0024054982817869417 0.0027491408934707906 0.003092783505154639 0.0032646048109965637 0.002577319587628866 0.003436426116838488 0.000859106529209622 0.002577319587628866 0.0012027491408934709 0.0005154639175257732 0.0012027491408934709 0.0001718213058419244 0.0001718213058419244 0.0 0.0 0.0 0.0001718213058419244 0.0001718213058419244 0.0001718213058419244 0.0003436426116838488 0.0001718213058419244 0.0005154639175257732 0.000859106529209622 0.0003436426116838488 0.0001718213058419244 0.0015463917525773195 0.0005154639175257732 0.0005154639175257732 0.0005154639175257732 0.0005154639175257732 0.0001718213058419244 0.0001718213058419244 0.0006872852233676976 0.0006872852233676976 0.000859106529209622 0.003092783505154639 0.007560137457044674 0.010309278350515464 0.011512027491408935 0.008934707903780068 0.010652920962199313 0.009278350515463918 0.008419243986254295 0.01013745704467354 0.01288659793814433 0.011512027491408935 0.014089347079037801 0.01907216494845361 0.01993127147766323 0.02542955326460481 0.025085910652920963 0.03230240549828179 0.03178694158075601 0.038831615120274915 0.036941580756013746 0.033848797250859104 0.039347079037800686 0.034879725085910654 0.03848797250859107 0.039690721649484534 0.03797250859106529 0.027147766323024056 0.02731958762886598 0.027491408934707903 0.027835051546391754 0.02972508591065292 0.030412371134020618 0.03006872852233677 0.030927835051546393 0.03006872852233677 0.028178694158075602 0.021649484536082474 0.02542955326460481 0.017869415807560136 0.013745704467353952 0.012371134020618556 0.012027491408934709 0.006357388316151203 0.006872852233676976 0.004639175257731959 0.002577319587628866 0.0018900343642611684 0.0005154639175257732 0.0006872852233676976 0.0010309278350515464 0.0005154639175257732 0.0005154639175257732 0.0003436426116838488 0.0 0.0001718213058419244 0.0 0.0 0.0 0.0 0.0 0.0 0.0 0.0 0.0 0.0 0.0 0.0 0.0001718213058419244 0.0001718213058419244 0.0001718213058419244 </TABLE>
    </DEFINITION>
    <DEFINITION>
      <FOR>latency_slo</FOR>
      <TABLE>0.0001718213058419244 0.9998281786941581 </TABLE>
    </DEFINITION>
    <DEFINITION>
      <FOR>memory</FOR>
      <GIVEN>device_type</GIVEN>
      <TABLE>0.0 0.0 1.0 0.0 0.0 1.0 0.0 1.0 0.0 1.0 0.0 0.0 </TABLE>
    </DEFINITION>
    <DEFINITION>
      <FOR>size</FOR>
      <GIVEN>latency_slo</GIVEN>
      <TABLE>0.0 0.0 1.0 0.3333906169444922 0.3333906169444922 0.33321876611101564 </TABLE>
    </DEFINITION>
    <DEFINITION>
      <FOR>size_slo</FOR>
      <GIVEN>size</GIVEN>
      <TABLE>1.0 0.0 0.0 1.0 0.0 1.0 </TABLE>
    </DEFINITION>
  </NETWORK>
</BIF>
