<?xml version='1.0' encoding='utf-8'?>
<BIF VERSION="0.3">
  <NETWORK>
    <NAME>UNTITLED</NAME>
    <VARIABLE TYPE="nature">
      <NAME>cpu</NAME>
      <OUTCOME>15</OUTCOME>
      <OUTCOME>20</OUTCOME>
      <OUTCOME>25</OUTCOME>
      <PROPERTY>weight = None</PROPERTY>
    </VARIABLE>
    <VARIABLE TYPE="nature">
      <NAME>device_type</NAME>
      <OUTCOME>Orin</OUTCOME>
      <OUTCOME>Laptop</OUTCOME>
      <OUTCOME>PC</OUTCOME>
      <PROPERTY>weight = None</PROPERTY>
    </VARIABLE>
    <VARIABLE TYPE="nature">
      <NAME>latency</NAME>
      <OUTCOME>12</OUTCOME>
      <OUTCOME>13</OUTCOME>
      <OUTCOME>14</OUTCOME>
      <OUTCOME>15</OUTCOME>
      <OUTCOME>16</OUTCOME>
      <OUTCOME>17</OUTCOME>
      <OUTCOME>18</OUTCOME>
      <OUTCOME>19</OUTCOME>
      <OUTCOME>20</OUTCOME>
      <OUTCOME>21</OUTCOME>
      <OUTCOME>22</OUTCOME>
      <OUTCOME>23</OUTCOME>
      <OUTCOME>24</OUTCOME>
      <OUTCOME>25</OUTCOME>
      <OUTCOME>26</OUTCOME>
      <OUTCOME>27</OUTCOME>
      <OUTCOME>28</OUTCOME>
      <OUTCOME>29</OUTCOME>
      <OUTCOME>30</OUTCOME>
      <OUTCOME>31</OUTCOME>
      <OUTCOME>32</OUTCOME>
      <OUTCOME>33</OUTCOME>
      <OUTCOME>34</OUTCOME>
      <OUTCOME>35</OUTCOME>
      <OUTCOME>36</OUTCOME>
      <OUTCOME>37</OUTCOME>
      <OUTCOME>38</OUTCOME>
      <OUTCOME>39</OUTCOME>
      <OUTCOME>40</OUTCOME>
      <OUTCOME>41</OUTCOME>
      <OUTCOME>42</OUTCOME>
      <OUTCOME>43</OUTCOME>
      <OUTCOME>44</OUTCOME>
      <OUTCOME>45</OUTCOME>
      <OUTCOME>46</OUTCOME>
      <OUTCOME>47</OUTCOME>
      <OUTCOME>48</OUTCOME>
      <OUTCOME>49</OUTCOME>
      <OUTCOME>50</OUTCOME>
      <OUTCOME>51</OUTCOME>
      <OUTCOME>52</OUTCOME>
      <OUTCOME>53</OUTCOME>
      <OUTCOME>54</OUTCOME>
      <OUTCOME>55</OUTCOME>
      <OUTCOME>56</OUTCOME>
      <OUTCOME>57</OUTCOME>
      <OUTCOME>58</OUTCOME>
      <OUTCOME>59</OUTCOME>
      <OUTCOME>60</OUTCOME>
      <OUTCOME>61</OUTCOME>
      <OUTCOME>62</OUTCOME>
      <OUTCOME>63</OUTCOME>
      <OUTCOME>64</OUTCOME>
      <OUTCOME>65</OUTCOME>
      <OUTCOME>66</OUTCOME>
      <OUTCOME>67</OUTCOME>
      <OUTCOME>68</OUTCOME>
      <OUTCOME>69</OUTCOME>
      <OUTCOME>70</OUTCOME>
      <OUTCOME>71</OUTCOME>
      <OUTCOME>72</OUTCOME>
      <OUTCOME>73</OUTCOME>
      <OUTCOME>74</OUTCOME>
      <OUTCOME>75</OUTCOME>
      <OUTCOME>76</OUTCOME>
      <OUTCOME>77</OUTCOME>
      <OUTCOME>78</OUTCOME>
      <OUTCOME>79</OUTCOME>
      <OUTCOME>80</OUTCOME>
      <OUTCOME>81</OUTCOME>
      <OUTCOME>82</OUTCOME>
      <OUTCOME>83</OUTCOME>
      <OUTCOME>84</OUTCOME>
      <OUTCOME>85</OUTCOME>
      <OUTCOME>86</OUTCOME>
      <OUTCOME>87</OUTCOME>
      <OUTCOME>88</OUTCOME>
      <OUTCOME>89</OUTCOME>
      <OUTCOME>90</OUTCOME>
      <OUTCOME>91</OUTCOME>
      <OUTCOME>92</OUTCOME>
      <OUTCOME>93</OUTCOME>
      <OUTCOME>94</OUTCOME>
      <OUTCOME>95</OUTCOME>
      <OUTCOME>96</OUTCOME>
      <OUTCOME>97</OUTCOME>
      <OUTCOME>98</OUTCOME>
      <OUTCOME>103</OUTCOME>
      <OUTCOME>105</OUTCOME>
      <OUTCOME>275</OUTCOME>
      <OUTCOME>2385</OUTCOME>
      <OUTCOME>9817</OUTCOME>
      <OUTCOME>14906</OUTCOME>
      <PROPERTY>weight = None</PROPERTY>
    </VARIABLE>
    <VARIABLE TYPE="nature">
      <NAME>latency_slo</NAME>
      <OUTCOME>False</OUTCOME>
      <OUTCOME>True</OUTCOME>
      <PROPERTY>weight = None</PROPERTY>
    </VARIABLE>
    <VARIABLE TYPE="nature">
      <NAME>rate</NAME>
      <OUTCOME>5</OUTCOME>
      <OUTCOME>10</OUTCOME>
      <OUTCOME>15</OUTCOME>
      <OUTCOME>20</OUTCOME>
      <OUTCOME>25</OUTCOME>
      <OUTCOME>30</OUTCOME>
      <OUTCOME>35</OUTCOME>
      <OUTCOME>40</OUTCOME>
      <OUTCOME>50</OUTCOME>
      <OUTCOME>60</OUTCOME>
      <OUTCOME>70</OUTCOME>
      <OUTCOME>80</OUTCOME>
      <PROPERTY>weight = None</PROPERTY>
    </VARIABLE>
    <VARIABLE TYPE="nature">
      <NAME>rate_slo</NAME>
      <OUTCOME>False</OUTCOME>
      <OUTCOME>True</OUTCOME>
      <PROPERTY>weight = None</PROPERTY>
    </VARIABLE>
    <DEFINITION>
      <FOR>cpu</FOR>
      <GIVEN>device_type</GIVEN>
      <TABLE>0.0 0.0 1.0 0.0 1.0 0.0 1.0 0.0 0.0 </TABLE>
    </DEFINITION>
    <DEFINITION>
      <FOR>device_type</FOR>
      <TABLE>0.33 0.33 0.33 </TABLE>
    </DEFINITION>
    <DEFINITION>
      <FOR>latency</FOR>
      <GIVEN>latency_slo</GIVEN>
      <TABLE>0.0 0.0 0.0 0.0 0.0 0.0 0.0 0.0 0.0 0.0 0.0 0.0 0.0 0.0 0.0 0.0 0.0 0.0 0.0 0.0004751948298802509 0.0008553506937844516 0.003041246911233606 0.005417221060634861 0.006652727618323513 0.009313818665652918 0.013020338338718875 0.018342520433377685 0.021954001140467593 0.024425014255844896 0.022429195970347843 0.02737122220110245 0.024425014255844896 0.029081923588671354 0.027846417030982704 0.03107774187416841 0.034784261547234366 0.030317430146360007 0.03468922258125832 0.036019768104923015 0.03430906671735411 0.03402394981942596 0.03288348222771336 0.03440410568333017 0.03259836532978521 0.03668504086675537 0.03430906671735411 0.03231324843185706 0.03079262497624026 0.0253754039156054 0.022239118038395744 0.022809351834252044 0.02119368941265919 0.016061585249952482 0.015016156624215928 0.013780650066527277 0.014731039726287778 0.012355065576886523 0.011689792815054173 0.008648545903820566 0.008743584869796617 0.007413039346131914 0.007222961414179814 0.006747766584299563 0.006747766584299563 0.0059874548564911615 0.0045618703668504085 0.004942026230754609 0.00551226002661091 0.004276753468922258 0.0043717924348983086 0.00551226002661091 0.00532218209465881 0.004276753468922258 0.004086675536970158 0.0038015586390420073 0.0033263638091617564 0.0029462079452575556 0.002756130013305455 0.001995818285497054 0.0029462079452575556 0.0029462079452575556 0.002661091047329405 0.0007603117278084015 0.0005702337958563011 0.0004751948298802509 0.0006652727618323513 9.503896597605019e-05 9.503896597605019e-05 9.503896597605019e-05 9.503896597605019e-05 9.503896597605019e-05 9.503896597605019e-05 9.503896597605019e-05 0.00026136957658128593 0.00026136957658128593 0.0005227391531625719 0.0005227391531625719 0.0005227391531625719 0.00026136957658128593 0.0007841087297438578 0.0013068478829064297 0.0010454783063251437 0.0023523261892315736 0.0015682174594877157 0.003397804495556717 0.01280710925248301 0.02195504443282802 0.02953476215368531 0.031102979613173026 0.03763721902770518 0.037114479874542604 0.037114479874542604 0.04208050182958704 0.035807631991636175 0.04103502352326189 0.03998954521693675 0.043387349712493466 0.04077365394668061 0.04286461055933089 0.04103502352326189 0.03397804495556717 0.04573967590172504 0.035807631991636175 0.03554626241505489 0.03920543648719289 0.03633037114479874 0.04077365394668061 0.038944066910611606 0.03920543648719289 0.0352848928384736 0.02953476215368531 0.020125457396759017 0.010454783063251438 0.004966021955044433 0.004704652378463147 0.0023523261892315736 0.0 0.0 0.0 0.0 0.0 0.0 0.0 0.0 0.0 0.0 0.0 0.0 0.0 0.0 0.0 0.0 0.0 0.0 0.0 0.0 0.0 0.0 0.0 0.0 0.0 0.0 0.0 0.0 0.0 0.0 0.0 0.0 0.0 0.0 0.0 0.0 0.0 0.0 0.0 0.0 0.0 0.0 0.0 0.0 0.0 0.0 0.0 0.0 0.0 0.0 </TABLE>
    </DEFINITION>
    <DEFINITION>
      <FOR>latency_slo</FOR>
      <TABLE>0.733342626149986 0.2666573738500139 </TABLE>
    </DEFINITION>
    <DEFINITION>
      <FOR>rate</FOR>
      <GIVEN>latency_slo</GIVEN>
      <TABLE>0.05721345751758221 0.05721345751758221 0.10235696635620604 0.15957042387378825 0.09285306975860103 0.15054172210606348 0.09418361528226572 0.05721345751758221 0.05721345751758221 0.05721345751758221 0.05721345751758221 0.05721345751758221 0.0 0.0 0.22713016204913747 0.1748562467328803 0.20099320439100887 0.19968635650810246 0.1973340303188709 0.0 0.0 0.0 0.0 0.0 </TABLE>
    </DEFINITION>
    <DEFINITION>
      <FOR>rate_slo</FOR>
      <GIVEN>rate</GIVEN>
      <TABLE>1.0 0.0 1.0 0.0 1.0 0.0 1.0 0.0 1.0 0.0 0.0 1.0 0.0 1.0 0.0 1.0 0.0 1.0 0.0 1.0 0.0 1.0 0.0 1.0 </TABLE>
    </DEFINITION>
  </NETWORK>
</BIF>
