<?xml version='1.0' encoding='utf-8'?>
<BIF VERSION="0.3">
  <NETWORK>
    <NAME>UNTITLED</NAME>
    <VARIABLE TYPE="nature">
      <NAME>cpu</NAME>
      <OUTCOME>15</OUTCOME>
      <OUTCOME>20</OUTCOME>
      <OUTCOME>25</OUTCOME>
      <PROPERTY>weight = None</PROPERTY>
    </VARIABLE>
    <VARIABLE TYPE="nature">
      <NAME>device_type</NAME>
      <OUTCOME>Orin</OUTCOME>
      <OUTCOME>Laptop</OUTCOME>
      <OUTCOME>PC</OUTCOME>
      <PROPERTY>weight = None</PROPERTY>
    </VARIABLE>
    <VARIABLE TYPE="nature">
      <NAME>latency</NAME>
      <OUTCOME>32</OUTCOME>
      <OUTCOME>33</OUTCOME>
      <OUTCOME>34</OUTCOME>
      <OUTCOME>35</OUTCOME>
      <OUTCOME>36</OUTCOME>
      <OUTCOME>38</OUTCOME>
      <OUTCOME>39</OUTCOME>
      <OUTCOME>40</OUTCOME>
      <OUTCOME>41</OUTCOME>
      <OUTCOME>42</OUTCOME>
      <OUTCOME>43</OUTCOME>
      <OUTCOME>44</OUTCOME>
      <OUTCOME>45</OUTCOME>
      <OUTCOME>46</OUTCOME>
      <OUTCOME>47</OUTCOME>
      <OUTCOME>48</OUTCOME>
      <OUTCOME>49</OUTCOME>
      <OUTCOME>50</OUTCOME>
      <OUTCOME>51</OUTCOME>
      <OUTCOME>52</OUTCOME>
      <OUTCOME>53</OUTCOME>
      <OUTCOME>54</OUTCOME>
      <OUTCOME>55</OUTCOME>
      <OUTCOME>56</OUTCOME>
      <OUTCOME>57</OUTCOME>
      <OUTCOME>58</OUTCOME>
      <OUTCOME>59</OUTCOME>
      <OUTCOME>60</OUTCOME>
      <OUTCOME>61</OUTCOME>
      <OUTCOME>62</OUTCOME>
      <OUTCOME>63</OUTCOME>
      <OUTCOME>64</OUTCOME>
      <OUTCOME>65</OUTCOME>
      <OUTCOME>66</OUTCOME>
      <OUTCOME>67</OUTCOME>
      <OUTCOME>68</OUTCOME>
      <OUTCOME>69</OUTCOME>
      <OUTCOME>70</OUTCOME>
      <OUTCOME>71</OUTCOME>
      <OUTCOME>72</OUTCOME>
      <OUTCOME>73</OUTCOME>
      <OUTCOME>74</OUTCOME>
      <OUTCOME>75</OUTCOME>
      <OUTCOME>76</OUTCOME>
      <OUTCOME>77</OUTCOME>
      <OUTCOME>78</OUTCOME>
      <OUTCOME>79</OUTCOME>
      <OUTCOME>80</OUTCOME>
      <OUTCOME>81</OUTCOME>
      <OUTCOME>82</OUTCOME>
      <OUTCOME>83</OUTCOME>
      <OUTCOME>84</OUTCOME>
      <OUTCOME>85</OUTCOME>
      <OUTCOME>86</OUTCOME>
      <OUTCOME>87</OUTCOME>
      <OUTCOME>88</OUTCOME>
      <OUTCOME>89</OUTCOME>
      <OUTCOME>90</OUTCOME>
      <OUTCOME>91</OUTCOME>
      <OUTCOME>92</OUTCOME>
      <OUTCOME>93</OUTCOME>
      <OUTCOME>94</OUTCOME>
      <OUTCOME>95</OUTCOME>
      <OUTCOME>96</OUTCOME>
      <OUTCOME>97</OUTCOME>
      <OUTCOME>98</OUTCOME>
      <OUTCOME>99</OUTCOME>
      <OUTCOME>100</OUTCOME>
      <OUTCOME>101</OUTCOME>
      <OUTCOME>103</OUTCOME>
      <OUTCOME>106</OUTCOME>
      <OUTCOME>111</OUTCOME>
      <OUTCOME>113</OUTCOME>
      <OUTCOME>115</OUTCOME>
      <OUTCOME>283</OUTCOME>
      <OUTCOME>2398</OUTCOME>
      <OUTCOME>9836</OUTCOME>
      <OUTCOME>14905</OUTCOME>
      <PROPERTY>weight = None</PROPERTY>
    </VARIABLE>
    <VARIABLE TYPE="nature">
      <NAME>size</NAME>
      <OUTCOME>480</OUTCOME>
      <OUTCOME>720</OUTCOME>
      <OUTCOME>1080</OUTCOME>
      <PROPERTY>weight = None</PROPERTY>
    </VARIABLE>
    <DEFINITION>
      <FOR>cpu</FOR>
      <GIVEN>device_type</GIVEN>
      <TABLE>0.0 0.0 1.0 0.0 1.0 0.0 1.0 0.0 0.0 </TABLE>
    </DEFINITION>
    <DEFINITION>
      <FOR>device_type</FOR>
      <TABLE>0.33 0.33 0.33 </TABLE>
    </DEFINITION>
    <DEFINITION>
      <FOR>latency</FOR>
      <TABLE>0.0006272651240591023 0.0009757457485363814 0.0006969612489545581 0.0009060496236409256 0.0006272651240591023 0.0005575689991636465 0.0004878728742681907 0.00034848062447727905 0.0004878728742681907 0.0007666573738500139 0.0032060217451909674 0.012545302481182047 0.026833008084750486 0.037357122943964316 0.04530248118204628 0.044047950933928076 0.033663228324505155 0.02599665458600502 0.018120992472818512 0.012266517981600222 0.014845274602732089 0.024045163088932255 0.034360189573459717 0.03714803456927795 0.047811541678282686 0.05275996654586005 0.05255087817117368 0.052829662670755506 0.04816002230275997 0.0365904655701143 0.024881516587677725 0.02627543908558684 0.025857262336214108 0.027739057708391412 0.02648452746027321 0.02313911346529133 0.019724003345413996 0.013939224979091162 0.014914970727627545 0.012684694730972957 0.012336214106495678 0.009199888486200167 0.008642319487036521 0.003275717870086423 0.0017424031223863953 0.0022999721215500417 0.0018120992472818512 0.0012545302481182046 0.001184834123222749 0.0018120992472818512 0.0028575411207136885 0.003415110119877335 0.003693894619459158 0.0027878449958182324 0.0013242263730136605 0.004530248118204628 0.00731809311402286 0.008293838862559242 0.00815444661276833 0.010036241984945637 0.009408976860886535 0.005296905492054642 0.0024393643713409535 0.0017424031223863953 0.001115137998327293 0.0004878728742681907 0.00013939224979091162 0.00013939224979091162 6.969612489545581e-05 6.969612489545581e-05 6.969612489545581e-05 6.969612489545581e-05 6.969612489545581e-05 6.969612489545581e-05 6.969612489545581e-05 6.969612489545581e-05 6.969612489545581e-05 6.969612489545581e-05 </TABLE>
    </DEFINITION>
    <DEFINITION>
      <FOR>size</FOR>
      <GIVEN>latency</GIVEN>
      <TABLE>0.0 0.0 1.0 0.0 0.0 1.0 0.0 0.0 1.0 0.0 0.0 1.0 0.0 0.0 1.0 0.0 0.0 1.0 0.0 0.0 1.0 0.0 0.0 1.0 0.0 0.0 1.0 0.45454545454545453 0.0 0.5454545454545454 0.7608695652173914 0.13043478260869565 0.10869565217391304 0.7111111111111111 0.24444444444444444 0.044444444444444446 0.535064935064935 0.41818181818181815 0.046753246753246755 0.39925373134328357 0.42350746268656714 0.17723880597014927 0.3415384615384615 0.3630769230769231 0.2953846153846154 0.3670886075949367 0.3291139240506329 0.3037974683544304 0.22567287784679088 0.37681159420289856 0.39751552795031053 0.13404825737265416 0.3002680965147453 0.5656836461126006 0.15 0.18076923076923077 0.6692307692307692 0.29545454545454547 0.3806818181818182 0.32386363636363635 0.18779342723004694 0.6197183098591549 0.19248826291079812 0.08985507246376812 0.7971014492753623 0.11304347826086956 0.07099391480730223 0.8742393509127789 0.05476673427991886 0.03377110694183865 0.9136960600375235 0.0525328330206379 0.014577259475218658 0.9402332361516035 0.04518950437317784 0.010568031704095112 0.9458388375165125 0.043593130779392336 0.009283819628647215 0.9336870026525199 0.05702917771883289 0.011873350923482849 0.9274406332453826 0.06068601583113457 0.002894356005788712 0.9175108538350217 0.07959479015918958 0.0 0.8990476190476191 0.10095238095238095 0.0028011204481792717 0.7450980392156863 0.25210084033613445 0.002652519893899204 0.4350132625994695 0.5623342175066313 0.08086253369272237 0.20485175202156333 0.7142857142857143 0.2638190954773869 0.09547738693467336 0.6407035175879398 0.26052631578947366 0.03684210526315789 0.7026315789473684 0.29819277108433734 0.09337349397590361 0.608433734939759 0.42402826855123676 0.23674911660777384 0.3392226148409894 0.605 0.25 0.145 0.6728971962616822 0.2570093457943925 0.07009345794392523 0.7032967032967034 0.27472527472527475 0.02197802197802198 0.7457627118644068 0.2033898305084746 0.05084745762711865 0.8787878787878788 0.09090909090909091 0.030303030303030304 0.8548387096774194 0.12096774193548387 0.024193548387096774 0.5531914893617021 0.44680851063829785 0.0 0.08 0.84 0.08 0.12121212121212122 0.7272727272727273 0.15151515151515152 0.07692307692307693 0.6923076923076923 0.23076923076923078 0.0 0.8888888888888888 0.1111111111111111 0.47058823529411764 0.35294117647058826 0.17647058823529413 0.8461538461538461 0.07692307692307693 0.07692307692307693 0.926829268292683 0.04878048780487805 0.024390243902439025 0.9591836734693877 0.02040816326530612 0.02040816326530612 0.9056603773584906 0.07547169811320754 0.018867924528301886 0.875 0.125 0.0 0.631578947368421 0.3157894736842105 0.05263157894736842 0.1076923076923077 0.8923076923076924 0.0 0.02857142857142857 0.9714285714285714 0.0 0.008403361344537815 0.9915966386554622 0.0 0.008547008547008548 0.9829059829059829 0.008547008547008548 0.0 0.9930555555555556 0.006944444444444444 0.0 0.9925925925925926 0.007407407407407408 0.0 1.0 0.0 0.0 1.0 0.0 0.0 1.0 0.0 0.0 1.0 0.0 0.0 1.0 0.0 0.0 1.0 0.0 0.0 1.0 0.0 0.0 1.0 0.0 0.0 1.0 0.0 0.0 1.0 0.0 0.0 0.0 1.0 0.0 1.0 0.0 0.0 0.0 1.0 0.0 1.0 0.0 0.0 0.0 1.0 0.0 1.0 0.0 0.0 0.0 1.0 </TABLE>
    </DEFINITION>
  </NETWORK>
</BIF>
