<?xml version='1.0' encoding='utf-8'?>
<BIF VERSION="0.3">
  <NETWORK>
    <NAME>Consumer_C</NAME>
    <VARIABLE TYPE="nature">
      <NAME>consumption</NAME>
      <OUTCOME>7</OUTCOME>
      <OUTCOME>22</OUTCOME>
      <OUTCOME>88</OUTCOME>
      <PROPERTY>weight = None</PROPERTY>
    </VARIABLE>
    <VARIABLE TYPE="nature">
      <NAME>cpu</NAME>
      <OUTCOME>15</OUTCOME>
      <OUTCOME>20</OUTCOME>
      <OUTCOME>25</OUTCOME>
      <OUTCOME>35</OUTCOME>
      <PROPERTY>weight = None</PROPERTY>
    </VARIABLE>
    <VARIABLE TYPE="nature">
      <NAME>device_type</NAME>
      <OUTCOME>Xavier</OUTCOME>
      <OUTCOME>Orin</OUTCOME>
      <OUTCOME>Laptop</OUTCOME>
      <OUTCOME>PC</OUTCOME>
      <PROPERTY>weight = None</PROPERTY>
    </VARIABLE>
    <VARIABLE TYPE="nature">
      <NAME>latency</NAME>
      <OUTCOME>6</OUTCOME>
      <OUTCOME>11</OUTCOME>
      <OUTCOME>13</OUTCOME>
      <OUTCOME>14</OUTCOME>
      <OUTCOME>15</OUTCOME>
      <OUTCOME>16</OUTCOME>
      <OUTCOME>17</OUTCOME>
      <OUTCOME>18</OUTCOME>
      <OUTCOME>19</OUTCOME>
      <OUTCOME>20</OUTCOME>
      <OUTCOME>21</OUTCOME>
      <OUTCOME>22</OUTCOME>
      <OUTCOME>23</OUTCOME>
      <OUTCOME>24</OUTCOME>
      <OUTCOME>25</OUTCOME>
      <OUTCOME>26</OUTCOME>
      <OUTCOME>27</OUTCOME>
      <OUTCOME>28</OUTCOME>
      <OUTCOME>29</OUTCOME>
      <OUTCOME>30</OUTCOME>
      <OUTCOME>31</OUTCOME>
      <OUTCOME>32</OUTCOME>
      <OUTCOME>33</OUTCOME>
      <OUTCOME>34</OUTCOME>
      <OUTCOME>35</OUTCOME>
      <OUTCOME>36</OUTCOME>
      <OUTCOME>37</OUTCOME>
      <OUTCOME>38</OUTCOME>
      <OUTCOME>39</OUTCOME>
      <OUTCOME>40</OUTCOME>
      <OUTCOME>41</OUTCOME>
      <OUTCOME>42</OUTCOME>
      <OUTCOME>43</OUTCOME>
      <OUTCOME>44</OUTCOME>
      <OUTCOME>45</OUTCOME>
      <OUTCOME>46</OUTCOME>
      <OUTCOME>47</OUTCOME>
      <OUTCOME>48</OUTCOME>
      <OUTCOME>49</OUTCOME>
      <OUTCOME>50</OUTCOME>
      <OUTCOME>51</OUTCOME>
      <OUTCOME>52</OUTCOME>
      <OUTCOME>53</OUTCOME>
      <OUTCOME>54</OUTCOME>
      <OUTCOME>55</OUTCOME>
      <OUTCOME>56</OUTCOME>
      <OUTCOME>57</OUTCOME>
      <OUTCOME>58</OUTCOME>
      <OUTCOME>59</OUTCOME>
      <OUTCOME>60</OUTCOME>
      <OUTCOME>61</OUTCOME>
      <OUTCOME>62</OUTCOME>
      <OUTCOME>63</OUTCOME>
      <OUTCOME>64</OUTCOME>
      <OUTCOME>65</OUTCOME>
      <OUTCOME>66</OUTCOME>
      <OUTCOME>67</OUTCOME>
      <OUTCOME>68</OUTCOME>
      <OUTCOME>69</OUTCOME>
      <OUTCOME>70</OUTCOME>
      <OUTCOME>71</OUTCOME>
      <OUTCOME>72</OUTCOME>
      <OUTCOME>73</OUTCOME>
      <OUTCOME>74</OUTCOME>
      <OUTCOME>75</OUTCOME>
      <OUTCOME>76</OUTCOME>
      <OUTCOME>77</OUTCOME>
      <OUTCOME>78</OUTCOME>
      <OUTCOME>79</OUTCOME>
      <OUTCOME>80</OUTCOME>
      <OUTCOME>81</OUTCOME>
      <OUTCOME>82</OUTCOME>
      <OUTCOME>83</OUTCOME>
      <OUTCOME>84</OUTCOME>
      <OUTCOME>85</OUTCOME>
      <OUTCOME>86</OUTCOME>
      <OUTCOME>87</OUTCOME>
      <OUTCOME>88</OUTCOME>
      <OUTCOME>89</OUTCOME>
      <OUTCOME>90</OUTCOME>
      <OUTCOME>91</OUTCOME>
      <OUTCOME>92</OUTCOME>
      <OUTCOME>93</OUTCOME>
      <OUTCOME>94</OUTCOME>
      <OUTCOME>95</OUTCOME>
      <OUTCOME>96</OUTCOME>
      <OUTCOME>1603</OUTCOME>
      <OUTCOME>8609</OUTCOME>
      <OUTCOME>11387</OUTCOME>
      <PROPERTY>weight = None</PROPERTY>
    </VARIABLE>
    <VARIABLE TYPE="nature">
      <NAME>latency_slo</NAME>
      <OUTCOME>False</OUTCOME>
      <OUTCOME>True</OUTCOME>
      <PROPERTY>weight = None</PROPERTY>
    </VARIABLE>
    <VARIABLE TYPE="nature">
      <NAME>memory</NAME>
      <OUTCOME>20</OUTCOME>
      <OUTCOME>30</OUTCOME>
      <OUTCOME>45</OUTCOME>
      <PROPERTY>weight = None</PROPERTY>
    </VARIABLE>
    <DEFINITION>
      <FOR>consumption</FOR>
      <GIVEN>device_type</GIVEN>
      <TABLE>1.0 0.0 0.0 1.0 0.0 0.0 0.0 1.0 0.0 0.0 0.0 1.0 </TABLE>
    </DEFINITION>
    <DEFINITION>
      <FOR>cpu</FOR>
      <GIVEN>device_type</GIVEN>
      <TABLE>0.0 0.0 0.0 1.0 0.0 0.0 1.0 0.0 0.0 1.0 0.0 0.0 1.0 0.0 0.0 0.0 </TABLE>
    </DEFINITION>
    <DEFINITION>
      <FOR>device_type</FOR>
      <TABLE>0.25 0.25 0.25 0.25 </TABLE>
    </DEFINITION>
    <DEFINITION>
      <FOR>latency</FOR>
      <GIVEN>latency_slo</GIVEN>
      <TABLE>0.0 0.0 0.0 0.0 0.0 0.0 0.0 0.0 0.0 0.0 0.0 0.0 0.0 0.0 0.0 0.0 0.0 0.0 0.0 0.0 0.0 0.0 0.0 0.0 0.0 0.0011086474501108647 0.003048780487804878 0.005635624538063562 0.009423503325942351 0.013673318551367332 0.015705838876570583 0.017184035476718405 0.01949371766444937 0.025221729490022174 0.025776053215077605 0.026607538802660754 0.030025868440502586 0.02984109386548411 0.03409090909090909 0.03547671840354767 0.035846267553584624 0.03288987435328899 0.033074648928307464 0.03547671840354767 0.035384331116038434 0.03436807095343681 0.035753880266075386 0.03288987435328899 0.035846267553584624 0.039634146341463415 0.03593865484109387 0.035291943828529196 0.03556910569105691 0.0331670362158167 0.02559127864005913 0.022080561714708055 0.02032520325203252 0.017645971914264598 0.01662971175166297 0.014504804138950481 0.011271249076127124 0.008314855875831485 0.007483370288248337 0.007206208425720621 0.006189948263118995 0.004896526237989652 0.004804138950480414 0.004896526237989652 0.004804138950480414 0.004619364375461937 0.00508130081300813 0.0032335550628233554 0.0032335550628233554 0.0029563932002956393 0.0033259423503325942 0.0028640059127864005 0.003695491500369549 0.0019401330376940134 0.002402069475240207 0.0023096821877309683 0.0012010347376201036 0.0011086474501108647 0.0006467110125646711 0.0002771618625277162 0.0003695491500369549 0.0003695491500369549 9.238728750923873e-05 9.238728750923873e-05 9.238728750923873e-05 0.0001506931886678722 0.0001506931886678722 0.0001506931886678722 0.0001506931886678722 0.0003013863773357444 0.014165159734779989 0.016726943942133816 0.016877637130801686 0.017932489451476793 0.01702833031946956 0.01642555756479807 0.013863773357444244 0.017179023508137433 0.014466546112115732 0.012658227848101266 0.016576250753465943 0.016576250753465943 0.014617239300783605 0.017480409885473176 0.019288728149487643 0.02396021699819168 0.03601567209162146 0.03285111512959614 0.036317058468957206 0.036317058468957206 0.04113924050632911 0.037823990355635925 0.04159132007233273 0.04144062688366486 0.04234478601567209 0.028330319469559977 0.022754671488848705 0.024261603375527425 0.021850512356841472 0.025617842073538274 0.021398432790837855 0.02335744424352019 0.02471368294153104 0.02365883062085594 0.02365883062085594 0.021850512356841472 0.022754671488848705 0.02365883062085594 0.025015069318866788 0.021247739602169982 0.015973477998794453 0.00889089813140446 0.005877034358047016 0.002561784207353828 0.0 0.0 0.0 0.0 0.0 0.0 0.0 0.0 0.0 0.0 0.0 0.0 0.0 0.0 0.0 0.0 0.0 0.0 0.0 0.0 0.0 0.0 0.0 0.0 0.0 0.0 0.0 0.0 0.0 0.0 0.0 0.0 0.0 0.0 0.0 0.0 0.0 0.0 0.0 0.0 </TABLE>
    </DEFINITION>
    <DEFINITION>
      <FOR>latency_slo</FOR>
      <TABLE>0.6199312714776632 0.38006872852233675 </TABLE>
    </DEFINITION>
    <DEFINITION>
      <FOR>memory</FOR>
      <GIVEN>device_type</GIVEN>
      <TABLE>0.0 0.0 1.0 0.0 0.0 1.0 0.0 1.0 0.0 1.0 0.0 0.0 </TABLE>
    </DEFINITION>
  </NETWORK>
</BIF>
