<?xml version='1.0' encoding='utf-8'?>
<BIF VERSION="0.3">
  <NETWORK>
    <NAME>Consumer_B</NAME>
    <VARIABLE TYPE="nature">
      <NAME>consumption</NAME>
      <OUTCOME>7</OUTCOME>
      <OUTCOME>22</OUTCOME>
      <OUTCOME>88</OUTCOME>
      <PROPERTY>weight = None</PROPERTY>
    </VARIABLE>
    <VARIABLE TYPE="nature">
      <NAME>cpu</NAME>
      <OUTCOME>15</OUTCOME>
      <OUTCOME>20</OUTCOME>
      <OUTCOME>25</OUTCOME>
      <PROPERTY>weight = None</PROPERTY>
    </VARIABLE>
    <VARIABLE TYPE="nature">
      <NAME>device_type</NAME>
      <OUTCOME>Orin</OUTCOME>
      <OUTCOME>Laptop</OUTCOME>
      <OUTCOME>PC</OUTCOME>
      <PROPERTY>weight = None</PROPERTY>
    </VARIABLE>
    <VARIABLE TYPE="nature">
      <NAME>latency</NAME>
      <OUTCOME>12</OUTCOME>
      <OUTCOME>13</OUTCOME>
      <OUTCOME>14</OUTCOME>
      <OUTCOME>15</OUTCOME>
      <OUTCOME>16</OUTCOME>
      <OUTCOME>17</OUTCOME>
      <OUTCOME>18</OUTCOME>
      <OUTCOME>19</OUTCOME>
      <OUTCOME>20</OUTCOME>
      <OUTCOME>21</OUTCOME>
      <OUTCOME>22</OUTCOME>
      <OUTCOME>23</OUTCOME>
      <OUTCOME>24</OUTCOME>
      <OUTCOME>25</OUTCOME>
      <OUTCOME>26</OUTCOME>
      <OUTCOME>27</OUTCOME>
      <OUTCOME>28</OUTCOME>
      <OUTCOME>29</OUTCOME>
      <OUTCOME>30</OUTCOME>
      <OUTCOME>31</OUTCOME>
      <OUTCOME>32</OUTCOME>
      <OUTCOME>33</OUTCOME>
      <OUTCOME>34</OUTCOME>
      <OUTCOME>35</OUTCOME>
      <OUTCOME>36</OUTCOME>
      <OUTCOME>37</OUTCOME>
      <OUTCOME>38</OUTCOME>
      <OUTCOME>39</OUTCOME>
      <OUTCOME>40</OUTCOME>
      <OUTCOME>41</OUTCOME>
      <OUTCOME>42</OUTCOME>
      <OUTCOME>43</OUTCOME>
      <OUTCOME>44</OUTCOME>
      <OUTCOME>45</OUTCOME>
      <OUTCOME>46</OUTCOME>
      <OUTCOME>47</OUTCOME>
      <OUTCOME>48</OUTCOME>
      <OUTCOME>49</OUTCOME>
      <OUTCOME>50</OUTCOME>
      <OUTCOME>51</OUTCOME>
      <OUTCOME>52</OUTCOME>
      <OUTCOME>53</OUTCOME>
      <OUTCOME>54</OUTCOME>
      <OUTCOME>55</OUTCOME>
      <OUTCOME>56</OUTCOME>
      <OUTCOME>57</OUTCOME>
      <OUTCOME>58</OUTCOME>
      <OUTCOME>59</OUTCOME>
      <OUTCOME>60</OUTCOME>
      <OUTCOME>61</OUTCOME>
      <OUTCOME>62</OUTCOME>
      <OUTCOME>63</OUTCOME>
      <OUTCOME>65</OUTCOME>
      <OUTCOME>66</OUTCOME>
      <OUTCOME>89</OUTCOME>
      <OUTCOME>109</OUTCOME>
      <OUTCOME>278</OUTCOME>
      <OUTCOME>2401</OUTCOME>
      <PROPERTY>weight = None</PROPERTY>
    </VARIABLE>
    <VARIABLE TYPE="nature">
      <NAME>latency_slo</NAME>
      <OUTCOME>False</OUTCOME>
      <OUTCOME>True</OUTCOME>
      <PROPERTY>weight = None</PROPERTY>
    </VARIABLE>
    <VARIABLE TYPE="nature">
      <NAME>memory</NAME>
      <OUTCOME>20</OUTCOME>
      <OUTCOME>30</OUTCOME>
      <OUTCOME>45</OUTCOME>
      <PROPERTY>weight = None</PROPERTY>
    </VARIABLE>
    <VARIABLE TYPE="nature">
      <NAME>rate</NAME>
      <OUTCOME>15</OUTCOME>
      <OUTCOME>20</OUTCOME>
      <OUTCOME>25</OUTCOME>
      <OUTCOME>30</OUTCOME>
      <OUTCOME>35</OUTCOME>
      <PROPERTY>weight = None</PROPERTY>
    </VARIABLE>
    <VARIABLE TYPE="nature">
      <NAME>rate_slo</NAME>
      <OUTCOME>False</OUTCOME>
      <OUTCOME>True</OUTCOME>
      <PROPERTY>weight = None</PROPERTY>
    </VARIABLE>
    <DEFINITION>
      <FOR>consumption</FOR>
      <GIVEN>device_type</GIVEN>
      <TABLE>1.0 0.0 0.0 0.0 1.0 0.0 0.0 0.0 1.0 </TABLE>
    </DEFINITION>
    <DEFINITION>
      <FOR>cpu</FOR>
      <GIVEN>device_type</GIVEN>
      <TABLE>0.0 0.0 1.0 0.0 1.0 0.0 1.0 0.0 0.0 </TABLE>
    </DEFINITION>
    <DEFINITION>
      <FOR>device_type</FOR>
      <TABLE>0.33 0.33 0.33 </TABLE>
    </DEFINITION>
    <DEFINITION>
      <FOR>latency</FOR>
      <TABLE>0.0004581901489117984 0.0009163802978235968 0.0009163802978235968 0.0002290950744558992 0.0006872852233676976 0.0006872852233676976 0.0002290950744558992 0.0004581901489117984 0.0009163802978235968 0.001145475372279496 0.0006872852233676976 0.001145475372279496 0.009851088201603665 0.01970217640320733 0.02038946162657503 0.029553264604810996 0.03115693012600229 0.03276059564719359 0.030240549828178694 0.03413516609392898 0.03413516609392898 0.03963344788087056 0.04032073310423826 0.04146620847651775 0.03413516609392898 0.03917525773195876 0.04398625429553265 0.03986254295532646 0.038717067583046966 0.04054982817869416 0.04032073310423826 0.04054982817869416 0.044444444444444446 0.03848797250859107 0.04009163802978236 0.04329896907216495 0.03436426116838488 0.026804123711340205 0.022909507445589918 0.015578465063001146 0.010309278350515464 0.007101947308132875 0.006872852233676976 0.004352806414662085 0.0038946162657502864 0.003665521191294387 0.0027491408934707906 0.001145475372279496 0.001145475372279496 0.0006872852233676976 0.0006872852233676976 0.0004581901489117984 0.0006872852233676976 0.0002290950744558992 0.0002290950744558992 0.0002290950744558992 0.0002290950744558992 0.0002290950744558992 </TABLE>
    </DEFINITION>
    <DEFINITION>
      <FOR>latency_slo</FOR>
      <GIVEN>latency</GIVEN>
      <TABLE>0.0 1.0 0.0 1.0 0.0 1.0 0.0 1.0 0.0 1.0 0.0 1.0 0.0 1.0 0.0 1.0 0.0 1.0 0.0 1.0 0.0 1.0 0.0 1.0 0.0 1.0 0.0 1.0 0.0 1.0 0.0 1.0 0.0 1.0 0.0 1.0 0.0 1.0 0.026845637583892617 0.9731543624161074 0.040268456375838924 0.959731543624161 0.08670520231213873 0.9132947976878613 0.09090909090909091 0.9090909090909091 0.11049723756906077 0.8895027624309392 0.12080536912751678 0.8791946308724832 0.10526315789473684 0.8947368421052632 0.13020833333333334 0.8697916666666666 0.12643678160919541 0.8735632183908046 0.05325443786982249 0.9467455621301775 0.0903954802259887 0.9096045197740112 0.13068181818181818 0.8693181818181818 0.1016949152542373 0.8983050847457628 0.14948453608247422 0.8505154639175257 0.13690476190476192 0.8630952380952381 0.10285714285714286 0.8971428571428571 0.08994708994708994 0.91005291005291 0.16 0.84 0.18803418803418803 0.811965811965812 0.19 0.81 0.35294117647058826 0.6470588235294118 0.5111111111111111 0.4888888888888889 0.6129032258064516 0.3870967741935484 0.7 0.3 1.0 0.0 1.0 0.0 1.0 0.0 1.0 0.0 1.0 0.0 1.0 0.0 1.0 0.0 1.0 0.0 1.0 0.0 1.0 0.0 1.0 0.0 1.0 0.0 1.0 0.0 1.0 0.0 1.0 0.0 </TABLE>
    </DEFINITION>
    <DEFINITION>
      <FOR>memory</FOR>
      <GIVEN>device_type</GIVEN>
      <TABLE>0.0 0.0 1.0 0.0 1.0 0.0 1.0 0.0 0.0 </TABLE>
    </DEFINITION>
    <DEFINITION>
      <FOR>rate</FOR>
      <GIVEN>latency_slo</GIVEN>
      <TABLE>0.0074211502782931356 0.3784786641929499 0.19294990723562153 0.20222634508348794 0.2189239332096475 0.22713016204913747 0.1748562467328803 0.20099320439100887 0.19968635650810246 0.1973340303188709 </TABLE>
    </DEFINITION>
    <DEFINITION>
      <FOR>rate_slo</FOR>
      <GIVEN>rate</GIVEN>
      <TABLE>1.0 0.0 1.0 0.0 1.0 0.0 0.0 1.0 0.0 1.0 </TABLE>
    </DEFINITION>
  </NETWORK>
</BIF>
