<?xml version='1.0' encoding='utf-8'?>
<BIF VERSION="0.3">
  <NETWORK>
    <NAME>Consumer_A</NAME>
    <VARIABLE TYPE="nature">
      <NAME>consumption</NAME>
      <OUTCOME>7</OUTCOME>
      <OUTCOME>22</OUTCOME>
      <OUTCOME>88</OUTCOME>
      <PROPERTY>weight = None</PROPERTY>
    </VARIABLE>
    <VARIABLE TYPE="nature">
      <NAME>cpu</NAME>
      <OUTCOME>15</OUTCOME>
      <OUTCOME>20</OUTCOME>
      <OUTCOME>25</OUTCOME>
      <PROPERTY>weight = None</PROPERTY>
    </VARIABLE>
    <VARIABLE TYPE="nature">
      <NAME>device_type</NAME>
      <OUTCOME>Orin</OUTCOME>
      <OUTCOME>Laptop</OUTCOME>
      <OUTCOME>PC</OUTCOME>
      <PROPERTY>weight = None</PROPERTY>
    </VARIABLE>
    <VARIABLE TYPE="nature">
      <NAME>latency</NAME>
      <OUTCOME>13</OUTCOME>
      <OUTCOME>14</OUTCOME>
      <OUTCOME>15</OUTCOME>
      <OUTCOME>16</OUTCOME>
      <OUTCOME>17</OUTCOME>
      <OUTCOME>18</OUTCOME>
      <OUTCOME>19</OUTCOME>
      <OUTCOME>20</OUTCOME>
      <OUTCOME>21</OUTCOME>
      <OUTCOME>22</OUTCOME>
      <OUTCOME>23</OUTCOME>
      <OUTCOME>24</OUTCOME>
      <OUTCOME>25</OUTCOME>
      <OUTCOME>26</OUTCOME>
      <OUTCOME>27</OUTCOME>
      <OUTCOME>28</OUTCOME>
      <OUTCOME>29</OUTCOME>
      <OUTCOME>30</OUTCOME>
      <OUTCOME>31</OUTCOME>
      <OUTCOME>32</OUTCOME>
      <OUTCOME>33</OUTCOME>
      <OUTCOME>34</OUTCOME>
      <OUTCOME>35</OUTCOME>
      <OUTCOME>36</OUTCOME>
      <OUTCOME>37</OUTCOME>
      <OUTCOME>38</OUTCOME>
      <OUTCOME>39</OUTCOME>
      <OUTCOME>40</OUTCOME>
      <OUTCOME>41</OUTCOME>
      <OUTCOME>42</OUTCOME>
      <OUTCOME>43</OUTCOME>
      <OUTCOME>44</OUTCOME>
      <OUTCOME>45</OUTCOME>
      <OUTCOME>46</OUTCOME>
      <OUTCOME>47</OUTCOME>
      <OUTCOME>48</OUTCOME>
      <OUTCOME>49</OUTCOME>
      <OUTCOME>50</OUTCOME>
      <OUTCOME>51</OUTCOME>
      <OUTCOME>52</OUTCOME>
      <OUTCOME>53</OUTCOME>
      <OUTCOME>54</OUTCOME>
      <OUTCOME>55</OUTCOME>
      <OUTCOME>56</OUTCOME>
      <OUTCOME>57</OUTCOME>
      <OUTCOME>58</OUTCOME>
      <OUTCOME>59</OUTCOME>
      <OUTCOME>60</OUTCOME>
      <OUTCOME>61</OUTCOME>
      <OUTCOME>62</OUTCOME>
      <OUTCOME>63</OUTCOME>
      <OUTCOME>66</OUTCOME>
      <OUTCOME>67</OUTCOME>
      <OUTCOME>96</OUTCOME>
      <OUTCOME>98</OUTCOME>
      <OUTCOME>264</OUTCOME>
      <OUTCOME>2383</OUTCOME>
      <PROPERTY>weight = None</PROPERTY>
    </VARIABLE>
    <VARIABLE TYPE="nature">
      <NAME>latency_slo</NAME>
      <OUTCOME>False</OUTCOME>
      <OUTCOME>True</OUTCOME>
      <PROPERTY>weight = None</PROPERTY>
    </VARIABLE>
    <VARIABLE TYPE="nature">
      <NAME>memory</NAME>
      <OUTCOME>20</OUTCOME>
      <OUTCOME>30</OUTCOME>
      <OUTCOME>45</OUTCOME>
      <PROPERTY>weight = None</PROPERTY>
    </VARIABLE>
    <VARIABLE TYPE="nature">
      <NAME>size</NAME>
      <OUTCOME>480</OUTCOME>
      <OUTCOME>720</OUTCOME>
      <OUTCOME>1080</OUTCOME>
      <PROPERTY>weight = None</PROPERTY>
    </VARIABLE>
    <VARIABLE TYPE="nature">
      <NAME>size_slo</NAME>
      <OUTCOME>False</OUTCOME>
      <OUTCOME>True</OUTCOME>
      <PROPERTY>weight = None</PROPERTY>
    </VARIABLE>
    <DEFINITION>
      <FOR>consumption</FOR>
      <GIVEN>device_type</GIVEN>
      <TABLE>1.0 0.0 0.0 0.0 1.0 0.0 0.0 0.0 1.0 </TABLE>
    </DEFINITION>
    <DEFINITION>
      <FOR>cpu</FOR>
      <GIVEN>device_type</GIVEN>
      <TABLE>0.0 0.0 1.0 0.0 1.0 0.0 1.0 0.0 0.0 </TABLE>
    </DEFINITION>
    <DEFINITION>
      <FOR>device_type</FOR>
      <TABLE>0.33 0.33 0.33 </TABLE>
    </DEFINITION>
    <DEFINITION>
      <FOR>latency</FOR>
      <GIVEN>size</GIVEN>
      <TABLE>0.0 0.0 0.0 0.0 0.0 0.0 0.0 0.0 0.0 0.0006872852233676976 0.004810996563573883 0.015807560137457044 0.030927835051546393 0.02611683848797251 0.02611683848797251 0.032989690721649485 0.02268041237113402 0.03573883161512027 0.03436426116838488 0.03711340206185567 0.03711340206185567 0.04192439862542955 0.03986254295532646 0.05223367697594502 0.04192439862542955 0.03436426116838488 0.03986254295532646 0.04398625429553265 0.04054982817869416 0.03505154639175258 0.04536082474226804 0.04054982817869416 0.03917525773195876 0.04261168384879725 0.03367697594501718 0.04054982817869416 0.027491408934707903 0.010996563573883162 0.013058419243986255 0.009621993127147767 0.006185567010309278 0.0027491408934707906 0.006185567010309278 0.0013745704467353953 0.0027491408934707906 0.0027491408934707906 0.0 0.0006872852233676976 0.0 0.0 0.0 0.0 0.0 0.0 0.0 0.0 0.0 0.0 0.0 0.0 0.0 0.0 0.0 0.0 0.0 0.0 0.0 0.0013745704467353953 0.004123711340206186 0.024054982817869417 0.024054982817869417 0.03436426116838488 0.028178694158075602 0.03986254295532646 0.03505154639175258 0.0288659793814433 0.04742268041237113 0.03367697594501718 0.03161512027491409 0.03848797250859107 0.03573883161512027 0.03848797250859107 0.04398625429553265 0.03917525773195876 0.03711340206185567 0.054982817869415807 0.03711340206185567 0.041237113402061855 0.03917525773195876 0.04261168384879725 0.03917525773195876 0.04192439862542955 0.03436426116838488 0.03711340206185567 0.016494845360824743 0.01168384879725086 0.009621993127147767 0.004810996563573883 0.004810996563573883 0.0027491408934707906 0.003436426116838488 0.002061855670103093 0.0006872852233676976 0.0013745704467353953 0.0027491408934707906 0.002061855670103093 0.0006872852233676976 0.0006872852233676976 0.0 0.0006872852233676976 0.0006872852233676976 0.0006872852233676976 0.0006872852233676976 0.0 0.0013745704467353953 0.0027491408934707906 0.0013745704467353953 0.002061855670103093 0.0013745704467353953 0.002061855670103093 0.0013745704467353953 0.0006872852233676976 0.002061855670103093 0.004123711340206186 0.006185567010309278 0.006872852233676976 0.006185567010309278 0.010996563573883162 0.02542955326460481 0.030240549828178694 0.03436426116838488 0.032989690721649485 0.03505154639175258 0.036426116838487975 0.03986254295532646 0.03917525773195876 0.03986254295532646 0.03711340206185567 0.036426116838487975 0.03711340206185567 0.03505154639175258 0.03986254295532646 0.036426116838487975 0.032989690721649485 0.03573883161512027 0.03917525773195876 0.03917525773195876 0.02611683848797251 0.04329896907216495 0.03711340206185567 0.036426116838487975 0.04398625429553265 0.027491408934707903 0.010309278350515464 0.01168384879725086 0.006872852233676976 0.002061855670103093 0.006185567010309278 0.004810996563573883 0.0027491408934707906 0.0027491408934707906 0.0006872852233676976 0.0027491408934707906 0.0006872852233676976 0.0 0.0013745704467353953 0.0 0.0 0.0 0.0 0.0006872852233676976 </TABLE>
    </DEFINITION>
    <DEFINITION>
      <FOR>latency_slo</FOR>
      <TABLE>0.0004581901489117984 0.9995418098510882 </TABLE>
    </DEFINITION>
    <DEFINITION>
      <FOR>memory</FOR>
      <GIVEN>device_type</GIVEN>
      <TABLE>0.0 0.0 1.0 0.0 1.0 0.0 1.0 0.0 0.0 </TABLE>
    </DEFINITION>
    <DEFINITION>
      <FOR>size</FOR>
      <GIVEN>size_slo</GIVEN>
      <TABLE>1.0 0.0 0.0 0.0 0.5 0.5 </TABLE>
    </DEFINITION>
    <DEFINITION>
      <FOR>size_slo</FOR>
      <TABLE>0.3333333333333333 0.6666666666666666 </TABLE>
    </DEFINITION>
  </NETWORK>
</BIF>
