<?xml version='1.0' encoding='utf-8'?>
<BIF VERSION="0.3">
  <NETWORK>
    <NAME>Traffic Prediction</NAME>
    <VARIABLE TYPE="nature">
      <NAME>consumption</NAME>
      <OUTCOME>6</OUTCOME>
      <OUTCOME>7</OUTCOME>
      <PROPERTY>weight = None</PROPERTY>
    </VARIABLE>
    <VARIABLE TYPE="nature">
      <NAME>cpu</NAME>
      <OUTCOME>10</OUTCOME>
      <OUTCOME>11</OUTCOME>
      <OUTCOME>12</OUTCOME>
      <OUTCOME>13</OUTCOME>
      <OUTCOME>14</OUTCOME>
      <OUTCOME>15</OUTCOME>
      <OUTCOME>16</OUTCOME>
      <OUTCOME>17</OUTCOME>
      <OUTCOME>18</OUTCOME>
      <OUTCOME>19</OUTCOME>
      <OUTCOME>20</OUTCOME>
      <OUTCOME>21</OUTCOME>
      <OUTCOME>22</OUTCOME>
      <OUTCOME>23</OUTCOME>
      <OUTCOME>24</OUTCOME>
      <OUTCOME>25</OUTCOME>
      <OUTCOME>26</OUTCOME>
      <OUTCOME>27</OUTCOME>
      <OUTCOME>28</OUTCOME>
      <OUTCOME>29</OUTCOME>
      <OUTCOME>30</OUTCOME>
      <OUTCOME>31</OUTCOME>
      <OUTCOME>32</OUTCOME>
      <OUTCOME>33</OUTCOME>
      <OUTCOME>34</OUTCOME>
      <OUTCOME>35</OUTCOME>
      <OUTCOME>36</OUTCOME>
      <OUTCOME>37</OUTCOME>
      <OUTCOME>38</OUTCOME>
      <OUTCOME>39</OUTCOME>
      <OUTCOME>40</OUTCOME>
      <OUTCOME>41</OUTCOME>
      <OUTCOME>42</OUTCOME>
      <OUTCOME>43</OUTCOME>
      <OUTCOME>44</OUTCOME>
      <OUTCOME>45</OUTCOME>
      <OUTCOME>46</OUTCOME>
      <OUTCOME>47</OUTCOME>
      <OUTCOME>48</OUTCOME>
      <OUTCOME>50</OUTCOME>
      <OUTCOME>51</OUTCOME>
      <OUTCOME>52</OUTCOME>
      <OUTCOME>54</OUTCOME>
      <OUTCOME>55</OUTCOME>
      <OUTCOME>57</OUTCOME>
      <OUTCOME>59</OUTCOME>
      <OUTCOME>79</OUTCOME>
      <PROPERTY>weight = None</PROPERTY>
    </VARIABLE>
    <VARIABLE TYPE="nature">
      <NAME>cumm_net_delay</NAME>
      <OUTCOME>38</OUTCOME>
      <OUTCOME>39</OUTCOME>
      <OUTCOME>40</OUTCOME>
      <OUTCOME>41</OUTCOME>
      <OUTCOME>42</OUTCOME>
      <OUTCOME>43</OUTCOME>
      <OUTCOME>44</OUTCOME>
      <OUTCOME>45</OUTCOME>
      <OUTCOME>46</OUTCOME>
      <OUTCOME>47</OUTCOME>
      <OUTCOME>48</OUTCOME>
      <OUTCOME>49</OUTCOME>
      <OUTCOME>50</OUTCOME>
      <OUTCOME>51</OUTCOME>
      <OUTCOME>52</OUTCOME>
      <OUTCOME>53</OUTCOME>
      <OUTCOME>54</OUTCOME>
      <OUTCOME>55</OUTCOME>
      <OUTCOME>56</OUTCOME>
      <OUTCOME>57</OUTCOME>
      <OUTCOME>58</OUTCOME>
      <OUTCOME>59</OUTCOME>
      <OUTCOME>60</OUTCOME>
      <OUTCOME>61</OUTCOME>
      <OUTCOME>68</OUTCOME>
      <PROPERTY>weight = None</PROPERTY>
    </VARIABLE>
    <VARIABLE TYPE="nature">
      <NAME>cumm_net_delay_True</NAME>
      <OUTCOME>False</OUTCOME>
      <OUTCOME>True</OUTCOME>
      <PROPERTY>weight = None</PROPERTY>
    </VARIABLE>
    <VARIABLE TYPE="nature">
      <NAME>delta</NAME>
      <OUTCOME>28</OUTCOME>
      <OUTCOME>29</OUTCOME>
      <OUTCOME>30</OUTCOME>
      <OUTCOME>31</OUTCOME>
      <OUTCOME>32</OUTCOME>
      <OUTCOME>33</OUTCOME>
      <OUTCOME>34</OUTCOME>
      <OUTCOME>35</OUTCOME>
      <OUTCOME>36</OUTCOME>
      <OUTCOME>37</OUTCOME>
      <OUTCOME>38</OUTCOME>
      <OUTCOME>39</OUTCOME>
      <OUTCOME>40</OUTCOME>
      <OUTCOME>41</OUTCOME>
      <OUTCOME>42</OUTCOME>
      <OUTCOME>43</OUTCOME>
      <OUTCOME>44</OUTCOME>
      <OUTCOME>45</OUTCOME>
      <OUTCOME>46</OUTCOME>
      <OUTCOME>47</OUTCOME>
      <OUTCOME>48</OUTCOME>
      <OUTCOME>49</OUTCOME>
      <OUTCOME>50</OUTCOME>
      <OUTCOME>51</OUTCOME>
      <OUTCOME>58</OUTCOME>
      <PROPERTY>weight = None</PROPERTY>
    </VARIABLE>
    <VARIABLE TYPE="nature">
      <NAME>device_type</NAME>
      <OUTCOME>Orin</OUTCOME>
      <PROPERTY>weight = None</PROPERTY>
    </VARIABLE>
    <VARIABLE TYPE="nature">
      <NAME>fps</NAME>
      <OUTCOME>15</OUTCOME>
      <OUTCOME>20</OUTCOME>
      <OUTCOME>25</OUTCOME>
      <OUTCOME>30</OUTCOME>
      <OUTCOME>35</OUTCOME>
      <PROPERTY>weight = None</PROPERTY>
    </VARIABLE>
    <VARIABLE TYPE="nature">
      <NAME>gpu</NAME>
      <OUTCOME>30</OUTCOME>
      <OUTCOME>40</OUTCOME>
      <OUTCOME>65</OUTCOME>
      <OUTCOME>75</OUTCOME>
      <OUTCOME>80</OUTCOME>
      <PROPERTY>weight = None</PROPERTY>
    </VARIABLE>
    <VARIABLE TYPE="nature">
      <NAME>memory</NAME>
      <OUTCOME>71</OUTCOME>
      <OUTCOME>72</OUTCOME>
      <PROPERTY>weight = None</PROPERTY>
    </VARIABLE>
    <VARIABLE TYPE="nature">
      <NAME>pixel</NAME>
      <OUTCOME>480</OUTCOME>
      <OUTCOME>720</OUTCOME>
      <OUTCOME>1080</OUTCOME>
      <PROPERTY>weight = None</PROPERTY>
    </VARIABLE>
    <DEFINITION>
      <FOR>consumption</FOR>
      <TABLE>0.9873968835930339 0.012603116406966087 </TABLE>
    </DEFINITION>
    <DEFINITION>
      <FOR>cpu</FOR>
      <GIVEN>consumption</GIVEN>
      <TABLE>0.00023207240659085636 0.0004641448131817127 0.000696217219772569 0.004409375725226271 0.0074263170109074034 0.008354606637270829 0.01902993734045022 0.023439313065676492 0.046878626131352984 0.027152471571130193 0.0568577396147598 0.05360872592248782 0.0494314226038524 0.06985379438384776 0.04270132281271757 0.12508702715247158 0.06683685309816663 0.0568577396147598 0.06846135994430262 0.056161522394987236 0.05569737758180553 0.04061267115339986 0.035739150614991874 0.031329774889765606 0.020654444186586216 0.01462056161522395 0.006962172197725691 0.0030169412856811324 0.0025527964724994198 0.002784868879090276 0.002088651659317707 0.0 0.0 0.0 0.0 0.0 0.0 0.0 0.0 0.0 0.0 0.0 0.0 0.0 0.0 0.0 0.0 0.0 0.0 0.0 0.0 0.0 0.0 0.0 0.0 0.0 0.0 0.0 0.0 0.0 0.0 0.0 0.0 0.0 0.0 0.0 0.0 0.0 0.0 0.0 0.0 0.0 0.0 0.0 0.0 0.0 0.0 0.09090909090909091 0.07272727272727272 0.09090909090909091 0.05454545454545454 0.07272727272727272 0.10909090909090909 0.07272727272727272 0.01818181818181818 0.10909090909090909 0.05454545454545454 0.05454545454545454 0.03636363636363636 0.03636363636363636 0.03636363636363636 0.05454545454545454 0.01818181818181818 0.01818181818181818 </TABLE>
    </DEFINITION>
    <DEFINITION>
      <FOR>cumm_net_delay</FOR>
      <GIVEN>delta</GIVEN>
      <TABLE>1.0 0.0 0.0 0.0 0.0 0.0 0.0 0.0 0.0 0.0 0.0 0.0 0.0 0.0 0.0 0.0 0.0 0.0 0.0 0.0 0.0 0.0 0.0 0.0 0.0 0.0 1.0 0.0 0.0 0.0 0.0 0.0 0.0 0.0 0.0 0.0 0.0 0.0 0.0 0.0 0.0 0.0 0.0 0.0 0.0 0.0 0.0 0.0 0.0 0.0 0.0 0.0 1.0 0.0 0.0 0.0 0.0 0.0 0.0 0.0 0.0 0.0 0.0 0.0 0.0 0.0 0.0 0.0 0.0 0.0 0.0 0.0 0.0 0.0 0.0 0.0 0.0 0.0 1.0 0.0 0.0 0.0 0.0 0.0 0.0 0.0 0.0 0.0 0.0 0.0 0.0 0.0 0.0 0.0 0.0 0.0 0.0 0.0 0.0 0.0 0.0 0.0 0.0 0.0 1.0 0.0 0.0 0.0 0.0 0.0 0.0 0.0 0.0 0.0 0.0 0.0 0.0 0.0 0.0 0.0 0.0 0.0 0.0 0.0 0.0 0.0 0.0 0.0 0.0 0.0 1.0 0.0 0.0 0.0 0.0 0.0 0.0 0.0 0.0 0.0 0.0 0.0 0.0 0.0 0.0 0.0 0.0 0.0 0.0 0.0 0.0 0.0 0.0 0.0 0.0 0.0 1.0 0.0 0.0 0.0 0.0 0.0 0.0 0.0 0.0 0.0 0.0 0.0 0.0 0.0 0.0 0.0 0.0 0.0 0.0 0.0 0.0 0.0 0.0 0.0 0.0 0.0 1.0 0.0 0.0 0.0 0.0 0.0 0.0 0.0 0.0 0.0 0.0 0.0 0.0 0.0 0.0 0.0 0.0 0.0 0.0 0.0 0.0 0.0 0.0 0.0 0.0 0.0 1.0 0.0 0.0 0.0 0.0 0.0 0.0 0.0 0.0 0.0 0.0 0.0 0.0 0.0 0.0 0.0 0.0 0.0 0.0 0.0 0.0 0.0 0.0 0.0 0.0 0.0 1.0 0.0 0.0 0.0 0.0 0.0 0.0 0.0 0.0 0.0 0.0 0.0 0.0 0.0 0.0 0.0 0.0 0.0 0.0 0.0 0.0 0.0 0.0 0.0 0.0 0.0 1.0 0.0 0.0 0.0 0.0 0.0 0.0 0.0 0.0 0.0 0.0 0.0 0.0 0.0 0.0 0.0 0.0 0.0 0.0 0.0 0.0 0.0 0.0 0.0 0.0 0.0 1.0 0.0 0.0 0.0 0.0 0.0 0.0 0.0 0.0 0.0 0.0 0.0 0.0 0.0 0.0 0.0 0.0 0.0 0.0 0.0 0.0 0.0 0.0 0.0 0.0 0.0 1.0 0.0 0.0 0.0 0.0 0.0 0.0 0.0 0.0 0.0 0.0 0.0 0.0 0.0 0.0 0.0 0.0 0.0 0.0 0.0 0.0 0.0 0.0 0.0 0.0 0.0 1.0 0.0 0.0 0.0 0.0 0.0 0.0 0.0 0.0 0.0 0.0 0.0 0.0 0.0 0.0 0.0 0.0 0.0 0.0 0.0 0.0 0.0 0.0 0.0 0.0 0.0 1.0 0.0 0.0 0.0 0.0 0.0 0.0 0.0 0.0 0.0 0.0 0.0 0.0 0.0 0.0 0.0 0.0 0.0 0.0 0.0 0.0 0.0 0.0 0.0 0.0 0.0 1.0 0.0 0.0 0.0 0.0 0.0 0.0 0.0 0.0 0.0 0.0 0.0 0.0 0.0 0.0 0.0 0.0 0.0 0.0 0.0 0.0 0.0 0.0 0.0 0.0 0.0 1.0 0.0 0.0 0.0 0.0 0.0 0.0 0.0 0.0 0.0 0.0 0.0 0.0 0.0 0.0 0.0 0.0 0.0 0.0 0.0 0.0 0.0 0.0 0.0 0.0 0.0 1.0 0.0 0.0 0.0 0.0 0.0 0.0 0.0 0.0 0.0 0.0 0.0 0.0 0.0 0.0 0.0 0.0 0.0 0.0 0.0 0.0 0.0 0.0 0.0 0.0 0.0 1.0 0.0 0.0 0.0 0.0 0.0 0.0 0.0 0.0 0.0 0.0 0.0 0.0 0.0 0.0 0.0 0.0 0.0 0.0 0.0 0.0 0.0 0.0 0.0 0.0 0.0 1.0 0.0 0.0 0.0 0.0 0.0 0.0 0.0 0.0 0.0 0.0 0.0 0.0 0.0 0.0 0.0 0.0 0.0 0.0 0.0 0.0 0.0 0.0 0.0 0.0 0.0 1.0 0.0 0.0 0.0 0.0 0.0 0.0 0.0 0.0 0.0 0.0 0.0 0.0 0.0 0.0 0.0 0.0 0.0 0.0 0.0 0.0 0.0 0.0 0.0 0.0 0.0 1.0 0.0 0.0 0.0 0.0 0.0 0.0 0.0 0.0 0.0 0.0 0.0 0.0 0.0 0.0 0.0 0.0 0.0 0.0 0.0 0.0 0.0 0.0 0.0 0.0 0.0 1.0 0.0 0.0 0.0 0.0 0.0 0.0 0.0 0.0 0.0 0.0 0.0 0.0 0.0 0.0 0.0 0.0 0.0 0.0 0.0 0.0 0.0 0.0 0.0 0.0 0.0 1.0 0.0 0.0 0.0 0.0 0.0 0.0 0.0 0.0 0.0 0.0 0.0 0.0 0.0 0.0 0.0 0.0 0.0 0.0 0.0 0.0 0.0 0.0 0.0 0.0 0.0 1.0 </TABLE>
    </DEFINITION>
    <DEFINITION>
      <FOR>cumm_net_delay_True</FOR>
      <GIVEN>delta</GIVEN>
      <TABLE>0.0 1.0 0.0 1.0 0.0 1.0 0.0 1.0 0.0 1.0 0.0 1.0 0.0 1.0 0.0 1.0 0.0 1.0 0.0 1.0 0.0 1.0 0.0 1.0 0.0 1.0 1.0 0.0 1.0 0.0 1.0 0.0 1.0 0.0 1.0 0.0 1.0 0.0 1.0 0.0 1.0 0.0 1.0 0.0 1.0 0.0 1.0 0.0 1.0 0.0 </TABLE>
    </DEFINITION>
    <DEFINITION>
      <FOR>delta</FOR>
      <GIVEN>gpu</GIVEN>
      <GIVEN>pixel</GIVEN>
      <TABLE>0.06872852233676977 0.3539518900343643 0.4020618556701031 0.03436426116838488 0.041237113402061855 0.06529209621993128 0.020618556701030927 0.006872852233676976 0.0 0.003436426116838488 0.003436426116838488 0.0 0.0 0.0 0.0 0.0 0.0 0.0 0.0 0.0 0.0 0.0 0.0 0.0 0.0 0.0 0.0 0.0 0.03436426116838488 0.08934707903780069 0.2920962199312715 0.24054982817869416 0.07903780068728522 0.2027491408934708 0.03436426116838488 0.003436426116838488 0.0 0.013745704467353952 0.010309278350515464 0.0 0.0 0.0 0.0 0.0 0.0 0.0 0.0 0.0 0.0 0.0 0.0 0.0 0.0 0.0 0.0 0.0 0.0 0.0 0.0 0.0 0.041379310344827586 0.07586206896551724 0.30344827586206896 0.3586206896551724 0.1413793103448276 0.041379310344827586 0.017241379310344827 0.006896551724137931 0.006896551724137931 0.0034482758620689655 0.0 0.0 0.0 0.0 0.0034482758620689655 0.013745704467353952 0.21993127147766323 0.46048109965635736 0.2508591065292096 0.037800687285223365 0.006872852233676976 0.003436426116838488 0.006872852233676976 0.0 0.0 0.0 0.0 0.0 0.0 0.0 0.0 0.0 0.0 0.0 0.0 0.0 0.0 0.0 0.0 0.0 0.0 0.0 0.0 0.010309278350515464 0.06529209621993128 0.2646048109965636 0.3161512027491409 0.16838487972508592 0.07903780068728522 0.054982817869415807 0.037800687285223365 0.0 0.003436426116838488 0.0 0.0 0.0 0.0 0.0 0.0 0.0 0.0 0.0 0.0 0.0 0.0 0.0 0.0 0.0 0.0 0.0 0.0 0.0 0.0 0.0 0.0 0.0 0.0 0.0 0.010309278350515464 0.03436426116838488 0.10309278350515463 0.2268041237113402 0.3161512027491409 0.19243986254295534 0.0859106529209622 0.027491408934707903 0.003436426116838488 0.0 0.0 0.0 0.07216494845360824 0.17525773195876287 0.21305841924398625 0.10309278350515463 0.15463917525773196 0.15120274914089346 0.10996563573883161 0.01718213058419244 0.003436426116838488 0.0 0.0 0.0 0.0 0.0 0.0 0.0 0.0 0.0 0.0 0.0 0.0 0.0 0.0 0.0 0.0 0.0 0.0 0.0 0.044673539518900345 0.15120274914089346 0.10652920962199312 0.09278350515463918 0.1134020618556701 0.19243986254295534 0.18900343642611683 0.07903780068728522 0.030927835051546393 0.0 0.0 0.0 0.0 0.0 0.0 0.0 0.0 0.0 0.0 0.0 0.0 0.0 0.0 0.0 0.0 0.0 0.0 0.0 0.0 0.0 0.0 0.0 0.024054982817869417 0.061855670103092786 0.044673539518900345 0.024054982817869417 0.010309278350515464 0.08247422680412371 0.14776632302405499 0.16151202749140894 0.23024054982817868 0.14432989690721648 0.037800687285223365 0.030927835051546393 0.0 0.0 0.0 0.06872852233676977 0.2027491408934708 0.14776632302405499 0.06872852233676977 0.058419243986254296 0.15807560137457044 0.15120274914089346 0.1134020618556701 0.027491408934707903 0.003436426116838488 0.0 0.0 0.0 0.0 0.0 0.0 0.0 0.0 0.0 0.0 0.0 0.0 0.0 0.0 0.0 0.0 0.0 0.0 0.020618556701030927 0.16494845360824742 0.19931271477663232 0.054982817869415807 0.024054982817869417 0.048109965635738834 0.1718213058419244 0.14432989690721648 0.07903780068728522 0.054982817869415807 0.013745704467353952 0.01718213058419244 0.006872852233676976 0.0 0.0 0.0 0.0 0.0 0.0 0.0 0.0 0.0 0.0 0.0 0.0 0.0 0.0 0.0 0.0 0.0 0.0 0.0 0.006872852233676976 0.048109965635738834 0.06529209621993128 0.020618556701030927 0.037800687285223365 0.061855670103092786 0.16151202749140894 0.13058419243986255 0.20618556701030927 0.14432989690721648 0.0859106529209622 0.027491408934707903 0.0 0.003436426116838488 0.0 0.041237113402061855 0.20618556701030927 0.15120274914089346 0.09278350515463918 0.027491408934707903 0.08247422680412371 0.13058419243986255 0.10996563573883161 0.06872852233676977 0.048109965635738834 0.03436426116838488 0.006872852233676976 0.0 0.0 0.0 0.0 0.0 0.0 0.0 0.0 0.0 0.0 0.0 0.0 0.0 0.0 0.0 0.0 0.044673539518900345 0.16838487972508592 0.1718213058419244 0.07903780068728522 0.020618556701030927 0.030927835051546393 0.09965635738831616 0.15807560137457044 0.13058419243986255 0.054982817869415807 0.03436426116838488 0.006872852233676976 0.0 0.0 0.0 0.0 0.0 0.0 0.0 0.0 0.0 0.0 0.0 0.0 0.0 0.0 0.0 0.0 0.0 0.0 0.0 0.0 0.037800687285223365 0.030927835051546393 0.030927835051546393 0.024054982817869417 0.013745704467353952 0.041237113402061855 0.16494845360824742 0.18213058419243985 0.19931271477663232 0.15463917525773196 0.06529209621993128 0.041237113402061855 0.010309278350515464 0.003436426116838488 0.0 </TABLE>
    </DEFINITION>
    <DEFINITION>
      <FOR>device_type</FOR>
      <TABLE>1.0 </TABLE>
    </DEFINITION>
    <DEFINITION>
      <FOR>fps</FOR>
      <GIVEN>gpu</GIVEN>
      <TABLE>1.0 0.0 0.0 0.0 0.0 0.0 1.0 0.0 0.0 0.0 0.0 0.0 1.0 0.0 0.0 0.0 0.0 0.0 1.0 0.0 0.0 0.0 0.0 0.0 1.0 </TABLE>
    </DEFINITION>
    <DEFINITION>
      <FOR>gpu</FOR>
      <GIVEN>cpu</GIVEN>
      <TABLE>1.0 0.0 0.0 0.0 0.0 0.5 0.0 0.5 0.0 0.0 1.0 0.0 0.0 0.0 0.0 0.9473684210526315 0.0 0.05263157894736842 0.0 0.0 0.9375 0.03125 0.0 0.0 0.03125 0.9722222222222222 0.0 0.027777777777777776 0.0 0.0 0.8780487804878049 0.0975609756097561 0.024390243902439025 0.0 0.0 0.900990099009901 0.06930693069306931 0.0 0.019801980198019802 0.009900990099009901 0.7227722772277227 0.1782178217821782 0.0594059405940594 0.019801980198019802 0.019801980198019802 0.6923076923076923 0.23931623931623933 0.02564102564102564 0.02564102564102564 0.017094017094017096 0.746938775510204 0.10612244897959183 0.053061224489795916 0.044897959183673466 0.04897959183673469 0.2813852813852814 0.47186147186147187 0.12121212121212122 0.06493506493506493 0.06060606060606061 0.3286384976525822 0.215962441314554 0.20187793427230047 0.11267605633802817 0.14084507042253522 0.12292358803986711 0.49169435215946844 0.18272425249169436 0.11627906976744186 0.08637873754152824 0.08152173913043478 0.2608695652173913 0.28804347826086957 0.16304347826086957 0.20652173913043478 0.022263450834879406 0.3339517625231911 0.29684601113172543 0.18181818181818182 0.16512059369202226 0.0 0.2916666666666667 0.25 0.2361111111111111 0.2222222222222222 0.00816326530612245 0.1469387755102041 0.37142857142857144 0.22448979591836735 0.24897959183673468 0.0 0.15593220338983052 0.25084745762711863 0.30847457627118646 0.2847457627118644 0.0 0.08264462809917356 0.2727272727272727 0.2603305785123967 0.384297520661157 0.0 0.09583333333333334 0.24583333333333332 0.3333333333333333 0.325 0.005714285714285714 0.04 0.2914285714285714 0.3142857142857143 0.3485714285714286 0.012987012987012988 0.01948051948051948 0.17532467532467533 0.37662337662337664 0.4155844155844156 0.007407407407407408 0.007407407407407408 0.15555555555555556 0.45185185185185184 0.37777777777777777 0.011235955056179775 0.02247191011235955 0.20224719101123595 0.3595505617977528 0.4044943820224719 0.015873015873015872 0.031746031746031744 0.12698412698412698 0.42857142857142855 0.3968253968253968 0.0 0.03333333333333333 0.13333333333333333 0.5 0.3333333333333333 0.0 0.07692307692307693 0.07692307692307693 0.46153846153846156 0.38461538461538464 0.0 0.0 0.09090909090909091 0.45454545454545453 0.45454545454545453 0.0 0.08333333333333333 0.08333333333333333 0.4166666666666667 0.4166666666666667 0.0 0.21428571428571427 0.07142857142857142 0.5 0.21428571428571427 0.25 0.0 0.25 0.0 0.5 0.2 0.2 0.0 0.4 0.2 0.0 0.0 0.3333333333333333 0.6666666666666666 0.0 0.0 0.25 0.0 0.75 0.0 0.0 0.3333333333333333 0.0 0.5 0.16666666666666666 0.0 0.25 0.25 0.5 0.0 0.0 0.0 0.0 1.0 0.0 0.0 0.16666666666666666 0.0 0.5 0.3333333333333333 0.0 0.0 0.0 0.6666666666666666 0.3333333333333333 0.0 0.0 0.6666666666666666 0.3333333333333333 0.0 0.0 0.0 0.5 0.5 0.0 0.0 0.0 0.0 0.5 0.5 0.5 0.0 0.0 0.5 0.0 0.3333333333333333 0.0 0.0 0.0 0.6666666666666666 0.0 0.0 0.0 1.0 0.0 0.0 0.0 0.0 0.0 1.0 </TABLE>
    </DEFINITION>
    <DEFINITION>
      <FOR>memory</FOR>
      <GIVEN>cumm_net_delay</GIVEN>
      <GIVEN>gpu</GIVEN>
      <TABLE>0.0 1.0 0.0 1.0 0.0 1.0 0.0 1.0 0.0 1.0 0.0 1.0 0.0 1.0 0.0 1.0 0.0 1.0 0.0 1.0 0.0 1.0 0.0 1.0 0.0 1.0 0.0 1.0 0.0 1.0 0.0 1.0 0.0 1.0 0.0 1.0 0.0 1.0 0.0 1.0 0.0 1.0 0.0 1.0 0.0 1.0 0.0 1.0 0.0 1.0 0.0 1.0 0.0 1.0 0.0 1.0 0.0 1.0 0.0 1.0 0.0 1.0 0.0 1.0 0.0 1.0 0.0 1.0 0.0 1.0 0.0 1.0 0.0 1.0 0.0 1.0 0.0 1.0 0.0 1.0 0.0 1.0 0.0 1.0 0.0 1.0 0.0 1.0 0.0 1.0 0.0 1.0 0.0 1.0 0.0 1.0 0.0 1.0 0.0 1.0 0.8571428571428571 0.14285714285714285 0.0 1.0 0.0 1.0 0.0 1.0 0.0 1.0 1.0 0.0 0.5 0.5 0.0 1.0 0.0 1.0 0.0 1.0 0.9565217391304348 0.043478260869565216 0.0 1.0 0.0 1.0 0.0 1.0 0.0 1.0 0.9719626168224299 0.028037383177570093 0.0 1.0 0.0 1.0 0.0 1.0 0.0 1.0 1.0 0.0 0.0 1.0 0.0 1.0 0.0 1.0 0.0 1.0 1.0 0.0 0.0 1.0 0.0 1.0 0.0 1.0 0.0 1.0 1.0 0.0 0.0 1.0 0.0 1.0 0.0 1.0 0.0 1.0 1.0 0.0 0.0 1.0 0.0 1.0 0.0 1.0 0.0 1.0 1.0 0.0 0.0 1.0 0.0 1.0 0.0 1.0 0.0 1.0 1.0 0.0 0.0 1.0 0.0 1.0 0.0 1.0 0.0 1.0 0.5 0.5 0.0 1.0 0.0 1.0 0.0 1.0 0.0 1.0 0.5 0.5 0.0 1.0 0.0 1.0 0.0 1.0 0.0 1.0 0.5 0.5 0.5 0.5 0.5 0.5 0.5 0.5 0.0 1.0 0.5 0.5 0.5 0.5 0.5 0.5 0.0 1.0 0.0 1.0 1.0 0.0 0.5 0.5 0.5 0.5 0.5 0.5 0.5 0.5 </TABLE>
    </DEFINITION>
    <DEFINITION>
      <FOR>pixel</FOR>
      <GIVEN>cpu</GIVEN>
      <GIVEN>gpu</GIVEN>
      <TABLE>1.0 0.0 0.0 0.3333333333333333 0.3333333333333333 0.3333333333333333 0.3333333333333333 0.3333333333333333 0.3333333333333333 0.3333333333333333 0.3333333333333333 0.3333333333333333 0.3333333333333333 0.3333333333333333 0.3333333333333333 0.0 0.0 1.0 0.3333333333333333 0.3333333333333333 0.3333333333333333 1.0 0.0 0.0 0.3333333333333333 0.3333333333333333 0.3333333333333333 0.3333333333333333 0.3333333333333333 0.3333333333333333 1.0 0.0 0.0 0.3333333333333333 0.3333333333333333 0.3333333333333333 0.3333333333333333 0.3333333333333333 0.3333333333333333 0.3333333333333333 0.3333333333333333 0.3333333333333333 0.3333333333333333 0.3333333333333333 0.3333333333333333 0.5555555555555556 0.05555555555555555 0.3888888888888889 0.3333333333333333 0.3333333333333333 0.3333333333333333 1.0 0.0 0.0 0.3333333333333333 0.3333333333333333 0.3333333333333333 0.3333333333333333 0.3333333333333333 0.3333333333333333 0.6 0.3 0.1 0.0 0.0 1.0 0.3333333333333333 0.3333333333333333 0.3333333333333333 0.3333333333333333 0.3333333333333333 0.3333333333333333 0.0 0.0 1.0 0.2857142857142857 0.11428571428571428 0.6 0.3333333333333333 0.3333333333333333 0.3333333333333333 0.0 0.0 1.0 0.3333333333333333 0.3333333333333333 0.3333333333333333 0.3333333333333333 0.3333333333333333 0.3333333333333333 0.625 0.25 0.125 0.375 0.0 0.625 0.5 0.0 0.5 0.3333333333333333 0.3333333333333333 0.3333333333333333 0.3333333333333333 0.3333333333333333 0.3333333333333333 0.3516483516483517 0.17582417582417584 0.4725274725274725 0.14285714285714285 0.0 0.8571428571428571 0.3333333333333333 0.3333333333333333 0.3333333333333333 0.5 0.0 0.5 0.0 0.0 1.0 0.4383561643835616 0.3493150684931507 0.21232876712328766 0.7777777777777778 0.08333333333333333 0.1388888888888889 0.25 0.0 0.75 0.0 0.0 1.0 0.0 0.0 1.0 0.2345679012345679 0.2345679012345679 0.5308641975308642 0.5357142857142857 0.03571428571428571 0.42857142857142855 0.3333333333333333 0.3333333333333333 0.3333333333333333 0.0 0.0 1.0 0.0 0.0 1.0 0.2677595628415301 0.3551912568306011 0.3770491803278688 0.5769230769230769 0.038461538461538464 0.38461538461538464 0.46153846153846156 0.07692307692307693 0.46153846153846156 0.45454545454545453 0.0 0.5454545454545454 0.0 0.0 1.0 0.27692307692307694 0.49230769230769234 0.23076923076923078 0.48623853211009177 0.22018348623853212 0.29357798165137616 0.4642857142857143 0.03571428571428571 0.5 0.06666666666666667 0.0 0.9333333333333333 0.2857142857142857 0.0 0.7142857142857143 0.17142857142857143 0.4 0.42857142857142855 0.1956521739130435 0.1956521739130435 0.6086956521739131 0.4418604651162791 0.13953488372093023 0.4186046511627907 0.125 0.041666666666666664 0.8333333333333334 0.13333333333333333 0.06666666666666667 0.8 0.10810810810810811 0.7567567567567568 0.13513513513513514 0.4189189189189189 0.3310810810810811 0.25 0.45454545454545453 0.09090909090909091 0.45454545454545453 0.22857142857142856 0.08571428571428572 0.6857142857142857 0.15384615384615385 0.11538461538461539 0.7307692307692307 0.06666666666666667 0.5333333333333333 0.4 0.2708333333333333 0.1875 0.5416666666666666 0.41509433962264153 0.24528301886792453 0.33962264150943394 0.3333333333333333 0.1 0.5666666666666667 0.3157894736842105 0.07894736842105263 0.6052631578947368 0.08333333333333333 0.8333333333333334 0.08333333333333333 0.2611111111111111 0.4888888888888889 0.25 0.4 0.21875 0.38125 0.25510204081632654 0.1326530612244898 0.6122448979591837 0.2696629213483146 0.15730337078651685 0.5730337078651685 0.3333333333333333 0.3333333333333333 0.3333333333333333 0.19047619047619047 0.5 0.30952380952380953 0.4305555555555556 0.3055555555555556 0.2638888888888889 0.39705882352941174 0.17647058823529413 0.4264705882352941 0.390625 0.125 0.484375 0.5 0.5 0.0 0.2222222222222222 0.3611111111111111 0.4166666666666667 0.2087912087912088 0.34065934065934067 0.45054945054945056 0.2727272727272727 0.10909090909090909 0.6181818181818182 0.14754098360655737 0.22950819672131148 0.6229508196721312 0.3333333333333333 0.3333333333333333 0.3333333333333333 0.17391304347826086 0.41304347826086957 0.41304347826086957 0.3918918918918919 0.32432432432432434 0.28378378378378377 0.2857142857142857 0.31868131868131866 0.3956043956043956 0.27380952380952384 0.4523809523809524 0.27380952380952384 0.3333333333333333 0.3333333333333333 0.3333333333333333 0.15 0.5 0.35 0.24242424242424243 0.48484848484848486 0.2727272727272727 0.4603174603174603 0.31746031746031744 0.2222222222222222 0.4731182795698925 0.3225806451612903 0.20430107526881722 0.3333333333333333 0.3333333333333333 0.3333333333333333 0.08695652173913043 0.6521739130434783 0.2608695652173913 0.1864406779661017 0.4915254237288136 0.3220338983050847 0.475 0.3625 0.1625 0.5128205128205128 0.358974358974359 0.1282051282051282 1.0 0.0 0.0 0.2857142857142857 0.2857142857142857 0.42857142857142855 0.21568627450980393 0.5882352941176471 0.19607843137254902 0.3090909090909091 0.5818181818181818 0.10909090909090909 0.3442622950819672 0.45901639344262296 0.19672131147540983 0.0 0.0 1.0 0.0 0.6666666666666666 0.3333333333333333 0.14814814814814814 0.7407407407407407 0.1111111111111111 0.3793103448275862 0.5517241379310345 0.06896551724137931 0.34375 0.5625 0.09375 1.0 0.0 0.0 0.0 0.0 1.0 0.2857142857142857 0.6190476190476191 0.09523809523809523 0.45901639344262296 0.5081967213114754 0.03278688524590164 0.37254901960784315 0.6078431372549019 0.0196078431372549 0.0 0.0 1.0 1.0 0.0 0.0 0.2222222222222222 0.7777777777777778 0.0 0.34375 0.625 0.03125 0.3333333333333333 0.6666666666666666 0.0 0.0 0.0 1.0 0.0 0.5 0.5 0.25 0.625 0.125 0.4444444444444444 0.5555555555555556 0.0 0.52 0.48 0.0 0.3333333333333333 0.3333333333333333 0.3333333333333333 1.0 0.0 0.0 0.0 1.0 0.0 0.2 0.7333333333333333 0.06666666666666667 0.2 0.8 0.0 0.3333333333333333 0.3333333333333333 0.3333333333333333 0.0 0.0 1.0 1.0 0.0 0.0 0.8333333333333334 0.16666666666666666 0.0 0.8 0.2 0.0 0.3333333333333333 0.3333333333333333 0.3333333333333333 0.3333333333333333 0.3333333333333333 0.3333333333333333 0.0 1.0 0.0 0.0 0.8 0.2 0.4 0.4 0.2 0.3333333333333333 0.3333333333333333 0.3333333333333333 0.0 1.0 0.0 0.0 0.0 1.0 0.4 0.6 0.0 0.4 0.4 0.2 0.3333333333333333 0.3333333333333333 0.3333333333333333 0.3333333333333333 0.3333333333333333 0.3333333333333333 0.0 1.0 0.0 0.0 1.0 0.0 0.6666666666666666 0.3333333333333333 0.0 0.0 0.0 1.0 0.3333333333333333 0.3333333333333333 0.3333333333333333 0.0 0.0 1.0 0.3333333333333333 0.3333333333333333 0.3333333333333333 0.0 0.5 0.5 0.0 0.0 1.0 0.0 0.0 1.0 0.3333333333333333 0.3333333333333333 0.3333333333333333 0.0 1.0 0.0 0.0 1.0 0.0 0.3333333333333333 0.3333333333333333 0.3333333333333333 0.3333333333333333 0.3333333333333333 0.3333333333333333 0.0 1.0 0.0 0.0 1.0 0.0 0.3333333333333333 0.3333333333333333 0.3333333333333333 0.3333333333333333 0.3333333333333333 0.3333333333333333 0.0 0.0 1.0 0.3333333333333333 0.3333333333333333 0.3333333333333333 0.0 1.0 0.0 0.3333333333333333 0.3333333333333333 0.3333333333333333 0.3333333333333333 0.3333333333333333 0.3333333333333333 1.0 0.0 0.0 0.3333333333333333 0.3333333333333333 0.3333333333333333 0.3333333333333333 0.6666666666666666 0.0 1.0 0.0 0.0 0.3333333333333333 0.3333333333333333 0.3333333333333333 0.0 0.0 1.0 0.0 1.0 0.0 0.0 1.0 0.0 0.3333333333333333 0.3333333333333333 0.3333333333333333 0.3333333333333333 0.3333333333333333 0.3333333333333333 0.3333333333333333 0.3333333333333333 0.3333333333333333 0.3333333333333333 0.3333333333333333 0.3333333333333333 0.0 1.0 0.0 0.3333333333333333 0.3333333333333333 0.3333333333333333 0.3333333333333333 0.3333333333333333 0.3333333333333333 0.0 1.0 0.0 0.3333333333333333 0.3333333333333333 0.3333333333333333 0.0 1.0 0.0 0.0 1.0 0.0 0.3333333333333333 0.3333333333333333 0.3333333333333333 0.3333333333333333 0.3333333333333333 0.3333333333333333 0.3333333333333333 0.3333333333333333 0.3333333333333333 0.5 0.5 0.0 0.0 1.0 0.0 0.3333333333333333 0.3333333333333333 0.3333333333333333 0.3333333333333333 0.3333333333333333 0.3333333333333333 0.5 0.5 0.0 0.0 1.0 0.0 0.3333333333333333 0.3333333333333333 0.3333333333333333 0.3333333333333333 0.3333333333333333 0.3333333333333333 0.3333333333333333 0.3333333333333333 0.3333333333333333 0.0 0.0 1.0 0.0 0.0 1.0 0.3333333333333333 0.3333333333333333 0.3333333333333333 0.3333333333333333 0.3333333333333333 0.3333333333333333 0.3333333333333333 0.3333333333333333 0.3333333333333333 0.3333333333333333 0.3333333333333333 0.3333333333333333 0.0 1.0 0.0 0.0 0.0 1.0 0.0 1.0 0.0 0.3333333333333333 0.3333333333333333 0.3333333333333333 0.3333333333333333 0.3333333333333333 0.3333333333333333 1.0 0.0 0.0 0.3333333333333333 0.3333333333333333 0.3333333333333333 1.0 0.0 0.0 0.3333333333333333 0.3333333333333333 0.3333333333333333 0.3333333333333333 0.3333333333333333 0.3333333333333333 0.3333333333333333 0.3333333333333333 0.3333333333333333 0.5 0.5 0.0 0.3333333333333333 0.3333333333333333 0.3333333333333333 0.3333333333333333 0.3333333333333333 0.3333333333333333 0.3333333333333333 0.3333333333333333 0.3333333333333333 0.0 1.0 0.0 0.3333333333333333 0.3333333333333333 0.3333333333333333 0.3333333333333333 0.3333333333333333 0.3333333333333333 0.3333333333333333 0.3333333333333333 0.3333333333333333 0.3333333333333333 0.3333333333333333 0.3333333333333333 0.3333333333333333 0.3333333333333333 0.3333333333333333 1.0 0.0 0.0 </TABLE>
    </DEFINITION>
  </NETWORK>
</BIF>
