<?xml version='1.0' encoding='utf-8'?>
<BIF VERSION="0.3">
  <NETWORK>
    <NAME>Analysis</NAME>
    <VARIABLE TYPE="nature">
      <NAME>consumption</NAME>
      <OUTCOME>6</OUTCOME>
      <OUTCOME>7</OUTCOME>
      <PROPERTY>weight = None</PROPERTY>
    </VARIABLE>
    <VARIABLE TYPE="nature">
      <NAME>cpu</NAME>
      <OUTCOME>10</OUTCOME>
      <OUTCOME>11</OUTCOME>
      <OUTCOME>12</OUTCOME>
      <OUTCOME>13</OUTCOME>
      <OUTCOME>14</OUTCOME>
      <OUTCOME>15</OUTCOME>
      <OUTCOME>16</OUTCOME>
      <OUTCOME>17</OUTCOME>
      <OUTCOME>18</OUTCOME>
      <OUTCOME>19</OUTCOME>
      <OUTCOME>20</OUTCOME>
      <OUTCOME>21</OUTCOME>
      <OUTCOME>22</OUTCOME>
      <OUTCOME>23</OUTCOME>
      <OUTCOME>24</OUTCOME>
      <OUTCOME>25</OUTCOME>
      <OUTCOME>26</OUTCOME>
      <OUTCOME>27</OUTCOME>
      <OUTCOME>28</OUTCOME>
      <OUTCOME>29</OUTCOME>
      <OUTCOME>30</OUTCOME>
      <OUTCOME>31</OUTCOME>
      <OUTCOME>32</OUTCOME>
      <OUTCOME>33</OUTCOME>
      <OUTCOME>34</OUTCOME>
      <OUTCOME>35</OUTCOME>
      <OUTCOME>36</OUTCOME>
      <OUTCOME>37</OUTCOME>
      <OUTCOME>38</OUTCOME>
      <OUTCOME>39</OUTCOME>
      <OUTCOME>40</OUTCOME>
      <OUTCOME>41</OUTCOME>
      <OUTCOME>42</OUTCOME>
      <OUTCOME>43</OUTCOME>
      <OUTCOME>44</OUTCOME>
      <OUTCOME>45</OUTCOME>
      <OUTCOME>46</OUTCOME>
      <OUTCOME>47</OUTCOME>
      <OUTCOME>48</OUTCOME>
      <OUTCOME>50</OUTCOME>
      <OUTCOME>51</OUTCOME>
      <OUTCOME>52</OUTCOME>
      <OUTCOME>54</OUTCOME>
      <OUTCOME>55</OUTCOME>
      <OUTCOME>57</OUTCOME>
      <OUTCOME>59</OUTCOME>
      <OUTCOME>79</OUTCOME>
      <PROPERTY>weight = None</PROPERTY>
    </VARIABLE>
    <VARIABLE TYPE="nature">
      <NAME>cumm_net_delay</NAME>
      <OUTCOME>38</OUTCOME>
      <OUTCOME>39</OUTCOME>
      <OUTCOME>40</OUTCOME>
      <OUTCOME>41</OUTCOME>
      <OUTCOME>42</OUTCOME>
      <OUTCOME>43</OUTCOME>
      <OUTCOME>44</OUTCOME>
      <OUTCOME>45</OUTCOME>
      <OUTCOME>46</OUTCOME>
      <OUTCOME>47</OUTCOME>
      <OUTCOME>48</OUTCOME>
      <OUTCOME>49</OUTCOME>
      <OUTCOME>50</OUTCOME>
      <OUTCOME>51</OUTCOME>
      <OUTCOME>52</OUTCOME>
      <OUTCOME>53</OUTCOME>
      <OUTCOME>54</OUTCOME>
      <OUTCOME>55</OUTCOME>
      <OUTCOME>56</OUTCOME>
      <OUTCOME>57</OUTCOME>
      <OUTCOME>58</OUTCOME>
      <OUTCOME>59</OUTCOME>
      <OUTCOME>60</OUTCOME>
      <OUTCOME>61</OUTCOME>
      <OUTCOME>68</OUTCOME>
      <PROPERTY>weight = None</PROPERTY>
    </VARIABLE>
    <VARIABLE TYPE="nature">
      <NAME>delta</NAME>
      <OUTCOME>28</OUTCOME>
      <OUTCOME>29</OUTCOME>
      <OUTCOME>30</OUTCOME>
      <OUTCOME>31</OUTCOME>
      <OUTCOME>32</OUTCOME>
      <OUTCOME>33</OUTCOME>
      <OUTCOME>34</OUTCOME>
      <OUTCOME>35</OUTCOME>
      <OUTCOME>36</OUTCOME>
      <OUTCOME>37</OUTCOME>
      <OUTCOME>38</OUTCOME>
      <OUTCOME>39</OUTCOME>
      <OUTCOME>40</OUTCOME>
      <OUTCOME>41</OUTCOME>
      <OUTCOME>42</OUTCOME>
      <OUTCOME>43</OUTCOME>
      <OUTCOME>44</OUTCOME>
      <OUTCOME>45</OUTCOME>
      <OUTCOME>46</OUTCOME>
      <OUTCOME>47</OUTCOME>
      <OUTCOME>48</OUTCOME>
      <OUTCOME>49</OUTCOME>
      <OUTCOME>50</OUTCOME>
      <OUTCOME>51</OUTCOME>
      <OUTCOME>58</OUTCOME>
      <PROPERTY>weight = None</PROPERTY>
    </VARIABLE>
    <VARIABLE TYPE="nature">
      <NAME>energy</NAME>
      <OUTCOME>6</OUTCOME>
      <OUTCOME>7</OUTCOME>
      <PROPERTY>weight = None</PROPERTY>
    </VARIABLE>
    <VARIABLE TYPE="nature">
      <NAME>fps</NAME>
      <OUTCOME>15</OUTCOME>
      <OUTCOME>20</OUTCOME>
      <OUTCOME>25</OUTCOME>
      <OUTCOME>30</OUTCOME>
      <OUTCOME>35</OUTCOME>
      <PROPERTY>weight = None</PROPERTY>
    </VARIABLE>
    <VARIABLE TYPE="nature">
      <NAME>gpu</NAME>
      <OUTCOME>30</OUTCOME>
      <OUTCOME>40</OUTCOME>
      <OUTCOME>65</OUTCOME>
      <OUTCOME>75</OUTCOME>
      <OUTCOME>80</OUTCOME>
      <PROPERTY>weight = None</PROPERTY>
    </VARIABLE>
    <VARIABLE TYPE="nature">
      <NAME>memory</NAME>
      <OUTCOME>71</OUTCOME>
      <OUTCOME>72</OUTCOME>
      <PROPERTY>weight = None</PROPERTY>
    </VARIABLE>
    <VARIABLE TYPE="nature">
      <NAME>pixel</NAME>
      <OUTCOME>480</OUTCOME>
      <OUTCOME>720</OUTCOME>
      <OUTCOME>1080</OUTCOME>
      <PROPERTY>weight = None</PROPERTY>
    </VARIABLE>
    <VARIABLE TYPE="nature">
      <NAME>viewer_satisfaction</NAME>
      <OUTCOME>480</OUTCOME>
      <OUTCOME>720</OUTCOME>
      <OUTCOME>1080</OUTCOME>
      <PROPERTY>weight = None</PROPERTY>
    </VARIABLE>
    <DEFINITION>
      <FOR>consumption</FOR>
      <GIVEN>cpu</GIVEN>
      <TABLE>1.0 0.0 1.0 0.0 1.0 0.0 1.0 0.0 1.0 0.0 1.0 0.0 1.0 0.0 1.0 0.0 1.0 0.0 1.0 0.0 1.0 0.0 1.0 0.0 1.0 0.0 1.0 0.0 1.0 0.0 1.0 0.0 1.0 0.0 1.0 0.0 1.0 0.0 1.0 0.0 1.0 0.0 1.0 0.0 1.0 0.0 1.0 0.0 1.0 0.0 1.0 0.0 1.0 0.0 1.0 0.0 1.0 0.0 1.0 0.0 0.5454545454545454 0.45454545454545453 0.0 1.0 0.0 1.0 0.0 1.0 0.0 1.0 0.0 1.0 0.0 1.0 0.0 1.0 0.0 1.0 0.0 1.0 0.0 1.0 0.0 1.0 0.0 1.0 0.0 1.0 0.0 1.0 0.0 1.0 0.0 1.0 </TABLE>
    </DEFINITION>
    <DEFINITION>
      <FOR>cpu</FOR>
      <GIVEN>fps</GIVEN>
      <GIVEN>pixel</GIVEN>
      <TABLE>0.004016064257028112 0.0 0.012048192771084338 0.03614457831325301 0.0642570281124498 0.03614457831325301 0.1566265060240964 0.10441767068273092 0.21686746987951808 0.0642570281124498 0.1686746987951807 0.060240963855421686 0.03614457831325301 0.01606425702811245 0.004016064257028112 0.004016064257028112 0.0 0.004016064257028112 0.0 0.0 0.0 0.004016064257028112 0.0 0.004016064257028112 0.0 0.0 0.0 0.0 0.0 0.0 0.0 0.0 0.0 0.0 0.0 0.0 0.0 0.0 0.0 0.0 0.0 0.0 0.0 0.0 0.004016064257028112 0.0 0.0 0.0 0.0 0.0 0.004329004329004329 0.030303030303030304 0.004329004329004329 0.06493506493506493 0.06060606060606061 0.19047619047619047 0.06060606060606061 0.21212121212121213 0.10822510822510822 0.09956709956709957 0.09523809523809523 0.021645021645021644 0.03896103896103896 0.0 0.004329004329004329 0.0 0.0 0.0 0.0 0.0 0.0 0.0 0.0 0.0 0.0 0.0 0.0 0.0 0.0 0.0 0.0 0.0 0.0 0.0 0.0 0.0 0.0 0.0 0.0 0.0 0.004329004329004329 0.0 0.0 0.0 0.0 0.004201680672268907 0.0 0.025210084033613446 0.012605042016806723 0.06722689075630252 0.03361344537815126 0.14705882352941177 0.1134453781512605 0.14705882352941177 0.2184873949579832 0.0546218487394958 0.10504201680672269 0.02100840336134454 0.02100840336134454 0.004201680672268907 0.0 0.0 0.0 0.0 0.0 0.0 0.008403361344537815 0.0 0.004201680672268907 0.004201680672268907 0.0 0.0 0.0 0.0 0.0 0.004201680672268907 0.004201680672268907 0.0 0.0 0.0 0.0 0.0 0.0 0.0 0.0 0.0 0.0 0.0 0.0 0.0 0.0 0.0 0.0 0.0 0.0 0.0 0.0 0.00823045267489712 0.00411522633744856 0.08641975308641975 0.04938271604938271 0.05761316872427984 0.20164609053497942 0.024691358024691357 0.20987654320987653 0.04938271604938271 0.16049382716049382 0.053497942386831275 0.02880658436213992 0.02880658436213992 0.012345679012345678 0.0 0.00823045267489712 0.0 0.0 0.00411522633744856 0.0 0.00411522633744856 0.0 0.0 0.0 0.0 0.0 0.0 0.0 0.0 0.00823045267489712 0.0 0.0 0.0 0.0 0.0 0.0 0.0 0.0 0.0 0.0 0.0 0.0 0.0 0.0 0.0 0.0 0.0 0.0 0.0 0.012096774193548387 0.004032258064516129 0.0 0.07661290322580645 0.03225806451612903 0.1814516129032258 0.036290322580645164 0.29435483870967744 0.15725806451612903 0.036290322580645164 0.06451612903225806 0.024193548387096774 0.05241935483870968 0.008064516129032258 0.008064516129032258 0.0 0.0 0.0 0.0 0.0 0.0 0.004032258064516129 0.004032258064516129 0.0 0.0 0.0 0.0 0.0 0.0 0.0 0.004032258064516129 0.0 0.0 0.0 0.0 0.0 0.0 0.0 0.0 0.0 0.0 0.0 0.0 0.0 0.0 0.0199203187250996 0.02390438247011952 0.01593625498007968 0.027888446215139442 0.035856573705179286 0.11155378486055777 0.08764940239043825 0.11553784860557768 0.08764940239043825 0.16334661354581673 0.09561752988047809 0.055776892430278883 0.06772908366533864 0.027888446215139442 0.02390438247011952 0.01195219123505976 0.00398406374501992 0.00398406374501992 0.0 0.00398406374501992 0.0 0.00398406374501992 0.0 0.0 0.00398406374501992 0.0 0.00398406374501992 0.0 0.0 0.0 0.00398406374501992 0.0 0.0 0.0 0.0 0.0 0.0 0.0 0.0 0.0 0.0 0.0 0.00411522633744856 0.0 0.00411522633744856 0.0 0.0 0.0 0.0 0.012345679012345678 0.00411522633744856 0.0205761316872428 0.0411522633744856 0.06995884773662552 0.09053497942386832 0.07407407407407407 0.23868312757201646 0.09876543209876543 0.06584362139917696 0.08641975308641975 0.04938271604938271 0.0411522633744856 0.02880658436213992 0.01646090534979424 0.024691358024691357 0.01646090534979424 0.00823045267489712 0.0 0.0 0.0 0.0 0.0 0.0 0.0 0.0 0.0 0.0 0.0 0.0 0.0 0.0 0.00411522633744856 0.0 0.0 0.0 0.0 0.0 0.0 0.0 0.0 0.0 0.0 0.0 0.0 0.0 0.0 0.0 0.0038461538461538464 0.0038461538461538464 0.0038461538461538464 0.023076923076923078 0.019230769230769232 0.04230769230769231 0.11923076923076924 0.08076923076923077 0.09615384615384616 0.08461538461538462 0.11538461538461539 0.09615384615384616 0.1 0.06923076923076923 0.046153846153846156 0.046153846153846156 0.015384615384615385 0.015384615384615385 0.0 0.0038461538461538464 0.0 0.0038461538461538464 0.0 0.0 0.0038461538461538464 0.0 0.0 0.0038461538461538464 0.0 0.0 0.0 0.0038461538461538464 0.0 0.0 0.0 0.0 0.0 0.0 0.0 0.0 0.0 0.0 0.0 0.003861003861003861 0.003861003861003861 0.0 0.03474903474903475 0.003861003861003861 0.015444015444015444 0.05405405405405406 0.0694980694980695 0.09266409266409266 0.05791505791505792 0.22393822393822393 0.05019305019305019 0.1274131274131274 0.07335907335907337 0.05019305019305019 0.0694980694980695 0.03861003861003861 0.011583011583011582 0.007722007722007722 0.0 0.003861003861003861 0.0 0.0 0.0 0.003861003861003861 0.0 0.0 0.0 0.0 0.0 0.0 0.0 0.0 0.0 0.0 0.0 0.003861003861003861 0.0 0.0 0.0 0.0 0.0 0.0 0.0 0.0 0.0 0.0 0.0 0.0 0.00398406374501992 0.0 0.0 0.01593625498007968 0.00398406374501992 0.01195219123505976 0.03187250996015936 0.027888446215139442 0.09561752988047809 0.08764940239043825 0.05179282868525897 0.09163346613545817 0.09561752988047809 0.13545816733067728 0.055776892430278883 0.07171314741035857 0.09163346613545817 0.043824701195219126 0.043824701195219126 0.01195219123505976 0.01593625498007968 0.0 0.00398406374501992 0.0 0.0 0.0 0.0 0.0 0.00398406374501992 0.0 0.0 0.0 0.00398406374501992 0.0 0.0 0.0 0.0 0.0 0.0 0.0 0.0 0.0 0.0 0.0 0.0 0.0 0.0 0.0 0.0 0.0 0.0 0.0 0.004032258064516129 0.008064516129032258 0.008064516129032258 0.05241935483870968 0.04032258064516129 0.024193548387096774 0.0967741935483871 0.06854838709677419 0.09274193548387097 0.12096774193548387 0.11693548387096774 0.10483870967741936 0.06854838709677419 0.04838709677419355 0.036290322580645164 0.004032258064516129 0.016129032258064516 0.008064516129032258 0.020161290322580645 0.0 0.008064516129032258 0.004032258064516129 0.008064516129032258 0.008064516129032258 0.008064516129032258 0.004032258064516129 0.008064516129032258 0.0 0.004032258064516129 0.0 0.004032258064516129 0.0 0.0 0.004032258064516129 0.0 0.0 0.0 0.0 0.0 0.0 0.0 0.0 0.00390625 0.015625 0.01171875 0.01953125 0.04296875 0.05859375 0.078125 0.05859375 0.19140625 0.1015625 0.1171875 0.13671875 0.0546875 0.05078125 0.0234375 0.01171875 0.0078125 0.00390625 0.0 0.00390625 0.0 0.00390625 0.0 0.0 0.0 0.0 0.0 0.0 0.0 0.0 0.0 0.0 0.0 0.0 0.00390625 0.0 0.0 0.0 0.0 0.0 0.0 0.0 0.0 0.0 0.0 0.0 0.0 0.0 0.0 0.0 0.0 0.012 0.012 0.016 0.032 0.092 0.08 0.032 0.092 0.148 0.14 0.068 0.064 0.064 0.044 0.052 0.004 0.016 0.008 0.004 0.008 0.0 0.0 0.0 0.0 0.004 0.0 0.0 0.0 0.0 0.0 0.0 0.0 0.0 0.004 0.0 0.004 0.0 0.0 0.0 0.0 0.0 0.0 0.0 0.0 0.0 0.0 0.0 0.0 0.0040650406504065045 0.008130081300813009 0.012195121951219513 0.056910569105691054 0.028455284552845527 0.044715447154471545 0.13414634146341464 0.1016260162601626 0.1016260162601626 0.08943089430894309 0.12195121951219512 0.1016260162601626 0.09349593495934959 0.04065040650406504 0.02032520325203252 0.0040650406504065045 0.008130081300813009 0.008130081300813009 0.0040650406504065045 0.0 0.0040650406504065045 0.0 0.0 0.0 0.0 0.0 0.008130081300813009 0.0 0.0 0.0 0.0 0.0 0.0040650406504065045 0.0 0.0 0.0 0.0 0.0 0.0 0.0 0.0 0.0 0.00423728813559322 0.012711864406779662 0.00847457627118644 0.038135593220338986 0.03389830508474576 0.07627118644067797 0.0635593220338983 0.08898305084745763 0.1694915254237288 0.11440677966101695 0.1271186440677966 0.08898305084745763 0.06779661016949153 0.03389830508474576 0.038135593220338986 0.01694915254237288 0.00423728813559322 0.0 0.0 0.0 0.0 0.00423728813559322 0.0 0.0 0.00423728813559322 0.0 0.0 0.0 0.0 0.0 0.0 0.0 0.0 0.0 0.0 0.00423728813559322 0.0 0.0 0.0 0.0 </TABLE>
    </DEFINITION>
    <DEFINITION>
      <FOR>cumm_net_delay</FOR>
      <GIVEN>delta</GIVEN>
      <TABLE>1.0 0.0 0.0 0.0 0.0 0.0 0.0 0.0 0.0 0.0 0.0 0.0 0.0 0.0 0.0 0.0 0.0 0.0 0.0 0.0 0.0 0.0 0.0 0.0 0.0 0.0 1.0 0.0 0.0 0.0 0.0 0.0 0.0 0.0 0.0 0.0 0.0 0.0 0.0 0.0 0.0 0.0 0.0 0.0 0.0 0.0 0.0 0.0 0.0 0.0 0.0 0.0 1.0 0.0 0.0 0.0 0.0 0.0 0.0 0.0 0.0 0.0 0.0 0.0 0.0 0.0 0.0 0.0 0.0 0.0 0.0 0.0 0.0 0.0 0.0 0.0 0.0 0.0 1.0 0.0 0.0 0.0 0.0 0.0 0.0 0.0 0.0 0.0 0.0 0.0 0.0 0.0 0.0 0.0 0.0 0.0 0.0 0.0 0.0 0.0 0.0 0.0 0.0 0.0 1.0 0.0 0.0 0.0 0.0 0.0 0.0 0.0 0.0 0.0 0.0 0.0 0.0 0.0 0.0 0.0 0.0 0.0 0.0 0.0 0.0 0.0 0.0 0.0 0.0 0.0 1.0 0.0 0.0 0.0 0.0 0.0 0.0 0.0 0.0 0.0 0.0 0.0 0.0 0.0 0.0 0.0 0.0 0.0 0.0 0.0 0.0 0.0 0.0 0.0 0.0 0.0 1.0 0.0 0.0 0.0 0.0 0.0 0.0 0.0 0.0 0.0 0.0 0.0 0.0 0.0 0.0 0.0 0.0 0.0 0.0 0.0 0.0 0.0 0.0 0.0 0.0 0.0 1.0 0.0 0.0 0.0 0.0 0.0 0.0 0.0 0.0 0.0 0.0 0.0 0.0 0.0 0.0 0.0 0.0 0.0 0.0 0.0 0.0 0.0 0.0 0.0 0.0 0.0 1.0 0.0 0.0 0.0 0.0 0.0 0.0 0.0 0.0 0.0 0.0 0.0 0.0 0.0 0.0 0.0 0.0 0.0 0.0 0.0 0.0 0.0 0.0 0.0 0.0 0.0 1.0 0.0 0.0 0.0 0.0 0.0 0.0 0.0 0.0 0.0 0.0 0.0 0.0 0.0 0.0 0.0 0.0 0.0 0.0 0.0 0.0 0.0 0.0 0.0 0.0 0.0 1.0 0.0 0.0 0.0 0.0 0.0 0.0 0.0 0.0 0.0 0.0 0.0 0.0 0.0 0.0 0.0 0.0 0.0 0.0 0.0 0.0 0.0 0.0 0.0 0.0 0.0 1.0 0.0 0.0 0.0 0.0 0.0 0.0 0.0 0.0 0.0 0.0 0.0 0.0 0.0 0.0 0.0 0.0 0.0 0.0 0.0 0.0 0.0 0.0 0.0 0.0 0.0 1.0 0.0 0.0 0.0 0.0 0.0 0.0 0.0 0.0 0.0 0.0 0.0 0.0 0.0 0.0 0.0 0.0 0.0 0.0 0.0 0.0 0.0 0.0 0.0 0.0 0.0 1.0 0.0 0.0 0.0 0.0 0.0 0.0 0.0 0.0 0.0 0.0 0.0 0.0 0.0 0.0 0.0 0.0 0.0 0.0 0.0 0.0 0.0 0.0 0.0 0.0 0.0 1.0 0.0 0.0 0.0 0.0 0.0 0.0 0.0 0.0 0.0 0.0 0.0 0.0 0.0 0.0 0.0 0.0 0.0 0.0 0.0 0.0 0.0 0.0 0.0 0.0 0.0 1.0 0.0 0.0 0.0 0.0 0.0 0.0 0.0 0.0 0.0 0.0 0.0 0.0 0.0 0.0 0.0 0.0 0.0 0.0 0.0 0.0 0.0 0.0 0.0 0.0 0.0 1.0 0.0 0.0 0.0 0.0 0.0 0.0 0.0 0.0 0.0 0.0 0.0 0.0 0.0 0.0 0.0 0.0 0.0 0.0 0.0 0.0 0.0 0.0 0.0 0.0 0.0 1.0 0.0 0.0 0.0 0.0 0.0 0.0 0.0 0.0 0.0 0.0 0.0 0.0 0.0 0.0 0.0 0.0 0.0 0.0 0.0 0.0 0.0 0.0 0.0 0.0 0.0 1.0 0.0 0.0 0.0 0.0 0.0 0.0 0.0 0.0 0.0 0.0 0.0 0.0 0.0 0.0 0.0 0.0 0.0 0.0 0.0 0.0 0.0 0.0 0.0 0.0 0.0 1.0 0.0 0.0 0.0 0.0 0.0 0.0 0.0 0.0 0.0 0.0 0.0 0.0 0.0 0.0 0.0 0.0 0.0 0.0 0.0 0.0 0.0 0.0 0.0 0.0 0.0 1.0 0.0 0.0 0.0 0.0 0.0 0.0 0.0 0.0 0.0 0.0 0.0 0.0 0.0 0.0 0.0 0.0 0.0 0.0 0.0 0.0 0.0 0.0 0.0 0.0 0.0 1.0 0.0 0.0 0.0 0.0 0.0 0.0 0.0 0.0 0.0 0.0 0.0 0.0 0.0 0.0 0.0 0.0 0.0 0.0 0.0 0.0 0.0 0.0 0.0 0.0 0.0 1.0 0.0 0.0 0.0 0.0 0.0 0.0 0.0 0.0 0.0 0.0 0.0 0.0 0.0 0.0 0.0 0.0 0.0 0.0 0.0 0.0 0.0 0.0 0.0 0.0 0.0 1.0 0.0 0.0 0.0 0.0 0.0 0.0 0.0 0.0 0.0 0.0 0.0 0.0 0.0 0.0 0.0 0.0 0.0 0.0 0.0 0.0 0.0 0.0 0.0 0.0 0.0 1.0 </TABLE>
    </DEFINITION>
    <DEFINITION>
      <FOR>delta</FOR>
      <GIVEN>gpu</GIVEN>
      <GIVEN>pixel</GIVEN>
      <TABLE>0.0642570281124498 0.3453815261044177 0.40562248995983935 0.03614457831325301 0.040160642570281124 0.06827309236947791 0.024096385542168676 0.008032128514056224 0.0 0.004016064257028112 0.004016064257028112 0.0 0.0 0.0 0.0 0.0 0.0 0.0 0.0 0.0 0.0 0.0 0.0 0.0 0.0 0.0 0.0 0.0 0.03896103896103896 0.09090909090909091 0.29004329004329005 0.23809523809523808 0.08225108225108226 0.19047619047619047 0.03463203463203463 0.004329004329004329 0.0 0.017316017316017316 0.012987012987012988 0.0 0.0 0.0 0.0 0.0 0.0 0.0 0.0 0.0 0.0 0.0 0.0 0.0 0.0 0.0 0.0 0.0 0.0 0.0 0.0 0.0 0.037815126050420166 0.07142857142857142 0.29411764705882354 0.3739495798319328 0.14285714285714285 0.04201680672268908 0.01680672268907563 0.004201680672268907 0.008403361344537815 0.004201680672268907 0.0 0.0 0.0 0.0 0.004201680672268907 0.01646090534979424 0.1934156378600823 0.4773662551440329 0.2674897119341564 0.037037037037037035 0.0 0.0 0.00823045267489712 0.0 0.0 0.0 0.0 0.0 0.0 0.0 0.0 0.0 0.0 0.0 0.0 0.0 0.0 0.0 0.0 0.0 0.0 0.0 0.0 0.008064516129032258 0.06854838709677419 0.25806451612903225 0.33064516129032256 0.1532258064516129 0.08870967741935484 0.04838709677419355 0.04435483870967742 0.0 0.0 0.0 0.0 0.0 0.0 0.0 0.0 0.0 0.0 0.0 0.0 0.0 0.0 0.0 0.0 0.0 0.0 0.0 0.0 0.0 0.0 0.0 0.0 0.0 0.0 0.0 0.01195219123505976 0.035856573705179286 0.08764940239043825 0.2151394422310757 0.3426294820717131 0.20318725099601595 0.0796812749003984 0.02390438247011952 0.0 0.0 0.0 0.0 0.07407407407407407 0.18518518518518517 0.2139917695473251 0.102880658436214 0.13580246913580246 0.16049382716049382 0.10699588477366255 0.01646090534979424 0.00411522633744856 0.0 0.0 0.0 0.0 0.0 0.0 0.0 0.0 0.0 0.0 0.0 0.0 0.0 0.0 0.0 0.0 0.0 0.0 0.0 0.038461538461538464 0.1576923076923077 0.11153846153846154 0.09230769230769231 0.1 0.20384615384615384 0.18846153846153846 0.07692307692307693 0.03076923076923077 0.0 0.0 0.0 0.0 0.0 0.0 0.0 0.0 0.0 0.0 0.0 0.0 0.0 0.0 0.0 0.0 0.0 0.0 0.0 0.0 0.0 0.0 0.0 0.02702702702702703 0.06177606177606178 0.04247104247104247 0.02702702702702703 0.011583011583011582 0.0694980694980695 0.14285714285714285 0.15444015444015444 0.24324324324324326 0.14671814671814673 0.04247104247104247 0.03088803088803089 0.0 0.0 0.0 0.05976095617529881 0.1952191235059761 0.1394422310756972 0.0796812749003984 0.05976095617529881 0.1593625498007968 0.1593625498007968 0.11553784860557768 0.027888446215139442 0.00398406374501992 0.0 0.0 0.0 0.0 0.0 0.0 0.0 0.0 0.0 0.0 0.0 0.0 0.0 0.0 0.0 0.0 0.0 0.0 0.016129032258064516 0.1693548387096774 0.1975806451612903 0.056451612903225805 0.028225806451612902 0.056451612903225805 0.1814516129032258 0.14112903225806453 0.06048387096774194 0.05241935483870968 0.012096774193548387 0.020161290322580645 0.008064516129032258 0.0 0.0 0.0 0.0 0.0 0.0 0.0 0.0 0.0 0.0 0.0 0.0 0.0 0.0 0.0 0.0 0.0 0.0 0.0 0.0078125 0.04296875 0.0625 0.0234375 0.0390625 0.06640625 0.16796875 0.12109375 0.2109375 0.14453125 0.08203125 0.03125 0.0 0.0 0.0 0.048 0.196 0.148 0.084 0.024 0.092 0.144 0.108 0.06 0.052 0.036 0.008 0.0 0.0 0.0 0.0 0.0 0.0 0.0 0.0 0.0 0.0 0.0 0.0 0.0 0.0 0.0 0.0 0.04878048780487805 0.15040650406504066 0.17886178861788618 0.07723577235772358 0.02032520325203252 0.028455284552845527 0.10569105691056911 0.16260162601626016 0.13414634146341464 0.044715447154471545 0.04065040650406504 0.008130081300813009 0.0 0.0 0.0 0.0 0.0 0.0 0.0 0.0 0.0 0.0 0.0 0.0 0.0 0.0 0.0 0.0 0.0 0.0 0.0 0.0 0.0423728813559322 0.0211864406779661 0.029661016949152543 0.029661016949152543 0.012711864406779662 0.038135593220338986 0.1694915254237288 0.19491525423728814 0.18220338983050846 0.1483050847457627 0.07203389830508475 0.046610169491525424 0.00847457627118644 0.00423728813559322 0.0 </TABLE>
    </DEFINITION>
    <DEFINITION>
      <FOR>energy</FOR>
      <GIVEN>consumption</GIVEN>
      <TABLE>1.0 0.0 0.0 1.0 </TABLE>
    </DEFINITION>
    <DEFINITION>
      <FOR>fps</FOR>
      <TABLE>0.19358317605823672 0.2000539228902669 0.20544621191695875 0.20355891075761662 0.197357778376921 </TABLE>
    </DEFINITION>
    <DEFINITION>
      <FOR>gpu</FOR>
      <GIVEN>fps</GIVEN>
      <TABLE>1.0 0.0 0.0 0.0 0.0 0.0 1.0 0.0 0.0 0.0 0.0 0.0 1.0 0.0 0.0 0.0 0.0 0.0 1.0 0.0 0.0 0.0 0.0 0.0 1.0 </TABLE>
    </DEFINITION>
    <DEFINITION>
      <FOR>memory</FOR>
      <GIVEN>fps</GIVEN>
      <TABLE>0.33147632311977715 0.6685236768802229 0.0 1.0 0.0 1.0 0.0 1.0 0.0 1.0 </TABLE>
    </DEFINITION>
    <DEFINITION>
      <FOR>pixel</FOR>
      <TABLE>0.3332434618495551 0.33243461849555134 0.3343219196548935 </TABLE>
    </DEFINITION>
    <DEFINITION>
      <FOR>viewer_satisfaction</FOR>
      <GIVEN>pixel</GIVEN>
      <TABLE>1.0 0.0 0.0 0.0 1.0 0.0 0.0 0.0 1.0 </TABLE>
    </DEFINITION>
  </NETWORK>
</BIF>
