<?xml version='1.0' encoding='utf-8'?>
<BIF VERSION="0.3">
  <NETWORK>
    <NAME>UNTITLED</NAME>
    <VARIABLE TYPE="nature">
      <NAME>latency</NAME>
      <OUTCOME>31</OUTCOME>
      <OUTCOME>32</OUTCOME>
      <OUTCOME>33</OUTCOME>
      <OUTCOME>34</OUTCOME>
      <OUTCOME>35</OUTCOME>
      <OUTCOME>36</OUTCOME>
      <OUTCOME>37</OUTCOME>
      <OUTCOME>38</OUTCOME>
      <OUTCOME>39</OUTCOME>
      <OUTCOME>40</OUTCOME>
      <OUTCOME>41</OUTCOME>
      <OUTCOME>42</OUTCOME>
      <OUTCOME>43</OUTCOME>
      <OUTCOME>44</OUTCOME>
      <OUTCOME>45</OUTCOME>
      <OUTCOME>46</OUTCOME>
      <OUTCOME>47</OUTCOME>
      <OUTCOME>48</OUTCOME>
      <OUTCOME>49</OUTCOME>
      <OUTCOME>50</OUTCOME>
      <OUTCOME>51</OUTCOME>
      <OUTCOME>52</OUTCOME>
      <OUTCOME>53</OUTCOME>
      <OUTCOME>54</OUTCOME>
      <OUTCOME>55</OUTCOME>
      <OUTCOME>56</OUTCOME>
      <OUTCOME>57</OUTCOME>
      <OUTCOME>58</OUTCOME>
      <OUTCOME>59</OUTCOME>
      <OUTCOME>60</OUTCOME>
      <OUTCOME>61</OUTCOME>
      <OUTCOME>62</OUTCOME>
      <OUTCOME>63</OUTCOME>
      <OUTCOME>64</OUTCOME>
      <OUTCOME>65</OUTCOME>
      <OUTCOME>66</OUTCOME>
      <OUTCOME>67</OUTCOME>
      <OUTCOME>68</OUTCOME>
      <OUTCOME>69</OUTCOME>
      <OUTCOME>70</OUTCOME>
      <OUTCOME>71</OUTCOME>
      <OUTCOME>72</OUTCOME>
      <OUTCOME>73</OUTCOME>
      <OUTCOME>74</OUTCOME>
      <OUTCOME>75</OUTCOME>
      <OUTCOME>76</OUTCOME>
      <OUTCOME>77</OUTCOME>
      <OUTCOME>78</OUTCOME>
      <OUTCOME>79</OUTCOME>
      <OUTCOME>80</OUTCOME>
      <OUTCOME>81</OUTCOME>
      <OUTCOME>82</OUTCOME>
      <OUTCOME>83</OUTCOME>
      <OUTCOME>84</OUTCOME>
      <OUTCOME>85</OUTCOME>
      <OUTCOME>86</OUTCOME>
      <OUTCOME>87</OUTCOME>
      <OUTCOME>88</OUTCOME>
      <OUTCOME>89</OUTCOME>
      <OUTCOME>90</OUTCOME>
      <OUTCOME>91</OUTCOME>
      <OUTCOME>92</OUTCOME>
      <OUTCOME>93</OUTCOME>
      <OUTCOME>94</OUTCOME>
      <OUTCOME>95</OUTCOME>
      <OUTCOME>96</OUTCOME>
      <OUTCOME>97</OUTCOME>
      <OUTCOME>98</OUTCOME>
      <OUTCOME>99</OUTCOME>
      <OUTCOME>101</OUTCOME>
      <OUTCOME>102</OUTCOME>
      <OUTCOME>104</OUTCOME>
      <OUTCOME>105</OUTCOME>
      <OUTCOME>113</OUTCOME>
      <OUTCOME>114</OUTCOME>
      <OUTCOME>117</OUTCOME>
      <OUTCOME>284</OUTCOME>
      <OUTCOME>2398</OUTCOME>
      <OUTCOME>9834</OUTCOME>
      <OUTCOME>14906</OUTCOME>
      <PROPERTY>weight = None</PROPERTY>
    </VARIABLE>
    <VARIABLE TYPE="nature">
      <NAME>size</NAME>
      <OUTCOME>480</OUTCOME>
      <OUTCOME>720</OUTCOME>
      <OUTCOME>1080</OUTCOME>
      <PROPERTY>weight = None</PROPERTY>
    </VARIABLE>
    <DEFINITION>
      <FOR>latency</FOR>
      <TABLE>0.00013939224979091162 0.0005575689991636465 0.0006969612489545581 0.0004878728742681907 0.0009757457485363814 0.0008363534987454698 0.0004181767493727349 0.00013939224979091162 0.0005575689991636465 0.0006969612489545581 0.00020908837468636745 0.0007666573738500139 0.002578756621131865 0.012336214106495678 0.026763311959855034 0.03442988569835517 0.04216615556175077 0.04293281293560078 0.040702536938946196 0.025717870086423195 0.018887649846668526 0.012196821856704768 0.01582102035126847 0.023069417340395873 0.03143295232785057 0.036241984945637025 0.04976303317535545 0.05485085029272373 0.0515751324226373 0.05596598829105102 0.04683579592974631 0.03540563144689155 0.02516030108725955 0.023626986339559522 0.02815723445776415 0.025229997212155006 0.026902704209645942 0.02662391971006412 0.019027042096459435 0.014218009478672985 0.013102871480345692 0.012754390855868413 0.013172567605241148 0.01031502648452746 0.008642319487036521 0.002509060496236409 0.0019514914970727628 0.0020211876219682185 0.0020211876219682185 0.0013939224979091162 0.0015333147477000278 0.0013939224979091162 0.002578756621131865 0.0029969333705046 0.0036241984945637024 0.0034848062447727906 0.0020211876219682185 0.004599944243100083 0.007178700864231949 0.008572623362141065 0.008921103986618344 0.009548369110677446 0.008084750487872874 0.004739336492890996 0.0030666294954000556 0.0019514914970727628 0.001184834123222749 0.0004878728742681907 0.00027878449958182325 6.969612489545581e-05 6.969612489545581e-05 6.969612489545581e-05 6.969612489545581e-05 6.969612489545581e-05 6.969612489545581e-05 6.969612489545581e-05 6.969612489545581e-05 6.969612489545581e-05 6.969612489545581e-05 6.969612489545581e-05 </TABLE>
    </DEFINITION>
    <DEFINITION>
      <FOR>size</FOR>
      <GIVEN>latency</GIVEN>
      <TABLE>0.0 0.0 1.0 0.0 0.0 1.0 0.0 0.0 1.0 0.0 0.0 1.0 0.0 0.0 1.0 0.0 0.0 1.0 0.0 0.0 1.0 0.0 0.0 1.0 0.0 0.0 1.0 0.0 0.0 1.0 0.0 0.0 1.0 0.45454545454545453 0.0 0.5454545454545454 0.6756756756756757 0.10810810810810811 0.21621621621621623 0.7344632768361582 0.23728813559322035 0.02824858757062147 0.578125 0.3828125 0.0390625 0.4008097165991903 0.4473684210526316 0.15182186234817813 0.3669421487603306 0.3669421487603306 0.26611570247933886 0.3652597402597403 0.349025974025974 0.2857142857142857 0.19863013698630136 0.3955479452054795 0.4058219178082192 0.12737127371273713 0.2791327913279133 0.5934959349593496 0.22140221402214022 0.15867158671586715 0.6199261992619927 0.24 0.35428571428571426 0.4057142857142857 0.1762114537444934 0.6343612334801763 0.1894273127753304 0.09969788519637462 0.7794561933534743 0.12084592145015106 0.05321507760532151 0.8625277161862528 0.08425720620842572 0.03461538461538462 0.9173076923076923 0.04807692307692308 0.022408963585434174 0.9453781512605042 0.03221288515406162 0.01397712833545108 0.940279542566709 0.045743329097839895 0.010810810810810811 0.9256756756756757 0.06351351351351352 0.0062266500622665 0.9240348692403487 0.06973848069738481 0.005952380952380952 0.9181547619047619 0.07589285714285714 0.003937007874015748 0.8956692913385826 0.10039370078740158 0.0 0.7229916897506925 0.2770083102493075 0.0029498525073746312 0.41887905604719766 0.5781710914454278 0.08663366336633663 0.2376237623762376 0.6757425742574258 0.19613259668508287 0.15193370165745856 0.6519337016574586 0.2849740932642487 0.05699481865284974 0.6580310880829016 0.32460732984293195 0.10209424083769633 0.5732984293193717 0.4542124542124542 0.1684981684981685 0.3772893772893773 0.5931372549019608 0.24509803921568626 0.16176470588235295 0.6117021276595744 0.3191489361702128 0.06914893617021277 0.73224043715847 0.22404371584699453 0.04371584699453552 0.6984126984126984 0.26455026455026454 0.037037037037037035 0.8851351351351351 0.10810810810810811 0.006756756756756757 0.9032258064516129 0.07258064516129033 0.024193548387096774 0.4722222222222222 0.4722222222222222 0.05555555555555555 0.10714285714285714 0.75 0.14285714285714285 0.0 0.9310344827586207 0.06896551724137931 0.06896551724137931 0.7931034482758621 0.13793103448275862 0.15 0.65 0.2 0.36363636363636365 0.4090909090909091 0.22727272727272727 0.9 0.1 0.0 0.918918918918919 0.08108108108108109 0.0 0.9534883720930233 0.046511627906976744 0.0 0.9038461538461539 0.07692307692307693 0.019230769230769232 0.88 0.1 0.02 0.6896551724137931 0.3103448275862069 0.0 0.09090909090909091 0.9090909090909091 0.0 0.019417475728155338 0.970873786407767 0.009708737864077669 0.016260162601626018 0.983739837398374 0.0 0.0 1.0 0.0 0.0 0.9854014598540146 0.014598540145985401 0.0 0.9913793103448276 0.008620689655172414 0.0 1.0 0.0 0.0 1.0 0.0 0.0 1.0 0.0 0.0 1.0 0.0 0.0 1.0 0.0 0.0 1.0 0.0 0.0 1.0 0.0 0.0 1.0 0.0 0.0 1.0 0.0 0.0 1.0 0.0 0.0 1.0 0.0 0.0 0.0 1.0 0.0 0.0 1.0 0.0 1.0 0.0 0.0 0.0 1.0 0.0 1.0 0.0 0.0 0.0 1.0 </TABLE>
    </DEFINITION>
  </NETWORK>
</BIF>
