<?xml version='1.0' encoding='utf-8'?>
<BIF VERSION="0.3">
  <NETWORK>
    <NAME>UNTITLED</NAME>
    <VARIABLE TYPE="nature">
      <NAME>latency</NAME>
      <OUTCOME>31</OUTCOME>
      <OUTCOME>32</OUTCOME>
      <OUTCOME>33</OUTCOME>
      <OUTCOME>34</OUTCOME>
      <OUTCOME>35</OUTCOME>
      <OUTCOME>36</OUTCOME>
      <OUTCOME>37</OUTCOME>
      <OUTCOME>38</OUTCOME>
      <OUTCOME>39</OUTCOME>
      <OUTCOME>40</OUTCOME>
      <OUTCOME>41</OUTCOME>
      <OUTCOME>42</OUTCOME>
      <OUTCOME>43</OUTCOME>
      <OUTCOME>44</OUTCOME>
      <OUTCOME>45</OUTCOME>
      <OUTCOME>46</OUTCOME>
      <OUTCOME>47</OUTCOME>
      <OUTCOME>48</OUTCOME>
      <OUTCOME>49</OUTCOME>
      <OUTCOME>50</OUTCOME>
      <OUTCOME>51</OUTCOME>
      <OUTCOME>52</OUTCOME>
      <OUTCOME>53</OUTCOME>
      <OUTCOME>54</OUTCOME>
      <OUTCOME>55</OUTCOME>
      <OUTCOME>56</OUTCOME>
      <OUTCOME>57</OUTCOME>
      <OUTCOME>58</OUTCOME>
      <OUTCOME>59</OUTCOME>
      <OUTCOME>60</OUTCOME>
      <OUTCOME>61</OUTCOME>
      <OUTCOME>62</OUTCOME>
      <OUTCOME>63</OUTCOME>
      <OUTCOME>64</OUTCOME>
      <OUTCOME>65</OUTCOME>
      <OUTCOME>66</OUTCOME>
      <OUTCOME>67</OUTCOME>
      <OUTCOME>68</OUTCOME>
      <OUTCOME>69</OUTCOME>
      <OUTCOME>70</OUTCOME>
      <OUTCOME>71</OUTCOME>
      <OUTCOME>72</OUTCOME>
      <OUTCOME>73</OUTCOME>
      <OUTCOME>74</OUTCOME>
      <OUTCOME>75</OUTCOME>
      <OUTCOME>76</OUTCOME>
      <OUTCOME>77</OUTCOME>
      <OUTCOME>78</OUTCOME>
      <OUTCOME>79</OUTCOME>
      <OUTCOME>80</OUTCOME>
      <OUTCOME>81</OUTCOME>
      <OUTCOME>82</OUTCOME>
      <OUTCOME>83</OUTCOME>
      <OUTCOME>84</OUTCOME>
      <OUTCOME>85</OUTCOME>
      <OUTCOME>86</OUTCOME>
      <OUTCOME>87</OUTCOME>
      <OUTCOME>88</OUTCOME>
      <OUTCOME>89</OUTCOME>
      <OUTCOME>90</OUTCOME>
      <OUTCOME>91</OUTCOME>
      <OUTCOME>92</OUTCOME>
      <OUTCOME>93</OUTCOME>
      <OUTCOME>94</OUTCOME>
      <OUTCOME>95</OUTCOME>
      <OUTCOME>96</OUTCOME>
      <OUTCOME>97</OUTCOME>
      <OUTCOME>98</OUTCOME>
      <OUTCOME>100</OUTCOME>
      <OUTCOME>101</OUTCOME>
      <OUTCOME>102</OUTCOME>
      <OUTCOME>106</OUTCOME>
      <OUTCOME>110</OUTCOME>
      <OUTCOME>111</OUTCOME>
      <OUTCOME>116</OUTCOME>
      <OUTCOME>284</OUTCOME>
      <OUTCOME>2399</OUTCOME>
      <OUTCOME>9835</OUTCOME>
      <OUTCOME>14904</OUTCOME>
      <PROPERTY>weight = None</PROPERTY>
    </VARIABLE>
    <VARIABLE TYPE="nature">
      <NAME>size</NAME>
      <OUTCOME>480</OUTCOME>
      <OUTCOME>720</OUTCOME>
      <OUTCOME>1080</OUTCOME>
      <PROPERTY>weight = None</PROPERTY>
    </VARIABLE>
    <DEFINITION>
      <FOR>latency</FOR>
      <TABLE>6.969612489545581e-05 0.0005575689991636465 0.0008363534987454698 0.0008363534987454698 0.00034848062447727905 0.001115137998327293 0.0004181767493727349 0.00034848062447727905 0.00027878449958182325 0.0004181767493727349 0.00034848062447727905 0.0009757457485363814 0.0018120992472818512 0.012196821856704768 0.027529969333705048 0.03582380819626429 0.045023696682464455 0.04411764705882353 0.03944800669082799 0.024881516587677725 0.01665737385001394 0.010524114859213828 0.016030108725954836 0.02432394758851408 0.031572344577641485 0.03547532757178701 0.04816002230275997 0.05819626428770561 0.05164482854753276 0.0522023975466964 0.04481460830777809 0.03916922219124617 0.026693615834959578 0.02481182046278227 0.023626986339559522 0.030248118204627823 0.02627543908558684 0.02446333983830499 0.0179816002230276 0.013451352104822971 0.014008921103986618 0.015402843601895734 0.012266517981600222 0.009199888486200167 0.008015054362977418 0.0030666294954000556 0.002230275996654586 0.0027181488709227767 0.001045441873431837 0.001115137998327293 0.001463618622804572 0.002090883746863674 0.002648452746027321 0.0028575411207136885 0.00383328686925007 0.0029969333705046 0.0020211876219682185 0.0035545023696682463 0.007457485363813772 0.007596877613604684 0.008851407861722888 0.010593810984109284 0.009199888486200167 0.004948424867577363 0.003275717870086423 0.0016030108725954837 0.0008363534987454698 0.0005575689991636465 6.969612489545581e-05 0.00013939224979091162 6.969612489545581e-05 6.969612489545581e-05 6.969612489545581e-05 6.969612489545581e-05 6.969612489545581e-05 6.969612489545581e-05 6.969612489545581e-05 6.969612489545581e-05 6.969612489545581e-05 </TABLE>
    </DEFINITION>
    <DEFINITION>
      <FOR>size</FOR>
      <GIVEN>latency</GIVEN>
      <TABLE>0.0 0.0 1.0 0.0 0.0 1.0 0.0 0.0 1.0 0.0 0.0 1.0 0.0 0.0 1.0 0.0 0.0 1.0 0.0 0.0 1.0 0.0 0.0 1.0 0.0 0.0 1.0 0.0 0.0 1.0 0.0 0.0 1.0 0.35714285714285715 0.0 0.6428571428571429 0.6538461538461539 0.15384615384615385 0.19230769230769232 0.7657142857142857 0.2057142857142857 0.02857142857142857 0.5620253164556962 0.41012658227848103 0.027848101265822784 0.4163424124513619 0.44357976653696496 0.14007782101167315 0.34210526315789475 0.37306501547987614 0.2848297213622291 0.325434439178515 0.3333333333333333 0.3412322274881517 0.22614840989399293 0.3869257950530035 0.3869257950530035 0.13445378151260504 0.25770308123249297 0.6078431372549019 0.200836820083682 0.16317991631799164 0.6359832635983264 0.2980132450331126 0.33774834437086093 0.36423841059602646 0.1782608695652174 0.6086956521739131 0.21304347826086956 0.08882521489971347 0.8051575931232091 0.10601719197707736 0.05518763796909492 0.8852097130242825 0.059602649006622516 0.03929273084479371 0.9017681728880157 0.05893909626719057 0.023154848046309694 0.9276410998552822 0.049204052098408106 0.016766467065868262 0.9413173652694611 0.041916167664670656 0.012145748987854251 0.9406207827260459 0.04723346828609987 0.006675567423230975 0.9279038718291055 0.06542056074766354 0.004665629860031105 0.9206842923794712 0.07465007776049767 0.0 0.8932384341637011 0.10676156583629894 0.0026109660574412533 0.7389033942558747 0.2584856396866841 0.0056179775280898875 0.4353932584269663 0.5589887640449438 0.10619469026548672 0.22123893805309736 0.672566371681416 0.2304147465437788 0.08294930875576037 0.6866359447004609 0.2864721485411141 0.058355437665782495 0.6551724137931034 0.3076923076923077 0.07977207977207977 0.6125356125356125 0.42248062015503873 0.1821705426356589 0.3953488372093023 0.5906735751295337 0.27461139896373055 0.13471502590673576 0.6517412935323383 0.2537313432835821 0.0945273631840796 0.665158371040724 0.3076923076923077 0.027149321266968326 0.7897727272727273 0.1875 0.022727272727272728 0.8484848484848485 0.12878787878787878 0.022727272727272728 0.8173913043478261 0.1565217391304348 0.02608695652173913 0.6136363636363636 0.3409090909090909 0.045454545454545456 0.09375 0.78125 0.125 0.07692307692307693 0.8205128205128205 0.10256410256410256 0.0 0.8666666666666667 0.13333333333333333 0.0625 0.6875 0.25 0.5238095238095238 0.38095238095238093 0.09523809523809523 0.8666666666666667 0.06666666666666667 0.06666666666666667 0.8421052631578947 0.10526315789473684 0.05263157894736842 0.975609756097561 0.024390243902439025 0.0 0.8727272727272727 0.10909090909090909 0.01818181818181818 0.8604651162790697 0.13953488372093023 0.0 0.5862068965517241 0.3793103448275862 0.034482758620689655 0.1568627450980392 0.8235294117647058 0.0196078431372549 0.0 0.9906542056074766 0.009345794392523364 0.03669724770642202 0.963302752293578 0.0 0.0 1.0 0.0 0.0 1.0 0.0 0.0 1.0 0.0 0.0 0.9859154929577465 0.014084507042253521 0.0 0.9787234042553191 0.02127659574468085 0.0 1.0 0.0 0.0 1.0 0.0 0.0 1.0 0.0 0.0 1.0 0.0 0.0 1.0 0.0 0.0 1.0 0.0 0.0 1.0 0.0 0.0 0.0 1.0 0.0 1.0 0.0 0.0 0.0 1.0 0.0 1.0 0.0 0.0 0.0 1.0 0.0 1.0 0.0 0.0 0.0 1.0 </TABLE>
    </DEFINITION>
  </NETWORK>
</BIF>
