<?xml version='1.0' encoding='utf-8'?>
<BIF VERSION="0.3">
  <NETWORK>
    <NAME>UNTITLED</NAME>
    <VARIABLE TYPE="nature">
      <NAME>latency</NAME>
      <OUTCOME>31</OUTCOME>
      <OUTCOME>32</OUTCOME>
      <OUTCOME>33</OUTCOME>
      <OUTCOME>34</OUTCOME>
      <OUTCOME>35</OUTCOME>
      <OUTCOME>36</OUTCOME>
      <OUTCOME>37</OUTCOME>
      <OUTCOME>38</OUTCOME>
      <OUTCOME>39</OUTCOME>
      <OUTCOME>40</OUTCOME>
      <OUTCOME>41</OUTCOME>
      <OUTCOME>42</OUTCOME>
      <OUTCOME>43</OUTCOME>
      <OUTCOME>44</OUTCOME>
      <OUTCOME>45</OUTCOME>
      <OUTCOME>46</OUTCOME>
      <OUTCOME>47</OUTCOME>
      <OUTCOME>48</OUTCOME>
      <OUTCOME>49</OUTCOME>
      <OUTCOME>50</OUTCOME>
      <OUTCOME>51</OUTCOME>
      <OUTCOME>52</OUTCOME>
      <OUTCOME>53</OUTCOME>
      <OUTCOME>54</OUTCOME>
      <OUTCOME>55</OUTCOME>
      <OUTCOME>56</OUTCOME>
      <OUTCOME>57</OUTCOME>
      <OUTCOME>58</OUTCOME>
      <OUTCOME>59</OUTCOME>
      <OUTCOME>60</OUTCOME>
      <OUTCOME>61</OUTCOME>
      <OUTCOME>62</OUTCOME>
      <OUTCOME>63</OUTCOME>
      <OUTCOME>64</OUTCOME>
      <OUTCOME>65</OUTCOME>
      <OUTCOME>66</OUTCOME>
      <OUTCOME>67</OUTCOME>
      <OUTCOME>68</OUTCOME>
      <OUTCOME>69</OUTCOME>
      <OUTCOME>70</OUTCOME>
      <OUTCOME>71</OUTCOME>
      <OUTCOME>72</OUTCOME>
      <OUTCOME>73</OUTCOME>
      <OUTCOME>74</OUTCOME>
      <OUTCOME>75</OUTCOME>
      <OUTCOME>76</OUTCOME>
      <OUTCOME>77</OUTCOME>
      <OUTCOME>78</OUTCOME>
      <OUTCOME>79</OUTCOME>
      <OUTCOME>80</OUTCOME>
      <OUTCOME>81</OUTCOME>
      <OUTCOME>82</OUTCOME>
      <OUTCOME>83</OUTCOME>
      <OUTCOME>84</OUTCOME>
      <OUTCOME>85</OUTCOME>
      <OUTCOME>86</OUTCOME>
      <OUTCOME>87</OUTCOME>
      <OUTCOME>88</OUTCOME>
      <OUTCOME>89</OUTCOME>
      <OUTCOME>90</OUTCOME>
      <OUTCOME>91</OUTCOME>
      <OUTCOME>92</OUTCOME>
      <OUTCOME>93</OUTCOME>
      <OUTCOME>94</OUTCOME>
      <OUTCOME>95</OUTCOME>
      <OUTCOME>96</OUTCOME>
      <OUTCOME>97</OUTCOME>
      <OUTCOME>98</OUTCOME>
      <OUTCOME>99</OUTCOME>
      <OUTCOME>100</OUTCOME>
      <OUTCOME>102</OUTCOME>
      <OUTCOME>103</OUTCOME>
      <OUTCOME>106</OUTCOME>
      <OUTCOME>111</OUTCOME>
      <OUTCOME>113</OUTCOME>
      <OUTCOME>118</OUTCOME>
      <OUTCOME>286</OUTCOME>
      <OUTCOME>2397</OUTCOME>
      <OUTCOME>9835</OUTCOME>
      <OUTCOME>14907</OUTCOME>
      <PROPERTY>weight = None</PROPERTY>
    </VARIABLE>
    <VARIABLE TYPE="nature">
      <NAME>rate</NAME>
      <OUTCOME>5</OUTCOME>
      <OUTCOME>10</OUTCOME>
      <OUTCOME>15</OUTCOME>
      <OUTCOME>20</OUTCOME>
      <OUTCOME>25</OUTCOME>
      <OUTCOME>30</OUTCOME>
      <OUTCOME>35</OUTCOME>
      <OUTCOME>40</OUTCOME>
      <OUTCOME>50</OUTCOME>
      <OUTCOME>60</OUTCOME>
      <OUTCOME>70</OUTCOME>
      <OUTCOME>80</OUTCOME>
      <PROPERTY>weight = None</PROPERTY>
    </VARIABLE>
    <DEFINITION>
      <FOR>latency</FOR>
      <GIVEN>rate</GIVEN>
      <TABLE>0.0 0.0 0.0 0.0 0.0 0.0 0.0 0.0 0.0 0.0 0.0 0.0 0.0 0.0 0.0 0.0 0.0 0.0 0.0 0.0 0.0 0.0 0.0 0.0016611295681063123 0.006644518272425249 0.04152823920265781 0.07475083056478406 0.12956810631229235 0.17275747508305647 0.19269102990033224 0.1362126245847176 0.11794019933554817 0.044850498338870434 0.024916943521594685 0.013289036544850499 0.009966777408637873 0.011627906976744186 0.009966777408637873 0.0049833887043189366 0.0016611295681063123 0.0016611295681063123 0.0033222591362126247 0.0 0.0 0.0 0.0 0.0 0.0 0.0 0.0 0.0 0.0 0.0 0.0 0.0 0.0 0.0 0.0 0.0 0.0 0.0 0.0 0.0 0.0 0.0 0.0 0.0 0.0 0.0 0.0 0.0 0.0 0.0 0.0 0.0 0.0 0.0 0.0 0.0 0.0 0.0 0.0 0.0 0.0 0.0 0.0 0.0 0.0 0.0 0.0 0.0 0.0 0.0 0.0 0.0 0.0 0.0 0.0 0.0 0.0 0.0 0.0 0.023255813953488372 0.12292358803986711 0.16943521594684385 0.1893687707641196 0.19102990033222592 0.1744186046511628 0.044850498338870434 0.03156146179401993 0.014950166112956811 0.014950166112956811 0.008305647840531562 0.0049833887043189366 0.006644518272425249 0.0 0.0016611295681063123 0.0 0.0 0.0 0.0016611295681063123 0.0 0.0 0.0 0.0 0.0 0.0 0.0 0.0 0.0 0.0 0.0 0.0 0.0 0.0 0.0 0.0 0.0 0.0 0.0 0.0 0.0 0.0 0.0 0.0 0.0 0.0 0.0 0.0 0.0 0.0 0.0 0.0 0.0 0.0 0.0 0.0 0.0 0.0 0.0 0.0005138746145940391 0.001541623843782117 0.0020554984583761563 0.0035971223021582736 0.003083247687564234 0.0005138746145940391 0.0035971223021582736 0.0 0.003083247687564234 0.0005138746145940391 0.0 0.001541623843782117 0.0025693730729701952 0.017985611510791366 0.04316546762589928 0.06731757451181912 0.07091469681397738 0.0842754367934224 0.06526207605344296 0.040596094552929084 0.020554984583761562 0.008735868448098663 0.0041109969167523125 0.0010277492291880781 0.007708119218910586 0.014902363823227132 0.013874614594039054 0.020554984583761562 0.03134635149023638 0.02877697841726619 0.030318602261048305 0.03134635149023638 0.029804727646454265 0.03648509763617677 0.0328879753340185 0.047790339157245634 0.03545734840698869 0.03905447070914697 0.03905447070914697 0.03186022610483042 0.017471736896197326 0.0035971223021582736 0.0020554984583761563 0.0010277492291880781 0.0010277492291880781 0.0020554984583761563 0.0020554984583761563 0.0005138746145940391 0.0010277492291880781 0.001541623843782117 0.0010277492291880781 0.001541623843782117 0.0 0.0010277492291880781 0.0 0.001541623843782117 0.0005138746145940391 0.001541623843782117 0.0010277492291880781 0.0005138746145940391 0.0005138746145940391 0.001541623843782117 0.0010277492291880781 0.011305241521068859 0.009763617677286743 0.005652620760534429 0.0046248715313463515 0.003083247687564234 0.0 0.0 0.0 0.0010277492291880781 0.0005138746145940391 0.0 0.0005138746145940391 0.0005138746145940391 0.0 0.0005138746145940391 0.0 0.0005138746145940391 0.0 0.0017035775127768314 0.0017035775127768314 0.002981260647359455 0.0034071550255536627 0.004258943781942078 0.0008517887563884157 0.0008517887563884157 0.0012776831345826234 0.0008517887563884157 0.0017035775127768314 0.0012776831345826234 0.002129471890971039 0.008517887563884156 0.026405451448040886 0.03492333901192504 0.03747870528109029 0.049829642248722314 0.036626916524701875 0.028534923339011926 0.02555366269165247 0.015332197614991482 0.025979557069846677 0.028534923339011926 0.028960817717206135 0.048551959114139696 0.04003407155025554 0.051959114139693355 0.041737649063032366 0.02555366269165247 0.024701873935264053 0.012776831345826235 0.013628620102214651 0.017035775127768313 0.026405451448040886 0.022572402044293016 0.026405451448040886 0.016183986371379896 0.008517887563884156 0.007240204429301534 0.019165247018739354 0.026831345826235094 0.022146507666098807 0.02938671209540034 0.015332197614991482 0.005536626916524702 0.0012776831345826234 0.00042589437819420784 0.0 0.0 0.0017035775127768314 0.0008517887563884157 0.00042589437819420784 0.0 0.0 0.0 0.0 0.004258943781942078 0.013202725724020443 0.02129471890971039 0.022998296422487224 0.022998296422487224 0.024275979557069848 0.010221465076660987 0.0034071550255536627 0.0012776831345826234 0.0 0.0 0.0 0.0 0.0 0.0 0.0 0.0 0.0 0.0 0.0 0.0 0.0 0.0 0.0 0.0 0.0 0.0 0.0 0.0 0.0 0.0 0.0 0.0 0.0 0.0 0.000572737686139748 0.02004581901489118 0.04009163802978236 0.04753722794959908 0.07502863688430698 0.08648339060710195 0.070446735395189 0.046964490263459335 0.032073310423825885 0.014891179839633447 0.01718213058419244 0.018900343642611683 0.0074455899198167235 0.004581901489117984 0.004581901489117984 0.006300114547537228 0.001718213058419244 0.001718213058419244 0.001718213058419244 0.000572737686139748 0.004009163802978236 0.01718213058419244 0.03837342497136312 0.05154639175257732 0.06529209621993128 0.04524627720504009 0.04009163802978236 0.022336769759450172 0.010309278350515464 0.006300114547537228 0.009163802978235968 0.010309278350515464 0.00859106529209622 0.0028636884306987398 0.002290950744558992 0.0 0.0 0.0 0.0 0.0 0.0 0.0 0.001145475372279496 0.001145475372279496 0.004581901489117984 0.012600229095074456 0.029209621993127148 0.030355097365406643 0.026918671248568157 0.02577319587628866 0.01718213058419244 0.009736540664375716 0.003436426116838488 0.001718213058419244 0.000572737686139748 0.001145475372279496 0.000572737686139748 0.000572737686139748 0.0 0.0 0.0 0.000572737686139748 0.0 0.0 0.0 0.0 0.0 0.0 0.0 0.0 0.0 0.0 0.0 0.0 0.0 0.0 0.0 0.0 0.0 0.0 0.002129471890971039 0.014054514480408859 0.032793867120954 0.04471890971039182 0.04386712095400341 0.056643952299829645 0.05323679727427598 0.03577512776831346 0.02385008517887564 0.012776831345826235 0.020442930153321975 0.022146507666098807 0.019591141396933562 0.026405451448040886 0.022998296422487224 0.0379045996592845 0.038756388415672915 0.031090289608177172 0.034071550255536626 0.022998296422487224 0.020868824531516183 0.030664395229982964 0.02385008517887564 0.024275979557069848 0.028534923339011926 0.01788756388415673 0.0068143100511073255 0.008517887563884156 0.01575809199318569 0.024275979557069848 0.028960817717206135 0.028960817717206135 0.018313458262350937 0.011073253833049404 0.008943781942078365 0.008943781942078365 0.007666098807495741 0.0068143100511073255 0.0017035775127768314 0.00042589437819420784 0.0 0.0008517887563884157 0.00042589437819420784 0.0008517887563884157 0.0012776831345826234 0.002555366269165247 0.013202725724020443 0.007666098807495741 0.010647359454855196 0.017035775127768313 0.008943781942078365 0.004684838160136286 0.005536626916524702 0.005536626916524702 0.0 0.0 0.0 0.00042589437819420784 0.00042589437819420784 0.0 0.0 0.0 0.0 0.0 0.00042589437819420784 0.0 0.0 0.0 0.0 0.0 0.0 0.0 0.0 0.0 0.0 0.0 0.0 0.0 0.0 0.000572737686139748 0.010882016036655211 0.022336769759450172 0.052691867124856816 0.06815578465063 0.06930126002290951 0.06357388316151202 0.061855670103092786 0.03493699885452463 0.023482245131729668 0.019473081328751432 0.015463917525773196 0.006300114547537228 0.013745704467353952 0.012027491408934709 0.006872852233676976 0.005154639175257732 0.002290950744558992 0.004009163802978236 0.002290950744558992 0.002290950744558992 0.006872852233676976 0.027491408934707903 0.030927835051546393 0.03951890034364261 0.03608247422680412 0.046964490263459335 0.05211912943871707 0.03150057273768614 0.0286368843069874 0.038946162657502864 0.016609392898052692 0.008018327605956471 0.0028636884306987398 0.001718213058419244 0.000572737686139748 0.001718213058419244 0.0028636884306987398 0.001145475372279496 0.005154639175257732 0.016036655211912942 0.02004581901489118 0.019473081328751432 0.023482245131729668 0.026345933562428408 0.011454753722794959 0.002290950744558992 0.002290950744558992 0.001145475372279496 0.0 0.0 0.0 0.0 0.0 0.0 0.0 0.0 0.0 0.0 0.0 0.0 0.0 0.0 0.0 0.0 0.0 0.0 0.0 0.0 0.0 0.0 0.0 0.0 0.0 0.0 0.0 0.0 0.0 0.0 0.0 0.0 0.0 0.0 0.0 0.0 0.0 0.0 0.0 0.0 0.0 0.0 0.029900332225913623 0.04318936877076412 0.03820598006644518 0.044850498338870434 0.09800664451827243 0.1212624584717608 0.1362126245847176 0.1461794019933555 0.12292358803986711 0.0946843853820598 0.07807308970099668 0.02823920265780731 0.009966777408637873 0.0033222591362126247 0.0033222591362126247 0.0016611295681063123 0.0 0.0 0.0 0.0 0.0 0.0 0.0 0.0 0.0 0.0 0.0 0.0 0.0 0.0 0.0 0.0 0.0 0.0 0.0 0.0 0.0 0.0 0.0 0.0 0.0 0.0 0.0 0.0 0.0 0.0 0.0 0.0 0.0 0.0 0.0 0.0 0.0 0.0 0.0 0.0 0.0 0.0 0.0 0.0 0.0 0.0 0.0 0.0 0.0 0.0 0.0 0.0 0.0 0.0 0.0 0.0 0.0 0.0 0.0 0.0 0.0 0.0 0.0 0.0016611295681063123 0.009966777408637873 0.03322259136212625 0.044850498338870434 0.06976744186046512 0.09966777408637874 0.12956810631229235 0.1212624584717608 0.1461794019933555 0.12292358803986711 0.0946843853820598 0.0664451827242525 0.03322259136212625 0.014950166112956811 0.006644518272425249 0.0033222591362126247 0.0016611295681063123 0.0 0.0 0.0 0.0 0.0 0.0 0.0 0.0 0.0 0.0 0.0 0.0 0.0 0.0 0.0 0.0 0.0 0.0 0.0 0.0 0.0 0.0 0.0 0.0 0.0 0.0 0.0 0.0 0.0 0.0 0.0 0.0 0.0 0.0 0.0 0.0 0.0 0.0 0.0 0.0 0.0 0.0 0.0 0.0 0.0 0.0 0.0 0.0 0.0 0.0 0.0 0.0 0.0 0.0 0.0 0.0 0.0 0.0 0.0 0.0 0.0 0.0 0.0 0.0 0.013289036544850499 0.036544850498338874 0.046511627906976744 0.06478405315614617 0.09634551495016612 0.1212624584717608 0.11960132890365449 0.12956810631229235 0.13953488372093023 0.1079734219269103 0.04983388704318937 0.036544850498338874 0.02159468438538206 0.009966777408637873 0.0033222591362126247 0.0016611295681063123 0.0 0.0 0.0016611295681063123 0.0 0.0 0.0 0.0 0.0 0.0 0.0 0.0 0.0 0.0 0.0 0.0 0.0 0.0 0.0 0.0 0.0 0.0 0.0 0.0 0.0 0.0 0.0 0.0 0.0 0.0 0.0 0.0 0.0 0.0 0.0 0.0 0.0 0.0 0.0 0.0 0.0 0.0 0.0 0.0 0.0 0.0 0.0 0.0 0.0 0.0 0.0 0.0 0.0 0.0 0.0 0.0 0.0 0.0 0.0 0.0 0.0 0.0 0.0 0.0 0.0 0.02159468438538206 0.03820598006644518 0.04983388704318937 0.0681063122923588 0.10631229235880399 0.1212624584717608 0.12624584717607973 0.11794019933554817 0.12790697674418605 0.10299003322259136 0.054817275747508304 0.03322259136212625 0.018272425249169437 0.006644518272425249 0.0033222591362126247 0.0033222591362126247 0.0 0.0 0.0 0.0 0.0 0.0 0.0 0.0 0.0 0.0 0.0 0.0 0.0 0.0 0.0 0.0 0.0 0.0 0.0 0.0 0.0 0.0 0.0 0.0 0.0 0.0 0.0 0.0 0.0 0.0 0.0 0.0 0.0 0.0 0.0 0.0 0.0 0.0 0.0 0.0 0.0 0.0 0.0 0.0 0.0 0.0 0.0 0.0 0.0 0.0 0.0 0.0 0.0 0.0 0.0 0.0 0.0 0.0 0.0 0.0 0.0 0.0 0.0 0.0033222591362126247 0.018272425249169437 0.04152823920265781 0.04152823920265781 0.05647840531561462 0.10963455149501661 0.09800664451827243 0.15282392026578073 0.13953488372093023 0.1212624584717608 0.08970099667774087 0.06478405315614617 0.029900332225913623 0.014950166112956811 0.009966777408637873 0.0016611295681063123 0.0016611295681063123 0.0 0.0 0.0016611295681063123 0.0 0.0 0.0 0.0 0.0016611295681063123 0.0 0.0 0.0 0.0 0.0 0.0 0.0 0.0 0.0 0.0 0.0 0.0 0.0 0.0 0.0 0.0 0.0 0.0 0.0 0.0 0.0 0.0 0.0 0.0 0.0 0.0 0.0 0.0 0.0 0.0 0.0 0.0 0.0016611295681063123 0.0 </TABLE>
    </DEFINITION>
    <DEFINITION>
      <FOR>rate</FOR>
      <TABLE>0.0419570671870644 0.0419570671870644 0.13562865904655702 0.16364650125453026 0.12168943406746585 0.16364650125453026 0.12168943406746585 0.0419570671870644 0.0419570671870644 0.0419570671870644 0.0419570671870644 0.0419570671870644 </TABLE>
    </DEFINITION>
  </NETWORK>
</BIF>
