<?xml version='1.0' encoding='utf-8'?>
<BIF VERSION="0.3">
  <NETWORK>
    <NAME>UNTITLED</NAME>
    <VARIABLE TYPE="nature">
      <NAME>cpu</NAME>
      <OUTCOME>15</OUTCOME>
      <OUTCOME>20</OUTCOME>
      <OUTCOME>25</OUTCOME>
      <PROPERTY>weight = None</PROPERTY>
    </VARIABLE>
    <VARIABLE TYPE="nature">
      <NAME>device_type</NAME>
      <OUTCOME>Orin</OUTCOME>
      <OUTCOME>Laptop</OUTCOME>
      <OUTCOME>PC</OUTCOME>
      <PROPERTY>weight = None</PROPERTY>
    </VARIABLE>
    <VARIABLE TYPE="nature">
      <NAME>latency</NAME>
      <OUTCOME>31</OUTCOME>
      <OUTCOME>32</OUTCOME>
      <OUTCOME>33</OUTCOME>
      <OUTCOME>34</OUTCOME>
      <OUTCOME>35</OUTCOME>
      <OUTCOME>36</OUTCOME>
      <OUTCOME>37</OUTCOME>
      <OUTCOME>38</OUTCOME>
      <OUTCOME>39</OUTCOME>
      <OUTCOME>40</OUTCOME>
      <OUTCOME>41</OUTCOME>
      <OUTCOME>42</OUTCOME>
      <OUTCOME>43</OUTCOME>
      <OUTCOME>44</OUTCOME>
      <OUTCOME>45</OUTCOME>
      <OUTCOME>46</OUTCOME>
      <OUTCOME>47</OUTCOME>
      <OUTCOME>48</OUTCOME>
      <OUTCOME>49</OUTCOME>
      <OUTCOME>50</OUTCOME>
      <OUTCOME>51</OUTCOME>
      <OUTCOME>52</OUTCOME>
      <OUTCOME>53</OUTCOME>
      <OUTCOME>54</OUTCOME>
      <OUTCOME>55</OUTCOME>
      <OUTCOME>56</OUTCOME>
      <OUTCOME>57</OUTCOME>
      <OUTCOME>58</OUTCOME>
      <OUTCOME>59</OUTCOME>
      <OUTCOME>60</OUTCOME>
      <OUTCOME>61</OUTCOME>
      <OUTCOME>62</OUTCOME>
      <OUTCOME>63</OUTCOME>
      <OUTCOME>64</OUTCOME>
      <OUTCOME>65</OUTCOME>
      <OUTCOME>66</OUTCOME>
      <OUTCOME>67</OUTCOME>
      <OUTCOME>68</OUTCOME>
      <OUTCOME>69</OUTCOME>
      <OUTCOME>70</OUTCOME>
      <OUTCOME>71</OUTCOME>
      <OUTCOME>72</OUTCOME>
      <OUTCOME>73</OUTCOME>
      <OUTCOME>74</OUTCOME>
      <OUTCOME>75</OUTCOME>
      <OUTCOME>76</OUTCOME>
      <OUTCOME>77</OUTCOME>
      <OUTCOME>78</OUTCOME>
      <OUTCOME>79</OUTCOME>
      <OUTCOME>80</OUTCOME>
      <OUTCOME>81</OUTCOME>
      <OUTCOME>82</OUTCOME>
      <OUTCOME>83</OUTCOME>
      <OUTCOME>84</OUTCOME>
      <OUTCOME>85</OUTCOME>
      <OUTCOME>86</OUTCOME>
      <OUTCOME>87</OUTCOME>
      <OUTCOME>88</OUTCOME>
      <OUTCOME>89</OUTCOME>
      <OUTCOME>90</OUTCOME>
      <OUTCOME>91</OUTCOME>
      <OUTCOME>92</OUTCOME>
      <OUTCOME>93</OUTCOME>
      <OUTCOME>94</OUTCOME>
      <OUTCOME>95</OUTCOME>
      <OUTCOME>96</OUTCOME>
      <OUTCOME>97</OUTCOME>
      <OUTCOME>98</OUTCOME>
      <OUTCOME>99</OUTCOME>
      <OUTCOME>100</OUTCOME>
      <OUTCOME>101</OUTCOME>
      <OUTCOME>102</OUTCOME>
      <OUTCOME>111</OUTCOME>
      <OUTCOME>114</OUTCOME>
      <OUTCOME>118</OUTCOME>
      <OUTCOME>282</OUTCOME>
      <OUTCOME>2401</OUTCOME>
      <OUTCOME>9836</OUTCOME>
      <OUTCOME>14906</OUTCOME>
      <PROPERTY>weight = None</PROPERTY>
    </VARIABLE>
    <VARIABLE TYPE="nature">
      <NAME>size</NAME>
      <OUTCOME>480</OUTCOME>
      <OUTCOME>720</OUTCOME>
      <OUTCOME>1080</OUTCOME>
      <PROPERTY>weight = None</PROPERTY>
    </VARIABLE>
    <DEFINITION>
      <FOR>cpu</FOR>
      <GIVEN>device_type</GIVEN>
      <TABLE>0.0 0.0 1.0 0.0 1.0 0.0 1.0 0.0 0.0 </TABLE>
    </DEFINITION>
    <DEFINITION>
      <FOR>device_type</FOR>
      <TABLE>0.33 0.33 0.33 </TABLE>
    </DEFINITION>
    <DEFINITION>
      <FOR>latency</FOR>
      <TABLE>0.00013939224979091162 0.0006969612489545581 0.0006969612489545581 0.0005575689991636465 0.001045441873431837 0.0006272651240591023 0.00020908837468636745 0.00027878449958182325 0.0004181767493727349 0.0005575689991636465 0.0004181767493727349 0.0005575689991636465 0.0030666294954000556 0.011221076108168386 0.027042096459436855 0.03693894619459158 0.042793420685809866 0.04460551993309172 0.036660161695009755 0.026066350710900472 0.018887649846668526 0.011569556732645665 0.014705882352941176 0.02599665458600502 0.03129356007805966 0.036241984945637025 0.04829941455255088 0.05645386116531921 0.05241148592138277 0.05073877892389183 0.044675216057987174 0.03819347644270978 0.027669361583495956 0.023208809590186785 0.02662391971006412 0.027181488709227767 0.0275996654586005 0.025578477836632283 0.018678561471982158 0.01331195985503206 0.015402843601895734 0.015193755227209367 0.012196821856704768 0.009269584611095623 0.006272651240591023 0.0034848062447727906 0.0020211876219682185 0.0017424031223863953 0.001881795372177307 0.0019514914970727628 0.0009757457485363814 0.0022999721215500417 0.0030666294954000556 0.0027878449958182324 0.0030666294954000556 0.0029969333705046 0.0013939224979091162 0.004530248118204628 0.007457485363813772 0.009478672985781991 0.009687761360468358 0.009548369110677446 0.007527181488709228 0.004809032617786451 0.002509060496236409 0.0021605798717591303 0.0007666573738500139 0.0006272651240591023 0.00013939224979091162 0.00020908837468636745 6.969612489545581e-05 6.969612489545581e-05 6.969612489545581e-05 6.969612489545581e-05 6.969612489545581e-05 6.969612489545581e-05 6.969612489545581e-05 6.969612489545581e-05 6.969612489545581e-05 </TABLE>
    </DEFINITION>
    <DEFINITION>
      <FOR>size</FOR>
      <GIVEN>latency</GIVEN>
      <TABLE>0.0 0.0 1.0 0.0 0.0 1.0 0.0 0.0 1.0 0.0 0.0 1.0 0.0 0.0 1.0 0.0 0.0 1.0 0.0 0.0 1.0 0.0 0.0 1.0 0.0 0.0 1.0 0.0 0.0 1.0 0.0 0.0 1.0 0.25 0.0 0.75 0.5909090909090909 0.1590909090909091 0.25 0.7080745341614907 0.2608695652173913 0.031055900621118012 0.5670103092783505 0.40463917525773196 0.028350515463917526 0.42641509433962266 0.42830188679245285 0.14528301886792452 0.36319218241042345 0.3794788273615635 0.25732899022801303 0.3421875 0.31875 0.3390625 0.1958174904942966 0.3973384030418251 0.4068441064638783 0.13903743315508021 0.27807486631016043 0.5828877005347594 0.19557195571955718 0.2066420664206642 0.5977859778597786 0.3072289156626506 0.3132530120481928 0.3795180722891566 0.2037914691943128 0.6161137440758294 0.18009478672985782 0.08042895442359249 0.8096514745308311 0.10991957104557641 0.044543429844097995 0.8841870824053452 0.07126948775055679 0.04038461538461539 0.9038461538461539 0.05576923076923077 0.023088023088023088 0.9264069264069265 0.050505050505050504 0.01728395061728395 0.9345679012345679 0.04814814814814815 0.013297872340425532 0.9375 0.04920212765957447 0.006868131868131868 0.9464285714285714 0.046703296703296704 0.0031201248049922 0.9329173166926678 0.06396255850234009 0.0036496350364963502 0.8576642335766423 0.1386861313868613 0.005037783375314861 0.760705289672544 0.23425692695214106 0.0 0.44744744744744747 0.5525525525525525 0.07591623036649214 0.22251308900523561 0.7015706806282722 0.23846153846153847 0.08974358974358974 0.6717948717948717 0.255050505050505 0.06060606060606061 0.6843434343434344 0.329700272479564 0.08719346049046321 0.5831062670299727 0.4552238805970149 0.19776119402985073 0.34701492537313433 0.5916230366492147 0.24607329842931938 0.16230366492146597 0.669683257918552 0.248868778280543 0.08144796380090498 0.6605504587155964 0.3073394495412844 0.03211009174311927 0.7714285714285715 0.2 0.02857142857142857 0.8721804511278195 0.10526315789473684 0.022556390977443608 0.7777777777777778 0.14444444444444443 0.07777777777777778 0.68 0.3 0.02 0.13793103448275862 0.8275862068965517 0.034482758620689655 0.04 0.88 0.08 0.07407407407407407 0.7037037037037037 0.2222222222222222 0.07142857142857142 0.75 0.17857142857142858 0.42857142857142855 0.35714285714285715 0.21428571428571427 0.9393939393939394 0.06060606060606061 0.0 0.9090909090909091 0.06818181818181818 0.022727272727272728 0.825 0.125 0.05 0.9318181818181818 0.06818181818181818 0.0 0.9069767441860465 0.09302325581395349 0.0 0.75 0.25 0.0 0.13846153846153847 0.8461538461538461 0.015384615384615385 0.04672897196261682 0.9439252336448598 0.009345794392523364 0.014705882352941176 0.9852941176470589 0.0 0.0 1.0 0.0 0.0 1.0 0.0 0.0 1.0 0.0 0.0 1.0 0.0 0.0 0.9722222222222222 0.027777777777777776 0.0 1.0 0.0 0.0 0.9090909090909091 0.09090909090909091 0.0 1.0 0.0 0.0 1.0 0.0 0.0 1.0 0.0 0.0 1.0 0.0 0.0 1.0 0.0 0.0 0.0 1.0 0.0 1.0 0.0 0.0 0.0 1.0 0.0 1.0 0.0 0.0 0.0 1.0 0.0 1.0 0.0 0.0 0.0 1.0 </TABLE>
    </DEFINITION>
  </NETWORK>
</BIF>
