<?xml version='1.0' encoding='utf-8'?>
<BIF VERSION="0.3">
  <NETWORK>
    <NAME>UNTITLED</NAME>
    <VARIABLE TYPE="nature">
      <NAME>cpu</NAME>
      <OUTCOME>15</OUTCOME>
      <OUTCOME>20</OUTCOME>
      <OUTCOME>25</OUTCOME>
      <PROPERTY>weight = None</PROPERTY>
    </VARIABLE>
    <VARIABLE TYPE="nature">
      <NAME>device_type</NAME>
      <OUTCOME>Orin</OUTCOME>
      <OUTCOME>Laptop</OUTCOME>
      <OUTCOME>PC</OUTCOME>
      <PROPERTY>weight = None</PROPERTY>
    </VARIABLE>
    <VARIABLE TYPE="nature">
      <NAME>latency</NAME>
      <OUTCOME>31</OUTCOME>
      <OUTCOME>32</OUTCOME>
      <OUTCOME>33</OUTCOME>
      <OUTCOME>34</OUTCOME>
      <OUTCOME>35</OUTCOME>
      <OUTCOME>36</OUTCOME>
      <OUTCOME>37</OUTCOME>
      <OUTCOME>38</OUTCOME>
      <OUTCOME>39</OUTCOME>
      <OUTCOME>40</OUTCOME>
      <OUTCOME>41</OUTCOME>
      <OUTCOME>42</OUTCOME>
      <OUTCOME>43</OUTCOME>
      <OUTCOME>44</OUTCOME>
      <OUTCOME>45</OUTCOME>
      <OUTCOME>46</OUTCOME>
      <OUTCOME>47</OUTCOME>
      <OUTCOME>48</OUTCOME>
      <OUTCOME>49</OUTCOME>
      <OUTCOME>50</OUTCOME>
      <OUTCOME>51</OUTCOME>
      <OUTCOME>52</OUTCOME>
      <OUTCOME>53</OUTCOME>
      <OUTCOME>54</OUTCOME>
      <OUTCOME>55</OUTCOME>
      <OUTCOME>56</OUTCOME>
      <OUTCOME>57</OUTCOME>
      <OUTCOME>58</OUTCOME>
      <OUTCOME>59</OUTCOME>
      <OUTCOME>60</OUTCOME>
      <OUTCOME>61</OUTCOME>
      <OUTCOME>62</OUTCOME>
      <OUTCOME>63</OUTCOME>
      <OUTCOME>64</OUTCOME>
      <OUTCOME>65</OUTCOME>
      <OUTCOME>66</OUTCOME>
      <OUTCOME>67</OUTCOME>
      <OUTCOME>68</OUTCOME>
      <OUTCOME>69</OUTCOME>
      <OUTCOME>70</OUTCOME>
      <OUTCOME>71</OUTCOME>
      <OUTCOME>72</OUTCOME>
      <OUTCOME>73</OUTCOME>
      <OUTCOME>74</OUTCOME>
      <OUTCOME>75</OUTCOME>
      <OUTCOME>76</OUTCOME>
      <OUTCOME>77</OUTCOME>
      <OUTCOME>78</OUTCOME>
      <OUTCOME>79</OUTCOME>
      <OUTCOME>80</OUTCOME>
      <OUTCOME>81</OUTCOME>
      <OUTCOME>82</OUTCOME>
      <OUTCOME>83</OUTCOME>
      <OUTCOME>84</OUTCOME>
      <OUTCOME>85</OUTCOME>
      <OUTCOME>86</OUTCOME>
      <OUTCOME>87</OUTCOME>
      <OUTCOME>88</OUTCOME>
      <OUTCOME>89</OUTCOME>
      <OUTCOME>90</OUTCOME>
      <OUTCOME>91</OUTCOME>
      <OUTCOME>92</OUTCOME>
      <OUTCOME>93</OUTCOME>
      <OUTCOME>94</OUTCOME>
      <OUTCOME>95</OUTCOME>
      <OUTCOME>96</OUTCOME>
      <OUTCOME>97</OUTCOME>
      <OUTCOME>98</OUTCOME>
      <OUTCOME>99</OUTCOME>
      <OUTCOME>101</OUTCOME>
      <OUTCOME>102</OUTCOME>
      <OUTCOME>103</OUTCOME>
      <OUTCOME>111</OUTCOME>
      <OUTCOME>112</OUTCOME>
      <OUTCOME>116</OUTCOME>
      <OUTCOME>283</OUTCOME>
      <OUTCOME>2400</OUTCOME>
      <OUTCOME>9838</OUTCOME>
      <OUTCOME>14907</OUTCOME>
      <PROPERTY>weight = None</PROPERTY>
    </VARIABLE>
    <VARIABLE TYPE="nature">
      <NAME>rate</NAME>
      <OUTCOME>5</OUTCOME>
      <OUTCOME>10</OUTCOME>
      <OUTCOME>15</OUTCOME>
      <OUTCOME>20</OUTCOME>
      <OUTCOME>25</OUTCOME>
      <OUTCOME>30</OUTCOME>
      <OUTCOME>35</OUTCOME>
      <OUTCOME>40</OUTCOME>
      <OUTCOME>50</OUTCOME>
      <OUTCOME>60</OUTCOME>
      <OUTCOME>70</OUTCOME>
      <OUTCOME>80</OUTCOME>
      <PROPERTY>weight = None</PROPERTY>
    </VARIABLE>
    <DEFINITION>
      <FOR>cpu</FOR>
      <GIVEN>device_type</GIVEN>
      <TABLE>0.0 0.0 1.0 0.0 1.0 0.0 1.0 0.0 0.0 </TABLE>
    </DEFINITION>
    <DEFINITION>
      <FOR>device_type</FOR>
      <TABLE>0.33 0.33 0.33 </TABLE>
    </DEFINITION>
    <DEFINITION>
      <FOR>latency</FOR>
      <TABLE>6.969612489545581e-05 0.0004181767493727349 0.0008363534987454698 0.001045441873431837 0.0006272651240591023 0.0009060496236409256 0.00034848062447727905 0.0004181767493727349 0.0004878728742681907 0.00034848062447727905 0.0005575689991636465 0.0004878728742681907 0.002578756621131865 0.013102871480345692 0.02613604683579593 0.035893504321159744 0.04551156955673265 0.045581265681628104 0.037217730694173404 0.02578756621131865 0.016169500975745748 0.010942291608586563 0.014914970727627545 0.023905770839141343 0.03303596320044606 0.034917758572623366 0.04822971842765542 0.05701143016448285 0.05073877892389183 0.052690270420964594 0.04760245330359632 0.03707833844438249 0.026693615834959578 0.024672428212991357 0.02564817396152774 0.025508781711736827 0.029342068580986896 0.023836074714245887 0.017842207973236688 0.015124059102313911 0.01533314747700028 0.012545302481182047 0.012684694730972957 0.010105938109841093 0.007736269863395595 0.0035545023696682463 0.002230275996654586 0.0017424031223863953 0.0016030108725954837 0.001045441873431837 0.0013939224979091162 0.0021605798717591303 0.0028575411207136885 0.0034848062447727906 0.0036241984945637024 0.002509060496236409 0.0013242263730136605 0.004390855868413716 0.00766657373850014 0.008712015611931977 0.009548369110677446 0.010036241984945637 0.007596877613604684 0.00515751324226373 0.0022999721215500417 0.0018120992472818512 0.0009757457485363814 0.0006272651240591023 0.00020908837468636745 6.969612489545581e-05 6.969612489545581e-05 0.00013939224979091162 6.969612489545581e-05 6.969612489545581e-05 6.969612489545581e-05 6.969612489545581e-05 6.969612489545581e-05 6.969612489545581e-05 6.969612489545581e-05 </TABLE>
    </DEFINITION>
    <DEFINITION>
      <FOR>rate</FOR>
      <GIVEN>latency</GIVEN>
      <TABLE>0.0 0.0 1.0 0.0 0.0 0.0 0.0 0.0 0.0 0.0 0.0 0.0 0.0 0.0 0.3333333333333333 0.6666666666666666 0.0 0.0 0.0 0.0 0.0 0.0 0.0 0.0 0.0 0.0 0.5 0.5 0.0 0.0 0.0 0.0 0.0 0.0 0.0 0.0 0.0 0.0 0.4 0.6 0.0 0.0 0.0 0.0 0.0 0.0 0.0 0.0 0.0 0.0 0.3333333333333333 0.6666666666666666 0.0 0.0 0.0 0.0 0.0 0.0 0.0 0.0 0.0 0.0 0.3076923076923077 0.6923076923076923 0.0 0.0 0.0 0.0 0.0 0.0 0.0 0.0 0.0 0.0 0.6 0.4 0.0 0.0 0.0 0.0 0.0 0.0 0.0 0.0 0.0 0.0 0.8333333333333334 0.16666666666666666 0.0 0.0 0.0 0.0 0.0 0.0 0.0 0.0 0.0 0.0 0.2857142857142857 0.7142857142857143 0.0 0.0 0.0 0.0 0.0 0.0 0.0 0.0 0.0 0.0 0.6 0.4 0.0 0.0 0.0 0.0 0.0 0.0 0.0 0.0 0.0 0.0 0.625 0.375 0.0 0.0 0.0 0.0 0.0 0.0 0.0 0.0 0.0 0.0 0.2857142857142857 0.42857142857142855 0.0 0.0 0.2857142857142857 0.0 0.0 0.0 0.0 0.0 0.0 0.0 0.1891891891891892 0.08108108108108109 0.13513513513513514 0.10810810810810811 0.4864864864864865 0.0 0.0 0.0 0.0 0.0 0.0 0.0 0.21808510638297873 0.11702127659574468 0.1595744680851064 0.18085106382978725 0.324468085106383 0.0 0.0 0.0 0.0 0.0 0.0 0.0 0.20266666666666666 0.17066666666666666 0.184 0.224 0.21866666666666668 0.0 0.0 0.0 0.0 0.0 0.0 0.0 0.26990291262135924 0.1533980582524272 0.18640776699029127 0.16310679611650486 0.22718446601941747 0.0 0.0 0.0 0.0 0.0 0.0 0.0 0.23124042879019907 0.1638591117917305 0.2006125574272588 0.20520673813169985 0.1990811638591118 0.0 0.0 0.0 0.0 0.0 0.0 0.0 0.22018348623853212 0.17737003058103976 0.20948012232415902 0.22324159021406728 0.16972477064220184 0.0 0.0 0.0 0.0 0.0 0.0 0.0 0.21348314606741572 0.18164794007490637 0.21722846441947566 0.2247191011235955 0.16292134831460675 0.0 0.0 0.0 0.0 0.0 0.0 0.0 0.23513513513513515 0.15135135135135136 0.22972972972972974 0.16216216216216217 0.22162162162162163 0.0 0.0 0.0 0.0 0.0 0.0 0.0 0.19827586206896552 0.15948275862068967 0.2543103448275862 0.2672413793103448 0.1206896551724138 0.0 0.0 0.0 0.0 0.0 0.0 0.0 0.10191082802547771 0.267515923566879 0.21019108280254778 0.18471337579617833 0.19745222929936307 0.006369426751592357 0.0 0.006369426751592357 0.006369426751592357 0.01910828025477707 0.0 0.06074766355140187 0.028037383177570093 0.22897196261682243 0.17289719626168223 0.17289719626168223 0.14485981308411214 0.04672897196261682 0.02336448598130841 0.037383177570093455 0.02336448598130841 0.06074766355140187 0.0 0.23615160349854228 0.008746355685131196 0.1836734693877551 0.043731778425655975 0.15451895043731778 0.052478134110787174 0.061224489795918366 0.061224489795918366 0.06705539358600583 0.06997084548104957 0.061224489795918366 0.0189873417721519 0.21940928270042195 0.0379746835443038 0.21518987341772153 0.03164556962025317 0.11814345991561181 0.023206751054852322 0.056962025316455694 0.05907172995780591 0.07172995780590717 0.08438818565400844 0.06329113924050633 0.0499001996007984 0.1996007984031936 0.029940119760479042 0.18363273453093812 0.029940119760479042 0.10179640718562874 0.03992015968063872 0.08582834331337326 0.0718562874251497 0.05389221556886228 0.08183632734530938 0.0718562874251497 0.06358381502890173 0.17630057803468208 0.03901734104046243 0.14450867052023122 0.011560693641618497 0.11560693641618497 0.017341040462427744 0.0838150289017341 0.09104046242774566 0.08236994219653179 0.09393063583815028 0.08092485549132948 0.11246943765281174 0.1234718826405868 0.05012224938875306 0.1356968215158924 0.013447432762836185 0.08679706601466992 0.012224938875305624 0.09902200488997555 0.09535452322738386 0.0941320293398533 0.09168704156479218 0.08557457212713937 0.12774725274725274 0.04532967032967033 0.08241758241758242 0.125 0.004120879120879121 0.11538461538461539 0.005494505494505495 0.10027472527472528 0.09340659340659341 0.09478021978021978 0.11401098901098901 0.09203296703296704 0.14682539682539683 0.017195767195767195 0.0701058201058201 0.09391534391534391 0.0013227513227513227 0.10978835978835978 0.005291005291005291 0.10449735449735449 0.11507936507936507 0.11375661375661375 0.10714285714285714 0.11507936507936507 0.11420204978038068 0.020497803806734993 0.10102489019033675 0.07027818448023426 0.007320644216691069 0.1054172767203514 0.007320644216691069 0.11420204978038068 0.12298682284040996 0.1054172767203514 0.09663250366032211 0.13469985358711567 0.11842105263157894 0.013157894736842105 0.14285714285714285 0.08270676691729323 0.0018796992481203006 0.10902255639097744 0.0018796992481203006 0.10902255639097744 0.08646616541353383 0.12593984962406016 0.08834586466165413 0.12030075187969924 0.10443864229765012 0.005221932114882507 0.13838120104438642 0.0731070496083551 0.020887728459530026 0.1279373368146214 0.033942558746736295 0.09921671018276762 0.10182767624020887 0.10443864229765012 0.09921671018276762 0.09138381201044386 0.031073446327683617 0.011299435028248588 0.17231638418079095 0.1271186440677966 0.08192090395480225 0.1440677966101695 0.1327683615819209 0.05084745762711865 0.07344632768361582 0.06779661016949153 0.05649717514124294 0.05084745762711865 0.03260869565217391 0.008152173913043478 0.16032608695652173 0.14130434782608695 0.20108695652173914 0.1766304347826087 0.18478260869565216 0.02717391304347826 0.019021739130434784 0.019021739130434784 0.021739130434782608 0.008152173913043478 0.01092896174863388 0.00819672131147541 0.23224043715846995 0.16939890710382513 0.21584699453551912 0.13934426229508196 0.1448087431693989 0.01092896174863388 0.03278688524590164 0.01912568306010929 0.01092896174863388 0.00546448087431694 0.028503562945368172 0.0023752969121140144 0.24228028503562946 0.12826603325415678 0.24465558194774348 0.17577197149643706 0.15676959619952494 0.0023752969121140144 0.004750593824228029 0.007125890736342043 0.004750593824228029 0.0023752969121140144 0.005847953216374269 0.0 0.21052631578947367 0.13157894736842105 0.2777777777777778 0.15497076023391812 0.2134502923976608 0.0029239766081871343 0.0 0.0 0.0 0.0029239766081871343 0.0078125 0.0 0.234375 0.09375 0.265625 0.04296875 0.34375 0.00390625 0.0 0.0 0.0078125 0.0 0.004608294930875576 0.0 0.2857142857142857 0.10138248847926268 0.18433179723502305 0.12442396313364056 0.2995391705069124 0.0 0.0 0.0 0.0 0.0 0.00909090909090909 0.0 0.14545454545454545 0.23636363636363636 0.06363636363636363 0.23636363636363636 0.30454545454545456 0.0 0.0 0.0 0.0 0.004545454545454545 0.005555555555555556 0.005555555555555556 0.03333333333333333 0.26666666666666666 0.07777777777777778 0.32222222222222224 0.28888888888888886 0.0 0.0 0.0 0.0 0.0 0.0 0.0 0.03296703296703297 0.35714285714285715 0.09340659340659341 0.3131868131868132 0.2032967032967033 0.0 0.0 0.0 0.0 0.0 0.0 0.0 0.041379310344827586 0.4 0.11724137931034483 0.36551724137931035 0.07586206896551724 0.0 0.0 0.0 0.0 0.0 0.0 0.0 0.02702702702702703 0.3063063063063063 0.14414414414414414 0.45045045045045046 0.06306306306306306 0.0 0.0 0.0 0.0 0.009009009009009009 0.0 0.0 0.0392156862745098 0.27450980392156865 0.13725490196078433 0.5098039215686274 0.0392156862745098 0.0 0.0 0.0 0.0 0.0 0.0 0.0 0.09375 0.0625 0.03125 0.8125 0.0 0.0 0.0 0.0 0.0 0.0 0.0 0.0 0.0 0.04 0.0 0.8 0.16 0.0 0.0 0.0 0.0 0.0 0.0 0.0 0.21739130434782608 0.08695652173913043 0.0 0.5652173913043478 0.13043478260869565 0.0 0.0 0.0 0.0 0.0 0.0 0.0 0.06666666666666667 0.06666666666666667 0.0 0.8 0.06666666666666667 0.0 0.0 0.0 0.0 0.0 0.0 0.0 0.15 0.15 0.0 0.3 0.4 0.0 0.0 0.0 0.0 0.0 0.0 0.0 0.03225806451612903 0.03225806451612903 0.0 0.0967741935483871 0.8387096774193549 0.0 0.0 0.0 0.0 0.0 0.0 0.0 0.0 0.0 0.0 0.024390243902439025 0.975609756097561 0.0 0.0 0.0 0.0 0.0 0.0 0.0 0.02 0.0 0.0 0.0 0.98 0.0 0.0 0.0 0.0 0.0 0.0 0.0 0.09615384615384616 0.0 0.057692307692307696 0.07692307692307693 0.7692307692307693 0.0 0.0 0.0 0.0 0.0 0.0 0.0 0.0 0.0 0.027777777777777776 0.027777777777777776 0.9444444444444444 0.0 0.0 0.0 0.0 0.0 0.0 0.0 0.0 0.0 0.2631578947368421 0.05263157894736842 0.6842105263157895 0.0 0.0 0.0 0.0 0.0 0.0 0.0 0.031746031746031744 0.25396825396825395 0.36507936507936506 0.2222222222222222 0.12698412698412698 0.0 0.0 0.0 0.0 0.0 0.0 0.0 0.0 0.2545454545454545 0.5 0.19090909090909092 0.05454545454545454 0.0 0.0 0.0 0.0 0.0 0.0 0.0 0.032 0.4 0.392 0.176 0.0 0.0 0.0 0.0 0.0 0.0 0.0 0.0 0.014598540145985401 0.4233576642335766 0.3795620437956204 0.18248175182481752 0.0 0.0 0.0 0.0 0.0 0.0 0.0 0.0 0.020833333333333332 0.3402777777777778 0.3472222222222222 0.2916666666666667 0.0 0.0 0.0 0.0 0.0 0.0 0.0 0.0 0.06422018348623854 0.44036697247706424 0.23853211009174313 0.25688073394495414 0.0 0.0 0.0 0.0 0.0 0.0 0.0 0.0 0.20270270270270271 0.3783783783783784 0.21621621621621623 0.20270270270270271 0.0 0.0 0.0 0.0 0.0 0.0 0.0 0.0 0.3939393939393939 0.3333333333333333 0.15151515151515152 0.12121212121212122 0.0 0.0 0.0 0.0 0.0 0.0 0.0 0.0 0.6153846153846154 0.11538461538461539 0.038461538461538464 0.23076923076923078 0.0 0.0 0.0 0.0 0.0 0.0 0.0 0.0 0.7857142857142857 0.0 0.07142857142857142 0.14285714285714285 0.0 0.0 0.0 0.0 0.0 0.0 0.0 0.0 0.6666666666666666 0.0 0.2222222222222222 0.1111111111111111 0.0 0.0 0.0 0.0 0.0 0.0 0.0 0.0 0.3333333333333333 0.0 0.6666666666666666 0.0 0.0 0.0 0.0 0.0 0.0 0.0 0.0 0.0 0.0 0.0 0.0 1.0 0.0 0.0 0.0 0.0 0.0 0.0 0.0 0.0 1.0 0.0 0.0 0.0 0.0 0.0 0.0 0.0 0.0 0.0 0.0 0.0 1.0 0.0 0.0 0.0 0.0 0.0 0.0 0.0 0.0 0.0 0.0 0.0 0.0 0.0 1.0 0.0 0.0 0.0 0.0 0.0 0.0 0.0 0.0 0.0 1.0 0.0 0.0 0.0 0.0 0.0 0.0 0.0 0.0 0.0 0.0 0.0 1.0 0.0 0.0 0.0 0.0 0.0 0.0 0.0 0.0 0.0 0.0 0.0 0.0 0.0 0.0 1.0 0.0 0.0 0.0 0.0 0.0 0.0 0.0 0.0 1.0 0.0 0.0 0.0 0.0 0.0 0.0 0.0 0.0 0.0 0.0 0.0 0.0 0.0 0.0 0.0 0.0 0.0 0.0 0.0 0.0 1.0 0.0 0.0 1.0 0.0 0.0 0.0 0.0 0.0 0.0 0.0 0.0 0.0 </TABLE>
    </DEFINITION>
  </NETWORK>
</BIF>
