<?xml version='1.0' encoding='utf-8'?>
<BIF VERSION="0.3">
  <NETWORK>
    <NAME>UNTITLED</NAME>
    <VARIABLE TYPE="nature">
      <NAME>consumption</NAME>
      <OUTCOME>6</OUTCOME>
      <OUTCOME>7</OUTCOME>
      <OUTCOME>21</OUTCOME>
      <OUTCOME>22</OUTCOME>
      <OUTCOME>23</OUTCOME>
      <OUTCOME>24</OUTCOME>
      <OUTCOME>82</OUTCOME>
      <OUTCOME>83</OUTCOME>
      <OUTCOME>84</OUTCOME>
      <OUTCOME>85</OUTCOME>
      <OUTCOME>86</OUTCOME>
      <OUTCOME>87</OUTCOME>
      <OUTCOME>88</OUTCOME>
      <OUTCOME>89</OUTCOME>
      <OUTCOME>90</OUTCOME>
      <OUTCOME>91</OUTCOME>
      <OUTCOME>92</OUTCOME>
      <OUTCOME>93</OUTCOME>
      <OUTCOME>94</OUTCOME>
      <OUTCOME>95</OUTCOME>
      <OUTCOME>96</OUTCOME>
      <OUTCOME>97</OUTCOME>
      <OUTCOME>98</OUTCOME>
      <OUTCOME>100</OUTCOME>
      <PROPERTY>weight = None</PROPERTY>
    </VARIABLE>
    <VARIABLE TYPE="nature">
      <NAME>cpu</NAME>
      <OUTCOME>0</OUTCOME>
      <OUTCOME>1</OUTCOME>
      <OUTCOME>2</OUTCOME>
      <OUTCOME>3</OUTCOME>
      <OUTCOME>4</OUTCOME>
      <OUTCOME>5</OUTCOME>
      <OUTCOME>6</OUTCOME>
      <OUTCOME>7</OUTCOME>
      <OUTCOME>8</OUTCOME>
      <OUTCOME>9</OUTCOME>
      <OUTCOME>10</OUTCOME>
      <OUTCOME>11</OUTCOME>
      <OUTCOME>12</OUTCOME>
      <OUTCOME>13</OUTCOME>
      <OUTCOME>14</OUTCOME>
      <OUTCOME>15</OUTCOME>
      <OUTCOME>16</OUTCOME>
      <OUTCOME>17</OUTCOME>
      <OUTCOME>18</OUTCOME>
      <OUTCOME>19</OUTCOME>
      <OUTCOME>20</OUTCOME>
      <OUTCOME>21</OUTCOME>
      <OUTCOME>22</OUTCOME>
      <OUTCOME>23</OUTCOME>
      <OUTCOME>24</OUTCOME>
      <OUTCOME>25</OUTCOME>
      <OUTCOME>26</OUTCOME>
      <OUTCOME>27</OUTCOME>
      <OUTCOME>28</OUTCOME>
      <OUTCOME>29</OUTCOME>
      <OUTCOME>30</OUTCOME>
      <OUTCOME>31</OUTCOME>
      <OUTCOME>32</OUTCOME>
      <OUTCOME>33</OUTCOME>
      <OUTCOME>34</OUTCOME>
      <OUTCOME>35</OUTCOME>
      <OUTCOME>36</OUTCOME>
      <OUTCOME>37</OUTCOME>
      <OUTCOME>38</OUTCOME>
      <OUTCOME>39</OUTCOME>
      <OUTCOME>40</OUTCOME>
      <OUTCOME>41</OUTCOME>
      <OUTCOME>42</OUTCOME>
      <OUTCOME>43</OUTCOME>
      <OUTCOME>44</OUTCOME>
      <OUTCOME>45</OUTCOME>
      <OUTCOME>46</OUTCOME>
      <OUTCOME>47</OUTCOME>
      <OUTCOME>48</OUTCOME>
      <OUTCOME>49</OUTCOME>
      <OUTCOME>50</OUTCOME>
      <OUTCOME>51</OUTCOME>
      <OUTCOME>52</OUTCOME>
      <OUTCOME>53</OUTCOME>
      <OUTCOME>54</OUTCOME>
      <OUTCOME>55</OUTCOME>
      <OUTCOME>56</OUTCOME>
      <OUTCOME>57</OUTCOME>
      <OUTCOME>58</OUTCOME>
      <OUTCOME>59</OUTCOME>
      <OUTCOME>60</OUTCOME>
      <OUTCOME>61</OUTCOME>
      <OUTCOME>62</OUTCOME>
      <OUTCOME>63</OUTCOME>
      <OUTCOME>64</OUTCOME>
      <OUTCOME>65</OUTCOME>
      <OUTCOME>66</OUTCOME>
      <OUTCOME>67</OUTCOME>
      <OUTCOME>68</OUTCOME>
      <OUTCOME>69</OUTCOME>
      <OUTCOME>71</OUTCOME>
      <OUTCOME>72</OUTCOME>
      <OUTCOME>76</OUTCOME>
      <OUTCOME>77</OUTCOME>
      <PROPERTY>weight = None</PROPERTY>
    </VARIABLE>
    <VARIABLE TYPE="nature">
      <NAME>delta</NAME>
      <OUTCOME>10</OUTCOME>
      <OUTCOME>11</OUTCOME>
      <OUTCOME>12</OUTCOME>
      <OUTCOME>13</OUTCOME>
      <OUTCOME>14</OUTCOME>
      <OUTCOME>15</OUTCOME>
      <OUTCOME>16</OUTCOME>
      <OUTCOME>17</OUTCOME>
      <OUTCOME>18</OUTCOME>
      <OUTCOME>19</OUTCOME>
      <OUTCOME>20</OUTCOME>
      <OUTCOME>21</OUTCOME>
      <OUTCOME>22</OUTCOME>
      <OUTCOME>23</OUTCOME>
      <OUTCOME>24</OUTCOME>
      <OUTCOME>25</OUTCOME>
      <OUTCOME>26</OUTCOME>
      <OUTCOME>27</OUTCOME>
      <OUTCOME>28</OUTCOME>
      <OUTCOME>29</OUTCOME>
      <OUTCOME>30</OUTCOME>
      <OUTCOME>31</OUTCOME>
      <OUTCOME>32</OUTCOME>
      <OUTCOME>33</OUTCOME>
      <OUTCOME>34</OUTCOME>
      <OUTCOME>35</OUTCOME>
      <OUTCOME>36</OUTCOME>
      <OUTCOME>37</OUTCOME>
      <OUTCOME>38</OUTCOME>
      <OUTCOME>39</OUTCOME>
      <OUTCOME>40</OUTCOME>
      <OUTCOME>41</OUTCOME>
      <OUTCOME>42</OUTCOME>
      <OUTCOME>43</OUTCOME>
      <OUTCOME>44</OUTCOME>
      <OUTCOME>45</OUTCOME>
      <OUTCOME>46</OUTCOME>
      <OUTCOME>47</OUTCOME>
      <OUTCOME>48</OUTCOME>
      <OUTCOME>49</OUTCOME>
      <OUTCOME>50</OUTCOME>
      <OUTCOME>51</OUTCOME>
      <OUTCOME>52</OUTCOME>
      <OUTCOME>53</OUTCOME>
      <OUTCOME>54</OUTCOME>
      <OUTCOME>55</OUTCOME>
      <OUTCOME>56</OUTCOME>
      <OUTCOME>57</OUTCOME>
      <OUTCOME>58</OUTCOME>
      <OUTCOME>59</OUTCOME>
      <OUTCOME>60</OUTCOME>
      <OUTCOME>61</OUTCOME>
      <OUTCOME>62</OUTCOME>
      <OUTCOME>63</OUTCOME>
      <OUTCOME>64</OUTCOME>
      <OUTCOME>65</OUTCOME>
      <OUTCOME>66</OUTCOME>
      <OUTCOME>67</OUTCOME>
      <OUTCOME>68</OUTCOME>
      <OUTCOME>69</OUTCOME>
      <OUTCOME>70</OUTCOME>
      <OUTCOME>71</OUTCOME>
      <OUTCOME>72</OUTCOME>
      <OUTCOME>73</OUTCOME>
      <OUTCOME>74</OUTCOME>
      <OUTCOME>75</OUTCOME>
      <OUTCOME>76</OUTCOME>
      <OUTCOME>78</OUTCOME>
      <OUTCOME>79</OUTCOME>
      <OUTCOME>81</OUTCOME>
      <OUTCOME>89</OUTCOME>
      <OUTCOME>90</OUTCOME>
      <OUTCOME>93</OUTCOME>
      <OUTCOME>261</OUTCOME>
      <OUTCOME>2376</OUTCOME>
      <OUTCOME>9813</OUTCOME>
      <OUTCOME>14883</OUTCOME>
      <PROPERTY>weight = None</PROPERTY>
    </VARIABLE>
    <VARIABLE TYPE="nature">
      <NAME>device_type</NAME>
      <OUTCOME>Laptop</OUTCOME>
      <OUTCOME>Orin</OUTCOME>
      <OUTCOME>PC</OUTCOME>
      <PROPERTY>weight = None</PROPERTY>
    </VARIABLE>
    <VARIABLE TYPE="nature">
      <NAME>fps</NAME>
      <OUTCOME>5</OUTCOME>
      <OUTCOME>10</OUTCOME>
      <OUTCOME>15</OUTCOME>
      <OUTCOME>20</OUTCOME>
      <OUTCOME>25</OUTCOME>
      <OUTCOME>30</OUTCOME>
      <OUTCOME>35</OUTCOME>
      <OUTCOME>40</OUTCOME>
      <OUTCOME>50</OUTCOME>
      <OUTCOME>60</OUTCOME>
      <OUTCOME>70</OUTCOME>
      <OUTCOME>80</OUTCOME>
      <PROPERTY>weight = None</PROPERTY>
    </VARIABLE>
    <VARIABLE TYPE="nature">
      <NAME>in_time</NAME>
      <OUTCOME>False</OUTCOME>
      <OUTCOME>True</OUTCOME>
      <PROPERTY>weight = None</PROPERTY>
    </VARIABLE>
    <VARIABLE TYPE="nature">
      <NAME>pixel</NAME>
      <OUTCOME>480</OUTCOME>
      <OUTCOME>720</OUTCOME>
      <OUTCOME>1080</OUTCOME>
      <PROPERTY>weight = None</PROPERTY>
    </VARIABLE>
    <DEFINITION>
      <FOR>consumption</FOR>
      <GIVEN>cpu</GIVEN>
      <TABLE>0.0 0.0 0.0 0.0 0.0 0.0 0.88 0.12 0.0 0.0 0.0 0.0 0.0 0.0 0.0 0.0 0.0 0.0 0.0 0.0 0.0 0.0 0.0 0.0 0.0 0.0 0.0 0.0 0.0 0.0 0.0 0.9743837602706622 0.025616239729337846 0.0 0.0 0.0 0.0 0.0 0.0 0.0 0.0 0.0 0.0 0.0 0.0 0.0 0.0 0.0 0.0 0.0 0.0 0.0 0.0 0.0 0.0 0.0 0.9766803840877915 0.023319615912208505 0.0 0.0 0.0 0.0 0.0 0.0 0.0 0.0 0.0 0.0 0.0 0.0 0.0 0.0 0.0 0.0 0.0 0.0 0.0 0.0 0.0 0.0 0.0 1.0 0.0 0.0 0.0 0.0 0.0 0.0 0.0 0.0 0.0 0.0 0.0 0.0 0.0 0.0 0.028688524590163935 0.0 0.0 0.0 0.0 0.0 0.0 0.0 0.0 0.0 0.9713114754098361 0.0 0.0 0.0 0.0 0.0 0.0 0.0 0.0 0.0 0.0 0.0 0.0 0.0 0.49624060150375937 0.0 0.0 0.0 0.0 0.0 0.0 0.0 0.0 0.0 0.18796992481203006 0.3157894736842105 0.0 0.0 0.0 0.0 0.0 0.0 0.0 0.0 0.0 0.0 0.0 0.0 0.483695652173913 0.0 0.0 0.0 0.0 0.0 0.0 0.0 0.0 0.0 0.0 0.40217391304347827 0.11413043478260869 0.0 0.0 0.0 0.0 0.0 0.0 0.0 0.0 0.0 0.0 0.0 0.7133757961783439 0.0 0.0 0.0 0.0 0.0 0.0 0.0 0.0 0.0 0.0 0.0 0.17197452229299362 0.11464968152866242 0.0 0.0 0.0 0.0 0.0 0.0 0.0 0.0 0.0 0.0 0.808641975308642 0.0 0.0 0.0 0.0 0.0 0.0 0.0 0.0 0.0 0.0 0.0 0.0 0.14814814814814814 0.043209876543209874 0.0 0.0 0.0 0.0 0.0 0.0 0.0 0.0 0.0 0.9043478260869565 0.0 0.0 0.0 0.0 0.0 0.0 0.0 0.0 0.0 0.0 0.0 0.0 0.0 0.09565217391304348 0.0 0.0 0.0 0.0 0.0 0.0 0.0 0.0 0.0 0.734375 0.0 0.0 0.0 0.0 0.0 0.0 0.0 0.0 0.0 0.0 0.0 0.0 0.0 0.0 0.265625 0.0 0.0 0.0 0.0 0.0 0.0 0.0 0.0 0.9747899159663865 0.0 0.0 0.0 0.0 0.0 0.0 0.0 0.0 0.0 0.0 0.0 0.0 0.0 0.0 0.0 0.025210084033613446 0.0 0.0 0.0 0.0 0.0 0.0 0.0 0.9645390070921985 0.0 0.0 0.0 0.0 0.0 0.0 0.0 0.0 0.0 0.0 0.0 0.0 0.0 0.0 0.0 0.0 0.03546099290780142 0.0 0.0 0.0 0.0 0.0 0.0 0.979381443298969 0.0 0.0 0.0 0.0 0.0 0.0 0.0 0.0 0.0 0.0 0.0 0.0 0.0 0.0 0.0 0.0 0.010309278350515464 0.010309278350515464 0.0 0.0 0.0 0.0 0.0 0.9285714285714286 0.0 0.0 0.0 0.0 0.0 0.0 0.0 0.0 0.0 0.0 0.0 0.0 0.0 0.0 0.0 0.0 0.0 0.03571428571428571 0.03571428571428571 0.0 0.0 0.0 0.0 0.9540229885057471 0.0 0.0 0.0 0.0 0.0 0.0 0.0 0.0 0.0 0.0 0.0 0.0 0.0 0.0 0.0 0.0 0.0 0.0 0.034482758620689655 0.011494252873563218 0.0 0.0 0.0 0.975609756097561 0.0 0.0 0.0 0.0 0.0 0.0 0.0 0.0 0.0 0.0 0.0 0.0 0.0 0.0 0.0 0.0 0.0 0.0 0.0 0.012195121951219513 0.012195121951219513 0.0 0.0 0.9583333333333334 0.0 0.0 0.0 0.0 0.0 0.0 0.0 0.0 0.0 0.0 0.0 0.0 0.0 0.0 0.0 0.0 0.0 0.0 0.0 0.0 0.041666666666666664 0.0 0.0 0.9861111111111112 0.0 0.0 0.0 0.0 0.0 0.0 0.0 0.0 0.0 0.0 0.0 0.0 0.0 0.0 0.0 0.0 0.0 0.0 0.0 0.0 0.0 0.013888888888888888 0.0 1.0 0.0 0.0 0.0 0.0 0.0 0.0 0.0 0.0 0.0 0.0 0.0 0.0 0.0 0.0 0.0 0.0 0.0 0.0 0.0 0.0 0.0 0.0 0.0 0.9945205479452055 0.0 0.0 0.0 0.0 0.0 0.0 0.0 0.0 0.0 0.0 0.0 0.0 0.0 0.0 0.0 0.0 0.0 0.0 0.0 0.0 0.0 0.0 0.005479452054794521 1.0 0.0 0.0 0.0 0.0 0.0 0.0 0.0 0.0 0.0 0.0 0.0 0.0 0.0 0.0 0.0 0.0 0.0 0.0 0.0 0.0 0.0 0.0 0.0 1.0 0.0 0.0 0.0 0.0 0.0 0.0 0.0 0.0 0.0 0.0 0.0 0.0 0.0 0.0 0.0 0.0 0.0 0.0 0.0 0.0 0.0 0.0 0.0 1.0 0.0 0.0 0.0 0.0 0.0 0.0 0.0 0.0 0.0 0.0 0.0 0.0 0.0 0.0 0.0 0.0 0.0 0.0 0.0 0.0 0.0 0.0 0.0 1.0 0.0 0.0 0.0 0.0 0.0 0.0 0.0 0.0 0.0 0.0 0.0 0.0 0.0 0.0 0.0 0.0 0.0 0.0 0.0 0.0 0.0 0.0 0.0 1.0 0.0 0.0 0.0 0.0 0.0 0.0 0.0 0.0 0.0 0.0 0.0 0.0 0.0 0.0 0.0 0.0 0.0 0.0 0.0 0.0 0.0 0.0 0.0 1.0 0.0 0.0 0.0 0.0 0.0 0.0 0.0 0.0 0.0 0.0 0.0 0.0 0.0 0.0 0.0 0.0 0.0 0.0 0.0 0.0 0.0 0.0 0.0 1.0 0.0 0.0 0.0 0.0 0.0 0.0 0.0 0.0 0.0 0.0 0.0 0.0 0.0 0.0 0.0 0.0 0.0 0.0 0.0 0.0 0.0 0.0 0.0 1.0 0.0 0.0 0.0 0.0 0.0 0.0 0.0 0.0 0.0 0.0 0.0 0.0 0.0 0.0 0.0 0.0 0.0 0.0 0.0 0.0 0.0 0.0 0.0 1.0 0.0 0.0 0.0 0.0 0.0 0.0 0.0 0.0 0.0 0.0 0.0 0.0 0.0 0.0 0.0 0.0 0.0 0.0 0.0 0.0 0.0 0.0 0.0 1.0 0.0 0.0 0.0 0.0 0.0 0.0 0.0 0.0 0.0 0.0 0.0 0.0 0.0 0.0 0.0 0.0 0.0 0.0 0.0 0.0 0.0 0.0 0.0 1.0 0.0 0.0 0.0 0.0 0.0 0.0 0.0 0.0 0.0 0.0 0.0 0.0 0.0 0.0 0.0 0.0 0.0 0.0 0.0 0.0 0.0 0.0 0.0 1.0 0.0 0.0 0.0 0.0 0.0 0.0 0.0 0.0 0.0 0.0 0.0 0.0 0.0 0.0 0.0 0.0 0.0 0.0 0.0 0.0 0.0 0.0 0.0 1.0 0.0 0.0 0.0 0.0 0.0 0.0 0.0 0.0 0.0 0.0 0.0 0.0 0.0 0.0 0.0 0.0 0.0 0.0 0.0 0.0 0.0 0.0 0.0 1.0 0.0 0.0 0.0 0.0 0.0 0.0 0.0 0.0 0.0 0.0 0.0 0.0 0.0 0.0 0.0 0.0 0.0 0.0 0.0 0.0 0.0 0.0 0.0 0.9655172413793104 0.0 0.034482758620689655 0.0 0.0 0.0 0.0 0.0 0.0 0.0 0.0 0.0 0.0 0.0 0.0 0.0 0.0 0.0 0.0 0.0 0.0 0.0 0.0 0.0 1.0 0.0 0.0 0.0 0.0 0.0 0.0 0.0 0.0 0.0 0.0 0.0 0.0 0.0 0.0 0.0 0.0 0.0 0.0 0.0 0.0 0.0 0.0 0.0 1.0 0.0 0.0 0.0 0.0 0.0 0.0 0.0 0.0 0.0 0.0 0.0 0.0 0.0 0.0 0.0 0.0 0.0 0.0 0.0 0.0 0.0 0.0 0.0 1.0 0.0 0.0 0.0 0.0 0.0 0.0 0.0 0.0 0.0 0.0 0.0 0.0 0.0 0.0 0.0 0.0 0.0 0.0 0.0 0.0 0.0 0.0 0.0 1.0 0.0 0.0 0.0 0.0 0.0 0.0 0.0 0.0 0.0 0.0 0.0 0.0 0.0 0.0 0.0 0.0 0.0 0.0 0.0 0.0 0.0 0.0 0.0 0.417910447761194 0.582089552238806 0.0 0.0 0.0 0.0 0.0 0.0 0.0 0.0 0.0 0.0 0.0 0.0 0.0 0.0 0.0 0.0 0.0 0.0 0.0 0.0 0.0 0.0 0.0 1.0 0.0 0.0 0.0 0.0 0.0 0.0 0.0 0.0 0.0 0.0 0.0 0.0 0.0 0.0 0.0 0.0 0.0 0.0 0.0 0.0 0.0 0.0 0.0 1.0 0.0 0.0 0.0 0.0 0.0 0.0 0.0 0.0 0.0 0.0 0.0 0.0 0.0 0.0 0.0 0.0 0.0 0.0 0.0 0.0 0.0 0.0 0.0 1.0 0.0 0.0 0.0 0.0 0.0 0.0 0.0 0.0 0.0 0.0 0.0 0.0 0.0 0.0 0.0 0.0 0.0 0.0 0.0 0.0 0.0 0.0 0.0 1.0 0.0 0.0 0.0 0.0 0.0 0.0 0.0 0.0 0.0 0.0 0.0 0.0 0.0 0.0 0.0 0.0 0.0 0.0 0.0 0.0 0.0 0.0 0.0 1.0 0.0 0.0 0.0 0.0 0.0 0.0 0.0 0.0 0.0 0.0 0.0 0.0 0.0 0.0 0.0 0.0 0.0 0.0 0.0 0.0 0.0 0.0 0.0 1.0 0.0 0.0 0.0 0.0 0.0 0.0 0.0 0.0 0.0 0.0 0.0 0.0 0.0 0.0 0.0 0.0 0.0 0.0 0.0 0.0 0.0 0.0 0.0 0.42857142857142855 0.0 0.5714285714285714 0.0 0.0 0.0 0.0 0.0 0.0 0.0 0.0 0.0 0.0 0.0 0.0 0.0 0.0 0.0 0.0 0.0 0.0 0.0 0.0 0.0 0.2558139534883721 0.0 0.7441860465116279 0.0 0.0 0.0 0.0 0.0 0.0 0.0 0.0 0.0 0.0 0.0 0.0 0.0 0.0 0.0 0.0 0.0 0.0 0.0 0.0 0.0 0.014705882352941176 0.0 0.9852941176470589 0.0 0.0 0.0 0.0 0.0 0.0 0.0 0.0 0.0 0.0 0.0 0.0 0.0 0.0 0.0 0.0 0.0 0.0 0.0 0.0 0.0 0.019569471624266144 0.0 0.9804305283757339 0.0 0.0 0.0 0.0 0.0 0.0 0.0 0.0 0.0 0.0 0.0 0.0 0.0 0.0 0.0 0.0 0.0 0.0 0.0 0.0 0.0 0.008298755186721992 0.0 0.991701244813278 0.0 0.0 0.0 0.0 0.0 0.0 0.0 0.0 0.0 0.0 0.0 0.0 0.0 0.0 0.0 0.0 0.0 0.0 0.0 0.0 0.0 0.0013908205841446453 0.0 0.9986091794158554 0.0 0.0 0.0 0.0 0.0 0.0 0.0 0.0 0.0 0.0 0.0 0.0 0.0 0.0 0.0 0.0 0.0 0.0 0.0 0.0 0.0 0.002336448598130841 0.0 0.9976635514018691 0.0 0.0 0.0 0.0 0.0 0.0 0.0 0.0 0.0 0.0 0.0 0.0 0.0 0.0 0.0 0.0 0.0 0.0 0.0 0.0 0.0 0.0030816640986132513 0.0 0.9969183359013868 0.0 0.0 0.0 0.0 0.0 0.0 0.0 0.0 0.0 0.0 0.0 0.0 0.0 0.0 0.0 0.0 0.0 0.0 0.0 0.0 0.0 0.0022727272727272726 0.0 0.9977272727272727 0.0 0.0 0.0 0.0 0.0 0.0 0.0 0.0 0.0 0.0 0.0 0.0 0.0 0.0 0.0 0.0 0.0 0.0 0.0 0.0 0.0 0.012987012987012988 0.0 0.987012987012987 0.0 0.0 0.0 0.0 0.0 0.0 0.0 0.0 0.0 0.0 0.0 0.0 0.0 0.0 0.0 0.0 0.0 0.0 0.0 0.0 0.0 0.014492753623188406 0.0 0.9855072463768116 0.0 0.0 0.0 0.0 0.0 0.0 0.0 0.0 0.0 0.0 0.0 0.0 0.0 0.0 0.0 0.0 0.0 0.0 0.0 0.0 0.0 0.0 0.0 1.0 0.0 0.0 0.0 0.0 0.0 0.0 0.0 0.0 0.0 0.0 0.0 0.0 0.0 0.0 0.0 0.0 0.0 0.0 0.0 0.0 0.0 0.0 0.0 1.0 0.0 0.0 0.0 0.0 0.0 0.0 0.0 0.0 0.0 0.0 0.0 0.0 0.0 0.0 0.0 0.0 0.0 0.0 0.0 0.0 0.0 0.03333333333333333 0.0 0.6666666666666666 0.3 0.0 0.0 0.0 0.0 0.0 0.0 0.0 0.0 0.0 0.0 0.0 0.0 0.0 0.0 0.0 0.0 0.0 0.0 0.0 0.0 0.0 0.0 0.0 1.0 0.0 0.0 0.0 0.0 0.0 0.0 0.0 0.0 0.0 0.0 0.0 0.0 0.0 0.0 0.0 0.0 0.0 0.0 0.0 0.0 0.0 0.0 0.0 1.0 0.0 0.0 0.0 0.0 0.0 0.0 0.0 0.0 0.0 0.0 0.0 0.0 0.0 0.0 0.0 0.0 0.0 0.0 0.0 0.0 0.0 0.0 0.0 1.0 0.0 0.0 0.0 0.0 0.0 0.0 0.0 0.0 0.0 0.0 0.0 0.0 0.0 0.0 0.0 0.0 0.0 0.0 0.0 0.0 0.0 0.0 0.0 1.0 0.0 0.0 0.0 0.0 0.0 0.0 0.0 0.0 0.0 0.0 0.0 0.0 0.0 0.0 0.0 0.0 0.0 0.0 0.0 0.0 0.0 0.0 0.0 1.0 0.0 0.0 0.0 0.0 0.0 0.0 0.0 0.0 0.0 0.0 0.0 0.0 0.0 0.0 0.0 0.0 0.0 0.0 0.0 0.0 0.0 0.0 0.0 1.0 0.0 0.0 0.0 0.0 0.0 0.0 0.0 0.0 0.0 0.0 0.0 0.0 0.0 0.0 0.0 0.0 0.0 0.0 0.0 0.0 0.0 0.0 0.0 1.0 0.0 0.0 0.0 0.0 0.0 0.0 0.0 0.0 0.0 0.0 0.0 0.0 0.0 0.0 0.0 0.0 0.0 0.0 0.0 0.0 0.0 0.0 0.0 1.0 0.0 0.0 0.0 0.0 0.0 0.0 0.0 0.0 0.0 0.0 0.0 0.0 0.0 0.0 0.0 0.0 0.0 0.0 0.0 0.0 0.5 0.0 0.0 0.5 0.0 0.0 0.0 0.0 0.0 0.0 0.0 0.0 0.0 0.0 0.0 0.0 0.0 0.0 0.0 0.0 0.0 0.0 0.0 0.0 0.0 0.0 0.0 1.0 0.0 0.0 0.0 0.0 0.0 0.0 0.0 0.0 0.0 0.0 0.0 0.0 0.0 0.0 0.0 0.0 0.0 0.0 0.0 0.0 0.0 0.0 0.0 1.0 0.0 0.0 0.0 0.0 0.0 0.0 0.0 0.0 0.0 0.0 0.0 0.0 0.0 0.0 0.0 0.0 0.0 0.0 0.0 0.0 1.0 0.0 0.0 0.0 0.0 0.0 0.0 0.0 0.0 0.0 0.0 0.0 0.0 0.0 0.0 0.0 0.0 0.0 0.0 0.0 0.0 0.0 0.0 0.0 0.0 0.0 0.0 0.0 1.0 0.0 0.0 0.0 0.0 0.0 0.0 0.0 0.0 0.0 0.0 0.0 0.0 0.0 0.0 0.0 0.0 0.0 0.0 </TABLE>
    </DEFINITION>
    <DEFINITION>
      <FOR>cpu</FOR>
      <GIVEN>fps</GIVEN>
      <TABLE>0.0 0.0 0.0 0.0 0.011627906976744186 0.10963455149501661 0.13953488372093023 0.18438538205980065 0.1777408637873754 0.06312292358803986 0.03488372093023256 0.03322259136212625 0.05149501661129568 0.046511627906976744 0.04318936877076412 0.044850498338870434 0.024916943521594685 0.011627906976744186 0.009966777408637873 0.0033222591362126247 0.0 0.0 0.0 0.0033222591362126247 0.0016611295681063123 0.0 0.0033222591362126247 0.0 0.0 0.0 0.0 0.0 0.0 0.0016611295681063123 0.0 0.0 0.0 0.0 0.0 0.0 0.0 0.0 0.0 0.0 0.0 0.0 0.0 0.0 0.0 0.0 0.0 0.0 0.0 0.0 0.0 0.0 0.0 0.0 0.0 0.0 0.0 0.0 0.0 0.0 0.0 0.0 0.0 0.0 0.0 0.0 0.0 0.0 0.0 0.0 0.0 0.0 0.0 0.0 0.0 0.0 0.008305647840531562 0.0016611295681063123 0.03986710963455149 0.10963455149501661 0.04318936877076412 0.15946843853820597 0.16943521594684385 0.10631229235880399 0.07973421926910298 0.0681063122923588 0.02159468438538206 0.016611295681063124 0.016611295681063124 0.018272425249169437 0.023255813953488372 0.026578073089700997 0.013289036544850499 0.026578073089700997 0.014950166112956811 0.008305647840531562 0.006644518272425249 0.009966777408637873 0.0033222591362126247 0.0 0.0 0.0016611295681063123 0.0 0.0 0.0016611295681063123 0.0016611295681063123 0.0 0.0016611295681063123 0.0 0.0 0.0 0.0 0.0 0.0 0.0 0.0 0.0 0.0 0.0 0.0 0.0 0.0016611295681063123 0.0 0.0 0.0 0.0 0.0 0.0 0.0 0.0 0.0 0.0 0.0 0.0 0.0 0.0 0.0 0.0 0.0 0.0 0.0 0.0 0.0 0.0 0.02826310380267215 0.21120246659815006 0.09403905447070915 0.03442959917780062 0.012332990750256937 0.013360739979445015 0.014902363823227132 0.013360739979445015 0.008735868448098663 0.0025693730729701952 0.0046248715313463515 0.001541623843782117 0.0020554984583761563 0.0010277492291880781 0.0020554984583761563 0.0010277492291880781 0.0010277492291880781 0.0020554984583761563 0.0 0.0005138746145940391 0.001541623843782117 0.0010277492291880781 0.001541623843782117 0.001541623843782117 0.0005138746145940391 0.0051387461459403904 0.008221993833504625 0.0035971223021582736 0.006680369989722507 0.006680369989722507 0.0046248715313463515 0.006166495375128468 0.008221993833504625 0.0041109969167523125 0.006166495375128468 0.0035971223021582736 0.003083247687564234 0.0025693730729701952 0.003083247687564234 0.0 0.0020554984583761563 0.0025693730729701952 0.0035971223021582736 0.0005138746145940391 0.0025693730729701952 0.003083247687564234 0.0041109969167523125 0.0020554984583761563 0.017985611510791366 0.06217882836587873 0.19270298047276466 0.07605344295991778 0.040082219938335044 0.018499486125385406 0.01079136690647482 0.014902363823227132 0.006166495375128468 0.008221993833504625 0.0010277492291880781 0.0005138746145940391 0.001541623843782117 0.0 0.0 0.0005138746145940391 0.0 0.0005138746145940391 0.0 0.0 0.0005138746145940391 0.0 0.0 0.0 0.0 0.0 0.018313458262350937 0.18057921635434412 0.10264054514480409 0.04131175468483816 0.005536626916524702 0.006388415672913117 0.00596252129471891 0.004258943781942078 0.0034071550255536627 0.0012776831345826234 0.0012776831345826234 0.0 0.0012776831345826234 0.0008517887563884157 0.0012776831345826234 0.00596252129471891 0.010647359454855196 0.016183986371379896 0.018313458262350937 0.01746166950596252 0.036201022146507666 0.036626916524701875 0.026405451448040886 0.019591141396933562 0.011499148211243612 0.013202725724020443 0.007666098807495741 0.002981260647359455 0.0034071550255536627 0.0034071550255536627 0.002555366269165247 0.002129471890971039 0.002981260647359455 0.0038330494037478705 0.0017035775127768314 0.002129471890971039 0.002981260647359455 0.0008517887563884157 0.0017035775127768314 0.0012776831345826234 0.00042589437819420784 0.0 0.0 0.00042589437819420784 0.0 0.0 0.0 0.0008517887563884157 0.0 0.0038330494037478705 0.022146507666098807 0.04514480408858603 0.07240204429301533 0.0821976149914821 0.07197614991482112 0.04301533219761499 0.013628620102214651 0.007240204429301534 0.002555366269165247 0.002129471890971039 0.002129471890971039 0.002129471890971039 0.0012776831345826234 0.0 0.0 0.0 0.00042589437819420784 0.0 0.0 0.0 0.0 0.0 0.0 0.0 0.021764032073310423 0.2508591065292096 0.06643757159221077 0.1145475372279496 0.030355097365406643 0.001718213058419244 0.00859106529209622 0.001718213058419244 0.001145475372279496 0.0 0.001145475372279496 0.0 0.0 0.0 0.000572737686139748 0.0 0.0 0.0 0.000572737686139748 0.0 0.000572737686139748 0.0 0.0 0.0 0.0 0.0 0.0 0.0 0.0 0.0 0.0 0.0 0.0 0.0 0.0 0.0 0.0 0.0 0.0 0.0 0.0 0.0 0.0 0.0 0.0 0.0 0.0 0.0 0.0 0.001145475372279496 0.013172966781214204 0.050400916380297825 0.0859106529209622 0.13058419243986255 0.08877434135166094 0.05784650630011455 0.03150057273768614 0.013172966781214204 0.010309278350515464 0.006872852233676976 0.005154639175257732 0.001145475372279496 0.000572737686139748 0.0 0.000572737686139748 0.000572737686139748 0.0 0.0 0.000572737686139748 0.0 0.000572737686139748 0.001145475372279496 0.0 0.0 0.02512776831345826 0.16609880749574105 0.03833049403747871 0.09625212947189098 0.030664395229982964 0.004684838160136286 0.007666098807495741 0.0017035775127768314 0.00042589437819420784 0.00042589437819420784 0.00042589437819420784 0.0 0.0 0.0 0.0 0.0 0.0012776831345826234 0.0012776831345826234 0.00042589437819420784 0.002555366269165247 0.020868824531516183 0.002981260647359455 0.009795570698466781 0.014054514480408859 0.02001703577512777 0.02512776831345826 0.028109028960817718 0.009795570698466781 0.026405451448040886 0.024701873935264053 0.014906303236797274 0.004684838160136286 0.009795570698466781 0.007240204429301534 0.004684838160136286 0.0012776831345826234 0.0034071550255536627 0.002981260647359455 0.0012776831345826234 0.002981260647359455 0.0034071550255536627 0.0008517887563884157 0.0038330494037478705 0.0 0.0038330494037478705 0.0012776831345826234 0.0012776831345826234 0.0 0.00042589437819420784 0.0008517887563884157 0.013628620102214651 0.028109028960817718 0.07836456558773425 0.0924190800681431 0.06473594548551959 0.051959114139693355 0.020868824531516183 0.010221465076660987 0.004258943781942078 0.002129471890971039 0.0017035775127768314 0.0017035775127768314 0.00042589437819420784 0.0 0.00042589437819420784 0.00042589437819420784 0.00042589437819420784 0.0 0.0 0.0 0.0 0.0 0.0 0.0 0.045819014891179836 0.2325315005727377 0.05670103092783505 0.09736540664375716 0.0429553264604811 0.006872852233676976 0.010882016036655211 0.001145475372279496 0.001718213058419244 0.001145475372279496 0.001145475372279496 0.0 0.000572737686139748 0.0 0.000572737686139748 0.000572737686139748 0.0 0.0 0.0 0.0 0.0 0.0 0.0 0.0 0.0 0.0 0.0 0.0 0.0 0.0 0.0 0.0 0.0 0.0 0.0 0.0 0.0 0.0 0.0 0.0 0.0 0.0 0.0 0.0 0.0 0.0 0.0 0.0 0.0 0.000572737686139748 0.013172966781214204 0.04066437571592211 0.07846506300114547 0.1036655211912944 0.0859106529209622 0.04982817869415808 0.04639175257731959 0.03264604810996564 0.015463917525773196 0.014891179839633447 0.005154639175257732 0.004009163802978236 0.003436426116838488 0.001145475372279496 0.001718213058419244 0.000572737686139748 0.0 0.000572737686139748 0.000572737686139748 0.000572737686139748 0.0 0.0 0.0 0.000572737686139748 0.0 0.0 0.0 0.0 0.0 0.0 0.0 0.0 0.0 0.0 0.0 0.0 0.0 0.0 0.0 0.0016611295681063123 0.0049833887043189366 0.013289036544850499 0.0016611295681063123 0.0033222591362126247 0.061461794019933555 0.018272425249169437 0.053156146179401995 0.061461794019933555 0.09966777408637874 0.11960132890365449 0.11627906976744186 0.011627906976744186 0.07807308970099668 0.09800664451827243 0.05149501661129568 0.011627906976744186 0.04318936877076412 0.026578073089700997 0.013289036544850499 0.0033222591362126247 0.011627906976744186 0.013289036544850499 0.011627906976744186 0.0016611295681063123 0.016611295681063124 0.006644518272425249 0.023255813953488372 0.006644518272425249 0.0049833887043189366 0.0 0.0033222591362126247 0.0 0.0016611295681063123 0.0 0.0016611295681063123 0.0 0.0 0.0016611295681063123 0.0 0.0 0.0016611295681063123 0.0 0.0 0.0 0.0 0.0 0.0 0.0 0.0 0.0 0.0 0.0 0.0 0.0016611295681063123 0.0 0.0 0.0 0.0 0.0 0.0 0.0 0.0 0.0 0.0 0.0 0.0 0.0 0.0 0.0 0.0 0.0 0.0 0.0016611295681063123 0.0 0.008305647840531562 0.013289036544850499 0.0016611295681063123 0.014950166112956811 0.05813953488372093 0.024916943521594685 0.03322259136212625 0.04152823920265781 0.0681063122923588 0.11794019933554817 0.16279069767441862 0.02159468438538206 0.06976744186046512 0.10299003322259136 0.03488372093023256 0.02159468438538206 0.044850498338870434 0.02823920265780731 0.011627906976744186 0.0016611295681063123 0.008305647840531562 0.009966777408637873 0.009966777408637873 0.0049833887043189366 0.024916943521594685 0.014950166112956811 0.019933554817275746 0.0033222591362126247 0.006644518272425249 0.0 0.0016611295681063123 0.0 0.0033222591362126247 0.0 0.0049833887043189366 0.0016611295681063123 0.0 0.0 0.0 0.0 0.0 0.0016611295681063123 0.0 0.0 0.0 0.0 0.0 0.0 0.0 0.0 0.0 0.0 0.0 0.0 0.0 0.0 0.0 0.0 0.0 0.0 0.0 0.0 0.0 0.0 0.0 0.0 0.0 0.0 0.0 0.0 0.0 0.0016611295681063123 0.0 0.0 0.006644518272425249 0.011627906976744186 0.0033222591362126247 0.006644518272425249 0.07475083056478406 0.019933554817275746 0.024916943521594685 0.05149501661129568 0.08139534883720931 0.09800664451827243 0.1461794019933555 0.02159468438538206 0.07807308970099668 0.09800664451827243 0.05149501661129568 0.014950166112956811 0.03156146179401993 0.03156146179401993 0.026578073089700997 0.0033222591362126247 0.008305647840531562 0.016611295681063124 0.018272425249169437 0.0049833887043189366 0.019933554817275746 0.006644518272425249 0.016611295681063124 0.0049833887043189366 0.008305647840531562 0.0033222591362126247 0.0033222591362126247 0.0 0.0016611295681063123 0.0 0.0016611295681063123 0.0016611295681063123 0.0 0.0 0.0 0.0 0.0 0.0 0.0 0.0 0.0 0.0 0.0 0.0 0.0 0.0 0.0 0.0 0.0 0.0 0.0 0.0 0.0 0.0 0.0 0.0 0.0 0.0 0.0 0.0 0.0 0.0 0.0 0.0 0.0 0.0 0.0 0.0 0.0 0.0 0.009966777408637873 0.008305647840531562 0.006644518272425249 0.013289036544850499 0.08637873754152824 0.018272425249169437 0.02159468438538206 0.061461794019933555 0.07641196013289037 0.10631229235880399 0.13122923588039867 0.029900332225913623 0.07641196013289037 0.08305647840531562 0.04817275747508306 0.013289036544850499 0.06312292358803986 0.036544850498338874 0.019933554817275746 0.008305647840531562 0.009966777408637873 0.011627906976744186 0.006644518272425249 0.0049833887043189366 0.008305647840531562 0.0033222591362126247 0.009966777408637873 0.0033222591362126247 0.008305647840531562 0.0033222591362126247 0.0016611295681063123 0.0 0.0033222591362126247 0.0016611295681063123 0.0 0.0 0.0 0.0 0.0033222591362126247 0.0 0.0016611295681063123 0.0 0.0 0.0 0.0 0.0 0.0 0.0 0.0 0.0 0.0 0.0 0.0 0.0 0.0 0.0 0.0 0.0 0.0 0.0 0.0 0.0 0.0 0.0 0.0 0.0 0.0 0.0 0.0 0.0 0.0 0.0 0.0 0.0016611295681063123 0.009966777408637873 0.009966777408637873 0.0049833887043189366 0.0049833887043189366 0.07308970099667775 0.024916943521594685 0.018272425249169437 0.06312292358803986 0.0946843853820598 0.09136212624584718 0.1362126245847176 0.019933554817275746 0.08139534883720931 0.10465116279069768 0.036544850498338874 0.018272425249169437 0.036544850498338874 0.02823920265780731 0.019933554817275746 0.0049833887043189366 0.014950166112956811 0.014950166112956811 0.0033222591362126247 0.006644518272425249 0.019933554817275746 0.006644518272425249 0.019933554817275746 0.0033222591362126247 0.013289036544850499 0.0033222591362126247 0.0033222591362126247 0.0016611295681063123 0.0016611295681063123 0.0 0.0016611295681063123 0.0 0.0 0.0 0.0 0.0 0.0 0.0 0.0 0.0 0.0 0.0 0.0 0.0 0.0 0.0 0.0 0.0 0.0 0.0 0.0 0.0 0.0016611295681063123 0.0 </TABLE>
    </DEFINITION>
    <DEFINITION>
      <FOR>delta</FOR>
      <GIVEN>device_type</GIVEN>
      <GIVEN>fps</GIVEN>
      <TABLE>0.012987012987012988 0.012987012987012988 0.012987012987012988 0.012987012987012988 0.012987012987012988 0.012987012987012988 0.012987012987012988 0.012987012987012988 0.012987012987012988 0.012987012987012988 0.012987012987012988 0.012987012987012988 0.012987012987012988 0.012987012987012988 0.012987012987012988 0.012987012987012988 0.012987012987012988 0.012987012987012988 0.012987012987012988 0.012987012987012988 0.012987012987012988 0.012987012987012988 0.012987012987012988 0.012987012987012988 0.012987012987012988 0.012987012987012988 0.012987012987012988 0.012987012987012988 0.012987012987012988 0.012987012987012988 0.012987012987012988 0.012987012987012988 0.012987012987012988 0.012987012987012988 0.012987012987012988 0.012987012987012988 0.012987012987012988 0.012987012987012988 0.012987012987012988 0.012987012987012988 0.012987012987012988 0.012987012987012988 0.012987012987012988 0.012987012987012988 0.012987012987012988 0.012987012987012988 0.012987012987012988 0.012987012987012988 0.012987012987012988 0.012987012987012988 0.012987012987012988 0.012987012987012988 0.012987012987012988 0.012987012987012988 0.012987012987012988 0.012987012987012988 0.012987012987012988 0.012987012987012988 0.012987012987012988 0.012987012987012988 0.012987012987012988 0.012987012987012988 0.012987012987012988 0.012987012987012988 0.012987012987012988 0.012987012987012988 0.012987012987012988 0.012987012987012988 0.012987012987012988 0.012987012987012988 0.012987012987012988 0.012987012987012988 0.012987012987012988 0.012987012987012988 0.012987012987012988 0.012987012987012988 0.012987012987012988 0.012987012987012988 0.012987012987012988 0.012987012987012988 0.012987012987012988 0.012987012987012988 0.012987012987012988 0.012987012987012988 0.012987012987012988 0.012987012987012988 0.012987012987012988 0.012987012987012988 0.012987012987012988 0.012987012987012988 0.012987012987012988 0.012987012987012988 0.012987012987012988 0.012987012987012988 0.012987012987012988 0.012987012987012988 0.012987012987012988 0.012987012987012988 0.012987012987012988 0.012987012987012988 0.012987012987012988 0.012987012987012988 0.012987012987012988 0.012987012987012988 0.012987012987012988 0.012987012987012988 0.012987012987012988 0.012987012987012988 0.012987012987012988 0.012987012987012988 0.012987012987012988 0.012987012987012988 0.012987012987012988 0.012987012987012988 0.012987012987012988 0.012987012987012988 0.012987012987012988 0.012987012987012988 0.012987012987012988 0.012987012987012988 0.012987012987012988 0.012987012987012988 0.012987012987012988 0.012987012987012988 0.012987012987012988 0.012987012987012988 0.012987012987012988 0.012987012987012988 0.012987012987012988 0.012987012987012988 0.012987012987012988 0.012987012987012988 0.012987012987012988 0.012987012987012988 0.012987012987012988 0.012987012987012988 0.012987012987012988 0.012987012987012988 0.012987012987012988 0.012987012987012988 0.012987012987012988 0.012987012987012988 0.012987012987012988 0.012987012987012988 0.012987012987012988 0.012987012987012988 0.012987012987012988 0.012987012987012988 0.012987012987012988 0.012987012987012988 0.012987012987012988 0.012987012987012988 0.012987012987012988 0.012987012987012988 0.0 0.0 0.0 0.0 0.0 0.0 0.0 0.0 0.0 0.0 0.0 0.0 0.0 0.0 0.0 0.0 0.0 0.0 0.0 0.0 0.0 0.0 0.0 0.0 0.0882016036655212 0.042382588774341354 0.041237113402061855 0.08247422680412371 0.07789232531500573 0.06643757159221077 0.05154639175257732 0.049255441008018326 0.027491408934707903 0.021764032073310423 0.054982817869415807 0.17525773195876287 0.09278350515463918 0.013745704467353952 0.003436426116838488 0.001145475372279496 0.002290950744558992 0.0 0.002290950744558992 0.001145475372279496 0.002290950744558992 0.002290950744558992 0.0 0.002290950744558992 0.001145475372279496 0.0 0.001145475372279496 0.002290950744558992 0.001145475372279496 0.001145475372279496 0.0 0.002290950744558992 0.001145475372279496 0.001145475372279496 0.002290950744558992 0.002290950744558992 0.002290950744558992 0.003436426116838488 0.045819014891179836 0.025200458190148912 0.001145475372279496 0.0 0.0 0.001145475372279496 0.001145475372279496 0.001145475372279496 0.0 0.0 0.0 0.0 0.0 0.0 0.0 0.0 0.0 0.0 0.0 0.0 0.0 0.0 0.0 0.0 0.0 0.0 0.0 0.0 0.0 0.0 0.0 0.0 0.0 0.0 0.0 0.0 0.0 0.0 0.0 0.0 0.0 0.0 0.0 0.0 0.0 0.0 0.0057273768613974796 0.058419243986254296 0.13631156930126 0.09965635738831616 0.010309278350515464 0.004581901489117984 0.004581901489117984 0.019473081328751432 0.09163802978235967 0.1672394043528064 0.053837342497136315 0.001145475372279496 0.0 0.001145475372279496 0.002290950744558992 0.004581901489117984 0.002290950744558992 0.001145475372279496 0.002290950744558992 0.0 0.0 0.0 0.0 0.0 0.002290950744558992 0.002290950744558992 0.037800687285223365 0.1466208476517755 0.08705612829324169 0.042382588774341354 0.012600229095074456 0.001145475372279496 0.001145475372279496 0.0 0.0 0.0 0.0 0.0 0.0 0.0 0.0 0.0 0.0 0.0 0.0 0.0 0.0 0.0 0.0 0.0 0.0 0.0 0.0 0.0 0.0 0.0 0.0 0.0 0.0 0.0 0.0 0.0 0.0 0.0 0.0 0.0 0.0 0.0 0.0 0.0 0.0 0.0 0.0 0.0 0.0 0.0 0.0 0.001145475372279496 0.041237113402061855 0.13860252004581902 0.21764032073310424 0.12829324169530354 0.045819014891179836 0.002290950744558992 0.002290950744558992 0.004581901489117984 0.041237113402061855 0.035509736540664374 0.004581901489117984 0.001145475372279496 0.002290950744558992 0.0 0.0 0.0 0.0 0.0 0.0 0.0 0.0 0.0 0.009163802978235968 0.008018327605956471 0.016036655211912942 0.12027491408934708 0.0859106529209622 0.058419243986254296 0.019473081328751432 0.006872852233676976 0.002290950744558992 0.002290950744558992 0.002290950744558992 0.001145475372279496 0.001145475372279496 0.0 0.0 0.0 0.0 0.0 0.0 0.0 0.0 0.0 0.0 0.0 0.0 0.0 0.0 0.0 0.0 0.0 0.0 0.0 0.0 0.0 0.0 0.0 0.0 0.0 0.0 0.0 0.0 0.0 0.0 0.0 0.0 0.0 0.0 0.0 0.0 0.0 0.0 0.0 0.0 0.0 0.0 0.053837342497136315 0.19129438717067582 0.06071019473081329 0.020618556701030927 0.003436426116838488 0.001145475372279496 0.012600229095074456 0.09049255441008018 0.16838487972508592 0.058419243986254296 0.008018327605956471 0.006872852233676976 0.024054982817869417 0.0572737686139748 0.020618556701030927 0.0057273768613974796 0.001145475372279496 0.0 0.002290950744558992 0.0 0.0 0.003436426116838488 0.0057273768613974796 0.0 0.002290950744558992 0.058419243986254296 0.06643757159221077 0.009163802978235968 0.013745704467353952 0.046964490263459335 0.0057273768613974796 0.0 0.0 0.0 0.0 0.001145475372279496 0.0 0.0 0.0 0.0 0.0 0.0 0.0 0.0 0.0 0.0 0.0 0.0 0.0 0.0 0.0 0.0 0.0 0.0 0.0 0.0 0.0 0.0 0.0 0.0 0.0 0.0 0.0 0.0 0.0 0.0 0.0 0.0 0.0 0.0 0.0 0.0 0.0 0.0 0.0 0.0 0.001145475372279496 0.07101947308132875 0.14891179839633448 0.12485681557846506 0.049255441008018326 0.018327605956471937 0.1111111111111111 0.12714776632302405 0.049255441008018326 0.025200458190148912 0.003436426116838488 0.0 0.003436426116838488 0.004581901489117984 0.002290950744558992 0.001145475372279496 0.0057273768613974796 0.0 0.001145475372279496 0.035509736540664374 0.11798396334478808 0.05956471935853379 0.019473081328751432 0.010309278350515464 0.008018327605956471 0.001145475372279496 0.0 0.0 0.0 0.0 0.0 0.0 0.0 0.0 0.0 0.0 0.0 0.0 0.0 0.0 0.0 0.0 0.0 0.0 0.0 0.0 0.012987012987012988 0.012987012987012988 0.012987012987012988 0.012987012987012988 0.012987012987012988 0.012987012987012988 0.012987012987012988 0.012987012987012988 0.012987012987012988 0.012987012987012988 0.012987012987012988 0.012987012987012988 0.012987012987012988 0.012987012987012988 0.012987012987012988 0.012987012987012988 0.012987012987012988 0.012987012987012988 0.012987012987012988 0.012987012987012988 0.012987012987012988 0.012987012987012988 0.012987012987012988 0.012987012987012988 0.012987012987012988 0.012987012987012988 0.012987012987012988 0.012987012987012988 0.012987012987012988 0.012987012987012988 0.012987012987012988 0.012987012987012988 0.012987012987012988 0.012987012987012988 0.012987012987012988 0.012987012987012988 0.012987012987012988 0.012987012987012988 0.012987012987012988 0.012987012987012988 0.012987012987012988 0.012987012987012988 0.012987012987012988 0.012987012987012988 0.012987012987012988 0.012987012987012988 0.012987012987012988 0.012987012987012988 0.012987012987012988 0.012987012987012988 0.012987012987012988 0.012987012987012988 0.012987012987012988 0.012987012987012988 0.012987012987012988 0.012987012987012988 0.012987012987012988 0.012987012987012988 0.012987012987012988 0.012987012987012988 0.012987012987012988 0.012987012987012988 0.012987012987012988 0.012987012987012988 0.012987012987012988 0.012987012987012988 0.012987012987012988 0.012987012987012988 0.012987012987012988 0.012987012987012988 0.012987012987012988 0.012987012987012988 0.012987012987012988 0.012987012987012988 0.012987012987012988 0.012987012987012988 0.012987012987012988 0.012987012987012988 0.012987012987012988 0.012987012987012988 0.012987012987012988 0.012987012987012988 0.012987012987012988 0.012987012987012988 0.012987012987012988 0.012987012987012988 0.012987012987012988 0.012987012987012988 0.012987012987012988 0.012987012987012988 0.012987012987012988 0.012987012987012988 0.012987012987012988 0.012987012987012988 0.012987012987012988 0.012987012987012988 0.012987012987012988 0.012987012987012988 0.012987012987012988 0.012987012987012988 0.012987012987012988 0.012987012987012988 0.012987012987012988 0.012987012987012988 0.012987012987012988 0.012987012987012988 0.012987012987012988 0.012987012987012988 0.012987012987012988 0.012987012987012988 0.012987012987012988 0.012987012987012988 0.012987012987012988 0.012987012987012988 0.012987012987012988 0.012987012987012988 0.012987012987012988 0.012987012987012988 0.012987012987012988 0.012987012987012988 0.012987012987012988 0.012987012987012988 0.012987012987012988 0.012987012987012988 0.012987012987012988 0.012987012987012988 0.012987012987012988 0.012987012987012988 0.012987012987012988 0.012987012987012988 0.012987012987012988 0.012987012987012988 0.012987012987012988 0.012987012987012988 0.012987012987012988 0.012987012987012988 0.012987012987012988 0.012987012987012988 0.012987012987012988 0.012987012987012988 0.012987012987012988 0.012987012987012988 0.012987012987012988 0.012987012987012988 0.012987012987012988 0.012987012987012988 0.012987012987012988 0.012987012987012988 0.012987012987012988 0.012987012987012988 0.012987012987012988 0.012987012987012988 0.012987012987012988 0.012987012987012988 0.012987012987012988 0.012987012987012988 0.012987012987012988 0.012987012987012988 0.012987012987012988 0.012987012987012988 0.012987012987012988 0.012987012987012988 0.012987012987012988 0.012987012987012988 0.012987012987012988 0.012987012987012988 0.012987012987012988 0.012987012987012988 0.012987012987012988 0.012987012987012988 0.012987012987012988 0.012987012987012988 0.012987012987012988 0.012987012987012988 0.012987012987012988 0.012987012987012988 0.012987012987012988 0.012987012987012988 0.012987012987012988 0.012987012987012988 0.012987012987012988 0.012987012987012988 0.012987012987012988 0.012987012987012988 0.012987012987012988 0.012987012987012988 0.012987012987012988 0.012987012987012988 0.012987012987012988 0.012987012987012988 0.012987012987012988 0.012987012987012988 0.012987012987012988 0.012987012987012988 0.012987012987012988 0.012987012987012988 0.012987012987012988 0.012987012987012988 0.012987012987012988 0.012987012987012988 0.012987012987012988 0.012987012987012988 0.012987012987012988 0.012987012987012988 0.012987012987012988 0.012987012987012988 0.012987012987012988 0.012987012987012988 0.012987012987012988 0.012987012987012988 0.012987012987012988 0.012987012987012988 0.012987012987012988 0.012987012987012988 0.012987012987012988 0.012987012987012988 0.012987012987012988 0.012987012987012988 0.012987012987012988 0.012987012987012988 0.012987012987012988 0.012987012987012988 0.012987012987012988 0.012987012987012988 0.012987012987012988 0.012987012987012988 0.012987012987012988 0.012987012987012988 0.012987012987012988 0.012987012987012988 0.012987012987012988 0.012987012987012988 0.012987012987012988 0.012987012987012988 0.012987012987012988 0.012987012987012988 0.012987012987012988 0.012987012987012988 0.012987012987012988 0.012987012987012988 0.012987012987012988 0.012987012987012988 0.012987012987012988 0.012987012987012988 0.012987012987012988 0.012987012987012988 0.012987012987012988 0.012987012987012988 0.012987012987012988 0.012987012987012988 0.012987012987012988 0.012987012987012988 0.012987012987012988 0.012987012987012988 0.012987012987012988 0.012987012987012988 0.012987012987012988 0.012987012987012988 0.012987012987012988 0.012987012987012988 0.012987012987012988 0.012987012987012988 0.012987012987012988 0.012987012987012988 0.012987012987012988 0.012987012987012988 0.012987012987012988 0.012987012987012988 0.012987012987012988 0.012987012987012988 0.012987012987012988 0.012987012987012988 0.012987012987012988 0.012987012987012988 0.012987012987012988 0.012987012987012988 0.012987012987012988 0.012987012987012988 0.012987012987012988 0.012987012987012988 0.012987012987012988 0.012987012987012988 0.012987012987012988 0.012987012987012988 0.012987012987012988 0.012987012987012988 0.012987012987012988 0.012987012987012988 0.012987012987012988 0.012987012987012988 0.012987012987012988 0.012987012987012988 0.012987012987012988 0.012987012987012988 0.012987012987012988 0.012987012987012988 0.012987012987012988 0.012987012987012988 0.012987012987012988 0.012987012987012988 0.012987012987012988 0.012987012987012988 0.012987012987012988 0.012987012987012988 0.012987012987012988 0.012987012987012988 0.012987012987012988 0.012987012987012988 0.012987012987012988 0.012987012987012988 0.012987012987012988 0.012987012987012988 0.012987012987012988 0.012987012987012988 0.012987012987012988 0.012987012987012988 0.012987012987012988 0.012987012987012988 0.012987012987012988 0.012987012987012988 0.012987012987012988 0.012987012987012988 0.012987012987012988 0.012987012987012988 0.012987012987012988 0.012987012987012988 0.012987012987012988 0.012987012987012988 0.012987012987012988 0.012987012987012988 0.012987012987012988 0.012987012987012988 0.012987012987012988 0.012987012987012988 0.012987012987012988 0.012987012987012988 0.012987012987012988 0.012987012987012988 0.012987012987012988 0.012987012987012988 0.012987012987012988 0.012987012987012988 0.012987012987012988 0.012987012987012988 0.012987012987012988 0.012987012987012988 0.012987012987012988 0.012987012987012988 0.012987012987012988 0.012987012987012988 0.012987012987012988 0.012987012987012988 0.012987012987012988 0.012987012987012988 0.012987012987012988 0.012987012987012988 0.012987012987012988 0.012987012987012988 0.012987012987012988 0.012987012987012988 0.012987012987012988 0.012987012987012988 0.012987012987012988 0.012987012987012988 0.012987012987012988 0.012987012987012988 0.012987012987012988 0.012987012987012988 0.012987012987012988 0.012987012987012988 0.012987012987012988 0.012987012987012988 0.012987012987012988 0.012987012987012988 0.012987012987012988 0.012987012987012988 0.012987012987012988 0.012987012987012988 0.012987012987012988 0.012987012987012988 0.012987012987012988 0.012987012987012988 0.012987012987012988 0.012987012987012988 0.012987012987012988 0.0 0.0 0.0 0.0 0.0 0.0 0.0 0.0 0.0 0.0 0.0 0.0 0.0 0.0 0.0 0.0 0.0 0.0 0.0 0.0 0.0 0.0 0.0 0.0049833887043189366 0.054817275747508304 0.1345514950166113 0.21262458471760798 0.27906976744186046 0.16943521594684385 0.046511627906976744 0.026578073089700997 0.019933554817275746 0.018272425249169437 0.008305647840531562 0.009966777408637873 0.0049833887043189366 0.006644518272425249 0.0016611295681063123 0.0016611295681063123 0.0 0.0 0.0 0.0 0.0 0.0 0.0 0.0 0.0 0.0 0.0 0.0 0.0 0.0 0.0 0.0 0.0 0.0 0.0 0.0 0.0 0.0 0.0 0.0 0.0 0.0 0.0 0.0 0.0 0.0 0.0 0.0 0.0 0.0 0.0 0.0 0.0 0.0 0.0 0.0 0.0 0.0 0.0 0.0 0.0 0.0 0.0 0.0 0.0 0.0 0.0 0.0 0.0 0.0 0.0 0.0 0.0 0.0 0.0 0.0016611295681063123 0.11129568106312292 0.584717607973422 0.11960132890365449 0.07142857142857142 0.053156146179401995 0.023255813953488372 0.006644518272425249 0.0016611295681063123 0.008305647840531562 0.009966777408637873 0.0049833887043189366 0.0016611295681063123 0.0 0.0 0.0 0.0016611295681063123 0.0 0.0 0.0 0.0 0.0 0.0 0.0 0.0 0.0 0.0 0.0 0.0 0.0 0.0 0.0 0.0 0.0 0.0 0.0 0.0 0.0 0.0 0.0 0.0 0.0 0.0 0.0 0.0 0.0 0.0 0.0 0.0 0.0 0.0 0.0 0.0 0.0 0.0 0.0 0.0 0.0 0.0 0.0 0.0 0.0 0.0 0.0 0.0 0.0 0.0 0.0 0.0 0.0 0.0 0.0 0.0 0.0 0.0 0.0 0.0 0.0 0.0 0.0 0.0 0.0 0.0 0.0 0.0 0.025 0.045 0.16 0.145 0.165 0.115 0.07 0.06 0.04 0.05 0.02 0.01 0.01 0.01 0.005 0.005 0.0 0.01 0.005 0.0 0.0 0.005 0.0 0.0 0.01 0.0 0.0 0.005 0.005 0.0 0.0 0.0 0.005 0.005 0.0 0.0 0.0 0.0 0.0 0.0 0.0 0.005 0.0 0.005 0.0 0.0 0.0 0.005 0.0 0.0 0.0 0.0 0.0 0.0 0.0 0.0 0.0 0.0 0.0 0.0 0.0 0.0 0.0 0.0 0.0 0.0 0.0 0.0 0.0 0.044850498338870434 0.1478405315614618 0.11295681063122924 0.10631229235880399 0.15780730897009967 0.1760797342192691 0.1511627906976744 0.05647840531561462 0.023255813953488372 0.016611295681063124 0.0033222591362126247 0.0033222591362126247 0.0 0.0 0.0 0.0 0.0 0.0 0.0 0.0 0.0 0.0 0.0 0.0 0.0 0.0 0.0 0.0 0.0 0.0 0.0 0.0 0.0 0.0 0.0 0.0 0.0 0.0 0.0 0.0 0.0 0.0 0.0 0.0 0.0 0.0 0.0 0.0 0.0 0.0 0.0 0.0 0.0 0.0 0.0 0.0 0.012987012987012988 0.012987012987012988 0.012987012987012988 0.012987012987012988 0.012987012987012988 0.012987012987012988 0.012987012987012988 0.012987012987012988 0.012987012987012988 0.012987012987012988 0.012987012987012988 0.012987012987012988 0.012987012987012988 0.012987012987012988 0.012987012987012988 0.012987012987012988 0.012987012987012988 0.012987012987012988 0.012987012987012988 0.012987012987012988 0.012987012987012988 0.012987012987012988 0.012987012987012988 0.012987012987012988 0.012987012987012988 0.012987012987012988 0.012987012987012988 0.012987012987012988 0.012987012987012988 0.012987012987012988 0.012987012987012988 0.012987012987012988 0.012987012987012988 0.012987012987012988 0.012987012987012988 0.012987012987012988 0.012987012987012988 0.012987012987012988 0.012987012987012988 0.012987012987012988 0.012987012987012988 0.012987012987012988 0.012987012987012988 0.012987012987012988 0.012987012987012988 0.012987012987012988 0.012987012987012988 0.012987012987012988 0.012987012987012988 0.012987012987012988 0.012987012987012988 0.012987012987012988 0.012987012987012988 0.012987012987012988 0.012987012987012988 0.012987012987012988 0.012987012987012988 0.012987012987012988 0.012987012987012988 0.012987012987012988 0.012987012987012988 0.012987012987012988 0.012987012987012988 0.012987012987012988 0.012987012987012988 0.012987012987012988 0.012987012987012988 0.012987012987012988 0.012987012987012988 0.012987012987012988 0.012987012987012988 0.012987012987012988 0.012987012987012988 0.012987012987012988 0.012987012987012988 0.012987012987012988 0.012987012987012988 0.0 0.0 0.0 0.0 0.0 0.0 0.0 0.0 0.0 0.0 0.0 0.0 0.0 0.0 0.0 0.0 0.0 0.0 0.0 0.0 0.0016611295681063123 0.014950166112956811 0.07807308970099668 0.11129568106312292 0.06312292358803986 0.08471760797342193 0.1644518272425249 0.18438538205980065 0.13122923588039867 0.08803986710963455 0.046511627906976744 0.018272425249169437 0.008305647840531562 0.0033222591362126247 0.0 0.0 0.0016611295681063123 0.0 0.0 0.0 0.0 0.0 0.0 0.0 0.0 0.0 0.0 0.0 0.0 0.0 0.0 0.0 0.0 0.0 0.0 0.0 0.0 0.0 0.0 0.0 0.0 0.0 0.0 0.0 0.0 0.0 0.0 0.0 0.0 0.0 0.0 0.0 0.0 0.0 0.0 0.0 0.0 0.012987012987012988 0.012987012987012988 0.012987012987012988 0.012987012987012988 0.012987012987012988 0.012987012987012988 0.012987012987012988 0.012987012987012988 0.012987012987012988 0.012987012987012988 0.012987012987012988 0.012987012987012988 0.012987012987012988 0.012987012987012988 0.012987012987012988 0.012987012987012988 0.012987012987012988 0.012987012987012988 0.012987012987012988 0.012987012987012988 0.012987012987012988 0.012987012987012988 0.012987012987012988 0.012987012987012988 0.012987012987012988 0.012987012987012988 0.012987012987012988 0.012987012987012988 0.012987012987012988 0.012987012987012988 0.012987012987012988 0.012987012987012988 0.012987012987012988 0.012987012987012988 0.012987012987012988 0.012987012987012988 0.012987012987012988 0.012987012987012988 0.012987012987012988 0.012987012987012988 0.012987012987012988 0.012987012987012988 0.012987012987012988 0.012987012987012988 0.012987012987012988 0.012987012987012988 0.012987012987012988 0.012987012987012988 0.012987012987012988 0.012987012987012988 0.012987012987012988 0.012987012987012988 0.012987012987012988 0.012987012987012988 0.012987012987012988 0.012987012987012988 0.012987012987012988 0.012987012987012988 0.012987012987012988 0.012987012987012988 0.012987012987012988 0.012987012987012988 0.012987012987012988 0.012987012987012988 0.012987012987012988 0.012987012987012988 0.012987012987012988 0.012987012987012988 0.012987012987012988 0.012987012987012988 0.012987012987012988 0.012987012987012988 0.012987012987012988 0.012987012987012988 0.012987012987012988 0.012987012987012988 0.012987012987012988 0.0 0.0 0.0 0.0 0.0 0.0 0.0 0.0 0.0 0.0 0.0 0.0 0.0 0.0 0.0 0.0 0.0 0.0 0.0 0.0 0.0 0.009966777408637873 0.07475083056478406 0.0946843853820598 0.07641196013289037 0.08637873754152824 0.15780730897009967 0.19102990033222592 0.1461794019933555 0.09634551495016612 0.03820598006644518 0.019933554817275746 0.0033222591362126247 0.0 0.0049833887043189366 0.0 0.0 0.0 0.0 0.0 0.0 0.0 0.0 0.0 0.0 0.0 0.0 0.0 0.0 0.0 0.0 0.0 0.0 0.0 0.0 0.0 0.0 0.0 0.0 0.0 0.0 0.0 0.0 0.0 0.0 0.0 0.0 0.0 0.0 0.0 0.0 0.0 0.0 0.0 0.0 0.0 0.0 0.0 0.0 0.0 0.0 0.0 0.0 0.0 0.0 0.0 0.0 0.0 0.0 0.0 0.0 0.0 0.0 0.0 0.0 0.0 0.0 0.0 0.009966777408637873 0.05149501661129568 0.11295681063122924 0.07641196013289037 0.08305647840531562 0.132890365448505 0.2159468438538206 0.13953488372093023 0.10132890365448505 0.029900332225913623 0.036544850498338874 0.006644518272425249 0.0033222591362126247 0.0 0.0 0.0 0.0 0.0 0.0 0.0 0.0 0.0 0.0 0.0 0.0 0.0 0.0 0.0 0.0 0.0 0.0 0.0 0.0 0.0 0.0 0.0 0.0 0.0 0.0 0.0 0.0 0.0 0.0 0.0 0.0 0.0 0.0 0.0 0.0 0.0 0.0 0.0 0.0 0.0 0.0 0.0 0.0 0.0 0.0 0.0 0.0 0.0 0.0 0.0 0.0 0.0 0.0 0.0 0.0 0.0 0.0 0.0 0.0 0.0 0.0 0.0 0.0 0.008305647840531562 0.05647840531561462 0.10132890365448505 0.08803986710963455 0.054817275747508304 0.1744186046511628 0.20930232558139536 0.12624584717607973 0.09302325581395349 0.04983388704318937 0.019933554817275746 0.011627906976744186 0.0016611295681063123 0.0016611295681063123 0.0016611295681063123 0.0016611295681063123 0.0 0.0 0.0 0.0 0.0 0.0 0.0 0.0 0.0 0.0 0.0 0.0 0.0 0.0 0.0 0.0 0.0 0.0 0.0 0.0 0.0 0.0 0.0 0.0 0.0 0.0 0.0 0.0 0.0 0.0 0.0 0.0 0.0 0.0 0.0 0.0 0.0 0.0 0.0 0.0 0.0 0.0 0.0 0.0 0.0 0.0 0.0 0.0 0.0 0.0 0.0 0.0 0.0 0.0 0.0 0.0 0.0 0.0 0.0 0.0 0.0 0.0049833887043189366 0.07807308970099668 0.11794019933554817 0.0664451827242525 0.10299003322259136 0.1461794019933555 0.17275747508305647 0.132890365448505 0.09136212624584718 0.04817275747508306 0.024916943521594685 0.0033222591362126247 0.0033222591362126247 0.0033222591362126247 0.0033222591362126247 0.0 0.0 0.0 0.0 0.0 0.0 0.0 0.0 0.0 0.0 0.0 0.0 0.0 0.0 0.0 0.0 0.0 0.0 0.0 0.0 0.0 0.0 0.0 0.0 0.0 0.0 0.0 0.0 0.0 0.0 0.0 0.0 0.0 0.0 0.0 0.0 0.0 0.0 0.0 0.0 0.0 0.0 0.0 0.0 0.0 0.0 0.0 0.0 0.0 0.0 0.0 0.0 0.0 0.0 0.0 0.0 0.0 0.0 0.0 0.0 0.0 0.0 0.009966777408637873 0.0681063122923588 0.10963455149501661 0.0681063122923588 0.07142857142857142 0.1611295681063123 0.21096345514950166 0.132890365448505 0.0946843853820598 0.03820598006644518 0.019933554817275746 0.006644518272425249 0.0016611295681063123 0.0016611295681063123 0.0 0.0 0.0016611295681063123 0.0 0.0 0.0 0.0016611295681063123 0.0 0.0 0.0 0.0 0.0 0.0 0.0 0.0 0.0 0.0 0.0 0.0 0.0 0.0 0.0 0.0 0.0 0.0 0.0 0.0 0.0 0.0 0.0 0.0 0.0 0.0 0.0 0.0 0.0 0.0 0.0 0.0 0.0 0.0016611295681063123 0.0 0.012987012987012988 0.012987012987012988 0.012987012987012988 0.012987012987012988 0.012987012987012988 0.012987012987012988 0.012987012987012988 0.012987012987012988 0.012987012987012988 0.012987012987012988 0.012987012987012988 0.012987012987012988 0.012987012987012988 0.012987012987012988 0.012987012987012988 0.012987012987012988 0.012987012987012988 0.012987012987012988 0.012987012987012988 0.012987012987012988 0.012987012987012988 0.012987012987012988 0.012987012987012988 0.012987012987012988 0.012987012987012988 0.012987012987012988 0.012987012987012988 0.012987012987012988 0.012987012987012988 0.012987012987012988 0.012987012987012988 0.012987012987012988 0.012987012987012988 0.012987012987012988 0.012987012987012988 0.012987012987012988 0.012987012987012988 0.012987012987012988 0.012987012987012988 0.012987012987012988 0.012987012987012988 0.012987012987012988 0.012987012987012988 0.012987012987012988 0.012987012987012988 0.012987012987012988 0.012987012987012988 0.012987012987012988 0.012987012987012988 0.012987012987012988 0.012987012987012988 0.012987012987012988 0.012987012987012988 0.012987012987012988 0.012987012987012988 0.012987012987012988 0.012987012987012988 0.012987012987012988 0.012987012987012988 0.012987012987012988 0.012987012987012988 0.012987012987012988 0.012987012987012988 0.012987012987012988 0.012987012987012988 0.012987012987012988 0.012987012987012988 0.012987012987012988 0.012987012987012988 0.012987012987012988 0.012987012987012988 0.012987012987012988 0.012987012987012988 0.012987012987012988 0.012987012987012988 0.012987012987012988 0.012987012987012988 0.012987012987012988 0.012987012987012988 0.012987012987012988 0.012987012987012988 0.012987012987012988 0.012987012987012988 0.012987012987012988 0.012987012987012988 0.012987012987012988 0.012987012987012988 0.012987012987012988 0.012987012987012988 0.012987012987012988 0.012987012987012988 0.012987012987012988 0.012987012987012988 0.012987012987012988 0.012987012987012988 0.012987012987012988 0.012987012987012988 0.012987012987012988 0.012987012987012988 0.012987012987012988 0.012987012987012988 0.012987012987012988 0.012987012987012988 0.012987012987012988 0.012987012987012988 0.012987012987012988 0.012987012987012988 0.012987012987012988 0.012987012987012988 0.012987012987012988 0.012987012987012988 0.012987012987012988 0.012987012987012988 0.012987012987012988 0.012987012987012988 0.012987012987012988 0.012987012987012988 0.012987012987012988 0.012987012987012988 0.012987012987012988 0.012987012987012988 0.012987012987012988 0.012987012987012988 0.012987012987012988 0.012987012987012988 0.012987012987012988 0.012987012987012988 0.012987012987012988 0.012987012987012988 0.012987012987012988 0.012987012987012988 0.012987012987012988 0.012987012987012988 0.012987012987012988 0.012987012987012988 0.012987012987012988 0.012987012987012988 0.012987012987012988 0.012987012987012988 0.012987012987012988 0.012987012987012988 0.012987012987012988 0.012987012987012988 0.012987012987012988 0.012987012987012988 0.012987012987012988 0.012987012987012988 0.012987012987012988 0.012987012987012988 0.012987012987012988 0.012987012987012988 0.012987012987012988 0.012987012987012988 0.012987012987012988 0.008018327605956471 0.010309278350515464 0.002290950744558992 0.003436426116838488 0.002290950744558992 0.006872852233676976 0.003436426116838488 0.002290950744558992 0.003436426116838488 0.002290950744558992 0.002290950744558992 0.003436426116838488 0.024054982817869417 0.1970217640320733 0.2829324169530355 0.19243986254295534 0.14776632302405499 0.06758304696449026 0.020618556701030927 0.012600229095074456 0.001145475372279496 0.001145475372279496 0.001145475372279496 0.0 0.0 0.0 0.0 0.0 0.0 0.0 0.0 0.0 0.0 0.0 0.0 0.0 0.0 0.0 0.0 0.0 0.0 0.0 0.0 0.0 0.0 0.0 0.0 0.0 0.0 0.0 0.0 0.0 0.0 0.0 0.0 0.0 0.0 0.0 0.0 0.0 0.0 0.0 0.0 0.0 0.0 0.0 0.0 0.0 0.0 0.0 0.0 0.0 0.0 0.0 0.001145475372279496 0.0 0.0 0.002290950744558992 0.035509736540664374 0.001145475372279496 0.0 0.0 0.0 0.004581901489117984 0.004581901489117984 0.009163802978235968 0.002290950744558992 0.0 0.001145475372279496 0.004581901489117984 0.12943871706758306 0.21764032073310424 0.13287514318442153 0.10996563573883161 0.041237113402061855 0.0286368843069874 0.041237113402061855 0.03436426116838488 0.03436426116838488 0.04009163802978236 0.027491408934707903 0.030927835051546393 0.026345933562428408 0.018327605956471937 0.004581901489117984 0.0057273768613974796 0.003436426116838488 0.001145475372279496 0.002290950744558992 0.002290950744558992 0.002290950744558992 0.0 0.0 0.0 0.0 0.0 0.0 0.0 0.0 0.0 0.0 0.0 0.0 0.0 0.0 0.0 0.0 0.0 0.0 0.0 0.0 0.0 0.0 0.0 0.0 0.0 0.0 0.0 0.0 0.0 0.0 0.0 0.0 0.0 0.0 0.0 0.0 0.0 0.0 0.0 0.0 0.0 0.0 0.0 0.0 0.0 0.0 0.0 0.0 0.0 0.0 0.0 0.0 0.0 0.0 0.0 0.009163802978235968 0.15922107674684993 0.2290950744558992 0.19014891179839633 0.15693012600229095 0.043528064146620846 0.043528064146620846 0.049255441008018326 0.04009163802978236 0.024054982817869417 0.011454753722794959 0.018327605956471937 0.0057273768613974796 0.0057273768613974796 0.0057273768613974796 0.003436426116838488 0.003436426116838488 0.0 0.0 0.0 0.0 0.0 0.0 0.0 0.0 0.0 0.0 0.0 0.0 0.0 0.0 0.0 0.0 0.0 0.0 0.0 0.0 0.0 0.0 0.0 0.0 0.0 0.0 0.0 0.0 0.0 0.0 0.0 0.0 0.0 0.0 0.0 0.0 0.0 0.0 0.0 0.0 0.0 0.0 0.001145475372279496 0.0 0.0 0.0 0.0 0.0 0.0 0.0 0.0 0.0 0.0 0.0 0.0 0.0 0.0 0.0 0.0 0.0 0.021764032073310423 0.15349369988545247 0.24742268041237114 0.13516609392898052 0.16265750286368844 0.06071019473081329 0.06071019473081329 0.033218785796105384 0.032073310423825885 0.019473081328751432 0.0286368843069874 0.011454753722794959 0.013745704467353952 0.0057273768613974796 0.003436426116838488 0.002290950744558992 0.003436426116838488 0.001145475372279496 0.0 0.0 0.0 0.001145475372279496 0.0 0.0 0.0 0.0 0.0 0.0 0.0 0.0 0.0 0.0 0.0 0.0 0.0 0.0 0.0 0.0 0.0 0.0 0.0 0.0 0.0 0.0 0.0 0.0 0.0 0.0 0.0 0.0 0.0 0.0 0.0 0.0 0.001145475372279496 0.0 0.0 0.0 0.0 0.0 0.0 0.001145475372279496 0.0 0.0 0.0 0.0 0.0 0.0 0.0 0.0 0.0 0.0 0.0 0.0 0.0 0.0 0.018327605956471937 0.10080183276059565 0.16036655211912945 0.19243986254295534 0.1729667812142039 0.09392898052691867 0.045819014891179836 0.049255441008018326 0.030927835051546393 0.029782359679266894 0.024054982817869417 0.01718213058419244 0.012600229095074456 0.011454753722794959 0.013745704467353952 0.008018327605956471 0.0057273768613974796 0.004581901489117984 0.002290950744558992 0.001145475372279496 0.001145475372279496 0.001145475372279496 0.0 0.001145475372279496 0.0 0.001145475372279496 0.0 0.0 0.0 0.0 0.0 0.0 0.0 0.0 0.0 0.0 0.0 0.0 0.0 0.0 0.0 0.0 0.0 0.0 0.0 0.0 0.0 0.0 0.0 0.0 0.0 0.0 0.0 0.0 0.0 0.0 0.0 0.0 0.0 0.0 0.0 0.0 0.0 0.0 0.0 0.0 0.012987012987012988 0.012987012987012988 0.012987012987012988 0.012987012987012988 0.012987012987012988 0.012987012987012988 0.012987012987012988 0.012987012987012988 0.012987012987012988 0.012987012987012988 0.012987012987012988 0.012987012987012988 0.012987012987012988 0.012987012987012988 0.012987012987012988 0.012987012987012988 0.012987012987012988 0.012987012987012988 0.012987012987012988 0.012987012987012988 0.012987012987012988 0.012987012987012988 0.012987012987012988 0.012987012987012988 0.012987012987012988 0.012987012987012988 0.012987012987012988 0.012987012987012988 0.012987012987012988 0.012987012987012988 0.012987012987012988 0.012987012987012988 0.012987012987012988 0.012987012987012988 0.012987012987012988 0.012987012987012988 0.012987012987012988 0.012987012987012988 0.012987012987012988 0.012987012987012988 0.012987012987012988 0.012987012987012988 0.012987012987012988 0.012987012987012988 0.012987012987012988 0.012987012987012988 0.012987012987012988 0.012987012987012988 0.012987012987012988 0.012987012987012988 0.012987012987012988 0.012987012987012988 0.012987012987012988 0.012987012987012988 0.012987012987012988 0.012987012987012988 0.012987012987012988 0.012987012987012988 0.012987012987012988 0.012987012987012988 0.012987012987012988 0.012987012987012988 0.012987012987012988 0.012987012987012988 0.012987012987012988 0.012987012987012988 0.012987012987012988 0.012987012987012988 0.012987012987012988 0.012987012987012988 0.012987012987012988 0.012987012987012988 0.012987012987012988 0.012987012987012988 0.012987012987012988 0.012987012987012988 0.012987012987012988 0.012987012987012988 0.012987012987012988 0.012987012987012988 0.012987012987012988 0.012987012987012988 0.012987012987012988 0.012987012987012988 0.012987012987012988 0.012987012987012988 0.012987012987012988 0.012987012987012988 0.012987012987012988 0.012987012987012988 0.012987012987012988 0.012987012987012988 0.012987012987012988 0.012987012987012988 0.012987012987012988 0.012987012987012988 0.012987012987012988 0.012987012987012988 0.012987012987012988 0.012987012987012988 0.012987012987012988 0.012987012987012988 0.012987012987012988 0.012987012987012988 0.012987012987012988 0.012987012987012988 0.012987012987012988 0.012987012987012988 0.012987012987012988 0.012987012987012988 0.012987012987012988 0.012987012987012988 0.012987012987012988 0.012987012987012988 0.012987012987012988 0.012987012987012988 0.012987012987012988 0.012987012987012988 0.012987012987012988 0.012987012987012988 0.012987012987012988 0.012987012987012988 0.012987012987012988 0.012987012987012988 0.012987012987012988 0.012987012987012988 0.012987012987012988 0.012987012987012988 0.012987012987012988 0.012987012987012988 0.012987012987012988 0.012987012987012988 0.012987012987012988 0.012987012987012988 0.012987012987012988 0.012987012987012988 0.012987012987012988 0.012987012987012988 0.012987012987012988 0.012987012987012988 0.012987012987012988 0.012987012987012988 0.012987012987012988 0.012987012987012988 0.012987012987012988 0.012987012987012988 0.012987012987012988 0.012987012987012988 0.012987012987012988 0.012987012987012988 0.012987012987012988 0.012987012987012988 0.012987012987012988 0.012987012987012988 0.012987012987012988 0.012987012987012988 0.012987012987012988 0.012987012987012988 0.012987012987012988 0.012987012987012988 0.012987012987012988 0.012987012987012988 0.012987012987012988 0.012987012987012988 0.012987012987012988 0.012987012987012988 0.012987012987012988 0.012987012987012988 0.012987012987012988 0.012987012987012988 0.012987012987012988 0.012987012987012988 0.012987012987012988 0.012987012987012988 0.012987012987012988 0.012987012987012988 0.012987012987012988 0.012987012987012988 0.012987012987012988 0.012987012987012988 0.012987012987012988 0.012987012987012988 0.012987012987012988 0.012987012987012988 0.012987012987012988 0.012987012987012988 0.012987012987012988 0.012987012987012988 0.012987012987012988 0.012987012987012988 0.012987012987012988 0.012987012987012988 0.012987012987012988 0.012987012987012988 0.012987012987012988 0.012987012987012988 0.012987012987012988 0.012987012987012988 0.012987012987012988 0.012987012987012988 0.012987012987012988 0.012987012987012988 0.012987012987012988 0.012987012987012988 0.012987012987012988 0.012987012987012988 0.012987012987012988 0.012987012987012988 0.012987012987012988 0.012987012987012988 0.012987012987012988 0.012987012987012988 0.012987012987012988 0.012987012987012988 0.012987012987012988 0.012987012987012988 0.012987012987012988 0.012987012987012988 0.012987012987012988 0.012987012987012988 0.012987012987012988 0.012987012987012988 0.012987012987012988 0.012987012987012988 0.012987012987012988 0.012987012987012988 0.012987012987012988 0.012987012987012988 0.012987012987012988 0.012987012987012988 0.012987012987012988 0.012987012987012988 0.012987012987012988 0.012987012987012988 0.012987012987012988 0.012987012987012988 0.012987012987012988 0.012987012987012988 0.012987012987012988 0.012987012987012988 0.012987012987012988 0.012987012987012988 0.012987012987012988 0.012987012987012988 0.012987012987012988 0.012987012987012988 0.012987012987012988 0.012987012987012988 0.012987012987012988 0.012987012987012988 0.012987012987012988 0.012987012987012988 0.012987012987012988 0.012987012987012988 0.012987012987012988 0.012987012987012988 0.012987012987012988 0.012987012987012988 0.012987012987012988 0.012987012987012988 0.012987012987012988 0.012987012987012988 0.012987012987012988 0.012987012987012988 0.012987012987012988 0.012987012987012988 0.012987012987012988 0.012987012987012988 0.012987012987012988 0.012987012987012988 0.012987012987012988 0.012987012987012988 0.012987012987012988 0.012987012987012988 0.012987012987012988 0.012987012987012988 0.012987012987012988 0.012987012987012988 0.012987012987012988 0.012987012987012988 0.012987012987012988 0.012987012987012988 0.012987012987012988 0.012987012987012988 0.012987012987012988 0.012987012987012988 0.012987012987012988 0.012987012987012988 0.012987012987012988 0.012987012987012988 0.012987012987012988 0.012987012987012988 0.012987012987012988 0.012987012987012988 0.012987012987012988 0.012987012987012988 0.012987012987012988 0.012987012987012988 0.012987012987012988 0.012987012987012988 0.012987012987012988 0.012987012987012988 0.012987012987012988 0.012987012987012988 0.012987012987012988 0.012987012987012988 0.012987012987012988 0.012987012987012988 0.012987012987012988 0.012987012987012988 0.012987012987012988 0.012987012987012988 0.012987012987012988 0.012987012987012988 0.012987012987012988 0.012987012987012988 0.012987012987012988 0.012987012987012988 0.012987012987012988 0.012987012987012988 0.012987012987012988 0.012987012987012988 0.012987012987012988 0.012987012987012988 0.012987012987012988 0.012987012987012988 0.012987012987012988 0.012987012987012988 0.012987012987012988 0.012987012987012988 0.012987012987012988 0.012987012987012988 0.012987012987012988 0.012987012987012988 0.012987012987012988 0.012987012987012988 0.012987012987012988 0.012987012987012988 0.012987012987012988 0.012987012987012988 0.012987012987012988 0.012987012987012988 0.012987012987012988 0.012987012987012988 0.012987012987012988 0.012987012987012988 0.012987012987012988 0.012987012987012988 0.012987012987012988 0.012987012987012988 0.012987012987012988 0.012987012987012988 0.012987012987012988 0.012987012987012988 0.012987012987012988 0.012987012987012988 0.012987012987012988 0.012987012987012988 0.012987012987012988 0.012987012987012988 0.012987012987012988 0.012987012987012988 0.012987012987012988 0.012987012987012988 0.012987012987012988 0.012987012987012988 0.012987012987012988 0.012987012987012988 0.012987012987012988 0.012987012987012988 0.012987012987012988 0.012987012987012988 0.012987012987012988 0.012987012987012988 0.012987012987012988 0.012987012987012988 0.012987012987012988 0.012987012987012988 0.012987012987012988 0.012987012987012988 0.012987012987012988 0.012987012987012988 0.012987012987012988 0.012987012987012988 0.012987012987012988 </TABLE>
    </DEFINITION>
    <DEFINITION>
      <FOR>device_type</FOR>
      <GIVEN>consumption</GIVEN>
      <TABLE>0.0 1.0 0.0 0.0 1.0 0.0 1.0 0.0 0.0 1.0 0.0 0.0 1.0 0.0 0.0 1.0 0.0 0.0 0.0 0.0 1.0 0.0 0.0 1.0 0.0 0.0 1.0 0.0 0.0 1.0 0.0 0.0 1.0 0.0 0.0 1.0 0.0 0.0 1.0 0.0 0.0 1.0 0.0 0.0 1.0 0.0 0.0 1.0 0.0 0.0 1.0 0.0 0.0 1.0 0.0 0.0 1.0 0.0 0.0 1.0 0.0 0.0 1.0 0.0 0.0 1.0 0.0 0.0 1.0 0.0 0.0 1.0 </TABLE>
    </DEFINITION>
    <DEFINITION>
      <FOR>fps</FOR>
      <TABLE>0.0419570671870644 0.0419570671870644 0.13562865904655702 0.16364650125453026 0.12168943406746585 0.16364650125453026 0.12168943406746585 0.0419570671870644 0.0419570671870644 0.0419570671870644 0.0419570671870644 0.0419570671870644 </TABLE>
    </DEFINITION>
    <DEFINITION>
      <FOR>in_time</FOR>
      <GIVEN>cpu</GIVEN>
      <GIVEN>fps</GIVEN>
      <TABLE>0.5 0.5 0.5 0.5 0.0 1.0 0.0 1.0 0.0 1.0 0.0 1.0 0.075 0.925 0.5 0.5 0.5 0.5 0.5 0.5 0.5 0.5 0.5 0.5 0.5 0.5 0.5 0.5 0.0 1.0 0.0 1.0 0.0 1.0 0.010256410256410256 0.9897435897435898 0.1206896551724138 0.8793103448275862 0.5 0.5 0.5 0.5 0.5 0.5 0.5 0.5 0.5 0.5 0.5 0.5 0.5 0.5 0.0 1.0 0.0 1.0 0.008620689655172414 0.9913793103448276 0.1 0.9 0.36363636363636365 0.6363636363636364 0.5 0.5 0.5 0.5 0.5 0.5 0.5 0.5 0.5 0.5 0.5 0.5 0.5 0.5 0.0 1.0 0.0 1.0 0.0 1.0 0.05309734513274336 0.9469026548672567 0.17058823529411765 0.8294117647058824 0.5 0.5 0.5 0.5 0.5 0.5 0.5 0.5 0.5 0.5 0.0 1.0 0.5 0.5 0.0 1.0 0.0 1.0 0.0 1.0 0.013888888888888888 0.9861111111111112 0.18666666666666668 0.8133333333333334 0.5 0.5 0.5 0.5 0.5 0.5 0.5 0.5 0.5 0.5 0.0 1.0 0.5 0.5 0.038461538461538464 0.9615384615384616 0.0 1.0 0.0 1.0 0.09090909090909091 0.9090909090909091 0.5833333333333334 0.4166666666666667 0.5 0.5 0.5 0.5 0.5 0.5 0.5 0.5 0.5 0.5 0.0 1.0 0.0 1.0 0.0 1.0 0.0 1.0 0.0 1.0 0.05555555555555555 0.9444444444444444 0.10526315789473684 0.8947368421052632 0.5 0.5 0.5 0.5 0.5 0.5 0.5 0.5 0.5 0.5 0.0 1.0 0.0 1.0 0.0 1.0 0.0 1.0 0.0 1.0 0.0 1.0 1.0 0.0 0.5 0.5 0.5 0.5 0.5 0.5 0.5 0.5 0.5 0.5 0.0 1.0 0.0 1.0 0.0 1.0 0.0 1.0 0.0 1.0 1.0 0.0 0.0 1.0 0.5 0.5 0.5 0.5 0.5 0.5 0.5 0.5 0.5 0.5 0.0 1.0 0.0 1.0 0.0 1.0 0.0 1.0 0.5 0.5 0.0 1.0 0.0 1.0 0.5 0.5 0.5 0.5 0.5 0.5 0.5 0.5 0.5 0.5 0.0 1.0 0.0 1.0 0.0 1.0 0.0 1.0 0.0 1.0 0.0 1.0 0.0 1.0 0.5 0.5 0.5 0.5 0.5 0.5 0.5 0.5 0.5 0.5 0.0 1.0 0.0 1.0 0.0 1.0 0.5 0.5 0.5 0.5 0.5 0.5 0.5 0.5 0.5 0.5 0.5 0.5 0.5 0.5 0.5 0.5 0.5 0.5 0.0 1.0 0.0 1.0 0.0 1.0 0.0 1.0 0.5 0.5 0.5 0.5 0.0 1.0 0.5 0.5 0.5 0.5 0.5 0.5 0.5 0.5 0.5 0.5 0.0 1.0 0.0 1.0 0.0 1.0 0.0 1.0 0.5 0.5 0.5 0.5 0.5 0.5 0.5 0.5 0.5 0.5 1.0 0.0 0.5 0.5 0.5 0.5 0.0 1.0 0.0 1.0 0.0 1.0 0.0 1.0 0.0 1.0 0.5 0.5 0.0 1.0 0.5 0.5 1.0 0.0 0.5 0.5 0.5 0.5 0.5 0.5 0.0 1.0 0.0 1.0 0.0 1.0 0.0 1.0 0.5 0.5 0.5 0.5 0.0 1.0 1.0 0.0 0.5 0.5 0.5 0.5 0.5 0.5 1.0 0.0 0.0 1.0 0.0 1.0 0.0 1.0 0.0 1.0 0.5 0.5 1.0 0.0 0.5 0.5 1.0 0.0 1.0 0.0 1.0 0.0 1.0 0.0 1.0 0.0 0.0 1.0 0.0 1.0 0.0 1.0 0.0 1.0 0.5 0.5 0.6666666666666666 0.3333333333333333 0.5 0.5 1.0 0.0 1.0 0.0 1.0 0.0 1.0 0.0 1.0 0.0 0.0 1.0 0.0 1.0 0.5 0.5 0.0 1.0 0.0 1.0 1.0 0.0 0.5 0.5 1.0 0.0 1.0 0.0 1.0 0.0 1.0 0.0 1.0 0.0 0.0 1.0 0.0 1.0 1.0 0.0 0.0 1.0 0.5 0.5 0.3333333333333333 0.6666666666666666 0.5 0.5 1.0 0.0 1.0 0.0 1.0 0.0 1.0 0.0 1.0 0.0 0.5 0.5 0.0 1.0 0.0 1.0 0.0 1.0 0.0 1.0 1.0 0.0 0.5 0.5 1.0 0.0 1.0 0.0 1.0 0.0 1.0 0.0 1.0 0.0 0.5 0.5 0.0 1.0 0.0 1.0 0.0 1.0 0.5 0.5 0.7142857142857143 0.2857142857142857 0.5 0.5 1.0 0.0 1.0 0.0 1.0 0.0 1.0 0.0 1.0 0.0 0.5 0.5 0.0 1.0 0.0 1.0 0.0 1.0 0.5 0.5 0.34782608695652173 0.6521739130434783 0.5 0.5 1.0 0.0 1.0 0.0 1.0 0.0 1.0 0.0 1.0 0.0 0.0 1.0 0.0 1.0 0.0 1.0 0.0 1.0 0.5 0.5 0.9090909090909091 0.09090909090909091 0.5 0.5 1.0 0.0 1.0 0.0 1.0 0.0 1.0 0.0 1.0 0.0 0.0 1.0 0.0 1.0 0.0 1.0 0.0 1.0 0.5 0.5 1.0 0.0 0.5 0.5 1.0 0.0 1.0 0.0 1.0 0.0 1.0 0.0 1.0 0.0 0.5 0.5 0.0 1.0 0.0 1.0 0.0 1.0 0.5 0.5 0.8983050847457628 0.1016949152542373 0.5 0.5 1.0 0.0 1.0 0.0 1.0 0.0 1.0 0.0 1.0 0.0 0.0 1.0 0.0 1.0 0.0 1.0 0.0 1.0 0.5 0.5 0.696969696969697 0.30303030303030304 0.5 0.5 1.0 0.0 1.0 0.0 1.0 0.0 1.0 0.0 1.0 0.0 0.5 0.5 0.0 1.0 0.0 1.0 0.0 1.0 0.5 0.5 0.5652173913043478 0.43478260869565216 0.5 0.5 1.0 0.0 1.0 0.0 1.0 0.0 1.0 0.0 1.0 0.0 0.5 0.5 0.0 1.0 0.0 1.0 0.0 1.0 0.5 0.5 0.9516129032258065 0.04838709677419355 0.5 0.5 1.0 0.0 1.0 0.0 1.0 0.0 1.0 0.0 1.0 0.0 0.5 0.5 0.5 0.5 0.0 1.0 0.0 1.0 0.5 0.5 0.7413793103448276 0.25862068965517243 0.5 0.5 1.0 0.0 1.0 0.0 1.0 0.0 1.0 0.0 1.0 0.0 0.5 0.5 0.5 0.5 0.0 1.0 0.0 1.0 0.5 0.5 0.4857142857142857 0.5142857142857142 0.5 0.5 1.0 0.0 1.0 0.0 1.0 0.0 1.0 0.0 1.0 0.0 0.5 0.5 0.0 1.0 0.0 1.0 0.0 1.0 0.5 0.5 0.9090909090909091 0.09090909090909091 0.5 0.5 1.0 0.0 1.0 0.0 1.0 0.0 1.0 0.0 1.0 0.0 0.5 0.5 0.5 0.5 0.0 1.0 0.0 1.0 0.5 0.5 0.782608695652174 0.21739130434782608 0.5 0.5 1.0 0.0 1.0 0.0 1.0 0.0 1.0 0.0 1.0 0.0 0.0 1.0 0.5 0.5 0.125 0.875 0.0 1.0 0.5 0.5 0.7058823529411765 0.29411764705882354 0.5 0.5 1.0 0.0 1.0 0.0 1.0 0.0 1.0 0.0 1.0 0.0 0.5 0.5 0.0 1.0 0.0 1.0 0.0 1.0 0.5 0.5 0.7272727272727273 0.2727272727272727 0.5 0.5 1.0 0.0 1.0 0.0 1.0 0.0 1.0 0.0 1.0 0.0 0.5 0.5 0.0 1.0 0.0 1.0 0.0 1.0 0.5 0.5 1.0 0.0 0.5 0.5 1.0 0.0 1.0 0.0 1.0 0.0 1.0 0.0 1.0 0.0 0.5 0.5 0.5 0.5 0.0 1.0 0.0 1.0 0.5 0.5 0.875 0.125 0.5 0.5 1.0 0.0 1.0 0.0 1.0 0.0 1.0 0.0 1.0 0.0 0.5 0.5 0.0 1.0 0.0 1.0 0.0 1.0 0.5 0.5 0.7142857142857143 0.2857142857142857 0.5 0.5 1.0 0.0 1.0 0.0 1.0 0.0 1.0 0.0 1.0 0.0 0.5 0.5 0.5 0.5 0.0 1.0 0.0 1.0 0.5 0.5 0.6666666666666666 0.3333333333333333 0.5 0.5 1.0 0.0 1.0 0.0 1.0 0.0 1.0 0.0 1.0 0.0 0.5 0.5 0.5 0.5 0.5 0.5 0.0 1.0 0.5 0.5 0.7142857142857143 0.2857142857142857 0.5 0.5 1.0 0.0 1.0 0.0 1.0 0.0 1.0 0.0 1.0 0.0 0.5 0.5 0.5 0.5 0.25 0.75 0.0 1.0 0.5 0.5 0.875 0.125 0.5 0.5 1.0 0.0 1.0 0.0 1.0 0.0 1.0 0.0 1.0 0.0 0.5 0.5 0.5 0.5 0.0 1.0 0.5 0.5 0.5 0.5 1.0 0.0 0.5 0.5 1.0 0.0 1.0 0.0 1.0 0.0 1.0 0.0 1.0 0.0 0.5 0.5 0.5 0.5 0.0 1.0 0.5 0.5 0.5 0.5 1.0 0.0 0.5 0.5 1.0 0.0 1.0 0.0 1.0 0.0 1.0 0.0 1.0 0.0 0.5 0.5 0.5 0.5 1.0 0.0 0.0 1.0 0.5 0.5 0.5 0.5 0.5 0.5 1.0 0.0 1.0 0.0 1.0 0.0 1.0 0.0 1.0 0.0 0.5 0.5 0.5 0.5 0.0 1.0 0.5 0.5 0.5 0.5 0.7777777777777778 0.2222222222222222 0.5 0.5 1.0 0.0 1.0 0.0 1.0 0.0 1.0 0.0 1.0 0.0 0.5 0.5 0.5 0.5 0.0 1.0 0.5 0.5 0.5 0.5 0.3333333333333333 0.6666666666666666 0.5 0.5 0.5 0.5 0.5 0.5 1.0 0.0 1.0 0.0 1.0 0.0 0.5 0.5 0.5 0.5 0.0 1.0 0.5 0.5 0.5 0.5 1.0 0.0 0.5 0.5 1.0 0.0 1.0 0.0 1.0 0.0 1.0 0.0 1.0 0.0 0.5 0.5 0.5 0.5 0.0 1.0 0.0 1.0 0.5 0.5 0.5 0.5 0.5 0.5 0.5 0.5 0.5 0.5 0.5 0.5 0.5 0.5 1.0 0.0 0.5 0.5 0.5 0.5 0.0 1.0 0.5 0.5 0.5 0.5 1.0 0.0 0.5 0.5 1.0 0.0 1.0 0.0 1.0 0.0 1.0 0.0 1.0 0.0 0.5 0.5 0.5 0.5 0.0 1.0 0.0 1.0 1.0 0.0 0.5 0.5 1.0 0.0 0.5 0.5 0.5 0.5 0.5 0.5 1.0 0.0 0.5 0.5 0.5 0.5 0.5 0.5 0.005333333333333333 0.9946666666666667 0.038461538461538464 0.9615384615384616 1.0 0.0 1.0 0.0 1.0 0.0 1.0 0.0 1.0 0.0 1.0 0.0 0.5 0.5 1.0 0.0 0.5 0.5 0.0 1.0 0.02702702702702703 0.972972972972973 0.05660377358490566 0.9433962264150944 1.0 0.0 0.9848484848484849 0.015151515151515152 1.0 0.0 0.5 0.5 1.0 0.0 1.0 0.0 0.5 0.5 0.5 0.5 0.5 0.5 0.5 0.5 0.20512820512820512 0.7948717948717948 0.3352941176470588 0.6647058823529411 1.0 0.0 1.0 0.0 1.0 0.0 0.5 0.5 0.5 0.5 0.5 0.5 0.5 0.5 0.5 0.5 0.5 0.5 0.5 0.5 0.5833333333333334 0.4166666666666667 0.45077720207253885 0.5492227979274611 1.0 0.0 1.0 0.0 1.0 0.0 1.0 0.0 0.5 0.5 0.5 0.5 0.5 0.5 0.5 0.5 0.5 0.5 0.5 0.5 0.8571428571428571 0.14285714285714285 0.5680473372781065 0.4319526627218935 1.0 0.0 1.0 0.0 1.0 0.0 0.5 0.5 0.5 0.5 0.5 0.5 1.0 0.0 0.5 0.5 0.5 0.5 0.5 0.5 0.4482758620689655 0.5517241379310345 0.5742574257425742 0.42574257425742573 1.0 0.0 1.0 0.0 1.0 0.0 0.5 0.5 0.5 0.5 0.5 0.5 0.5 0.5 0.5 0.5 0.5 0.5 0.5 0.5 0.25 0.75 0.625 0.375 1.0 0.0 1.0 0.0 1.0 0.0 1.0 0.0 0.5 0.5 0.5 0.5 1.0 0.0 0.5 0.5 0.5 0.5 0.5 0.5 0.0 1.0 0.6470588235294118 0.35294117647058826 1.0 0.0 1.0 0.0 1.0 0.0 0.5 0.5 1.0 0.0 0.5 0.5 0.5 0.5 0.5 0.5 0.5 0.5 0.5 0.5 0.0 1.0 0.5 0.5 1.0 0.0 1.0 0.0 1.0 0.0 0.5 0.5 0.5 0.5 0.5 0.5 0.5 0.5 0.5 0.5 0.5 0.5 0.5 0.5 0.0 1.0 0.6 0.4 1.0 0.0 1.0 0.0 1.0 0.0 0.5 0.5 0.5 0.5 0.5 0.5 0.5 0.5 0.5 0.5 0.5 0.5 0.5 0.5 0.3333333333333333 0.6666666666666666 0.8 0.2 1.0 0.0 1.0 0.0 1.0 0.0 0.5 0.5 0.5 0.5 0.5 0.5 0.5 0.5 0.5 0.5 0.5 0.5 0.5 0.5 0.5 0.5 0.4 0.6 1.0 0.0 1.0 0.0 1.0 0.0 0.5 0.5 0.5 0.5 0.5 0.5 0.5 0.5 0.5 0.5 0.5 0.5 0.5 0.5 0.5 0.5 0.3333333333333333 0.6666666666666666 1.0 0.0 1.0 0.0 1.0 0.0 0.5 0.5 0.5 0.5 0.5 0.5 0.5 0.5 0.5 0.5 0.5 0.5 0.5 0.5 0.0 1.0 0.5 0.5 0.5 0.5 0.5 0.5 1.0 0.0 0.5 0.5 0.5 0.5 0.5 0.5 0.5 0.5 0.5 0.5 0.5 0.5 0.5 0.5 0.5 0.5 0.5 0.5 1.0 0.0 1.0 0.0 1.0 0.0 0.5 0.5 0.5 0.5 0.5 0.5 0.5 0.5 0.5 0.5 0.5 0.5 0.5 0.5 0.0 1.0 0.5 0.5 1.0 0.0 1.0 0.0 1.0 0.0 0.5 0.5 0.5 0.5 0.5 0.5 0.5 0.5 0.5 0.5 0.5 0.5 0.5 0.5 0.5 0.5 1.0 0.0 0.5 0.5 1.0 0.0 0.5 0.5 0.5 0.5 0.5 0.5 0.5 0.5 0.5 0.5 0.5 0.5 0.5 0.5 0.5 0.5 0.5 0.5 0.5 0.5 0.5 0.5 0.5 0.5 1.0 0.0 0.5 0.5 0.5 0.5 0.5 0.5 0.5 0.5 0.5 0.5 0.5 0.5 0.5 0.5 0.0 1.0 0.5 0.5 1.0 0.0 0.5 0.5 1.0 0.0 0.5 0.5 0.5 0.5 0.5 0.5 0.5 0.5 0.5 0.5 0.5 0.5 0.5 0.5 0.5 0.5 0.5 0.5 0.5 0.5 0.5 0.5 1.0 0.0 1.0 0.0 0.5 0.5 0.5 0.5 0.5 0.5 0.5 0.5 0.5 0.5 0.5 0.5 0.5 0.5 0.5 0.5 1.0 0.0 0.5 0.5 0.5 0.5 0.5 0.5 0.5 0.5 0.5 0.5 0.5 0.5 0.5 0.5 0.5 0.5 0.5 0.5 0.5 0.5 0.5 0.5 1.0 0.0 0.5 0.5 0.5 0.5 0.5 0.5 0.5 0.5 0.5 0.5 0.5 0.5 0.5 0.5 0.5 0.5 0.5 0.5 0.5 0.5 0.5 0.5 0.5 0.5 0.5 0.5 0.5 0.5 0.5 0.5 0.5 0.5 0.5 0.5 0.5 0.5 1.0 0.0 0.5 0.5 0.5 0.5 0.5 0.5 0.5 0.5 0.5 0.5 0.5 0.5 1.0 0.0 0.5 0.5 0.5 0.5 0.5 0.5 0.5 0.5 0.5 0.5 </TABLE>
    </DEFINITION>
    <DEFINITION>
      <FOR>pixel</FOR>
      <GIVEN>delta</GIVEN>
      <GIVEN>device_type</GIVEN>
      <TABLE>0.3333333333333333 0.3333333333333333 0.3333333333333333 0.3333333333333333 0.3333333333333333 0.3333333333333333 0.0 0.0 1.0 0.3333333333333333 0.3333333333333333 0.3333333333333333 0.3333333333333333 0.3333333333333333 0.3333333333333333 0.0 0.0 1.0 0.3333333333333333 0.3333333333333333 0.3333333333333333 0.3333333333333333 0.3333333333333333 0.3333333333333333 0.0 0.0 1.0 0.3333333333333333 0.3333333333333333 0.3333333333333333 0.3333333333333333 0.3333333333333333 0.3333333333333333 0.0 0.0 1.0 0.3333333333333333 0.3333333333333333 0.3333333333333333 0.3333333333333333 0.3333333333333333 0.3333333333333333 0.0 0.0 1.0 0.3333333333333333 0.3333333333333333 0.3333333333333333 0.3333333333333333 0.3333333333333333 0.3333333333333333 0.0 0.0 1.0 0.3333333333333333 0.3333333333333333 0.3333333333333333 0.3333333333333333 0.3333333333333333 0.3333333333333333 0.0 0.0 1.0 0.3333333333333333 0.3333333333333333 0.3333333333333333 0.3333333333333333 0.3333333333333333 0.3333333333333333 0.0 0.0 1.0 0.3333333333333333 0.3333333333333333 0.3333333333333333 0.3333333333333333 0.3333333333333333 0.3333333333333333 0.0 0.0 1.0 0.3333333333333333 0.3333333333333333 0.3333333333333333 0.3333333333333333 0.3333333333333333 0.3333333333333333 0.0 0.0 1.0 0.3333333333333333 0.3333333333333333 0.3333333333333333 0.3333333333333333 0.3333333333333333 0.3333333333333333 0.0 0.0 1.0 0.3333333333333333 0.3333333333333333 0.3333333333333333 0.3333333333333333 0.3333333333333333 0.3333333333333333 0.8 0.0 0.2 0.3333333333333333 0.3333333333333333 0.3333333333333333 0.3333333333333333 0.3333333333333333 0.3333333333333333 0.8214285714285714 0.12857142857142856 0.05 0.3333333333333333 0.3333333333333333 0.3333333333333333 0.3333333333333333 0.3333333333333333 0.3333333333333333 0.7578796561604585 0.22922636103151864 0.012893982808022923 0.3333333333333333 0.3333333333333333 0.3333333333333333 0.3333333333333333 0.3333333333333333 0.3333333333333333 0.3829578844270323 0.5592556317335945 0.05778648383937316 0.3333333333333333 0.3333333333333333 0.3333333333333333 0.3333333333333333 0.3333333333333333 0.3333333333333333 0.08344923504867872 0.47844228094575797 0.4381084840055633 0.3333333333333333 0.3333333333333333 0.3333333333333333 0.3333333333333333 0.3333333333333333 0.3333333333333333 0.05460750853242321 0.08361774744027303 0.8617747440273038 0.3333333333333333 0.3333333333333333 0.3333333333333333 0.3333333333333333 0.3333333333333333 0.3333333333333333 0.17699115044247787 0.1592920353982301 0.6637168141592921 0.3333333333333333 0.3333333333333333 0.3333333333333333 0.3333333333333333 0.3333333333333333 0.3333333333333333 0.3728813559322034 0.327683615819209 0.2994350282485876 0.3333333333333333 0.3333333333333333 0.3333333333333333 0.3333333333333333 0.3333333333333333 0.3333333333333333 0.3493150684931507 0.3698630136986301 0.2808219178082192 0.3333333333333333 0.3333333333333333 0.3333333333333333 0.0 1.0 0.0 0.375 0.3333333333333333 0.2916666666666667 0.3333333333333333 0.3333333333333333 0.3333333333333333 0.0 1.0 0.0 0.25555555555555554 0.2777777777777778 0.4666666666666667 0.3333333333333333 0.3333333333333333 0.3333333333333333 0.0 1.0 0.0 0.23255813953488372 0.313953488372093 0.45348837209302323 0.3333333333333333 0.3333333333333333 0.3333333333333333 0.0 1.0 0.0 0.32786885245901637 0.26229508196721313 0.4098360655737705 0.0 1.0 0.0 0.0 1.0 0.0 0.3148148148148148 0.2962962962962963 0.3888888888888889 0.0 1.0 0.0 0.0 1.0 0.0 0.28888888888888886 0.26666666666666666 0.4444444444444444 0.0 0.3888888888888889 0.6111111111111112 0.0 1.0 0.0 0.2903225806451613 0.2903225806451613 0.41935483870967744 0.0 0.06944444444444445 0.9305555555555556 0.0 1.0 0.0 0.21428571428571427 0.21428571428571427 0.5714285714285714 0.0 0.2647058823529412 0.7352941176470589 0.0 1.0 0.0 0.2 0.3333333333333333 0.4666666666666667 0.0 0.41379310344827586 0.5862068965517241 0.0 0.9871134020618557 0.01288659793814433 0.0 0.8333333333333334 0.16666666666666666 0.0 0.24444444444444444 0.7555555555555555 0.0 0.9528795811518325 0.04712041884816754 0.5 0.0 0.5 0.0 0.14 0.86 0.0 0.7647058823529411 0.23529411764705882 0.3333333333333333 0.3333333333333333 0.3333333333333333 0.0 0.013636363636363636 0.9863636363636363 0.0 0.5797101449275363 0.42028985507246375 0.0 0.0 1.0 0.00539568345323741 0.0017985611510791368 0.9928057553956835 0.0 0.2978723404255319 0.7021276595744681 0.0 0.3333333333333333 0.6666666666666666 0.3470225872689938 0.002053388090349076 0.6509240246406571 0.0 0.3611111111111111 0.6388888888888888 0.0 1.0 0.0 0.7820895522388059 0.005970149253731343 0.21194029850746268 0.0 0.3 0.7 0.3333333333333333 0.3333333333333333 0.3333333333333333 0.8194444444444444 0.04861111111111111 0.13194444444444445 0.0 0.3333333333333333 0.6666666666666666 0.0 1.0 0.0 0.1206896551724138 0.8275862068965517 0.05172413793103448 0.0 0.2727272727272727 0.7272727272727273 0.3333333333333333 0.3333333333333333 0.3333333333333333 0.19444444444444445 0.7777777777777778 0.027777777777777776 0.0 0.09090909090909091 0.9090909090909091 0.3333333333333333 0.3333333333333333 0.3333333333333333 0.7922705314009661 0.2028985507246377 0.004830917874396135 0.0 0.0 1.0 0.3333333333333333 0.3333333333333333 0.3333333333333333 0.9348441926345609 0.059490084985835696 0.0056657223796034 0.0 0.0 1.0 0.3333333333333333 0.3333333333333333 0.3333333333333333 0.9696969696969697 0.030303030303030304 0.0 0.0 0.3333333333333333 0.6666666666666666 0.3333333333333333 0.3333333333333333 0.3333333333333333 0.6428571428571429 0.2857142857142857 0.07142857142857142 0.0 0.0 1.0 0.3333333333333333 0.3333333333333333 0.3333333333333333 0.09090909090909091 0.9090909090909091 0.0 0.0 0.0 1.0 0.3333333333333333 0.3333333333333333 0.3333333333333333 0.1 0.8333333333333334 0.06666666666666667 0.0 0.0 1.0 0.3333333333333333 0.3333333333333333 0.3333333333333333 0.03571428571428571 0.9285714285714286 0.03571428571428571 0.3333333333333333 0.3333333333333333 0.3333333333333333 0.3333333333333333 0.3333333333333333 0.3333333333333333 0.0 0.782608695652174 0.21739130434782608 0.0 0.0 1.0 0.3333333333333333 0.3333333333333333 0.3333333333333333 0.21428571428571427 0.5714285714285714 0.21428571428571427 0.0 0.0 1.0 0.3333333333333333 0.3333333333333333 0.3333333333333333 0.0 0.6666666666666666 0.3333333333333333 0.3333333333333333 0.3333333333333333 0.3333333333333333 0.3333333333333333 0.3333333333333333 0.3333333333333333 0.3333333333333333 0.0 0.6666666666666666 0.3333333333333333 0.3333333333333333 0.3333333333333333 0.3333333333333333 0.3333333333333333 0.3333333333333333 0.9117647058823529 0.08823529411764706 0.0 0.0 0.0 1.0 0.3333333333333333 0.3333333333333333 0.3333333333333333 0.9809523809523809 0.01904761904761905 0.0 0.3333333333333333 0.3333333333333333 0.3333333333333333 0.3333333333333333 0.3333333333333333 0.3333333333333333 0.9811320754716981 0.018867924528301886 0.0 0.3333333333333333 0.3333333333333333 0.3333333333333333 0.3333333333333333 0.3333333333333333 0.3333333333333333 0.8095238095238095 0.19047619047619047 0.0 0.0 0.0 1.0 0.3333333333333333 0.3333333333333333 0.3333333333333333 0.4090909090909091 0.5909090909090909 0.0 0.3333333333333333 0.3333333333333333 0.3333333333333333 0.3333333333333333 0.3333333333333333 0.3333333333333333 0.3888888888888889 0.6111111111111112 0.0 0.3333333333333333 0.3333333333333333 0.3333333333333333 0.3333333333333333 0.3333333333333333 0.3333333333333333 0.05 0.95 0.0 0.0 0.0 1.0 0.3333333333333333 0.3333333333333333 0.3333333333333333 0.0 1.0 0.0 0.0 0.0 1.0 0.3333333333333333 0.3333333333333333 0.3333333333333333 0.0 1.0 0.0 0.3333333333333333 0.3333333333333333 0.3333333333333333 0.3333333333333333 0.3333333333333333 0.3333333333333333 0.0 1.0 0.0 0.3333333333333333 0.3333333333333333 0.3333333333333333 0.3333333333333333 0.3333333333333333 0.3333333333333333 0.0 1.0 0.0 0.3333333333333333 0.3333333333333333 0.3333333333333333 0.3333333333333333 0.3333333333333333 0.3333333333333333 0.0 1.0 0.0 0.0 0.0 1.0 0.3333333333333333 0.3333333333333333 0.3333333333333333 0.0 1.0 0.0 0.0 0.0 1.0 0.3333333333333333 0.3333333333333333 0.3333333333333333 0.0 1.0 0.0 0.3333333333333333 0.3333333333333333 0.3333333333333333 0.3333333333333333 0.3333333333333333 0.3333333333333333 0.0 1.0 0.0 0.3333333333333333 0.3333333333333333 0.3333333333333333 0.3333333333333333 0.3333333333333333 0.3333333333333333 0.0 1.0 0.0 0.3333333333333333 0.3333333333333333 0.3333333333333333 0.3333333333333333 0.3333333333333333 0.3333333333333333 0.0 1.0 0.0 0.3333333333333333 0.3333333333333333 0.3333333333333333 0.0 1.0 0.0 0.0 1.0 0.0 0.3333333333333333 0.3333333333333333 0.3333333333333333 0.3333333333333333 0.3333333333333333 0.3333333333333333 0.0 1.0 0.0 0.3333333333333333 0.3333333333333333 0.3333333333333333 0.3333333333333333 0.3333333333333333 0.3333333333333333 0.0 1.0 0.0 0.3333333333333333 0.3333333333333333 0.3333333333333333 0.3333333333333333 0.3333333333333333 0.3333333333333333 0.3333333333333333 0.3333333333333333 0.3333333333333333 0.0 0.0 1.0 0.3333333333333333 0.3333333333333333 0.3333333333333333 0.3333333333333333 0.3333333333333333 0.3333333333333333 0.3333333333333333 0.3333333333333333 0.3333333333333333 0.0 1.0 0.0 0.3333333333333333 0.3333333333333333 0.3333333333333333 0.0 0.0 1.0 0.3333333333333333 0.3333333333333333 0.3333333333333333 0.3333333333333333 0.3333333333333333 0.3333333333333333 0.3333333333333333 0.3333333333333333 0.3333333333333333 0.0 1.0 0.0 0.3333333333333333 0.3333333333333333 0.3333333333333333 0.3333333333333333 0.3333333333333333 0.3333333333333333 0.0 0.0 1.0 0.3333333333333333 0.3333333333333333 0.3333333333333333 0.0 1.0 0.0 0.3333333333333333 0.3333333333333333 0.3333333333333333 0.3333333333333333 0.3333333333333333 0.3333333333333333 0.0 0.0 1.0 0.3333333333333333 0.3333333333333333 0.3333333333333333 </TABLE>
    </DEFINITION>
  </NETWORK>
</BIF>
