<?xml version='1.0' encoding='utf-8'?>
<BIF VERSION="0.3">
  <NETWORK>
    <NAME>UNTITLED</NAME>
    <VARIABLE TYPE="nature">
      <NAME>delta</NAME>
      <OUTCOME>7</OUTCOME>
      <OUTCOME>8</OUTCOME>
      <OUTCOME>9</OUTCOME>
      <OUTCOME>10</OUTCOME>
      <OUTCOME>11</OUTCOME>
      <OUTCOME>12</OUTCOME>
      <OUTCOME>13</OUTCOME>
      <OUTCOME>14</OUTCOME>
      <OUTCOME>15</OUTCOME>
      <OUTCOME>16</OUTCOME>
      <OUTCOME>17</OUTCOME>
      <OUTCOME>18</OUTCOME>
      <OUTCOME>19</OUTCOME>
      <OUTCOME>20</OUTCOME>
      <OUTCOME>21</OUTCOME>
      <OUTCOME>22</OUTCOME>
      <OUTCOME>23</OUTCOME>
      <OUTCOME>24</OUTCOME>
      <OUTCOME>25</OUTCOME>
      <OUTCOME>26</OUTCOME>
      <OUTCOME>27</OUTCOME>
      <OUTCOME>28</OUTCOME>
      <OUTCOME>29</OUTCOME>
      <OUTCOME>30</OUTCOME>
      <OUTCOME>31</OUTCOME>
      <OUTCOME>32</OUTCOME>
      <OUTCOME>33</OUTCOME>
      <OUTCOME>34</OUTCOME>
      <OUTCOME>35</OUTCOME>
      <OUTCOME>36</OUTCOME>
      <OUTCOME>37</OUTCOME>
      <OUTCOME>38</OUTCOME>
      <OUTCOME>39</OUTCOME>
      <OUTCOME>40</OUTCOME>
      <OUTCOME>41</OUTCOME>
      <OUTCOME>42</OUTCOME>
      <OUTCOME>43</OUTCOME>
      <OUTCOME>44</OUTCOME>
      <OUTCOME>45</OUTCOME>
      <OUTCOME>46</OUTCOME>
      <OUTCOME>47</OUTCOME>
      <OUTCOME>48</OUTCOME>
      <OUTCOME>49</OUTCOME>
      <OUTCOME>50</OUTCOME>
      <OUTCOME>51</OUTCOME>
      <OUTCOME>52</OUTCOME>
      <OUTCOME>53</OUTCOME>
      <OUTCOME>54</OUTCOME>
      <OUTCOME>56</OUTCOME>
      <OUTCOME>57</OUTCOME>
      <OUTCOME>60</OUTCOME>
      <OUTCOME>63</OUTCOME>
      <OUTCOME>64</OUTCOME>
      <OUTCOME>66</OUTCOME>
      <OUTCOME>67</OUTCOME>
      <OUTCOME>68</OUTCOME>
      <OUTCOME>71</OUTCOME>
      <OUTCOME>72</OUTCOME>
      <OUTCOME>75</OUTCOME>
      <OUTCOME>76</OUTCOME>
      <OUTCOME>78</OUTCOME>
      <OUTCOME>79</OUTCOME>
      <OUTCOME>89</OUTCOME>
      <OUTCOME>91</OUTCOME>
      <OUTCOME>93</OUTCOME>
      <OUTCOME>94</OUTCOME>
      <OUTCOME>119</OUTCOME>
      <OUTCOME>2418</OUTCOME>
      <OUTCOME>9813</OUTCOME>
      <OUTCOME>14883</OUTCOME>
      <PROPERTY>weight = None</PROPERTY>
    </VARIABLE>
    <VARIABLE TYPE="nature">
      <NAME>fps</NAME>
      <OUTCOME>5</OUTCOME>
      <OUTCOME>10</OUTCOME>
      <OUTCOME>15</OUTCOME>
      <OUTCOME>20</OUTCOME>
      <OUTCOME>30</OUTCOME>
      <OUTCOME>40</OUTCOME>
      <OUTCOME>50</OUTCOME>
      <OUTCOME>60</OUTCOME>
      <OUTCOME>70</OUTCOME>
      <OUTCOME>80</OUTCOME>
      <PROPERTY>weight = None</PROPERTY>
    </VARIABLE>
    <VARIABLE TYPE="nature">
      <NAME>in_time</NAME>
      <OUTCOME>False</OUTCOME>
      <OUTCOME>True</OUTCOME>
      <PROPERTY>weight = None</PROPERTY>
    </VARIABLE>
    <VARIABLE TYPE="nature">
      <NAME>pixel</NAME>
      <OUTCOME>720</OUTCOME>
      <OUTCOME>1080</OUTCOME>
      <PROPERTY>weight = None</PROPERTY>
    </VARIABLE>
    <DEFINITION>
      <FOR>delta</FOR>
      <TABLE>0.0003250270855904659 0.009534127843986998 0.010509209100758397 0.000866738894907909 0.0003250270855904659 0.0005417118093174431 0.0016251354279523294 0.0032502708559046588 0.008017334777898158 0.01755146262188516 0.009209100758396533 0.004767063921993499 0.0027085590465872156 0.006392199349945829 0.015601300108342361 0.014517876489707475 0.02697724810400867 0.07703141928494041 0.07984832069339112 0.01267605633802817 0.020693391115926326 0.024160346695557965 0.01267605633802817 0.008125677139761646 0.01267605633802817 0.04832069339111593 0.09176598049837487 0.049079089924160345 0.05655471289274106 0.09165763813651137 0.10747562296858071 0.06847237269772481 0.04236186348862405 0.020801733477789817 0.014734561213434453 0.007475622968580715 0.005200433369447454 0.0039003250270855903 0.0021668472372697724 0.002058504875406284 0.0013001083423618636 0.0011917659804983748 0.0004333694474539545 0.0003250270855904659 0.0003250270855904659 0.00021668472372697725 0.00010834236186348862 0.0004333694474539545 0.00021668472372697725 0.00010834236186348862 0.00010834236186348862 0.00021668472372697725 0.00010834236186348862 0.00010834236186348862 0.00010834236186348862 0.00010834236186348862 0.00010834236186348862 0.00021668472372697725 0.00010834236186348862 0.00021668472372697725 0.00010834236186348862 0.00021668472372697725 0.00021668472372697725 0.00010834236186348862 0.00010834236186348862 0.00010834236186348862 0.00010834236186348862 0.00010834236186348862 0.00010834236186348862 0.00010834236186348862 </TABLE>
    </DEFINITION>
    <DEFINITION>
      <FOR>fps</FOR>
      <GIVEN>delta</GIVEN>
      <TABLE>0.0 0.0 0.3333333333333333 0.6666666666666666 0.0 0.0 0.0 0.0 0.0 0.0 0.11363636363636363 0.2727272727272727 0.4090909090909091 0.20454545454545456 0.0 0.0 0.0 0.0 0.0 0.0 0.08247422680412371 0.25773195876288657 0.422680412371134 0.23711340206185566 0.0 0.0 0.0 0.0 0.0 0.0 0.125 0.125 0.625 0.125 0.0 0.0 0.0 0.0 0.0 0.0 0.0 0.3333333333333333 0.3333333333333333 0.3333333333333333 0.0 0.0 0.0 0.0 0.0 0.0 0.0 0.0 1.0 0.0 0.0 0.0 0.0 0.0 0.0 0.0 0.2 0.0 0.13333333333333333 0.6666666666666666 0.0 0.0 0.0 0.0 0.0 0.0 0.06666666666666667 0.03333333333333333 0.1 0.43333333333333335 0.36666666666666664 0.0 0.0 0.0 0.0 0.0 0.013513513513513514 0.06756756756756757 0.22972972972972974 0.12162162162162163 0.13513513513513514 0.43243243243243246 0.0 0.0 0.0 0.0 0.043209876543209874 0.037037037037037035 0.11728395061728394 0.07407407407407407 0.037037037037037035 0.691358024691358 0.0 0.0 0.0 0.0 0.07058823529411765 0.09411764705882353 0.15294117647058825 0.058823529411764705 0.023529411764705882 0.6 0.0 0.0 0.0 0.0 0.11363636363636363 0.045454545454545456 0.06818181818181818 0.11363636363636363 0.0 0.6590909090909091 0.0 0.0 0.0 0.0 0.04 0.0 0.16 0.04 0.0 0.76 0.0 0.0 0.0 0.0 0.06779661016949153 0.0 0.0 0.01694915254237288 0.05084745762711865 0.864406779661017 0.0 0.0 0.0 0.0 0.06944444444444445 0.006944444444444444 0.013888888888888888 0.020833333333333332 0.1111111111111111 0.7777777777777778 0.0 0.0 0.0 0.0 0.06716417910447761 0.022388059701492536 0.09701492537313433 0.07462686567164178 0.2537313432835821 0.48507462686567165 0.0 0.0 0.0 0.0 0.0642570281124498 0.12048192771084337 0.15261044176706828 0.11646586345381527 0.39357429718875503 0.15261044176706828 0.0 0.0 0.0 0.0 0.14486638537271448 0.20956399437412096 0.19268635724331926 0.19127988748241911 0.22644163150492264 0.035161744022503515 0.0 0.0 0.0 0.0 0.11940298507462686 0.25780189959294436 0.276797829036635 0.19402985074626866 0.12211668928086838 0.029850746268656716 0.0 0.0 0.0 0.0 0.15384615384615385 0.3162393162393162 0.23076923076923078 0.11965811965811966 0.1111111111111111 0.06837606837606838 0.0 0.0 0.0 0.0 0.47643979057591623 0.17277486910994763 0.06806282722513089 0.03664921465968586 0.17277486910994763 0.07329842931937172 0.0 0.0 0.0 0.0 0.57847533632287 0.22869955156950672 0.026905829596412557 0.017937219730941704 0.12556053811659193 0.02242152466367713 0.0 0.0 0.0 0.0 0.1794871794871795 0.21367521367521367 0.017094017094017096 0.26495726495726496 0.23076923076923078 0.09401709401709402 0.0 0.0 0.0 0.0 0.32 0.04 0.013333333333333334 0.3333333333333333 0.26666666666666666 0.02666666666666667 0.0 0.0 0.0 0.0 0.15384615384615385 0.017094017094017096 0.008547008547008548 0.36752136752136755 0.20512820512820512 0.07692307692307693 0.05128205128205128 0.042735042735042736 0.02564102564102564 0.05128205128205128 0.02242152466367713 0.15695067264573992 0.0 0.242152466367713 0.13004484304932734 0.10538116591928251 0.06950672645739911 0.07623318385650224 0.10538116591928251 0.09192825112107623 0.010625737898465172 0.4155844155844156 0.0 0.10625737898465171 0.08618654073199528 0.06729634002361275 0.08028335301062574 0.07201889020070838 0.08382526564344746 0.07792207792207792 0.0772626931567329 0.15894039735099338 0.0 0.16997792494481237 0.09492273730684327 0.10154525386313466 0.10154525386313466 0.11699779249448124 0.08830022075055188 0.09050772626931568 0.15517241379310345 0.08237547892720307 0.0 0.19731800766283525 0.1053639846743295 0.09961685823754789 0.09578544061302682 0.06321839080459771 0.11877394636015326 0.08237547892720307 0.15484633569739953 0.03900709219858156 0.0 0.13356973995271867 0.12174940898345153 0.11347517730496454 0.09456264775413711 0.12411347517730496 0.10401891252955082 0.11465721040189125 0.1693548387096774 0.014112903225806451 0.0 0.09576612903225806 0.11391129032258064 0.1159274193548387 0.1310483870967742 0.12701612903225806 0.10483870967741936 0.1280241935483871 0.16139240506329114 0.007911392405063292 0.0 0.058544303797468354 0.12658227848101267 0.13924050632911392 0.13291139240506328 0.12025316455696203 0.12658227848101267 0.12658227848101267 0.0741687979539642 0.0025575447570332483 0.01278772378516624 0.03836317135549872 0.13810741687979539 0.1483375959079284 0.15601023017902813 0.1432225063938619 0.14066496163682865 0.14578005115089515 0.08333333333333333 0.026041666666666668 0.046875 0.052083333333333336 0.15104166666666666 0.11979166666666667 0.09375 0.15625 0.15104166666666666 0.11979166666666667 0.08823529411764706 0.04411764705882353 0.23529411764705882 0.014705882352941176 0.08088235294117647 0.08823529411764706 0.16176470588235295 0.08823529411764706 0.11029411764705882 0.08823529411764706 0.15942028985507245 0.043478260869565216 0.42028985507246375 0.028985507246376812 0.07246376811594203 0.028985507246376812 0.057971014492753624 0.10144927536231885 0.028985507246376812 0.057971014492753624 0.125 0.020833333333333332 0.6875 0.0 0.041666666666666664 0.0 0.041666666666666664 0.020833333333333332 0.041666666666666664 0.020833333333333332 0.16666666666666666 0.0 0.6388888888888888 0.0 0.0 0.08333333333333333 0.0 0.027777777777777776 0.05555555555555555 0.027777777777777776 0.15 0.0 0.7 0.0 0.0 0.0 0.0 0.05 0.1 0.0 0.2631578947368421 0.0 0.631578947368421 0.0 0.05263157894736842 0.0 0.0 0.05263157894736842 0.0 0.0 0.08333333333333333 0.08333333333333333 0.6666666666666666 0.08333333333333333 0.0 0.0 0.0 0.0 0.0 0.08333333333333333 0.09090909090909091 0.0 0.9090909090909091 0.0 0.0 0.0 0.0 0.0 0.0 0.0 0.0 0.0 1.0 0.0 0.0 0.0 0.0 0.0 0.0 0.0 0.0 0.0 1.0 0.0 0.0 0.0 0.0 0.0 0.0 0.0 0.0 0.0 0.6666666666666666 0.0 0.0 0.0 0.0 0.0 0.0 0.3333333333333333 0.0 0.0 1.0 0.0 0.0 0.0 0.0 0.0 0.0 0.0 0.0 0.0 1.0 0.0 0.0 0.0 0.0 0.0 0.0 0.0 0.0 0.25 0.5 0.25 0.0 0.0 0.0 0.0 0.0 0.0 0.0 0.0 1.0 0.0 0.0 0.0 0.0 0.0 0.0 0.0 0.0 0.0 1.0 0.0 0.0 0.0 0.0 0.0 0.0 0.0 0.0 0.0 1.0 0.0 0.0 0.0 0.0 0.0 0.0 0.0 0.0 0.0 1.0 0.0 0.0 0.0 0.0 0.0 0.0 0.0 1.0 0.0 0.0 0.0 0.0 0.0 0.0 0.0 0.0 0.0 0.0 0.0 1.0 0.0 0.0 0.0 0.0 0.0 0.0 0.0 0.0 0.0 1.0 0.0 0.0 0.0 0.0 0.0 0.0 0.0 0.0 0.0 1.0 0.0 0.0 0.0 0.0 0.0 0.0 0.0 0.0 0.0 1.0 0.0 0.0 0.0 0.0 0.0 0.0 0.0 0.0 0.0 1.0 0.0 0.0 0.0 0.0 0.0 0.0 0.0 0.0 0.0 0.0 1.0 0.0 0.0 0.0 0.0 0.0 0.0 0.0 0.0 0.0 0.5 0.5 0.0 0.0 0.0 0.0 0.0 1.0 0.0 0.0 0.0 0.0 0.0 0.0 0.0 0.0 0.0 0.0 0.0 1.0 0.0 0.0 0.0 0.0 0.0 0.0 0.0 0.0 0.0 0.5 0.5 0.0 0.0 0.0 0.0 0.0 0.0 0.0 0.0 0.0 1.0 0.0 0.0 0.0 0.0 0.0 0.0 0.0 0.0 1.0 0.0 0.0 0.0 0.0 0.0 0.0 0.0 0.0 0.0 1.0 0.0 0.0 0.0 0.0 0.0 0.0 0.0 0.0 0.0 1.0 0.0 0.0 0.0 0.0 0.0 0.0 0.0 1.0 0.0 0.0 0.0 0.0 0.0 0.0 0.0 0.0 0.0 0.0 0.0 0.0 0.0 0.0 0.0 0.0 0.0 0.0 1.0 0.0 0.0 1.0 0.0 0.0 0.0 0.0 0.0 0.0 0.0 </TABLE>
    </DEFINITION>
    <DEFINITION>
      <FOR>in_time</FOR>
      <GIVEN>delta</GIVEN>
      <GIVEN>fps</GIVEN>
      <TABLE>0.5 0.5 0.5 0.5 0.0 1.0 0.0 1.0 0.5 0.5 0.5 0.5 0.5 0.5 0.5 0.5 0.5 0.5 0.5 0.5 0.0 1.0 0.0 1.0 0.0 1.0 0.0 1.0 0.5 0.5 0.5 0.5 0.5 0.5 0.5 0.5 0.5 0.5 0.5 0.5 0.0 1.0 0.0 1.0 0.0 1.0 0.0 1.0 0.5 0.5 0.5 0.5 0.5 0.5 0.5 0.5 0.5 0.5 0.5 0.5 0.0 1.0 0.0 1.0 0.0 1.0 0.0 1.0 0.5 0.5 0.5 0.5 0.5 0.5 0.5 0.5 0.5 0.5 0.5 0.5 0.5 0.5 0.0 1.0 0.0 1.0 0.0 1.0 0.5 0.5 0.5 0.5 0.5 0.5 0.5 0.5 0.5 0.5 0.5 0.5 0.5 0.5 0.5 0.5 0.0 1.0 0.5 0.5 0.5 0.5 0.5 0.5 0.5 0.5 0.5 0.5 0.5 0.5 0.5 0.5 0.0 1.0 0.5 0.5 0.0 1.0 0.0 1.0 0.5 0.5 0.5 0.5 0.5 0.5 0.5 0.5 0.5 0.5 0.5 0.5 0.0 1.0 0.0 1.0 0.0 1.0 0.0 1.0 0.0 1.0 0.5 0.5 0.5 0.5 0.5 0.5 0.5 0.5 0.5 0.5 0.0 1.0 0.0 1.0 0.0 1.0 0.0 1.0 0.0 1.0 0.0 1.0 0.5 0.5 0.5 0.5 0.5 0.5 0.5 0.5 0.0 1.0 0.0 1.0 0.0 1.0 0.0 1.0 0.0 1.0 0.0 1.0 0.5 0.5 0.5 0.5 0.5 0.5 0.5 0.5 0.0 1.0 0.0 1.0 0.0 1.0 0.0 1.0 0.0 1.0 0.0 1.0 0.5 0.5 0.5 0.5 0.5 0.5 0.5 0.5 0.0 1.0 0.0 1.0 0.0 1.0 0.0 1.0 0.5 0.5 0.0 1.0 0.5 0.5 0.5 0.5 0.5 0.5 0.5 0.5 0.0 1.0 0.5 0.5 0.0 1.0 0.0 1.0 0.5 0.5 0.0 1.0 0.5 0.5 0.5 0.5 0.5 0.5 0.5 0.5 0.0 1.0 0.5 0.5 0.5 0.5 0.0 1.0 0.0 1.0 0.0 1.0 0.5 0.5 0.5 0.5 0.5 0.5 0.5 0.5 0.0 1.0 0.0 1.0 0.0 1.0 0.0 1.0 0.0 1.0 0.0 1.0 0.5 0.5 0.5 0.5 0.5 0.5 0.5 0.5 0.0 1.0 0.0 1.0 0.0 1.0 0.0 1.0 0.0 1.0 0.0 1.0 0.5 0.5 0.5 0.5 0.5 0.5 0.5 0.5 0.0 1.0 0.0 1.0 0.0 1.0 0.0 1.0 0.0 1.0 0.0 1.0 0.5 0.5 0.5 0.5 0.5 0.5 0.5 0.5 0.0 1.0 0.0 1.0 0.0 1.0 0.0 1.0 0.0 1.0 0.0 1.0 0.5 0.5 0.5 0.5 0.5 0.5 0.5 0.5 0.0 1.0 0.0 1.0 0.0 1.0 0.0 1.0 0.0 1.0 0.0 1.0 0.5 0.5 0.5 0.5 0.5 0.5 0.5 0.5 0.0 1.0 0.0 1.0 0.0 1.0 0.0 1.0 0.0 1.0 1.0 0.0 0.5 0.5 0.5 0.5 0.5 0.5 0.5 0.5 0.0 1.0 0.0 1.0 0.0 1.0 0.0 1.0 0.0 1.0 1.0 0.0 0.5 0.5 0.5 0.5 0.5 0.5 0.5 0.5 0.0 1.0 0.0 1.0 0.0 1.0 0.0 1.0 0.0 1.0 1.0 0.0 0.5 0.5 0.5 0.5 0.5 0.5 0.5 0.5 0.0 1.0 0.0 1.0 0.0 1.0 0.0 1.0 0.0 1.0 1.0 0.0 0.5 0.5 0.5 0.5 0.5 0.5 0.5 0.5 0.0 1.0 0.0 1.0 0.0 1.0 0.0 1.0 0.0 1.0 1.0 0.0 0.5 0.5 0.5 0.5 0.5 0.5 0.5 0.5 0.0 1.0 0.0 1.0 0.0 1.0 0.0 1.0 0.0 1.0 1.0 0.0 1.0 0.0 1.0 0.0 1.0 0.0 1.0 0.0 0.0 1.0 0.0 1.0 0.5 0.5 0.0 1.0 0.0 1.0 1.0 0.0 1.0 0.0 1.0 0.0 1.0 0.0 1.0 0.0 0.0 1.0 0.0 1.0 0.5 0.5 0.0 1.0 0.0 1.0 1.0 0.0 1.0 0.0 1.0 0.0 1.0 0.0 1.0 0.0 0.0 1.0 0.0 1.0 0.5 0.5 0.0 1.0 1.0 0.0 1.0 0.0 1.0 0.0 1.0 0.0 1.0 0.0 1.0 0.0 0.0 1.0 0.0 1.0 0.5 0.5 0.0 1.0 1.0 0.0 1.0 0.0 1.0 0.0 1.0 0.0 1.0 0.0 1.0 0.0 0.0 1.0 0.0 1.0 0.5 0.5 0.0 1.0 1.0 0.0 1.0 0.0 1.0 0.0 1.0 0.0 1.0 0.0 1.0 0.0 0.0 1.0 0.0 1.0 0.5 0.5 0.0 1.0 1.0 0.0 1.0 0.0 1.0 0.0 1.0 0.0 1.0 0.0 1.0 0.0 0.0 1.0 0.0 1.0 0.5 0.5 0.0 1.0 1.0 0.0 1.0 0.0 1.0 0.0 1.0 0.0 1.0 0.0 1.0 0.0 0.0 1.0 0.0 1.0 0.0 1.0 0.0 1.0 1.0 0.0 1.0 0.0 1.0 0.0 1.0 0.0 1.0 0.0 1.0 0.0 0.0 1.0 0.0 1.0 0.0 1.0 0.0 1.0 1.0 0.0 1.0 0.0 1.0 0.0 1.0 0.0 1.0 0.0 1.0 0.0 0.0 1.0 0.0 1.0 0.0 1.0 0.0 1.0 1.0 0.0 1.0 0.0 1.0 0.0 1.0 0.0 1.0 0.0 1.0 0.0 0.0 1.0 0.0 1.0 0.0 1.0 0.0 1.0 1.0 0.0 1.0 0.0 1.0 0.0 1.0 0.0 1.0 0.0 1.0 0.0 0.0 1.0 0.0 1.0 0.0 1.0 0.5 0.5 1.0 0.0 0.5 0.5 1.0 0.0 1.0 0.0 1.0 0.0 1.0 0.0 0.0 1.0 0.5 0.5 0.0 1.0 0.5 0.5 0.5 0.5 1.0 0.0 0.5 0.5 1.0 0.0 1.0 0.0 1.0 0.0 0.0 1.0 0.5 0.5 0.0 1.0 0.5 0.5 0.5 0.5 0.5 0.5 0.5 0.5 1.0 0.0 1.0 0.0 0.5 0.5 0.0 1.0 0.5 0.5 0.0 1.0 0.5 0.5 1.0 0.0 0.5 0.5 0.5 0.5 1.0 0.0 0.5 0.5 0.5 0.5 0.0 1.0 0.0 1.0 0.0 1.0 0.0 1.0 0.5 0.5 0.5 0.5 0.5 0.5 0.5 0.5 0.5 0.5 1.0 0.0 0.0 1.0 0.5 0.5 0.0 1.0 0.5 0.5 0.5 0.5 0.5 0.5 0.5 0.5 0.5 0.5 0.5 0.5 0.5 0.5 0.5 0.5 0.5 0.5 0.0 1.0 0.5 0.5 0.5 0.5 0.5 0.5 0.5 0.5 0.5 0.5 0.5 0.5 0.5 0.5 0.5 0.5 0.5 0.5 0.0 1.0 0.5 0.5 0.5 0.5 0.5 0.5 0.5 0.5 0.5 0.5 0.5 0.5 0.5 0.5 0.5 0.5 0.5 0.5 0.0 1.0 0.5 0.5 0.5 0.5 0.5 0.5 0.5 0.5 0.5 0.5 0.5 0.5 1.0 0.0 0.5 0.5 0.5 0.5 0.0 1.0 0.5 0.5 0.5 0.5 0.5 0.5 0.5 0.5 0.5 0.5 0.5 0.5 0.5 0.5 0.5 0.5 0.5 0.5 0.0 1.0 0.5 0.5 0.5 0.5 0.5 0.5 0.5 0.5 0.5 0.5 0.5 0.5 0.5 0.5 0.5 0.5 0.0 1.0 0.0 1.0 1.0 0.0 0.5 0.5 0.5 0.5 0.5 0.5 0.5 0.5 0.5 0.5 0.5 0.5 0.5 0.5 0.5 0.5 0.0 1.0 0.5 0.5 0.5 0.5 0.5 0.5 0.5 0.5 0.5 0.5 0.5 0.5 0.5 0.5 0.5 0.5 0.5 0.5 0.0 1.0 0.5 0.5 0.5 0.5 0.5 0.5 0.5 0.5 0.5 0.5 0.5 0.5 0.5 0.5 0.5 0.5 0.5 0.5 0.0 1.0 0.5 0.5 0.5 0.5 0.5 0.5 0.5 0.5 0.5 0.5 0.5 0.5 0.5 0.5 0.5 0.5 0.5 0.5 0.0 1.0 0.5 0.5 0.5 0.5 0.5 0.5 0.5 0.5 0.5 0.5 0.5 0.5 0.5 0.5 0.0 1.0 0.5 0.5 0.5 0.5 0.5 0.5 0.5 0.5 0.5 0.5 0.5 0.5 0.5 0.5 0.5 0.5 0.5 0.5 0.5 0.5 0.5 0.5 0.0 1.0 0.5 0.5 0.5 0.5 0.5 0.5 0.5 0.5 0.5 0.5 0.5 0.5 0.5 0.5 0.5 0.5 0.5 0.5 1.0 0.0 0.5 0.5 0.5 0.5 0.5 0.5 0.5 0.5 0.5 0.5 0.5 0.5 0.5 0.5 0.5 0.5 0.5 0.5 1.0 0.0 0.5 0.5 0.5 0.5 0.5 0.5 0.5 0.5 0.5 0.5 0.5 0.5 0.5 0.5 0.5 0.5 0.5 0.5 1.0 0.0 0.5 0.5 0.5 0.5 0.5 0.5 0.5 0.5 0.5 0.5 0.5 0.5 0.5 0.5 0.5 0.5 0.5 0.5 1.0 0.0 0.5 0.5 0.5 0.5 0.5 0.5 0.5 0.5 0.5 0.5 0.5 0.5 0.5 0.5 0.5 0.5 0.5 0.5 0.5 0.5 1.0 0.0 0.5 0.5 0.5 0.5 0.5 0.5 0.5 0.5 0.5 0.5 0.5 0.5 0.5 0.5 0.5 0.5 0.5 0.5 1.0 0.0 1.0 0.0 0.5 0.5 0.5 0.5 0.5 0.5 0.5 0.5 0.5 0.5 0.0 1.0 0.5 0.5 0.5 0.5 0.5 0.5 0.5 0.5 0.5 0.5 0.5 0.5 0.5 0.5 0.5 0.5 0.5 0.5 0.5 0.5 0.5 0.5 1.0 0.0 0.5 0.5 0.5 0.5 0.5 0.5 0.5 0.5 0.5 0.5 0.5 0.5 0.5 0.5 0.5 0.5 0.5 0.5 1.0 0.0 1.0 0.0 0.5 0.5 0.5 0.5 0.5 0.5 0.5 0.5 0.5 0.5 0.5 0.5 0.5 0.5 0.5 0.5 0.5 0.5 1.0 0.0 0.5 0.5 0.5 0.5 0.5 0.5 0.5 0.5 0.5 0.5 0.5 0.5 0.5 0.5 0.5 0.5 1.0 0.0 0.5 0.5 0.5 0.5 0.5 0.5 0.5 0.5 0.5 0.5 0.5 0.5 0.5 0.5 0.5 0.5 0.5 0.5 1.0 0.0 0.5 0.5 0.5 0.5 0.5 0.5 0.5 0.5 0.5 0.5 0.5 0.5 0.5 0.5 0.5 0.5 0.5 0.5 1.0 0.0 0.5 0.5 0.5 0.5 0.5 0.5 0.5 0.5 0.5 0.5 0.5 0.5 0.5 0.5 1.0 0.0 0.5 0.5 0.5 0.5 0.5 0.5 0.5 0.5 0.5 0.5 0.5 0.5 0.5 0.5 0.5 0.5 0.5 0.5 0.5 0.5 0.5 0.5 0.5 0.5 0.5 0.5 0.5 0.5 0.5 0.5 0.5 0.5 0.5 0.5 0.5 0.5 1.0 0.0 0.5 0.5 0.5 0.5 1.0 0.0 0.5 0.5 0.5 0.5 0.5 0.5 0.5 0.5 0.5 0.5 0.5 0.5 0.5 0.5 </TABLE>
    </DEFINITION>
    <DEFINITION>
      <FOR>pixel</FOR>
      <GIVEN>delta</GIVEN>
      <GIVEN>in_time</GIVEN>
      <TABLE>0.5 0.5 1.0 0.0 0.5 0.5 1.0 0.0 0.5 0.5 1.0 0.0 0.5 0.5 1.0 0.0 0.5 0.5 1.0 0.0 0.5 0.5 1.0 0.0 0.5 0.5 1.0 0.0 0.5 0.5 1.0 0.0 0.5 0.5 1.0 0.0 0.5 0.5 1.0 0.0 0.5 0.5 1.0 0.0 0.5 0.5 1.0 0.0 0.5 0.5 1.0 0.0 0.5 0.5 1.0 0.0 0.5 0.5 1.0 0.0 0.5 0.5 1.0 0.0 0.5 0.5 1.0 0.0 0.5 0.5 1.0 0.0 0.5 0.5 1.0 0.0 1.0 0.0 1.0 0.0 1.0 0.0 1.0 0.0 1.0 0.0 1.0 0.0 1.0 0.0 1.0 0.0 1.0 0.0 1.0 0.0 1.0 0.0 1.0 0.0 1.0 0.0 1.0 0.0 1.0 0.0 1.0 0.0 1.0 0.0 1.0 0.0 1.0 0.0 1.0 0.0 1.0 0.0 1.0 0.0 1.0 0.0 1.0 0.0 1.0 0.0 1.0 0.0 1.0 0.0 0.9 0.1 1.0 0.0 0.775 0.225 1.0 0.0 0.38461538461538464 0.6153846153846154 1.0 0.0 0.35555555555555557 0.6444444444444445 1.0 0.0 0.175 0.825 1.0 0.0 0.20689655172413793 0.7931034482758621 1.0 0.0 0.17647058823529413 0.8235294117647058 1.0 0.0 0.29411764705882354 0.7058823529411765 1.0 0.0 0.2727272727272727 0.7272727272727273 0.5 0.5 0.09090909090909091 0.9090909090909091 0.5 0.5 0.0 1.0 0.5 0.5 0.3333333333333333 0.6666666666666666 1.0 0.0 0.0 1.0 0.5 0.5 0.0 1.0 0.5 0.5 0.0 1.0 1.0 0.0 0.6666666666666666 0.3333333333333333 0.5 0.5 0.0 1.0 0.5 0.5 0.0 1.0 0.5 0.5 0.0 1.0 0.5 0.5 0.0 1.0 0.5 0.5 1.0 0.0 0.5 0.5 0.0 1.0 0.0 1.0 0.5 0.5 1.0 0.0 0.5 0.5 0.0 1.0 0.5 0.5 0.5 0.5 0.5 0.5 1.0 0.0 0.5 0.5 1.0 0.0 0.5 0.5 0.5 0.5 1.0 0.0 1.0 0.0 0.5 0.5 0.5 0.5 0.5 0.5 1.0 0.0 0.5 0.5 0.0 1.0 0.5 0.5 1.0 0.0 0.5 0.5 1.0 0.0 0.5 0.5 1.0 0.0 0.5 0.5 1.0 0.0 0.5 0.5 0.0 1.0 0.5 0.5 </TABLE>
    </DEFINITION>
  </NETWORK>
</BIF>
