<?xml version='1.0' encoding='utf-8'?>
<BIF VERSION="0.3">
  <NETWORK>
    <NAME>UNTITLED</NAME>
    <VARIABLE TYPE="nature">
      <NAME>delta</NAME>
      <OUTCOME>10</OUTCOME>
      <OUTCOME>11</OUTCOME>
      <OUTCOME>12</OUTCOME>
      <OUTCOME>13</OUTCOME>
      <OUTCOME>14</OUTCOME>
      <OUTCOME>15</OUTCOME>
      <OUTCOME>16</OUTCOME>
      <OUTCOME>17</OUTCOME>
      <OUTCOME>18</OUTCOME>
      <OUTCOME>19</OUTCOME>
      <OUTCOME>20</OUTCOME>
      <OUTCOME>21</OUTCOME>
      <OUTCOME>22</OUTCOME>
      <OUTCOME>23</OUTCOME>
      <OUTCOME>24</OUTCOME>
      <OUTCOME>25</OUTCOME>
      <OUTCOME>26</OUTCOME>
      <OUTCOME>27</OUTCOME>
      <OUTCOME>28</OUTCOME>
      <OUTCOME>29</OUTCOME>
      <OUTCOME>30</OUTCOME>
      <OUTCOME>31</OUTCOME>
      <OUTCOME>32</OUTCOME>
      <OUTCOME>33</OUTCOME>
      <OUTCOME>34</OUTCOME>
      <OUTCOME>35</OUTCOME>
      <OUTCOME>36</OUTCOME>
      <OUTCOME>37</OUTCOME>
      <OUTCOME>38</OUTCOME>
      <OUTCOME>39</OUTCOME>
      <OUTCOME>40</OUTCOME>
      <OUTCOME>41</OUTCOME>
      <OUTCOME>42</OUTCOME>
      <OUTCOME>43</OUTCOME>
      <OUTCOME>44</OUTCOME>
      <OUTCOME>45</OUTCOME>
      <OUTCOME>46</OUTCOME>
      <OUTCOME>47</OUTCOME>
      <OUTCOME>48</OUTCOME>
      <OUTCOME>49</OUTCOME>
      <OUTCOME>50</OUTCOME>
      <OUTCOME>51</OUTCOME>
      <OUTCOME>52</OUTCOME>
      <OUTCOME>53</OUTCOME>
      <OUTCOME>54</OUTCOME>
      <OUTCOME>55</OUTCOME>
      <OUTCOME>56</OUTCOME>
      <OUTCOME>57</OUTCOME>
      <OUTCOME>58</OUTCOME>
      <OUTCOME>59</OUTCOME>
      <OUTCOME>60</OUTCOME>
      <OUTCOME>61</OUTCOME>
      <OUTCOME>62</OUTCOME>
      <OUTCOME>63</OUTCOME>
      <OUTCOME>64</OUTCOME>
      <OUTCOME>65</OUTCOME>
      <OUTCOME>66</OUTCOME>
      <OUTCOME>67</OUTCOME>
      <OUTCOME>68</OUTCOME>
      <OUTCOME>69</OUTCOME>
      <OUTCOME>70</OUTCOME>
      <OUTCOME>71</OUTCOME>
      <OUTCOME>72</OUTCOME>
      <OUTCOME>73</OUTCOME>
      <OUTCOME>74</OUTCOME>
      <OUTCOME>75</OUTCOME>
      <OUTCOME>76</OUTCOME>
      <OUTCOME>78</OUTCOME>
      <OUTCOME>79</OUTCOME>
      <OUTCOME>81</OUTCOME>
      <OUTCOME>90</OUTCOME>
      <OUTCOME>261</OUTCOME>
      <OUTCOME>2376</OUTCOME>
      <PROPERTY>weight = None</PROPERTY>
    </VARIABLE>
    <VARIABLE TYPE="nature">
      <NAME>fps</NAME>
      <OUTCOME>15</OUTCOME>
      <OUTCOME>20</OUTCOME>
      <OUTCOME>25</OUTCOME>
      <OUTCOME>30</OUTCOME>
      <OUTCOME>35</OUTCOME>
      <PROPERTY>weight = None</PROPERTY>
    </VARIABLE>
    <VARIABLE TYPE="nature">
      <NAME>in_time</NAME>
      <OUTCOME>False</OUTCOME>
      <OUTCOME>True</OUTCOME>
      <PROPERTY>weight = None</PROPERTY>
    </VARIABLE>
    <VARIABLE TYPE="nature">
      <NAME>pixel</NAME>
      <OUTCOME>480</OUTCOME>
      <OUTCOME>720</OUTCOME>
      <OUTCOME>1080</OUTCOME>
      <PROPERTY>weight = None</PROPERTY>
    </VARIABLE>
    <DEFINITION>
      <FOR>delta</FOR>
      <TABLE>0.0010309278350515464 0.004581901489117984 0.0003436426116838488 0.0003436426116838488 0.0002290950744558992 0.0006872852233676976 0.0008018327605956472 0.0006872852233676976 0.0012600229095074457 0.0004581901489117984 0.0002290950744558992 0.002290950744558992 0.016036655211912942 0.07995418098510881 0.11695303550973654 0.08235967926689576 0.06712485681557846 0.02588774341351661 0.02027491408934708 0.01672394043528064 0.013745704467353952 0.010309278350515464 0.009851088201603665 0.006987399770904926 0.015005727376861398 0.009392898052691867 0.007674684994272623 0.009851088201603665 0.009507445589919816 0.007331042382588774 0.005383734249713631 0.006071019473081329 0.02554410080183276 0.06403207331042382 0.05589919816723941 0.03837342497136312 0.016609392898052692 0.013287514318442153 0.016494845360824743 0.023711340206185566 0.04043528064146621 0.015120274914089347 0.0016036655211912943 0.0012600229095074457 0.003436426116838488 0.006414662084765177 0.002634593356242841 0.0016036655211912943 0.0003436426116838488 0.0003436426116838488 0.0038946162657502864 0.012027491408934709 0.006071019473081329 0.0024054982817869417 0.0025200458190148913 0.002061855670103093 0.002290950744558992 0.021764032073310423 0.030126002290950745 0.015693012600229095 0.007789232531500573 0.006987399770904926 0.005498281786941581 0.0028636884306987398 0.0003436426116838488 0.0001145475372279496 0.0002290950744558992 0.0002290950744558992 0.0001145475372279496 0.0001145475372279496 0.0001145475372279496 0.0001145475372279496 0.0001145475372279496 </TABLE>
    </DEFINITION>
    <DEFINITION>
      <FOR>fps</FOR>
      <GIVEN>delta</GIVEN>
      <GIVEN>in_time</GIVEN>
      <TABLE>0.2 0.2 0.2 0.2 0.2 0.7777777777777778 0.2222222222222222 0.0 0.0 0.0 0.2 0.2 0.2 0.2 0.2 0.225 0.775 0.0 0.0 0.0 0.2 0.2 0.2 0.2 0.2 0.6666666666666666 0.3333333333333333 0.0 0.0 0.0 0.2 0.2 0.2 0.2 0.2 1.0 0.0 0.0 0.0 0.0 0.2 0.2 0.2 0.2 0.2 1.0 0.0 0.0 0.0 0.0 0.2 0.2 0.2 0.2 0.2 1.0 0.0 0.0 0.0 0.0 0.2 0.2 0.2 0.2 0.2 0.42857142857142855 0.5714285714285714 0.0 0.0 0.0 0.2 0.2 0.2 0.2 0.2 0.3333333333333333 0.6666666666666666 0.0 0.0 0.0 0.2 0.2 0.2 0.2 0.2 0.2727272727272727 0.7272727272727273 0.0 0.0 0.0 0.2 0.2 0.2 0.2 0.2 0.5 0.5 0.0 0.0 0.0 0.2 0.2 0.2 0.2 0.2 1.0 0.0 0.0 0.0 0.0 0.2 0.2 0.2 0.2 0.2 0.15 0.05 0.0 0.0 0.8 0.2 0.2 0.2 0.2 0.2 0.15 0.02857142857142857 0.05714285714285714 0.1357142857142857 0.6285714285714286 0.2 0.2 0.2 0.2 0.2 0.24641833810888253 0.16189111747851004 0.1991404011461318 0.19197707736389685 0.20057306590257878 0.2 0.2 0.2 0.2 0.2 0.24191968658178256 0.1860920666013712 0.1958863858961802 0.21155729676787463 0.16454456415279137 0.2 0.2 0.2 0.2 0.2 0.2336578581363004 0.16133518776077885 0.23087621696801114 0.16411682892906815 0.21001390820584145 0.2 0.2 0.2 0.2 0.2 0.22013651877133106 0.16382252559726962 0.23378839590443687 0.24232081911262798 0.13993174061433447 0.2 0.2 0.2 0.2 0.2 0.2610619469026549 0.1592920353982301 0.168141592920354 0.2345132743362832 0.17699115044247787 0.2 0.2 0.2 0.2 0.2 0.1016949152542373 0.14124293785310735 0.21468926553672316 0.2994350282485876 0.24293785310734464 0.0 0.0 0.0 0.0 1.0 0.09243697478991597 0.3025210084033613 0.36134453781512604 0.24369747899159663 0.0 0.0 0.0 0.0 0.0 1.0 0.010638297872340425 0.3191489361702128 0.3723404255319149 0.2978723404255319 0.0 0.0 0.0 0.0 0.0 1.0 0.014492753623188406 0.43478260869565216 0.30434782608695654 0.2463768115942029 0.0 0.0 0.0 0.0 0.0 1.0 0.014084507042253521 0.49295774647887325 0.14084507042253522 0.352112676056338 0.0 0.0 0.0 0.0 0.0 1.0 0.0 0.48 0.32 0.2 0.0 0.0 0.0 0.0 0.5454545454545454 0.45454545454545453 0.7064220183486238 0.24770642201834864 0.045871559633027525 0.0 0.0 0.0 0.0 0.0 0.29411764705882354 0.7058823529411765 0.5692307692307692 0.35384615384615387 0.07692307692307693 0.0 0.0 0.0 0.0 0.0 0.3 0.7 0.631578947368421 0.2807017543859649 0.08771929824561403 0.0 0.0 0.0 0.0 0.0 0.2857142857142857 0.7142857142857143 0.9113924050632911 0.05063291139240506 0.0379746835443038 0.0 0.0 0.0 0.0 0.0 0.42857142857142855 0.5714285714285714 0.8947368421052632 0.06578947368421052 0.039473684210526314 0.0 0.0 0.0 0.0 0.0 0.3333333333333333 0.6666666666666666 0.9508196721311475 0.04918032786885246 0.0 0.0 0.0 0.0 0.0 0.0 0.0 1.0 0.9782608695652174 0.021739130434782608 0.0 0.0 0.0 0.0 0.0 0.3333333333333333 0.0 0.6666666666666666 0.86 0.14 0.0 0.0 0.0 0.0 0.0 0.2465753424657534 0.3219178082191781 0.4315068493150685 0.3116883116883117 0.6883116883116883 0.0 0.0 0.0 0.0 0.0 0.28878281622911695 0.4009546539379475 0.31026252983293556 0.1357142857142857 0.8642857142857143 0.0 0.0 0.0 0.0 0.0 0.5382436260623229 0.1501416430594901 0.311614730878187 0.35555555555555557 0.6444444444444445 0.0 0.0 0.0 0.0 0.0 0.6473988439306358 0.10404624277456648 0.24855491329479767 0.9444444444444444 0.05555555555555555 0.0 0.0 0.0 0.0 0.0 0.6666666666666666 0.05 0.2833333333333333 0.9529411764705882 0.047058823529411764 0.0 0.0 0.0 0.0 0.0 0.02 0.01 0.97 0.75 0.25 0.0 0.0 0.0 0.0 0.0 0.016129032258064516 0.08870967741935484 0.8951612903225806 0.15 0.85 0.0 0.0 0.0 0.0 0.0 0.031746031746031744 0.626984126984127 0.3412698412698413 0.012345679012345678 0.9876543209876543 0.0 0.0 0.0 0.0 0.0 0.17560975609756097 0.7170731707317073 0.1073170731707317 0.013513513513513514 0.9864864864864865 0.0 0.0 0.0 0.0 0.3560606060606061 0.23484848484848486 0.38636363636363635 0.022727272727272728 0.2 0.2 0.2 0.2 0.2 0.0 0.08333333333333333 0.3333333333333333 0.5833333333333334 0.0 1.0 0.0 0.0 0.0 0.0 0.0 0.0 0.1 0.6 0.3 1.0 0.0 0.0 0.0 0.0 0.0 0.03571428571428571 0.07142857142857142 0.75 0.14285714285714285 1.0 0.0 0.0 0.0 0.0 0.0 0.037037037037037035 0.0 0.9259259259259259 0.037037037037037035 1.0 0.0 0.0 0.0 0.0 0.0 0.17391304347826086 0.0 0.782608695652174 0.043478260869565216 0.2 0.2 0.2 0.2 0.2 0.0 0.16666666666666666 0.0 0.4166666666666667 0.4166666666666667 1.0 0.0 0.0 0.0 0.0 0.0 0.5 0.0 0.5 0.0 1.0 0.0 0.0 0.0 0.0 0.0 0.6666666666666666 0.0 0.0 0.3333333333333333 0.2 0.2 0.2 0.2 0.2 0.0 0.0 0.0 0.06060606060606061 0.9393939393939394 1.0 0.0 0.0 0.0 0.0 0.0 0.0 0.0 0.0 1.0 1.0 0.0 0.0 0.0 0.0 0.0 0.0 0.0 0.0 1.0 1.0 0.0 0.0 0.0 0.0 0.0 0.0 0.0 0.15 0.85 1.0 0.0 0.0 0.0 0.0 0.0 0.0 0.36363636363636365 0.22727272727272727 0.4090909090909091 0.2 0.2 0.2 0.2 0.2 0.0 0.125 0.4375 0.0 0.4375 1.0 0.0 0.0 0.0 0.0 0.0 0.10526315789473684 0.7368421052631579 0.10526315789473684 0.05263157894736842 1.0 0.0 0.0 0.0 0.0 0.005263157894736842 0.1736842105263158 0.5526315789473685 0.26842105263157895 0.0 0.2 0.2 0.2 0.2 0.2 0.0076045627376425855 0.4866920152091255 0.28517110266159695 0.22053231939163498 0.0 0.2 0.2 0.2 0.2 0.2 0.014598540145985401 0.5547445255474452 0.3722627737226277 0.058394160583941604 0.0 0.2 0.2 0.2 0.2 0.2 0.029411764705882353 0.5441176470588235 0.25 0.17647058823529413 0.0 0.2 0.2 0.2 0.2 0.2 0.04918032786885246 0.18032786885245902 0.09836065573770492 0.6721311475409836 0.0 0.2 0.2 0.2 0.2 0.2 0.8333333333333334 0.020833333333333332 0.041666666666666664 0.10416666666666667 0.0 0.2 0.2 0.2 0.2 0.2 0.88 0.04 0.08 0.0 0.0 0.2 0.2 0.2 0.2 0.2 0.3333333333333333 0.0 0.6666666666666666 0.0 0.0 0.2 0.2 0.2 0.2 0.2 0.0 0.0 1.0 0.0 0.0 0.2 0.2 0.2 0.2 0.2 0.0 0.0 0.5 0.5 0.0 0.2 0.2 0.2 0.2 0.2 0.5 0.0 0.0 0.5 0.0 0.2 0.2 0.2 0.2 0.2 1.0 0.0 0.0 0.0 0.0 0.2 0.2 0.2 0.2 0.2 1.0 0.0 0.0 0.0 0.0 0.2 0.2 0.2 0.2 0.2 0.0 0.0 1.0 0.0 0.0 0.2 0.2 0.2 0.2 0.2 0.0 0.0 0.0 1.0 0.0 0.2 0.2 0.2 0.2 0.2 1.0 0.0 0.0 0.0 0.0 0.2 0.2 0.2 0.2 0.2 </TABLE>
    </DEFINITION>
    <DEFINITION>
      <FOR>in_time</FOR>
      <GIVEN>delta</GIVEN>
      <TABLE>0.0 1.0 0.0 1.0 0.0 1.0 0.0 1.0 0.0 1.0 0.0 1.0 0.0 1.0 0.0 1.0 0.0 1.0 0.0 1.0 0.0 1.0 0.0 1.0 0.0 1.0 0.0 1.0 0.0 1.0 0.0 1.0 0.0 1.0 0.0 1.0 0.0 1.0 0.18493150684931506 0.815068493150685 0.21666666666666667 0.7833333333333333 0.23333333333333334 0.7666666666666667 0.1744186046511628 0.8255813953488372 0.18032786885245902 0.819672131147541 0.16793893129770993 0.8320610687022901 0.2073170731707317 0.7926829268292683 0.14925373134328357 0.8507462686567164 0.08139534883720931 0.9186046511627907 0.08433734939759036 0.9156626506024096 0.046875 0.953125 0.02127659574468085 0.9787234042553191 0.05660377358490566 0.9433962264150944 0.6547085201793722 0.3452914798206278 0.7495527728085868 0.2504472271914132 0.7233606557377049 0.2766393442622951 0.5164179104477612 0.4835820895522388 0.41379310344827586 0.5862068965517241 0.8620689655172413 0.13793103448275862 0.8611111111111112 0.1388888888888889 0.6086956521739131 0.391304347826087 0.5807365439093485 0.4192634560906516 1.0 0.0 0.8571428571428571 0.14285714285714285 0.9090909090909091 0.09090909090909091 0.9333333333333333 0.06666666666666667 0.9642857142857143 0.03571428571428571 1.0 0.0 0.8571428571428571 0.14285714285714285 0.6666666666666666 0.3333333333333333 1.0 0.0 0.9705882352941176 0.029411764705882353 0.9809523809523809 0.01904761904761905 0.9811320754716981 0.018867924528301886 0.9523809523809523 0.047619047619047616 1.0 0.0 0.8888888888888888 0.1111111111111111 0.95 0.05 1.0 0.0 1.0 0.0 1.0 0.0 1.0 0.0 1.0 0.0 1.0 0.0 1.0 0.0 1.0 0.0 1.0 0.0 1.0 0.0 1.0 0.0 1.0 0.0 1.0 0.0 1.0 0.0 1.0 0.0 1.0 0.0 </TABLE>
    </DEFINITION>
    <DEFINITION>
      <FOR>pixel</FOR>
      <GIVEN>delta</GIVEN>
      <GIVEN>fps</GIVEN>
      <TABLE>0.0 0.0 1.0 0.0 0.0 1.0 0.3333333333333333 0.3333333333333333 0.3333333333333333 0.3333333333333333 0.3333333333333333 0.3333333333333333 0.3333333333333333 0.3333333333333333 0.3333333333333333 0.0 0.0 1.0 0.0 0.0 1.0 0.3333333333333333 0.3333333333333333 0.3333333333333333 0.3333333333333333 0.3333333333333333 0.3333333333333333 0.3333333333333333 0.3333333333333333 0.3333333333333333 0.0 0.0 1.0 0.0 0.0 1.0 0.3333333333333333 0.3333333333333333 0.3333333333333333 0.3333333333333333 0.3333333333333333 0.3333333333333333 0.3333333333333333 0.3333333333333333 0.3333333333333333 0.0 0.0 1.0 0.3333333333333333 0.3333333333333333 0.3333333333333333 0.3333333333333333 0.3333333333333333 0.3333333333333333 0.3333333333333333 0.3333333333333333 0.3333333333333333 0.3333333333333333 0.3333333333333333 0.3333333333333333 0.0 0.0 1.0 0.3333333333333333 0.3333333333333333 0.3333333333333333 0.3333333333333333 0.3333333333333333 0.3333333333333333 0.3333333333333333 0.3333333333333333 0.3333333333333333 0.3333333333333333 0.3333333333333333 0.3333333333333333 0.0 0.0 1.0 0.3333333333333333 0.3333333333333333 0.3333333333333333 0.3333333333333333 0.3333333333333333 0.3333333333333333 0.3333333333333333 0.3333333333333333 0.3333333333333333 0.3333333333333333 0.3333333333333333 0.3333333333333333 0.0 0.0 1.0 0.0 0.0 1.0 0.3333333333333333 0.3333333333333333 0.3333333333333333 0.3333333333333333 0.3333333333333333 0.3333333333333333 0.3333333333333333 0.3333333333333333 0.3333333333333333 0.0 0.0 1.0 0.0 0.0 1.0 0.3333333333333333 0.3333333333333333 0.3333333333333333 0.3333333333333333 0.3333333333333333 0.3333333333333333 0.3333333333333333 0.3333333333333333 0.3333333333333333 0.0 0.0 1.0 0.0 0.0 1.0 0.3333333333333333 0.3333333333333333 0.3333333333333333 0.3333333333333333 0.3333333333333333 0.3333333333333333 0.3333333333333333 0.3333333333333333 0.3333333333333333 0.0 0.0 1.0 0.0 0.0 1.0 0.3333333333333333 0.3333333333333333 0.3333333333333333 0.3333333333333333 0.3333333333333333 0.3333333333333333 0.3333333333333333 0.3333333333333333 0.3333333333333333 0.0 0.0 1.0 0.3333333333333333 0.3333333333333333 0.3333333333333333 0.3333333333333333 0.3333333333333333 0.3333333333333333 0.3333333333333333 0.3333333333333333 0.3333333333333333 0.3333333333333333 0.3333333333333333 0.3333333333333333 0.0 0.0 1.0 0.0 0.0 1.0 0.3333333333333333 0.3333333333333333 0.3333333333333333 0.3333333333333333 0.3333333333333333 0.3333333333333333 1.0 0.0 0.0 0.47619047619047616 0.23809523809523808 0.2857142857142857 0.75 0.0 0.25 1.0 0.0 0.0 0.631578947368421 0.3684210526315789 0.0 0.9318181818181818 0.06818181818181818 0.0 0.8430232558139535 0.14534883720930233 0.011627906976744186 0.7610619469026548 0.20353982300884957 0.035398230088495575 0.8848920863309353 0.11510791366906475 0.0 0.7313432835820896 0.26865671641791045 0.0 0.55 0.42857142857142855 0.02142857142857143 0.44534412955465585 0.5425101214574899 0.012145748987854251 0.47368421052631576 0.5052631578947369 0.021052631578947368 0.385 0.61 0.005 0.4074074074074074 0.5879629629629629 0.004629629629629629 0.15476190476190477 0.5476190476190477 0.2976190476190476 0.08333333333333333 0.6845238095238095 0.23214285714285715 0.10344827586206896 0.6120689655172413 0.28448275862068967 0.05421686746987952 0.4578313253012048 0.4879518072289157 0.09322033898305085 0.3813559322033898 0.5254237288135594 0.09271523178807947 0.24503311258278146 0.6622516556291391 0.023255813953488372 0.06976744186046512 0.9069767441860465 0.010416666666666666 0.041666666666666664 0.9479166666666666 0.0364963503649635 0.0364963503649635 0.927007299270073 0.04225352112676056 0.07042253521126761 0.8873239436619719 0.2073170731707317 0.25609756097560976 0.5365853658536586 0.1016949152542373 0.03389830508474576 0.864406779661017 0.19444444444444445 0.05555555555555555 0.75 0.15789473684210525 0.10526315789473684 0.7368421052631579 0.20754716981132076 0.3584905660377358 0.4339622641509434 0.25 0.225 0.525 0.1111111111111111 0.0 0.8888888888888888 0.48 0.44 0.08 0.34210526315789475 0.2894736842105263 0.3684210526315789 0.4339622641509434 0.37735849056603776 0.18867924528301888 0.37209302325581395 0.37209302325581395 0.2558139534883721 0.09090909090909091 0.0 0.9090909090909091 0.4166666666666667 0.4166666666666667 0.16666666666666666 0.3953488372093023 0.3953488372093023 0.20930232558139536 0.41379310344827586 0.3793103448275862 0.20689655172413793 0.2222222222222222 0.4074074074074074 0.37037037037037035 0.0 0.0 1.0 0.43333333333333335 0.43333333333333335 0.13333333333333333 0.34285714285714286 0.34285714285714286 0.3142857142857143 0.4642857142857143 0.32142857142857145 0.21428571428571427 0.2692307692307692 0.23076923076923078 0.5 0.0 0.0 1.0 0.3 0.3333333333333333 0.36666666666666664 0.23809523809523808 0.2857142857142857 0.47619047619047616 0.29411764705882354 0.17647058823529413 0.5294117647058824 0.19047619047619047 0.2857142857142857 0.5238095238095238 0.0 1.0 0.0 0.3142857142857143 0.37142857142857144 0.3142857142857143 0.3 0.5 0.2 0.2 0.0 0.8 0.06666666666666667 0.5333333333333333 0.4 0.3333333333333333 0.3333333333333333 0.3333333333333333 0.3333333333333333 0.2916666666666667 0.375 0.375 0.3125 0.3125 0.1 0.2 0.7 0.45454545454545453 0.18181818181818182 0.36363636363636365 0.0 1.0 0.0 0.37037037037037035 0.37037037037037035 0.25925925925925924 0.2 0.8 0.0 0.25 0.0 0.75 0.3 0.2 0.5 0.0 1.0 0.0 0.2608695652173913 0.21739130434782608 0.5217391304347826 0.4 0.4 0.2 0.4 0.0 0.6 0.25 0.4166666666666667 0.3333333333333333 0.0 0.3888888888888889 0.6111111111111112 0.3125 0.3125 0.375 0.6 0.4 0.0 0.3333333333333333 0.0 0.6666666666666666 0.0 0.2857142857142857 0.7142857142857143 0.0 0.06944444444444445 0.9305555555555556 0.25 0.25 0.5 0.3333333333333333 0.0 0.6666666666666666 0.0 0.0 1.0 0.2 0.4 0.4 0.0 0.2647058823529412 0.7352941176470589 0.2 0.2 0.6 0.0 1.0 0.0 0.0 0.0 1.0 0.5 0.25 0.25 0.0 0.41379310344827586 0.5862068965517241 0.0 1.0 0.0 0.3333333333333333 0.3333333333333333 0.3333333333333333 0.0 0.0 1.0 0.0 1.0 0.0 0.0 0.24444444444444444 0.7555555555555555 0.0 0.0 1.0 0.3333333333333333 0.3333333333333333 0.3333333333333333 0.3333333333333333 0.3333333333333333 0.3333333333333333 1.0 0.0 0.0 0.0 0.16279069767441862 0.8372093023255814 0.14285714285714285 0.0 0.8571428571428571 0.0 0.0 1.0 0.3333333333333333 0.3333333333333333 0.3333333333333333 0.0 0.5 0.5 0.0 0.125 0.875 0.0 0.0 1.0 0.0 0.0 1.0 0.0 0.0 1.0 0.0 0.0 1.0 0.15789473684210525 0.05263157894736842 0.7894736842105263 0.0 0.008264462809917356 0.9917355371900827 0.0 0.0 1.0 0.0 0.0 1.0 0.0 0.0 1.0 0.875 0.020833333333333332 0.10416666666666667 0.0 0.0 1.0 0.4631578947368421 0.0 0.5368421052631579 0.0 0.0 1.0 0.35454545454545455 0.00909090909090909 0.6363636363636364 1.0 0.0 0.0 0.0 0.0 1.0 0.8035714285714286 0.0 0.19642857142857142 0.0 0.0 1.0 0.4418604651162791 0.046511627906976744 0.5116279069767442 0.9506172839506173 0.012345679012345678 0.037037037037037035 0.0 0.0 1.0 0.85 0.0 0.15 0.0 0.0 1.0 0.4117647058823529 0.4117647058823529 0.17647058823529413 0.9166666666666666 0.08333333333333333 0.0 0.5 0.0 0.5 0.5 0.0 0.5 0.0 0.0 1.0 0.0 0.979381443298969 0.020618556701030927 0.6666666666666666 0.3333333333333333 0.0 0.9411764705882353 0.0 0.058823529411764705 0.0 0.0 1.0 0.9090909090909091 0.0 0.09090909090909091 0.0 1.0 0.0 0.0 0.0 1.0 1.0 0.0 0.0 1.0 0.0 0.0 1.0 0.0 0.0 0.023255813953488372 0.9767441860465116 0.0 1.0 0.0 0.0 0.9931506849315068 0.0 0.00684931506849315 1.0 0.0 0.0 1.0 0.0 0.0 0.0 0.9545454545454546 0.045454545454545456 0.3333333333333333 0.3333333333333333 0.3333333333333333 1.0 0.0 0.0 1.0 0.0 0.0 0.9803921568627451 0.0196078431372549 0.0 0.0 1.0 0.0 0.0 0.5 0.5 1.0 0.0 0.0 1.0 0.0 0.0 0.5714285714285714 0.42857142857142855 0.0 0.3333333333333333 0.3333333333333333 0.3333333333333333 0.0 1.0 0.0 0.3333333333333333 0.3333333333333333 0.3333333333333333 1.0 0.0 0.0 0.0 1.0 0.0 0.0 1.0 0.0 0.0 0.5 0.5 0.0 0.0 1.0 1.0 0.0 0.0 0.0 1.0 0.0 0.25 0.75 0.0 0.5 0.5 0.0 0.0 0.0 1.0 0.3333333333333333 0.3333333333333333 0.3333333333333333 0.0 1.0 0.0 0.5 0.5 0.0 0.3333333333333333 0.3333333333333333 0.3333333333333333 0.0 0.0 1.0 0.3333333333333333 0.3333333333333333 0.3333333333333333 0.0 0.9444444444444444 0.05555555555555555 0.0 1.0 0.0 0.0 0.5 0.5 0.0 0.0 1.0 0.3333333333333333 0.3333333333333333 0.3333333333333333 0.2 0.8 0.0 0.4 0.6 0.0 0.0 1.0 0.0 0.0 0.0 1.0 0.3333333333333333 0.3333333333333333 0.3333333333333333 0.0 1.0 0.0 0.3333333333333333 0.3333333333333333 0.3333333333333333 0.3333333333333333 0.3333333333333333 0.3333333333333333 0.0 0.0 1.0 0.3333333333333333 0.3333333333333333 0.3333333333333333 0.3333333333333333 0.3333333333333333 0.3333333333333333 1.0 0.0 0.0 0.0 1.0 0.0 0.3333333333333333 0.3333333333333333 0.3333333333333333 0.3333333333333333 0.3333333333333333 0.3333333333333333 0.0 1.0 0.0 1.0 0.0 0.0 0.0 1.0 0.0 0.3333333333333333 0.3333333333333333 0.3333333333333333 0.3333333333333333 0.3333333333333333 0.3333333333333333 0.3333333333333333 0.3333333333333333 0.3333333333333333 1.0 0.0 0.0 0.0 1.0 0.0 0.3333333333333333 0.3333333333333333 0.3333333333333333 0.3333333333333333 0.3333333333333333 0.3333333333333333 0.3333333333333333 0.3333333333333333 0.3333333333333333 1.0 0.0 0.0 0.0 1.0 0.0 0.3333333333333333 0.3333333333333333 0.3333333333333333 0.3333333333333333 0.3333333333333333 0.3333333333333333 0.0 1.0 0.0 1.0 0.0 0.0 0.3333333333333333 0.3333333333333333 0.3333333333333333 0.3333333333333333 0.3333333333333333 0.3333333333333333 0.0 1.0 0.0 0.0 1.0 0.0 1.0 0.0 0.0 0.0 1.0 0.0 0.0 1.0 0.0 0.0 1.0 0.0 0.3333333333333333 0.3333333333333333 0.3333333333333333 1.0 0.0 0.0 0.0 1.0 0.0 0.0 1.0 0.0 0.0 1.0 0.0 0.0 1.0 0.0 1.0 0.0 0.0 0.0 1.0 0.0 0.0 1.0 0.0 0.0 1.0 0.0 0.0 1.0 0.0 0.3333333333333333 0.3333333333333333 0.3333333333333333 0.0 1.0 0.0 0.0 1.0 0.0 0.0 1.0 0.0 0.0 1.0 0.0 0.3333333333333333 0.3333333333333333 0.3333333333333333 0.0 1.0 0.0 0.0 1.0 0.0 0.0 1.0 0.0 0.0 1.0 0.0 0.3333333333333333 0.3333333333333333 0.3333333333333333 0.0 1.0 0.0 0.0 1.0 0.0 0.0 1.0 0.0 0.0 1.0 0.0 0.3333333333333333 0.3333333333333333 0.3333333333333333 0.0 1.0 0.0 0.0 1.0 0.0 0.0 1.0 0.0 0.0 1.0 0.0 0.3333333333333333 0.3333333333333333 0.3333333333333333 0.0 1.0 0.0 0.0 1.0 0.0 0.0 1.0 0.0 0.0 1.0 0.0 0.3333333333333333 0.3333333333333333 0.3333333333333333 0.0 1.0 0.0 0.0 1.0 0.0 0.0 1.0 0.0 0.3333333333333333 0.3333333333333333 0.3333333333333333 0.3333333333333333 0.3333333333333333 0.3333333333333333 0.0 1.0 0.0 0.3333333333333333 0.3333333333333333 0.3333333333333333 0.0 1.0 0.0 0.3333333333333333 0.3333333333333333 0.3333333333333333 0.3333333333333333 0.3333333333333333 0.3333333333333333 0.3333333333333333 0.3333333333333333 0.3333333333333333 0.3333333333333333 0.3333333333333333 0.3333333333333333 0.0 1.0 0.0 0.3333333333333333 0.3333333333333333 0.3333333333333333 0.3333333333333333 0.3333333333333333 0.3333333333333333 0.3333333333333333 0.3333333333333333 0.3333333333333333 0.3333333333333333 0.3333333333333333 0.3333333333333333 0.0 1.0 0.0 0.0 1.0 0.0 0.3333333333333333 0.3333333333333333 0.3333333333333333 0.0 1.0 0.0 0.3333333333333333 0.3333333333333333 0.3333333333333333 0.3333333333333333 0.3333333333333333 0.3333333333333333 0.0 1.0 0.0 0.3333333333333333 0.3333333333333333 0.3333333333333333 0.0 1.0 0.0 0.3333333333333333 0.3333333333333333 0.3333333333333333 0.3333333333333333 0.3333333333333333 0.3333333333333333 0.3333333333333333 0.3333333333333333 0.3333333333333333 0.3333333333333333 0.3333333333333333 0.3333333333333333 0.0 1.0 0.0 0.3333333333333333 0.3333333333333333 0.3333333333333333 0.3333333333333333 0.3333333333333333 0.3333333333333333 0.3333333333333333 0.3333333333333333 0.3333333333333333 0.3333333333333333 0.3333333333333333 0.3333333333333333 0.3333333333333333 0.3333333333333333 0.3333333333333333 0.3333333333333333 0.3333333333333333 0.3333333333333333 0.0 1.0 0.0 0.3333333333333333 0.3333333333333333 0.3333333333333333 0.3333333333333333 0.3333333333333333 0.3333333333333333 0.3333333333333333 0.3333333333333333 0.3333333333333333 0.3333333333333333 0.3333333333333333 0.3333333333333333 0.3333333333333333 0.3333333333333333 0.3333333333333333 0.0 1.0 0.0 0.3333333333333333 0.3333333333333333 0.3333333333333333 0.0 0.0 1.0 0.3333333333333333 0.3333333333333333 0.3333333333333333 0.3333333333333333 0.3333333333333333 0.3333333333333333 0.3333333333333333 0.3333333333333333 0.3333333333333333 0.3333333333333333 0.3333333333333333 0.3333333333333333 </TABLE>
    </DEFINITION>
  </NETWORK>
</BIF>
