<?xml version='1.0' encoding='utf-8'?>
<BIF VERSION="0.3">
  <NETWORK>
    <NAME>UNTITLED</NAME>
    <VARIABLE TYPE="nature">
      <NAME>consumption</NAME>
      <OUTCOME>6</OUTCOME>
      <OUTCOME>7</OUTCOME>
      <OUTCOME>20</OUTCOME>
      <OUTCOME>21</OUTCOME>
      <OUTCOME>22</OUTCOME>
      <OUTCOME>23</OUTCOME>
      <OUTCOME>25</OUTCOME>
      <OUTCOME>82</OUTCOME>
      <OUTCOME>83</OUTCOME>
      <OUTCOME>84</OUTCOME>
      <OUTCOME>85</OUTCOME>
      <OUTCOME>86</OUTCOME>
      <OUTCOME>87</OUTCOME>
      <OUTCOME>88</OUTCOME>
      <OUTCOME>89</OUTCOME>
      <OUTCOME>90</OUTCOME>
      <OUTCOME>91</OUTCOME>
      <PROPERTY>weight = None</PROPERTY>
    </VARIABLE>
    <VARIABLE TYPE="nature">
      <NAME>cpu</NAME>
      <OUTCOME>0</OUTCOME>
      <OUTCOME>1</OUTCOME>
      <OUTCOME>2</OUTCOME>
      <OUTCOME>3</OUTCOME>
      <OUTCOME>4</OUTCOME>
      <OUTCOME>5</OUTCOME>
      <OUTCOME>6</OUTCOME>
      <OUTCOME>7</OUTCOME>
      <OUTCOME>8</OUTCOME>
      <OUTCOME>9</OUTCOME>
      <OUTCOME>10</OUTCOME>
      <OUTCOME>11</OUTCOME>
      <OUTCOME>12</OUTCOME>
      <OUTCOME>13</OUTCOME>
      <OUTCOME>14</OUTCOME>
      <OUTCOME>15</OUTCOME>
      <OUTCOME>16</OUTCOME>
      <OUTCOME>17</OUTCOME>
      <OUTCOME>18</OUTCOME>
      <OUTCOME>19</OUTCOME>
      <OUTCOME>20</OUTCOME>
      <OUTCOME>21</OUTCOME>
      <OUTCOME>22</OUTCOME>
      <OUTCOME>23</OUTCOME>
      <OUTCOME>24</OUTCOME>
      <OUTCOME>25</OUTCOME>
      <OUTCOME>26</OUTCOME>
      <OUTCOME>27</OUTCOME>
      <OUTCOME>28</OUTCOME>
      <OUTCOME>29</OUTCOME>
      <OUTCOME>30</OUTCOME>
      <OUTCOME>31</OUTCOME>
      <OUTCOME>32</OUTCOME>
      <OUTCOME>33</OUTCOME>
      <OUTCOME>34</OUTCOME>
      <OUTCOME>35</OUTCOME>
      <OUTCOME>36</OUTCOME>
      <OUTCOME>37</OUTCOME>
      <OUTCOME>38</OUTCOME>
      <OUTCOME>39</OUTCOME>
      <OUTCOME>40</OUTCOME>
      <OUTCOME>41</OUTCOME>
      <OUTCOME>42</OUTCOME>
      <OUTCOME>43</OUTCOME>
      <OUTCOME>44</OUTCOME>
      <OUTCOME>45</OUTCOME>
      <OUTCOME>46</OUTCOME>
      <OUTCOME>47</OUTCOME>
      <OUTCOME>48</OUTCOME>
      <OUTCOME>49</OUTCOME>
      <OUTCOME>50</OUTCOME>
      <OUTCOME>51</OUTCOME>
      <OUTCOME>52</OUTCOME>
      <OUTCOME>53</OUTCOME>
      <OUTCOME>54</OUTCOME>
      <OUTCOME>55</OUTCOME>
      <OUTCOME>56</OUTCOME>
      <OUTCOME>57</OUTCOME>
      <OUTCOME>58</OUTCOME>
      <OUTCOME>59</OUTCOME>
      <OUTCOME>60</OUTCOME>
      <OUTCOME>61</OUTCOME>
      <OUTCOME>62</OUTCOME>
      <OUTCOME>63</OUTCOME>
      <OUTCOME>64</OUTCOME>
      <OUTCOME>65</OUTCOME>
      <OUTCOME>67</OUTCOME>
      <OUTCOME>68</OUTCOME>
      <OUTCOME>69</OUTCOME>
      <OUTCOME>76</OUTCOME>
      <OUTCOME>96</OUTCOME>
      <PROPERTY>weight = None</PROPERTY>
    </VARIABLE>
    <VARIABLE TYPE="nature">
      <NAME>delta</NAME>
      <OUTCOME>7</OUTCOME>
      <OUTCOME>8</OUTCOME>
      <OUTCOME>9</OUTCOME>
      <OUTCOME>10</OUTCOME>
      <OUTCOME>11</OUTCOME>
      <OUTCOME>12</OUTCOME>
      <OUTCOME>13</OUTCOME>
      <OUTCOME>14</OUTCOME>
      <OUTCOME>15</OUTCOME>
      <OUTCOME>16</OUTCOME>
      <OUTCOME>17</OUTCOME>
      <OUTCOME>18</OUTCOME>
      <OUTCOME>19</OUTCOME>
      <OUTCOME>20</OUTCOME>
      <OUTCOME>21</OUTCOME>
      <OUTCOME>22</OUTCOME>
      <OUTCOME>23</OUTCOME>
      <OUTCOME>24</OUTCOME>
      <OUTCOME>25</OUTCOME>
      <OUTCOME>26</OUTCOME>
      <OUTCOME>27</OUTCOME>
      <OUTCOME>28</OUTCOME>
      <OUTCOME>29</OUTCOME>
      <OUTCOME>30</OUTCOME>
      <OUTCOME>31</OUTCOME>
      <OUTCOME>32</OUTCOME>
      <OUTCOME>33</OUTCOME>
      <OUTCOME>34</OUTCOME>
      <OUTCOME>35</OUTCOME>
      <OUTCOME>36</OUTCOME>
      <OUTCOME>37</OUTCOME>
      <OUTCOME>38</OUTCOME>
      <OUTCOME>39</OUTCOME>
      <OUTCOME>40</OUTCOME>
      <OUTCOME>41</OUTCOME>
      <OUTCOME>42</OUTCOME>
      <OUTCOME>43</OUTCOME>
      <OUTCOME>44</OUTCOME>
      <OUTCOME>45</OUTCOME>
      <OUTCOME>46</OUTCOME>
      <OUTCOME>47</OUTCOME>
      <OUTCOME>48</OUTCOME>
      <OUTCOME>49</OUTCOME>
      <OUTCOME>50</OUTCOME>
      <OUTCOME>51</OUTCOME>
      <OUTCOME>52</OUTCOME>
      <OUTCOME>53</OUTCOME>
      <OUTCOME>54</OUTCOME>
      <OUTCOME>55</OUTCOME>
      <OUTCOME>56</OUTCOME>
      <OUTCOME>57</OUTCOME>
      <OUTCOME>58</OUTCOME>
      <OUTCOME>59</OUTCOME>
      <OUTCOME>61</OUTCOME>
      <OUTCOME>62</OUTCOME>
      <OUTCOME>63</OUTCOME>
      <OUTCOME>64</OUTCOME>
      <OUTCOME>65</OUTCOME>
      <OUTCOME>66</OUTCOME>
      <OUTCOME>67</OUTCOME>
      <OUTCOME>68</OUTCOME>
      <OUTCOME>69</OUTCOME>
      <OUTCOME>70</OUTCOME>
      <OUTCOME>71</OUTCOME>
      <OUTCOME>72</OUTCOME>
      <OUTCOME>73</OUTCOME>
      <OUTCOME>74</OUTCOME>
      <OUTCOME>75</OUTCOME>
      <OUTCOME>76</OUTCOME>
      <OUTCOME>78</OUTCOME>
      <OUTCOME>79</OUTCOME>
      <OUTCOME>83</OUTCOME>
      <OUTCOME>87</OUTCOME>
      <OUTCOME>89</OUTCOME>
      <OUTCOME>91</OUTCOME>
      <OUTCOME>94</OUTCOME>
      <OUTCOME>119</OUTCOME>
      <OUTCOME>2418</OUTCOME>
      <OUTCOME>9813</OUTCOME>
      <PROPERTY>weight = None</PROPERTY>
    </VARIABLE>
    <VARIABLE TYPE="nature">
      <NAME>device_type</NAME>
      <OUTCOME>Laptop</OUTCOME>
      <OUTCOME>Orin</OUTCOME>
      <OUTCOME>PC</OUTCOME>
      <PROPERTY>weight = None</PROPERTY>
    </VARIABLE>
    <VARIABLE TYPE="nature">
      <NAME>fps</NAME>
      <OUTCOME>5</OUTCOME>
      <OUTCOME>10</OUTCOME>
      <OUTCOME>15</OUTCOME>
      <OUTCOME>20</OUTCOME>
      <OUTCOME>30</OUTCOME>
      <OUTCOME>40</OUTCOME>
      <OUTCOME>50</OUTCOME>
      <OUTCOME>60</OUTCOME>
      <OUTCOME>70</OUTCOME>
      <OUTCOME>80</OUTCOME>
      <PROPERTY>weight = None</PROPERTY>
    </VARIABLE>
    <VARIABLE TYPE="nature">
      <NAME>in_time</NAME>
      <OUTCOME>False</OUTCOME>
      <OUTCOME>True</OUTCOME>
      <PROPERTY>weight = None</PROPERTY>
    </VARIABLE>
    <VARIABLE TYPE="nature">
      <NAME>pixel</NAME>
      <OUTCOME>720</OUTCOME>
      <PROPERTY>weight = None</PROPERTY>
    </VARIABLE>
    <DEFINITION>
      <FOR>consumption</FOR>
      <GIVEN>cpu</GIVEN>
      <TABLE>0.0 0.0 0.0 0.0 0.0 0.0 0.0 0.5836065573770491 0.4163934426229508 0.0 0.0 0.0 0.0 0.0 0.0 0.0 0.0 0.0 0.0 0.0 0.0 0.0 0.0 0.0 0.0 0.9632107023411371 0.03678929765886288 0.0 0.0 0.0 0.0 0.0 0.0 0.0 0.0 0.0 0.0 0.0 0.0 0.0 0.0 0.0 0.0 0.9808743169398907 0.01912568306010929 0.0 0.0 0.0 0.0 0.0 0.0 0.0 0.0 0.0 0.0 0.0 0.0 0.0 0.0 0.0 0.0 1.0 0.0 0.0 0.0 0.0 0.0 0.0 0.059322033898305086 0.0 0.0 0.0 0.0 0.0 0.0 0.0 0.0 0.0 0.0 0.940677966101695 0.0 0.0 0.0 0.0 0.0 0.7252747252747253 0.0 0.0 0.0 0.0 0.0 0.0 0.0 0.0 0.0 0.0 0.06593406593406594 0.2087912087912088 0.0 0.0 0.0 0.0 0.7295081967213115 0.0 0.0 0.0 0.0 0.0 0.0 0.0 0.0 0.0 0.0 0.0 0.18032786885245902 0.09016393442622951 0.0 0.0 0.0 0.9333333333333333 0.0 0.0 0.0 0.0 0.0 0.0 0.0 0.0 0.0 0.0 0.0 0.0 0.025 0.041666666666666664 0.0 0.0 0.9632352941176471 0.0 0.0 0.0 0.0 0.0 0.0 0.0 0.0 0.0 0.0 0.0 0.0 0.0 0.022058823529411766 0.014705882352941176 0.0 0.9629629629629629 0.0 0.0 0.0 0.0 0.0 0.0 0.0 0.0 0.0 0.0 0.0 0.0 0.0 0.0 0.037037037037037035 0.0 0.9791666666666666 0.0 0.0 0.0 0.0 0.0 0.0 0.0 0.0 0.0 0.0 0.0 0.0 0.0 0.0 0.0 0.020833333333333332 1.0 0.0 0.0 0.0 0.0 0.0 0.0 0.0 0.0 0.0 0.0 0.0 0.0 0.0 0.0 0.0 0.0 1.0 0.0 0.0 0.0 0.0 0.0 0.0 0.0 0.0 0.0 0.0 0.0 0.0 0.0 0.0 0.0 0.0 1.0 0.0 0.0 0.0 0.0 0.0 0.0 0.0 0.0 0.0 0.0 0.0 0.0 0.0 0.0 0.0 0.0 1.0 0.0 0.0 0.0 0.0 0.0 0.0 0.0 0.0 0.0 0.0 0.0 0.0 0.0 0.0 0.0 0.0 1.0 0.0 0.0 0.0 0.0 0.0 0.0 0.0 0.0 0.0 0.0 0.0 0.0 0.0 0.0 0.0 0.0 1.0 0.0 0.0 0.0 0.0 0.0 0.0 0.0 0.0 0.0 0.0 0.0 0.0 0.0 0.0 0.0 0.0 1.0 0.0 0.0 0.0 0.0 0.0 0.0 0.0 0.0 0.0 0.0 0.0 0.0 0.0 0.0 0.0 0.0 1.0 0.0 0.0 0.0 0.0 0.0 0.0 0.0 0.0 0.0 0.0 0.0 0.0 0.0 0.0 0.0 0.0 1.0 0.0 0.0 0.0 0.0 0.0 0.0 0.0 0.0 0.0 0.0 0.0 0.0 0.0 0.0 0.0 0.0 1.0 0.0 0.0 0.0 0.0 0.0 0.0 0.0 0.0 0.0 0.0 0.0 0.0 0.0 0.0 0.0 0.0 0.9453551912568307 0.0 0.0546448087431694 0.0 0.0 0.0 0.0 0.0 0.0 0.0 0.0 0.0 0.0 0.0 0.0 0.0 0.0 0.6715328467153284 0.0 0.3284671532846715 0.0 0.0 0.0 0.0 0.0 0.0 0.0 0.0 0.0 0.0 0.0 0.0 0.0 0.0 0.5888888888888889 0.0 0.4111111111111111 0.0 0.0 0.0 0.0 0.0 0.0 0.0 0.0 0.0 0.0 0.0 0.0 0.0 0.0 0.7050209205020921 0.0 0.29497907949790797 0.0 0.0 0.0 0.0 0.0 0.0 0.0 0.0 0.0 0.0 0.0 0.0 0.0 0.0 0.8739495798319328 0.0 0.12605042016806722 0.0 0.0 0.0 0.0 0.0 0.0 0.0 0.0 0.0 0.0 0.0 0.0 0.0 0.0 0.9234972677595629 0.0 0.07650273224043716 0.0 0.0 0.0 0.0 0.0 0.0 0.0 0.0 0.0 0.0 0.0 0.0 0.0 0.0 0.8918918918918919 0.0 0.10810810810810811 0.0 0.0 0.0 0.0 0.0 0.0 0.0 0.0 0.0 0.0 0.0 0.0 0.0 0.0 0.964968152866242 0.0 0.03503184713375796 0.0 0.0 0.0 0.0 0.0 0.0 0.0 0.0 0.0 0.0 0.0 0.0 0.0 0.0 0.967654986522911 0.0 0.03234501347708895 0.0 0.0 0.0 0.0 0.0 0.0 0.0 0.0 0.0 0.0 0.0 0.0 0.0 0.0 0.9668508287292817 0.0 0.03314917127071823 0.0 0.0 0.0 0.0 0.0 0.0 0.0 0.0 0.0 0.0 0.0 0.0 0.0 0.0 0.9701492537313433 0.0 0.029850746268656716 0.0 0.0 0.0 0.0 0.0 0.0 0.0 0.0 0.0 0.0 0.0 0.0 0.0 0.0 0.9585798816568047 0.0 0.0 0.04142011834319527 0.0 0.0 0.0 0.0 0.0 0.0 0.0 0.0 0.0 0.0 0.0 0.0 0.0 0.9516129032258065 0.0 0.0 0.04838709677419355 0.0 0.0 0.0 0.0 0.0 0.0 0.0 0.0 0.0 0.0 0.0 0.0 0.0 0.9594594594594594 0.0 0.0 0.04054054054054054 0.0 0.0 0.0 0.0 0.0 0.0 0.0 0.0 0.0 0.0 0.0 0.0 0.0 0.88 0.0 0.0 0.12 0.0 0.0 0.0 0.0 0.0 0.0 0.0 0.0 0.0 0.0 0.0 0.0 0.0 0.9591836734693877 0.0 0.0 0.04081632653061224 0.0 0.0 0.0 0.0 0.0 0.0 0.0 0.0 0.0 0.0 0.0 0.0 0.0 0.9803921568627451 0.0 0.0 0.0196078431372549 0.0 0.0 0.0 0.0 0.0 0.0 0.0 0.0 0.0 0.0 0.0 0.0 0.0 1.0 0.0 0.0 0.0 0.0 0.0 0.0 0.0 0.0 0.0 0.0 0.0 0.0 0.0 0.0 0.0 0.0 0.9230769230769231 0.0 0.0 0.07692307692307693 0.0 0.0 0.0 0.0 0.0 0.0 0.0 0.0 0.0 0.0 0.0 0.0 0.0 0.36363636363636365 0.5909090909090909 0.0 0.045454545454545456 0.0 0.0 0.0 0.0 0.0 0.0 0.0 0.0 0.0 0.0 0.0 0.0 0.0 0.0 0.32051282051282054 0.0 0.6794871794871795 0.0 0.0 0.0 0.0 0.0 0.0 0.0 0.0 0.0 0.0 0.0 0.0 0.0 0.0 0.3539325842696629 0.0 0.6460674157303371 0.0 0.0 0.0 0.0 0.0 0.0 0.0 0.0 0.0 0.0 0.0 0.0 0.0 0.0 0.0979020979020979 0.0 0.9020979020979021 0.0 0.0 0.0 0.0 0.0 0.0 0.0 0.0 0.0 0.0 0.0 0.0 0.0 0.0 0.19653179190751446 0.0 0.8034682080924855 0.0 0.0 0.0 0.0 0.0 0.0 0.0 0.0 0.0 0.0 0.0 0.0 0.0 0.0 0.1125 0.0 0.8875 0.0 0.0 0.0 0.0 0.0 0.0 0.0 0.0 0.0 0.0 0.0 0.0 0.0 0.0 0.28205128205128205 0.0 0.358974358974359 0.358974358974359 0.0 0.0 0.0 0.0 0.0 0.0 0.0 0.0 0.0 0.0 0.0 0.0 0.0 0.16666666666666666 0.0 0.0 0.8333333333333334 0.0 0.0 0.0 0.0 0.0 0.0 0.0 0.0 0.0 0.0 0.0 0.0 0.0 0.21052631578947367 0.0 0.0 0.7894736842105263 0.0 0.0 0.0 0.0 0.0 0.0 0.0 0.0 0.0 0.0 0.0 0.0 0.0 0.017543859649122806 0.0 0.0 0.9824561403508771 0.0 0.0 0.0 0.0 0.0 0.0 0.0 0.0 0.0 0.0 0.0 0.0 0.0 0.01812688821752266 0.0 0.0 0.9818731117824774 0.0 0.0 0.0 0.0 0.0 0.0 0.0 0.0 0.0 0.0 0.0 0.0 0.0 0.011111111111111112 0.0 0.0 0.9888888888888889 0.0 0.0 0.0 0.0 0.0 0.0 0.0 0.0 0.0 0.0 0.0 0.0 0.0 0.0 0.0 0.0 1.0 0.0 0.0 0.0 0.0 0.0 0.0 0.0 0.0 0.0 0.0 0.0 0.0 0.0 0.0022123893805309734 0.0 0.0 0.9977876106194691 0.0 0.0 0.0 0.0 0.0 0.0 0.0 0.0 0.0 0.0 0.0 0.0 0.0 0.007142857142857143 0.0 0.0 0.9928571428571429 0.0 0.0 0.0 0.0 0.0 0.0 0.0 0.0 0.0 0.0 0.0 0.0 0.0 0.0 0.0 0.0 1.0 0.0 0.0 0.0 0.0 0.0 0.0 0.0 0.0 0.0 0.0 0.0 0.0 0.0 0.020202020202020204 0.0 0.0 0.9797979797979798 0.0 0.0 0.0 0.0 0.0 0.0 0.0 0.0 0.0 0.0 0.0 0.0 0.0 0.034482758620689655 0.0 0.0 0.9655172413793104 0.0 0.0 0.0 0.0 0.0 0.0 0.0 0.0 0.0 0.0 0.0 0.0 0.0 0.0 0.0 0.0 1.0 0.0 0.0 0.0 0.0 0.0 0.0 0.0 0.0 0.0 0.0 0.0 0.0 0.0 0.0 0.0 0.0 1.0 0.0 0.0 0.0 0.0 0.0 0.0 0.0 0.0 0.0 0.0 0.0 0.0 0.0 0.0 0.0 0.0 0.5714285714285714 0.42857142857142855 0.0 0.0 0.0 0.0 0.0 0.0 0.0 0.0 0.0 0.0 0.0 0.0 0.0 0.0 0.0 0.0 1.0 0.0 0.0 0.0 0.0 0.0 0.0 0.0 0.0 0.0 0.0 0.0 0.0 0.0 0.0 0.0 0.0 1.0 0.0 0.0 0.0 0.0 0.0 0.0 0.0 0.0 0.0 0.0 0.0 0.0 0.0 0.0 0.0 0.0 1.0 0.0 0.0 0.0 0.0 0.0 0.0 0.0 0.0 0.0 0.0 0.0 0.0 0.0 0.0 0.0 0.0 1.0 0.0 0.0 0.0 0.0 0.0 0.0 0.0 0.0 0.0 0.0 0.0 0.0 0.0 0.0 0.0 0.0 1.0 0.0 0.0 0.0 0.0 0.0 0.0 0.0 0.0 0.0 0.0 0.0 0.0 0.0 0.0 0.0 0.0 1.0 0.0 0.0 0.0 0.0 0.0 0.0 0.0 0.0 0.0 0.0 0.0 0.0 0.0 0.0 0.0 0.0 1.0 0.0 0.0 0.0 0.0 0.0 0.0 0.0 0.0 0.0 0.0 0.0 0.0 0.5 0.0 0.0 0.0 0.5 0.0 0.0 0.0 0.0 0.0 0.0 0.0 0.0 0.0 0.0 0.0 0.0 1.0 0.0 0.0 0.0 0.0 0.0 0.0 0.0 0.0 0.0 0.0 0.0 0.0 0.0 0.0 0.0 0.0 0.0 0.0 0.0 0.0 0.0 1.0 0.0 0.0 0.0 0.0 0.0 0.0 0.0 0.0 0.0 0.0 </TABLE>
    </DEFINITION>
    <DEFINITION>
      <FOR>cpu</FOR>
      <TABLE>0.09650371776617624 0.09460528397405474 0.05790223065970574 0.02191109001740231 0.009333966144597373 0.007198228128460687 0.009650371776617624 0.009492168960607499 0.010757791488688499 0.00854295206454675 0.0037968675842429997 0.00917576332858725 0.010757791488688499 0.007514633760480937 0.006169909824394874 0.006565416864420187 0.006328112640404999 0.007277329536465749 0.005616199968359437 0.006802721088435374 0.028476506881822496 0.014475557664926435 0.02167378579338712 0.03559563360227812 0.03781047302641987 0.03765227021040975 0.04342667299477931 0.008780256288561937 0.024837842113589623 0.029346622369878183 0.014317354848916311 0.005299794336339187 0.01336813795285556 0.00980857459262775 0.005853504192374624 0.0019775352001265623 0.003875968992248062 0.004034171808258187 0.002926752096187312 0.0020566366081316246 0.005220692928334125 0.006169909824394874 0.014080050624901124 0.011311501344723937 0.013684543584875811 0.006328112640404999 0.003084954912197437 0.0014238253440911248 0.0030058535041923747 0.009017560512577124 0.026182566049675685 0.028476506881822496 0.03733586457838949 0.03575383641828825 0.0221483942414175 0.012418921056794811 0.007831039392501186 0.004587881664293625 0.003084954912197437 0.0024521436481569374 0.0011074197120708748 0.0013447239360860623 0.0007910140800506249 0.0007119126720455624 0.00039550704002531246 7.910140800506249e-05 7.910140800506249e-05 7.910140800506249e-05 0.00015820281601012498 7.910140800506249e-05 7.910140800506249e-05 </TABLE>
    </DEFINITION>
    <DEFINITION>
      <FOR>delta</FOR>
      <GIVEN>consumption</GIVEN>
      <TABLE>0.0 0.0 0.0 0.0 0.0 0.0 0.0 0.0 0.0 0.0 0.0 0.0 0.0 0.0 0.0 0.0 0.0 0.0 0.0 0.0 0.0 0.0 0.0 0.00019264110961279138 0.011943748795993065 0.07532267385860142 0.15026006549797727 0.07917549605085725 0.09612791369678289 0.1564245810055866 0.18358697746099018 0.11308033134270853 0.06800231169331536 0.031593141976497784 0.018686187632440763 0.007320362165286072 0.0026969755345790792 0.002504334424966288 0.0009632055480639568 0.0011558466576767482 0.0005779233288383741 0.00019264110961279138 0.0 0.0 0.0 0.0 0.0 0.0 0.0 0.0 0.0 0.0 0.0 0.0 0.0 0.0 0.0 0.0 0.0 0.0 0.0 0.0 0.0 0.0 0.0 0.0 0.0 0.0 0.0 0.0 0.0 0.0 0.0 0.0 0.0 0.0 0.0 0.0 0.00019264110961279138 0.0 0.0 0.0 0.0 0.0 0.0 0.0 0.0 0.0 0.0 0.0 0.0 0.0 0.0 0.0 0.0 0.0 0.0 0.0 0.0 0.0 0.0 0.0 0.0 0.004405286343612335 0.04405286343612335 0.14537444933920704 0.09691629955947137 0.048458149779735685 0.07929515418502203 0.14537444933920704 0.1762114537444934 0.13215859030837004 0.07929515418502203 0.030837004405286344 0.00881057268722467 0.0 0.0 0.004405286343612335 0.0 0.0 0.0 0.0 0.0 0.004405286343612335 0.0 0.0 0.0 0.0 0.0 0.0 0.0 0.0 0.0 0.0 0.0 0.0 0.0 0.0 0.0 0.0 0.0 0.0 0.0 0.0 0.0 0.0 0.0 0.0 0.0 0.0 0.0 0.0 0.0 0.0 0.0 0.0 0.0 0.0 0.0 0.0 0.0 0.0 0.0 0.0 0.0 0.0 0.0 0.0 0.0 0.0 0.0 0.0 0.0 0.0 0.0 0.0 0.0 0.0 0.0 0.0 0.0 0.0 0.005253940455341506 0.008756567425569177 0.0297723292469352 0.14185639229422067 0.21541155866900175 0.09807355516637478 0.06830122591943957 0.08056042031523643 0.07530647985989491 0.07355516637478109 0.0542907180385289 0.047285464098073555 0.024518388791593695 0.017513134851138354 0.014010507880910683 0.010507880910683012 0.012259194395796848 0.0017513134851138354 0.0017513134851138354 0.0 0.005253940455341506 0.0017513134851138354 0.0035026269702276708 0.0017513134851138354 0.0035026269702276708 0.0017513134851138354 0.0017513134851138354 0.0 0.0 0.0 0.0 0.0 0.0 0.0 0.0 0.0 0.0 0.0 0.0 0.0 0.0 0.0 0.0 0.0 0.0 0.0 0.0 0.0 0.0 0.0 0.0 0.0 0.0 0.0 0.0 0.0 0.0 0.0 0.0 0.0 0.0 0.0 0.0 0.0 0.0 0.0 0.0 0.0 0.0 0.0 0.0 0.0 0.0 0.0 0.0 0.0 0.0018248175182481751 0.005474452554744526 0.0072992700729927005 0.021897810218978103 0.032846715328467155 0.09124087591240876 0.21715328467153286 0.3722627737226277 0.18613138686131386 0.01824817518248175 0.0036496350364963502 0.0036496350364963502 0.0036496350364963502 0.0018248175182481751 0.0018248175182481751 0.0036496350364963502 0.0018248175182481751 0.0018248175182481751 0.0018248175182481751 0.0 0.0 0.0 0.0018248175182481751 0.0 0.0 0.0036496350364963502 0.0 0.0018248175182481751 0.0 0.0018248175182481751 0.0 0.0 0.0 0.0 0.0 0.0 0.0 0.0018248175182481751 0.005474452554744526 0.0 0.0 0.0018248175182481751 0.0018248175182481751 0.0018248175182481751 0.0 0.0 0.0 0.0 0.0 0.0 0.0 0.0 0.0 0.0 0.0 0.0 0.0 0.0 0.0 0.0 0.0 0.0 0.0 0.0 0.0 0.0 0.0 0.0 0.0 0.0 0.0 0.0 0.0 0.0 0.0 0.0 0.0 0.0 0.0 0.0 0.0 0.0 0.0008193363375665711 0.0016386726751331422 0.02662843097091356 0.027038099139696844 0.04956984842277755 0.04465383039737812 0.06390823433019255 0.10815239655878738 0.09545268332650553 0.1331421548545678 0.08848832445718968 0.04506349856616141 0.005735354362965997 0.0008193363375665711 0.00040966816878328555 0.00040966816878328555 0.0008193363375665711 0.00040966816878328555 0.0 0.00040966816878328555 0.00040966816878328555 0.0 0.00040966816878328555 0.0 0.00040966816878328555 0.0008193363375665711 0.0 0.0008193363375665711 0.00040966816878328555 0.00040966816878328555 0.0008193363375665711 0.01925440393281442 0.022531749283080705 0.02867677181482999 0.0454731667349447 0.08398197460057354 0.04997951659156084 0.023351085620647277 0.011470708725931995 0.008603031544448997 0.0032773453502662844 0.0032773453502662844 0.0016386726751331422 0.00040966816878328555 0.0 0.0 0.0 0.0 0.0 0.0 0.0 0.0 0.0 0.0 0.0 0.0 0.0 0.0 0.0 0.0 0.0 0.0 0.0 0.0 0.0 0.0 0.0 0.0 0.0 0.0 0.0 0.0 0.0 0.0 0.0 0.0 0.0 0.0 0.0 0.0 0.0 0.0 0.0 0.0196078431372549 0.058823529411764705 0.058823529411764705 0.0392156862745098 0.0196078431372549 0.09803921568627451 0.058823529411764705 0.0 0.0196078431372549 0.0 0.058823529411764705 0.0392156862745098 0.0 0.0 0.0 0.0 0.0 0.0 0.0 0.0 0.0 0.0 0.0 0.0196078431372549 0.0 0.0 0.0196078431372549 0.0 0.0 0.0392156862745098 0.0196078431372549 0.0784313725490196 0.0784313725490196 0.0784313725490196 0.0784313725490196 0.0392156862745098 0.0196078431372549 0.0 0.0 0.0196078431372549 0.0 0.0 0.0 0.0196078431372549 0.0196078431372549 0.0 0.0 0.0 0.0 0.0 0.0 0.0 0.0 0.0 0.0 0.0 0.0 0.0 0.0 0.0 0.0 0.0 0.0 0.0 0.0 0.0 0.0 0.0 0.0 0.0 0.0 0.0 0.0 0.0 0.0 0.0 0.0 0.0 0.0 0.0 0.0 0.0 0.0 0.0 0.0 0.0 0.0 1.0 0.0 0.0 0.0 0.0 0.0 0.0 0.0 0.0 0.0 0.0 0.0 0.0 0.0 0.0 0.0 0.0 0.0 0.0 0.0 0.0 0.0 0.0 0.0 0.0 0.0 0.0 0.0 0.0 0.0 0.0 0.0 0.0 0.0 0.0 0.0 0.0 0.0 0.0 0.0 0.0 0.0 0.0 0.0028089887640449437 0.07443820224719101 0.07584269662921349 0.0028089887640449437 0.0028089887640449437 0.0056179775280898875 0.008426966292134831 0.016853932584269662 0.021067415730337078 0.033707865168539325 0.01544943820224719 0.016853932584269662 0.0028089887640449437 0.021067415730337078 0.03932584269662921 0.032303370786516857 0.03932584269662921 0.1601123595505618 0.12921348314606743 0.025280898876404494 0.11095505617977527 0.11657303370786516 0.023876404494382022 0.012640449438202247 0.004213483146067416 0.0028089887640449437 0.0014044943820224719 0.0014044943820224719 0.0 0.0 0.0 0.0 0.0 0.0 0.0 0.0 0.0 0.0 0.0 0.0 0.0 0.0 0.0 0.0 0.0 0.0 0.0 0.0 0.0 0.0 0.0 0.0 0.0 0.0 0.0 0.0 0.0 0.0 0.0 0.0 0.0 0.0 0.0 0.0 0.0 0.0 0.0 0.0 0.0 0.0 0.0 0.0 0.0 0.0 0.0 0.0 0.0 0.0 0.0 0.0006024096385542169 0.01325301204819277 0.012650602409638554 0.0006024096385542169 0.0006024096385542169 0.0 0.0036144578313253013 0.005421686746987952 0.01927710843373494 0.018072289156626505 0.012650602409638554 0.005421686746987952 0.004216867469879518 0.0006024096385542169 0.008433734939759036 0.02650602409638554 0.09156626506024096 0.2728915662650602 0.2596385542168675 0.035542168674698796 0.04096385542168675 0.06566265060240964 0.03313253012048193 0.019879518072289156 0.015060240963855422 0.010240963855421687 0.00783132530120482 0.004216867469879518 0.0006024096385542169 0.004819277108433735 0.0018072289156626507 0.0006024096385542169 0.0012048192771084338 0.0006024096385542169 0.0 0.0 0.0006024096385542169 0.0 0.0 0.0006024096385542169 0.0 0.0 0.0 0.0 0.0 0.0 0.0 0.0 0.0 0.0 0.0 0.0 0.0 0.0 0.0 0.0 0.0 0.0 0.0 0.0 0.0 0.0 0.0 0.0 0.0 0.0 0.0 0.0 0.0 0.0 0.0 0.0 0.0 0.0 0.0 0.0 0.0 0.0006024096385542169 0.0 0.0 0.009186351706036745 0.009186351706036745 0.0013123359580052493 0.0 0.0 0.0026246719160104987 0.005249343832020997 0.030183727034120734 0.11023622047244094 0.05774278215223097 0.02230971128608924 0.01706036745406824 0.04461942257217848 0.09973753280839895 0.049868766404199474 0.04461942257217848 0.1089238845144357 0.17191601049868765 0.027559055118110236 0.027559055118110236 0.01837270341207349 0.03412073490813648 0.023622047244094488 0.01706036745406824 0.01837270341207349 0.015748031496062992 0.007874015748031496 0.009186351706036745 0.005249343832020997 0.0026246719160104987 0.003937007874015748 0.0 0.0 0.0 0.0 0.0 0.0 0.0 0.0 0.0013123359580052493 0.0 0.0 0.0 0.0 0.0 0.0 0.0013123359580052493 0.0 0.0 0.0 0.0 0.0 0.0 0.0 0.0 0.0013123359580052493 0.0 0.0 0.0 0.0 0.0 0.0 0.0 0.0 0.0 0.0 0.0 0.0 0.0 0.0 0.0 0.0 0.0 0.0 0.0 0.0 0.0 0.0 0.0 0.01718213058419244 0.020618556701030927 0.003436426116838488 0.0 0.0 0.0 0.010309278350515464 0.0 0.024054982817869417 0.01718213058419244 0.010309278350515464 0.006872852233676976 0.003436426116838488 0.03436426116838488 0.03436426116838488 0.07560137457044673 0.15807560137457044 0.2268041237113402 0.05154639175257732 0.044673539518900345 0.05154639175257732 0.044673539518900345 0.030927835051546393 0.03436426116838488 0.030927835051546393 0.01718213058419244 0.013745704467353952 0.013745704467353952 0.006872852233676976 0.0 0.003436426116838488 0.003436426116838488 0.0 0.0 0.0 0.0 0.0 0.0 0.0 0.0 0.0 0.0 0.0 0.0 0.0 0.0 0.0 0.0 0.0 0.0 0.0 0.0 0.0 0.0 0.0 0.0 0.0 0.0 0.0 0.0 0.0 0.0 0.0 0.0 0.0 0.0 0.0 0.0 0.003436426116838488 0.003436426116838488 0.0 0.0 0.0 0.003436426116838488 0.0 0.0 0.0 0.0 0.0 0.008547008547008548 0.03418803418803419 0.017094017094017096 0.0 0.008547008547008548 0.008547008547008548 0.0 0.03418803418803419 0.1111111111111111 0.017094017094017096 0.017094017094017096 0.008547008547008548 0.042735042735042736 0.09401709401709402 0.1111111111111111 0.06837606837606838 0.09401709401709402 0.08547008547008547 0.017094017094017096 0.042735042735042736 0.017094017094017096 0.02564102564102564 0.02564102564102564 0.02564102564102564 0.017094017094017096 0.008547008547008548 0.0 0.0 0.017094017094017096 0.008547008547008548 0.0 0.0 0.0 0.0 0.0 0.0 0.0 0.0 0.0 0.0 0.0 0.0 0.0 0.0 0.0 0.0 0.008547008547008548 0.0 0.0 0.0 0.0 0.0 0.0 0.0 0.0 0.0 0.0 0.0 0.0 0.0 0.0 0.0 0.0 0.0 0.0 0.0 0.0 0.008547008547008548 0.0 0.008547008547008548 0.0 0.0 0.0 0.0 0.0 0.008547008547008548 0.0 0.0 0.0 0.0 0.07317073170731707 0.024390243902439025 0.0 0.0 0.0 0.0 0.0 0.024390243902439025 0.04878048780487805 0.024390243902439025 0.0 0.07317073170731707 0.0975609756097561 0.0975609756097561 0.12195121951219512 0.07317073170731707 0.0975609756097561 0.024390243902439025 0.04878048780487805 0.0 0.04878048780487805 0.024390243902439025 0.0 0.024390243902439025 0.0 0.04878048780487805 0.0 0.0 0.0 0.0 0.0 0.0 0.0 0.0 0.0 0.0 0.0 0.0 0.0 0.0 0.0 0.0 0.0 0.0 0.0 0.0 0.0 0.0 0.0 0.0 0.0 0.0 0.0 0.0 0.0 0.0 0.0 0.0 0.0 0.0 0.0 0.0 0.0 0.0 0.0 0.024390243902439025 0.0 0.0 0.0 0.0 0.0 0.0 0.0 0.0 0.0 0.0 0.0 0.0 0.0 0.07142857142857142 0.0 0.0 0.0 0.0 0.07142857142857142 0.0 0.21428571428571427 0.0 0.0 0.0 0.0 0.07142857142857142 0.07142857142857142 0.0 0.0 0.0 0.0 0.07142857142857142 0.0 0.07142857142857142 0.0 0.0 0.0 0.07142857142857142 0.0 0.0 0.0 0.0 0.0 0.0 0.0 0.0 0.0 0.0 0.0 0.0 0.0 0.0 0.0 0.0 0.0 0.0 0.0 0.0 0.07142857142857142 0.0 0.0 0.0 0.0 0.0 0.0 0.0 0.0 0.0 0.0 0.0 0.0 0.0 0.0 0.0 0.0 0.07142857142857142 0.0 0.0 0.0 0.0 0.0 0.0 0.0 0.0 0.07142857142857142 0.0 0.07142857142857142 0.0 0.0 0.0 0.0 0.0 0.125 0.0 0.0 0.0 0.0 0.125 0.0 0.0 0.0 0.0 0.0 0.0 0.0 0.125 0.0 0.0 0.25 0.125 0.0 0.0 0.0 0.125 0.0 0.0 0.0 0.0 0.0 0.0 0.0 0.0 0.0 0.0 0.0 0.0 0.0 0.0 0.0 0.0 0.0 0.0 0.0 0.0 0.0 0.0 0.0 0.0 0.0 0.0 0.0 0.0 0.0 0.0 0.0 0.0 0.0 0.0 0.0 0.0 0.0 0.0 0.0 0.0 0.0 0.0 0.0 0.0 0.125 0.0 0.0 0.0 0.0 0.0 0.0 0.0 0.0 0.0 0.0 0.0 0.0 0.0 0.0 0.0 0.0 0.0 0.0 0.0 0.0 0.0 0.0 0.0 0.0 0.0 0.0 0.0 0.16666666666666666 0.16666666666666666 0.0 0.3333333333333333 0.0 0.0 0.0 0.0 0.0 0.16666666666666666 0.0 0.0 0.0 0.0 0.0 0.0 0.0 0.0 0.0 0.0 0.0 0.0 0.0 0.0 0.0 0.0 0.0 0.0 0.0 0.0 0.0 0.0 0.0 0.0 0.0 0.0 0.0 0.0 0.0 0.0 0.0 0.0 0.0 0.16666666666666666 0.0 0.0 0.0 0.0 0.0 0.0 0.0 0.0 0.0 0.0 0.0 0.0 0.0 0.0 0.0 0.0 0.0 0.0 0.0 0.0 0.0 0.0 0.0 0.0 0.0 0.0 0.0 0.0 0.0 0.0 0.0 0.0 0.0 0.0 0.0 0.0 0.0 0.0 0.0 0.0 0.0 0.0 0.0 0.0 0.0 0.0 0.0 0.0 0.0 0.0 0.0 0.0 0.0 0.0 0.0 0.0 0.0 0.0 0.0 0.0 0.0 1.0 0.0 0.0 0.0 0.0 0.0 0.0 0.0 0.0 0.0 0.0 0.0 0.0 0.0 0.0 0.0 0.0 0.0 0.0 0.0 0.0 0.0 0.0 0.0 0.0 0.0 0.0 0.0 0.0 0.0 0.0 0.0 0.0 0.0 0.0 0.0 </TABLE>
    </DEFINITION>
    <DEFINITION>
      <FOR>device_type</FOR>
      <GIVEN>consumption</GIVEN>
      <TABLE>0.0 1.0 0.0 0.0 1.0 0.0 1.0 0.0 0.0 1.0 0.0 0.0 1.0 0.0 0.0 1.0 0.0 0.0 1.0 0.0 0.0 0.0 0.0 1.0 0.0 0.0 1.0 0.0 0.0 1.0 0.0 0.0 1.0 0.0 0.0 1.0 0.0 0.0 1.0 0.0 0.0 1.0 0.0 0.0 1.0 0.0 0.0 1.0 0.0 0.0 1.0 </TABLE>
    </DEFINITION>
    <DEFINITION>
      <FOR>fps</FOR>
      <GIVEN>cpu</GIVEN>
      <GIVEN>device_type</GIVEN>
      <TABLE>0.1 0.1 0.1 0.1 0.1 0.1 0.1 0.1 0.1 0.1 0.1 0.1 0.1 0.1 0.1 0.1 0.1 0.1 0.1 0.1 0.42131147540983604 0.32049180327868854 0.06885245901639345 0.04262295081967213 0.051639344262295085 0.09508196721311475 0.0 0.0 0.0 0.0 0.1 0.1 0.1 0.1 0.1 0.1 0.1 0.1 0.1 0.1 0.1 0.1 0.1 0.1 0.1 0.1 0.1 0.1 0.1 0.1 0.056856187290969896 0.1254180602006689 0.2583612040133779 0.2725752508361204 0.26588628762541805 0.020903010033444816 0.0 0.0 0.0 0.0 0.1 0.1 0.1 0.1 0.1 0.1 0.1 0.1 0.1 0.1 0.1 0.1 0.1 0.1 0.1 0.1 0.1 0.1 0.1 0.1 0.012295081967213115 0.04781420765027322 0.19808743169398907 0.20218579234972678 0.08743169398907104 0.4521857923497268 0.0 0.0 0.0 0.0 0.1 0.1 0.1 0.1 0.1 0.1 0.1 0.1 0.1 0.1 0.1 0.1 0.1 0.1 0.1 0.1 0.1 0.1 0.1 0.1 0.018050541516245487 0.05415162454873646 0.15162454873646208 0.18772563176895307 0.45126353790613716 0.1371841155234657 0.0 0.0 0.0 0.0 0.1 0.1 0.1 0.1 0.1 0.1 0.1 0.1 0.1 0.1 1.0 0.0 0.0 0.0 0.0 0.0 0.0 0.0 0.0 0.0 0.009009009009009009 0.036036036036036036 0.0990990990990991 0.09009009009009009 0.12612612612612611 0.6396396396396397 0.0 0.0 0.0 0.0 0.1 0.1 0.1 0.1 0.1 0.1 0.1 0.1 0.1 0.1 1.0 0.0 0.0 0.0 0.0 0.0 0.0 0.0 0.0 0.0 0.12 0.16 0.08 0.2 0.16 0.28 0.0 0.0 0.0 0.0 0.1 0.1 0.1 0.1 0.1 0.1 0.1 0.1 0.1 0.1 0.9438202247191011 0.056179775280898875 0.0 0.0 0.0 0.0 0.0 0.0 0.0 0.0 0.030303030303030304 0.0 0.15151515151515152 0.09090909090909091 0.30303030303030304 0.42424242424242425 0.0 0.0 0.0 0.0 0.1 0.1 0.1 0.1 0.1 0.1 0.1 0.1 0.1 0.1 0.9910714285714286 0.008928571428571428 0.0 0.0 0.0 0.0 0.0 0.0 0.0 0.0 0.0 0.375 0.125 0.25 0.25 0.0 0.0 0.0 0.0 0.0 0.1 0.1 0.1 0.1 0.1 0.1 0.1 0.1 0.1 0.1 0.816793893129771 0.183206106870229 0.0 0.0 0.0 0.0 0.0 0.0 0.0 0.0 0.2 0.0 0.2 0.4 0.2 0.0 0.0 0.0 0.0 0.0 0.1 0.1 0.1 0.1 0.1 0.1 0.1 0.1 0.1 0.1 0.36538461538461536 0.6346153846153846 0.0 0.0 0.0 0.0 0.0 0.0 0.0 0.0 0.0 0.0 0.25 0.5 0.25 0.0 0.0 0.0 0.0 0.0 0.1 0.1 0.1 0.1 0.1 0.1 0.1 0.1 0.1 0.1 0.44680851063829785 0.5531914893617021 0.0 0.0 0.0 0.0 0.0 0.0 0.0 0.0 0.0 0.0 1.0 0.0 0.0 0.0 0.0 0.0 0.0 0.0 0.1 0.1 0.1 0.1 0.1 0.1 0.1 0.1 0.1 0.1 0.1724137931034483 0.8275862068965517 0.0 0.0 0.0 0.0 0.0 0.0 0.0 0.0 0.1 0.1 0.1 0.1 0.1 0.1 0.1 0.1 0.1 0.1 0.1 0.1 0.1 0.1 0.1 0.1 0.1 0.1 0.1 0.1 0.22794117647058823 0.75 0.0 0.022058823529411766 0.0 0.0 0.0 0.0 0.0 0.0 0.1 0.1 0.1 0.1 0.1 0.1 0.1 0.1 0.1 0.1 0.1 0.1 0.1 0.1 0.1 0.1 0.1 0.1 0.1 0.1 0.29473684210526313 0.6736842105263158 0.0 0.021052631578947368 0.0 0.0 0.0 0.010526315789473684 0.0 0.0 0.1 0.1 0.1 0.1 0.1 0.1 0.1 0.1 0.1 0.1 0.1 0.1 0.1 0.1 0.1 0.1 0.1 0.1 0.1 0.1 0.3333333333333333 0.6153846153846154 0.0 0.038461538461538464 0.0 0.0 0.01282051282051282 0.0 0.0 0.0 0.1 0.1 0.1 0.1 0.1 0.1 0.1 0.1 0.1 0.1 0.1 0.1 0.1 0.1 0.1 0.1 0.1 0.1 0.1 0.1 0.3253012048192771 0.4939759036144578 0.0 0.1566265060240964 0.0 0.012048192771084338 0.0 0.0 0.0 0.012048192771084338 0.1 0.1 0.1 0.1 0.1 0.1 0.1 0.1 0.1 0.1 0.1 0.1 0.1 0.1 0.1 0.1 0.1 0.1 0.1 0.1 0.1875 0.1625 0.0 0.3125 0.0375 0.0375 0.0625 0.05 0.075 0.075 0.1 0.1 0.1 0.1 0.1 0.1 0.1 0.1 0.1 0.1 0.1 0.1 0.1 0.1 0.1 0.1 0.1 0.1 0.1 0.1 0.07608695652173914 0.10869565217391304 0.0 0.41304347826086957 0.03260869565217391 0.08695652173913043 0.08695652173913043 0.07608695652173914 0.05434782608695652 0.06521739130434782 0.1 0.1 0.1 0.1 0.1 0.1 0.1 0.1 0.1 0.1 0.1 0.1 0.1 0.1 0.1 0.1 0.1 0.1 0.1 0.1 0.08450704225352113 0.14084507042253522 0.0 0.6056338028169014 0.014084507042253521 0.014084507042253521 0.014084507042253521 0.028169014084507043 0.056338028169014086 0.04225352112676056 0.1 0.1 0.1 0.1 0.1 0.1 0.1 0.1 0.1 0.1 0.1 0.1 0.1 0.1 0.1 0.1 0.1 0.1 0.1 0.1 0.023255813953488372 0.12790697674418605 0.0 0.47674418604651164 0.06976744186046512 0.023255813953488372 0.10465116279069768 0.046511627906976744 0.09302325581395349 0.03488372093023256 0.1 0.1 0.1 0.1 0.1 0.1 0.1 0.1 0.1 0.1 0.1 0.1 0.1 0.1 0.1 0.1 0.1 0.1 0.1 0.1 0.0 0.03888888888888889 0.0 0.23333333333333334 0.1361111111111111 0.10277777777777777 0.09722222222222222 0.125 0.14444444444444443 0.12222222222222222 0.1 0.1 0.1 0.1 0.1 0.1 0.1 0.1 0.1 0.1 1.0 0.0 0.0 0.0 0.0 0.0 0.0 0.0 0.0 0.0 0.0 0.09248554913294797 0.0 0.49710982658959535 0.04046242774566474 0.06358381502890173 0.08670520231213873 0.06936416184971098 0.06358381502890173 0.08670520231213873 0.1 0.1 0.1 0.1 0.1 0.1 0.1 0.1 0.1 0.1 1.0 0.0 0.0 0.0 0.0 0.0 0.0 0.0 0.0 0.0 0.0 0.043478260869565216 0.0 0.33695652173913043 0.125 0.17391304347826086 0.10869565217391304 0.08152173913043478 0.07065217391304347 0.059782608695652176 0.1 0.1 0.1 0.1 0.1 0.1 0.1 0.1 0.1 0.1 1.0 0.0 0.0 0.0 0.0 0.0 0.0 0.0 0.0 0.0 0.007547169811320755 0.06037735849056604 0.0 0.17358490566037735 0.12452830188679245 0.13962264150943396 0.09433962264150944 0.1169811320754717 0.13962264150943396 0.14339622641509434 0.1 0.1 0.1 0.1 0.1 0.1 0.1 0.1 0.1 0.1 1.0 0.0 0.0 0.0 0.0 0.0 0.0 0.0 0.0 0.0 0.002967359050445104 0.026706231454005934 0.0 0.08011869436201781 0.1394658753709199 0.17804154302670624 0.12166172106824925 0.14540059347181009 0.13649851632047477 0.16913946587537093 0.1 0.1 0.1 0.1 0.1 0.1 0.1 0.1 0.1 0.1 1.0 0.0 0.0 0.0 0.0 0.0 0.0 0.0 0.0 0.0 0.0 0.01201923076923077 0.0 0.07451923076923077 0.14182692307692307 0.17307692307692307 0.17067307692307693 0.14182692307692307 0.15384615384615385 0.13221153846153846 0.1 0.1 0.1 0.1 0.1 0.1 0.1 0.1 0.1 0.1 1.0 0.0 0.0 0.0 0.0 0.0 0.0 0.0 0.0 0.0 0.0039447731755424065 0.007889546351084813 0.0 0.03550295857988166 0.1301775147928994 0.13806706114398423 0.1932938856015779 0.17357001972386588 0.15581854043392504 0.16173570019723865 0.1 0.1 0.1 0.1 0.1 0.1 0.1 0.1 0.1 0.1 1.0 0.0 0.0 0.0 0.0 0.0 0.0 0.0 0.0 0.0 0.0 0.06060606060606061 0.0 0.0707070707070707 0.23232323232323232 0.0707070707070707 0.13131313131313133 0.13131313131313133 0.18181818181818182 0.12121212121212122 0.1 0.1 0.1 0.1 0.1 0.1 0.1 0.1 0.1 0.1 1.0 0.0 0.0 0.0 0.0 0.0 0.0 0.0 0.0 0.0 0.0 0.006600660066006601 0.0 0.026402640264026403 0.20462046204620463 0.1551155115511551 0.13861386138613863 0.1551155115511551 0.15181518151815182 0.1617161716171617 0.1 0.1 0.1 0.1 0.1 0.1 0.1 0.1 0.1 0.1 1.0 0.0 0.0 0.0 0.0 0.0 0.0 0.0 0.0 0.0 0.0 0.0 0.0 0.022284122562674095 0.1615598885793872 0.16434540389972144 0.17270194986072424 0.16434540389972144 0.1392757660167131 0.17548746518105848 0.1 0.1 0.1 0.1 0.1 0.1 0.1 0.1 0.1 0.1 0.8333333333333334 0.16666666666666666 0.0 0.0 0.0 0.0 0.0 0.0 0.0 0.0 0.0 0.0 0.0 0.03428571428571429 0.2 0.17714285714285713 0.12 0.17714285714285713 0.1657142857142857 0.12571428571428572 0.1 0.1 0.1 0.1 0.1 0.1 0.1 0.1 0.1 0.1 1.0 0.0 0.0 0.0 0.0 0.0 0.0 0.0 0.0 0.0 0.0 0.015384615384615385 0.0 0.07692307692307693 0.16923076923076924 0.1076923076923077 0.2 0.13846153846153847 0.12307692307692308 0.16923076923076924 0.1 0.1 0.1 0.1 0.1 0.1 0.1 0.1 0.1 0.1 1.0 0.0 0.0 0.0 0.0 0.0 0.0 0.0 0.0 0.0 0.0 0.0 0.0 0.043209876543209874 0.1419753086419753 0.16049382716049382 0.16666666666666666 0.11728395061728394 0.2345679012345679 0.13580246913580246 0.1 0.1 0.1 0.1 0.1 0.1 0.1 0.1 0.1 0.1 1.0 0.0 0.0 0.0 0.0 0.0 0.0 0.0 0.0 0.0 0.00847457627118644 0.0 0.0 0.07627118644067797 0.1440677966101695 0.13559322033898305 0.1440677966101695 0.16101694915254236 0.1864406779661017 0.1440677966101695 0.1 0.1 0.1 0.1 0.1 0.1 0.1 0.1 0.1 0.1 1.0 0.0 0.0 0.0 0.0 0.0 0.0 0.0 0.0 0.0 0.0 0.014084507042253521 0.0 0.056338028169014086 0.15492957746478872 0.11267605633802817 0.09859154929577464 0.22535211267605634 0.16901408450704225 0.16901408450704225 0.1 0.1 0.1 0.1 0.1 0.1 0.1 0.1 0.1 0.1 1.0 0.0 0.0 0.0 0.0 0.0 0.0 0.0 0.0 0.0 0.0 0.045454545454545456 0.0 0.22727272727272727 0.13636363636363635 0.09090909090909091 0.045454545454545456 0.09090909090909091 0.22727272727272727 0.13636363636363635 0.1 0.1 0.1 0.1 0.1 0.1 0.1 0.1 0.1 0.1 1.0 0.0 0.0 0.0 0.0 0.0 0.0 0.0 0.0 0.0 0.0 0.0 0.0 0.14893617021276595 0.1702127659574468 0.14893617021276595 0.10638297872340426 0.10638297872340426 0.1276595744680851 0.19148936170212766 0.1 0.1 0.1 0.1 0.1 0.1 0.1 0.1 0.1 0.1 1.0 0.0 0.0 0.0 0.0 0.0 0.0 0.0 0.0 0.0 0.0 0.02 0.0 0.04 0.14 0.16 0.12 0.2 0.14 0.18 0.1 0.1 0.1 0.1 0.1 0.1 0.1 0.1 0.1 0.1 0.1 0.1 0.1 0.1 0.1 0.1 0.1 0.1 0.1 0.1 0.0 0.0 0.0 0.10810810810810811 0.08108108108108109 0.1891891891891892 0.16216216216216217 0.2972972972972973 0.10810810810810811 0.05405405405405406 0.1 0.1 0.1 0.1 0.1 0.1 0.1 0.1 0.1 0.1 0.0 1.0 0.0 0.0 0.0 0.0 0.0 0.0 0.0 0.0 0.0 0.0 0.0 0.125 0.2916666666666667 0.041666666666666664 0.125 0.125 0.125 0.16666666666666666 0.1 0.1 0.1 0.1 0.1 0.1 0.1 0.1 0.1 0.1 0.6666666666666666 0.3333333333333333 0.0 0.0 0.0 0.0 0.0 0.0 0.0 0.0 0.0 0.0 0.0 0.015873015873015872 0.12698412698412698 0.15873015873015872 0.23809523809523808 0.19047619047619047 0.07936507936507936 0.19047619047619047 0.1 0.1 0.1 0.1 0.1 0.1 0.1 0.1 0.1 0.1 0.0 1.0 0.0 0.0 0.0 0.0 0.0 0.0 0.0 0.0 0.0 0.0 0.0 0.0 0.08 0.16 0.36 0.16 0.08 0.16 0.1 0.1 0.1 0.1 0.1 0.1 0.1 0.1 0.1 0.1 0.0 1.0 0.0 0.0 0.0 0.0 0.0 0.0 0.0 0.0 0.0 0.0 0.0 0.0 0.14285714285714285 0.2222222222222222 0.19047619047619047 0.15873015873015872 0.09523809523809523 0.19047619047619047 0.1 0.1 0.1 0.1 0.1 0.1 0.1 0.1 0.1 0.1 0.0 1.0 0.0 0.0 0.0 0.0 0.0 0.0 0.0 0.0 0.0 0.0 0.0 0.07142857142857142 0.0 0.2857142857142857 0.14285714285714285 0.21428571428571427 0.14285714285714285 0.14285714285714285 0.1 0.1 0.1 0.1 0.1 0.1 0.1 0.1 0.1 0.1 0.0 1.0 0.0 0.0 0.0 0.0 0.0 0.0 0.0 0.0 0.0 0.0 0.0 0.0 0.2647058823529412 0.08823529411764706 0.11764705882352941 0.14705882352941177 0.14705882352941177 0.23529411764705882 0.1 0.1 0.1 0.1 0.1 0.1 0.1 0.1 0.1 0.1 0.014084507042253521 0.971830985915493 0.014084507042253521 0.0 0.0 0.0 0.0 0.0 0.0 0.0 0.0 0.0 0.0 0.0 0.3333333333333333 0.0 0.0 0.2222222222222222 0.2222222222222222 0.2222222222222222 0.1 0.1 0.1 0.1 0.1 0.1 0.1 0.1 0.1 0.1 0.03571428571428571 0.9642857142857143 0.0 0.0 0.0 0.0 0.0 0.0 0.0 0.0 0.0 0.0 0.0 0.0 0.2727272727272727 0.18181818181818182 0.09090909090909091 0.18181818181818182 0.09090909090909091 0.18181818181818182 0.1 0.1 0.1 0.1 0.1 0.1 0.1 0.1 0.1 0.1 0.0 0.8666666666666667 0.06666666666666667 0.06666666666666667 0.0 0.0 0.0 0.0 0.0 0.0 0.0 0.0 0.0 0.6666666666666666 0.0 0.0 0.0 0.0 0.0 0.3333333333333333 0.1 0.1 0.1 0.1 0.1 0.1 0.1 0.1 0.1 0.1 0.0 0.4 0.4666666666666667 0.1 0.03333333333333333 0.0 0.0 0.0 0.0 0.0 0.0 0.0 0.0 0.0 0.125 0.125 0.25 0.125 0.25 0.125 0.1 0.1 0.1 0.1 0.1 0.1 0.1 0.1 0.1 0.1 0.017857142857142856 0.05357142857142857 0.75 0.03571428571428571 0.017857142857142856 0.125 0.0 0.0 0.0 0.0 0.0 0.0 0.0 0.0 0.5 0.0 0.0 0.0 0.5 0.0 0.1 0.1 0.1 0.1 0.1 0.1 0.1 0.1 0.1 0.1 0.0 0.024615384615384615 0.4430769230769231 0.055384615384615386 0.20923076923076922 0.2676923076923077 0.0 0.0 0.0 0.0 0.0 0.0 0.0 0.0 0.0 0.16666666666666666 0.5 0.16666666666666666 0.0 0.16666666666666666 0.1 0.1 0.1 0.1 0.1 0.1 0.1 0.1 0.1 0.1 0.0 0.02247191011235955 0.3960674157303371 0.1797752808988764 0.2612359550561798 0.1404494382022472 0.0 0.0 0.0 0.0 0.0 0.25 0.0 0.0 0.25 0.0 0.25 0.25 0.0 0.0 0.1 0.1 0.1 0.1 0.1 0.1 0.1 0.1 0.1 0.1 0.00211864406779661 0.00847457627118644 0.15254237288135594 0.2076271186440678 0.2563559322033898 0.3728813559322034 0.0 0.0 0.0 0.0 0.1 0.1 0.1 0.1 0.1 0.1 0.1 0.1 0.1 0.1 0.1 0.1 0.1 0.1 0.1 0.1 0.1 0.1 0.1 0.1 0.0 0.0 0.1286031042128603 0.30598669623059865 0.3148558758314856 0.25055432372505543 0.0 0.0 0.0 0.0 0.0 0.0 0.0 0.0 0.0 1.0 0.0 0.0 0.0 0.0 0.1 0.1 0.1 0.1 0.1 0.1 0.1 0.1 0.1 0.1 0.0 0.014388489208633094 0.12949640287769784 0.3273381294964029 0.29136690647482016 0.23741007194244604 0.0 0.0 0.0 0.0 0.0 0.0 0.0 0.0 0.0 0.0 0.0 0.0 1.0 0.0 0.1 0.1 0.1 0.1 0.1 0.1 0.1 0.1 0.1 0.1 0.0 0.012738853503184714 0.10828025477707007 0.3503184713375796 0.27388535031847133 0.25477707006369427 0.0 0.0 0.0 0.0 0.1 0.1 0.1 0.1 0.1 0.1 0.1 0.1 0.1 0.1 0.1 0.1 0.1 0.1 0.1 0.1 0.1 0.1 0.1 0.1 0.0 0.010309278350515464 0.12371134020618557 0.36082474226804123 0.2268041237113402 0.27835051546391754 0.0 0.0 0.0 0.0 0.0 0.0 0.0 0.0 0.0 0.5 0.0 0.0 0.5 0.0 0.1 0.1 0.1 0.1 0.1 0.1 0.1 0.1 0.1 0.1 0.0 0.0 0.21428571428571427 0.4107142857142857 0.19642857142857142 0.17857142857142858 0.0 0.0 0.0 0.0 0.0 0.0 0.0 0.5 0.0 0.0 0.5 0.0 0.0 0.0 0.1 0.1 0.1 0.1 0.1 0.1 0.1 0.1 0.1 0.1 0.0 0.02564102564102564 0.07692307692307693 0.5384615384615384 0.20512820512820512 0.15384615384615385 0.0 0.0 0.0 0.0 0.1 0.1 0.1 0.1 0.1 0.1 0.1 0.1 0.1 0.1 0.1 0.1 0.1 0.1 0.1 0.1 0.1 0.1 0.1 0.1 0.0 0.03225806451612903 0.03225806451612903 0.6451612903225806 0.16129032258064516 0.12903225806451613 0.0 0.0 0.0 0.0 0.1 0.1 0.1 0.1 0.1 0.1 0.1 0.1 0.1 0.1 0.1 0.1 0.1 0.1 0.1 0.1 0.1 0.1 0.1 0.1 0.0 0.0 0.07142857142857142 0.7142857142857143 0.07142857142857142 0.14285714285714285 0.0 0.0 0.0 0.0 0.1 0.1 0.1 0.1 0.1 0.1 0.1 0.1 0.1 0.1 0.1 0.1 0.1 0.1 0.1 0.1 0.1 0.1 0.1 0.1 0.0 0.058823529411764705 0.0 0.5882352941176471 0.058823529411764705 0.29411764705882354 0.0 0.0 0.0 0.0 0.1 0.1 0.1 0.1 0.1 0.1 0.1 0.1 0.1 0.1 0.1 0.1 0.1 0.1 0.1 0.1 0.1 0.1 0.1 0.1 0.1 0.2 0.2 0.4 0.1 0.0 0.0 0.0 0.0 0.0 0.1 0.1 0.1 0.1 0.1 0.1 0.1 0.1 0.1 0.1 0.1 0.1 0.1 0.1 0.1 0.1 0.1 0.1 0.1 0.1 0.0 0.3333333333333333 0.2222222222222222 0.3333333333333333 0.0 0.1111111111111111 0.0 0.0 0.0 0.0 0.1 0.1 0.1 0.1 0.1 0.1 0.1 0.1 0.1 0.1 0.1 0.1 0.1 0.1 0.1 0.1 0.1 0.1 0.1 0.1 0.0 0.0 0.0 0.4 0.4 0.2 0.0 0.0 0.0 0.0 0.1 0.1 0.1 0.1 0.1 0.1 0.1 0.1 0.1 0.1 0.1 0.1 0.1 0.1 0.1 0.1 0.1 0.1 0.1 0.1 0.0 0.0 0.0 1.0 0.0 0.0 0.0 0.0 0.0 0.0 0.1 0.1 0.1 0.1 0.1 0.1 0.1 0.1 0.1 0.1 0.1 0.1 0.1 0.1 0.1 0.1 0.1 0.1 0.1 0.1 0.0 0.0 1.0 0.0 0.0 0.0 0.0 0.0 0.0 0.0 0.1 0.1 0.1 0.1 0.1 0.1 0.1 0.1 0.1 0.1 0.1 0.1 0.1 0.1 0.1 0.1 0.1 0.1 0.1 0.1 0.0 0.0 0.0 1.0 0.0 0.0 0.0 0.0 0.0 0.0 0.1 0.1 0.1 0.1 0.1 0.1 0.1 0.1 0.1 0.1 0.1 0.1 0.1 0.1 0.1 0.1 0.1 0.1 0.1 0.1 1.0 0.0 0.0 0.0 0.0 0.0 0.0 0.0 0.0 0.0 0.0 0.0 0.0 0.0 0.0 1.0 0.0 0.0 0.0 0.0 0.1 0.1 0.1 0.1 0.1 0.1 0.1 0.1 0.1 0.1 0.1 0.1 0.1 0.1 0.1 0.1 0.1 0.1 0.1 0.1 0.0 0.0 0.0 0.0 0.0 0.0 0.0 0.0 0.0 1.0 0.1 0.1 0.1 0.1 0.1 0.1 0.1 0.1 0.1 0.1 1.0 0.0 0.0 0.0 0.0 0.0 0.0 0.0 0.0 0.0 0.1 0.1 0.1 0.1 0.1 0.1 0.1 0.1 0.1 0.1 0.1 0.1 0.1 0.1 0.1 0.1 0.1 0.1 0.1 0.1 </TABLE>
    </DEFINITION>
    <DEFINITION>
      <FOR>in_time</FOR>
      <GIVEN>delta</GIVEN>
      <GIVEN>fps</GIVEN>
      <TABLE>0.5 0.5 0.5 0.5 0.0 1.0 0.0 1.0 0.5 0.5 0.5 0.5 0.5 0.5 0.5 0.5 0.5 0.5 0.5 0.5 0.0 1.0 0.0 1.0 0.0 1.0 0.0 1.0 0.5 0.5 0.5 0.5 0.5 0.5 0.5 0.5 0.5 0.5 0.5 0.5 0.0 1.0 0.0 1.0 0.0 1.0 0.0 1.0 0.5 0.5 0.5 0.5 0.5 0.5 0.5 0.5 0.5 0.5 0.5 0.5 0.0 1.0 0.0 1.0 0.0 1.0 0.0 1.0 0.5 0.5 0.5 0.5 0.5 0.5 0.5 0.5 0.5 0.5 0.5 0.5 0.5 0.5 0.0 1.0 0.0 1.0 0.0 1.0 0.5 0.5 0.5 0.5 0.5 0.5 0.5 0.5 0.5 0.5 0.5 0.5 0.5 0.5 0.5 0.5 0.0 1.0 0.5 0.5 0.5 0.5 0.5 0.5 0.5 0.5 0.5 0.5 0.5 0.5 0.5 0.5 0.0 1.0 0.5 0.5 0.0 1.0 0.0 1.0 0.5 0.5 0.5 0.5 0.5 0.5 0.5 0.5 0.5 0.5 0.5 0.5 0.0 1.0 0.0 1.0 0.0 1.0 0.0 1.0 0.0 1.0 0.5 0.5 0.5 0.5 0.5 0.5 0.5 0.5 0.5 0.5 0.0 1.0 0.0 1.0 0.0 1.0 0.0 1.0 0.0 1.0 0.0 1.0 0.5 0.5 0.5 0.5 0.5 0.5 0.5 0.5 0.0 1.0 0.0 1.0 0.0 1.0 0.0 1.0 0.0 1.0 0.0 1.0 0.5 0.5 0.5 0.5 0.5 0.5 0.5 0.5 0.0 1.0 0.0 1.0 0.0 1.0 0.0 1.0 0.0 1.0 0.0 1.0 0.5 0.5 0.5 0.5 0.5 0.5 0.5 0.5 0.0 1.0 0.0 1.0 0.0 1.0 0.0 1.0 0.5 0.5 0.0 1.0 0.5 0.5 0.5 0.5 0.5 0.5 0.5 0.5 0.0 1.0 0.5 0.5 0.0 1.0 0.0 1.0 0.5 0.5 0.0 1.0 0.5 0.5 0.5 0.5 0.5 0.5 0.5 0.5 0.0 1.0 0.5 0.5 0.5 0.5 0.0 1.0 0.0 1.0 0.0 1.0 0.5 0.5 0.5 0.5 0.5 0.5 0.5 0.5 0.0 1.0 0.0 1.0 0.0 1.0 0.0 1.0 0.0 1.0 0.0 1.0 0.5 0.5 0.5 0.5 0.5 0.5 0.5 0.5 0.0 1.0 0.0 1.0 0.0 1.0 0.0 1.0 0.0 1.0 0.0 1.0 0.5 0.5 0.5 0.5 0.5 0.5 0.5 0.5 0.0 1.0 0.0 1.0 0.0 1.0 0.0 1.0 0.0 1.0 0.0 1.0 0.5 0.5 0.5 0.5 0.5 0.5 0.5 0.5 0.0 1.0 0.0 1.0 0.0 1.0 0.0 1.0 0.0 1.0 0.0 1.0 0.5 0.5 0.5 0.5 0.5 0.5 0.5 0.5 0.0 1.0 0.0 1.0 0.0 1.0 0.0 1.0 0.0 1.0 0.0 1.0 0.5 0.5 0.5 0.5 0.5 0.5 0.5 0.5 0.0 1.0 0.0 1.0 0.0 1.0 0.0 1.0 0.0 1.0 1.0 0.0 0.5 0.5 0.5 0.5 0.5 0.5 0.5 0.5 0.0 1.0 0.0 1.0 0.0 1.0 0.0 1.0 0.0 1.0 1.0 0.0 0.5 0.5 0.5 0.5 0.5 0.5 0.5 0.5 0.0 1.0 0.0 1.0 0.0 1.0 0.0 1.0 0.0 1.0 1.0 0.0 0.5 0.5 0.5 0.5 0.5 0.5 0.5 0.5 0.0 1.0 0.0 1.0 0.0 1.0 0.0 1.0 0.0 1.0 1.0 0.0 0.5 0.5 0.5 0.5 0.5 0.5 0.5 0.5 0.0 1.0 0.0 1.0 0.0 1.0 0.0 1.0 0.0 1.0 1.0 0.0 0.5 0.5 0.5 0.5 0.5 0.5 0.5 0.5 0.0 1.0 0.0 1.0 0.0 1.0 0.0 1.0 0.0 1.0 1.0 0.0 1.0 0.0 1.0 0.0 1.0 0.0 1.0 0.0 0.0 1.0 0.0 1.0 0.5 0.5 0.0 1.0 0.0 1.0 1.0 0.0 1.0 0.0 1.0 0.0 1.0 0.0 1.0 0.0 0.0 1.0 0.0 1.0 0.0 1.0 0.0 1.0 0.0 1.0 1.0 0.0 1.0 0.0 1.0 0.0 1.0 0.0 1.0 0.0 0.0 1.0 0.0 1.0 0.0 1.0 0.0 1.0 1.0 0.0 1.0 0.0 1.0 0.0 1.0 0.0 1.0 0.0 1.0 0.0 0.0 1.0 0.0 1.0 0.0 1.0 0.0 1.0 1.0 0.0 1.0 0.0 1.0 0.0 1.0 0.0 1.0 0.0 1.0 0.0 0.0 1.0 0.0 1.0 0.0 1.0 0.0 1.0 1.0 0.0 1.0 0.0 1.0 0.0 1.0 0.0 1.0 0.0 1.0 0.0 0.0 1.0 0.0 1.0 0.0 1.0 0.0 1.0 1.0 0.0 1.0 0.0 1.0 0.0 1.0 0.0 1.0 0.0 1.0 0.0 0.0 1.0 0.0 1.0 0.0 1.0 0.0 1.0 1.0 0.0 1.0 0.0 1.0 0.0 1.0 0.0 1.0 0.0 1.0 0.0 0.0 1.0 0.0 1.0 0.0 1.0 0.0 1.0 1.0 0.0 1.0 0.0 1.0 0.0 1.0 0.0 1.0 0.0 1.0 0.0 0.0 1.0 0.0 1.0 0.0 1.0 0.0 1.0 1.0 0.0 1.0 0.0 1.0 0.0 1.0 0.0 1.0 0.0 1.0 0.0 0.0 1.0 0.0 1.0 0.0 1.0 0.0 1.0 1.0 0.0 1.0 0.0 1.0 0.0 1.0 0.0 1.0 0.0 1.0 0.0 0.0 1.0 0.0 1.0 0.0 1.0 0.0 1.0 1.0 0.0 1.0 0.0 1.0 0.0 1.0 0.0 1.0 0.0 1.0 0.0 0.0 1.0 0.0 1.0 0.0 1.0 0.5 0.5 1.0 0.0 1.0 0.0 1.0 0.0 1.0 0.0 1.0 0.0 1.0 0.0 0.0 1.0 0.5 0.5 0.0 1.0 0.5 0.5 1.0 0.0 1.0 0.0 0.5 0.5 1.0 0.0 1.0 0.0 1.0 0.0 0.0 1.0 0.5 0.5 0.0 1.0 0.0 1.0 0.5 0.5 1.0 0.0 0.5 0.5 1.0 0.0 1.0 0.0 0.5 0.5 0.0 1.0 0.5 0.5 0.0 1.0 0.5 0.5 1.0 0.0 1.0 0.0 0.5 0.5 1.0 0.0 0.5 0.5 0.5 0.5 0.0 1.0 0.0 1.0 0.0 1.0 0.0 1.0 0.5 0.5 0.5 0.5 0.5 0.5 0.5 0.5 0.5 0.5 1.0 0.0 0.0 1.0 0.5 0.5 0.5 0.5 0.5 0.5 1.0 0.0 0.5 0.5 0.5 0.5 0.5 0.5 0.5 0.5 0.5 0.5 0.0 1.0 0.5 0.5 0.5 0.5 0.5 0.5 0.5 0.5 0.5 0.5 0.5 0.5 0.5 0.5 0.5 0.5 0.5 0.5 0.0 1.0 0.5 0.5 0.0 1.0 0.0 1.0 0.5 0.5 0.5 0.5 0.5 0.5 0.5 0.5 0.5 0.5 0.5 0.5 0.0 1.0 0.5 0.5 0.5 0.5 0.5 0.5 0.5 0.5 1.0 0.0 0.5 0.5 0.5 0.5 0.5 0.5 1.0 0.0 0.0 1.0 0.5 0.5 0.5 0.5 0.5 0.5 0.5 0.5 0.5 0.5 0.5 0.5 0.5 0.5 0.5 0.5 0.5 0.5 0.0 1.0 0.5 0.5 0.5 0.5 1.0 0.0 0.5 0.5 0.5 0.5 0.5 0.5 0.5 0.5 0.5 0.5 0.5 0.5 0.0 1.0 0.0 1.0 0.0 1.0 1.0 0.0 0.5 0.5 0.5 0.5 0.5 0.5 0.5 0.5 0.5 0.5 0.5 0.5 0.0 1.0 0.5 0.5 0.5 0.5 0.5 0.5 0.5 0.5 1.0 0.0 0.5 0.5 0.5 0.5 0.5 0.5 0.5 0.5 0.0 1.0 0.5 0.5 0.5 0.5 1.0 0.0 0.5 0.5 0.5 0.5 0.5 0.5 0.5 0.5 0.5 0.5 0.5 0.5 0.0 1.0 0.5 0.5 0.5 0.5 0.5 0.5 0.5 0.5 0.5 0.5 0.5 0.5 0.5 0.5 0.5 0.5 0.5 0.5 0.5 0.5 0.5 0.5 0.5 0.5 1.0 0.0 0.5 0.5 1.0 0.0 0.5 0.5 0.5 0.5 0.5 0.5 0.5 0.5 0.5 0.5 0.5 0.5 0.5 0.5 1.0 0.0 0.5 0.5 0.5 0.5 0.5 0.5 0.5 0.5 0.5 0.5 0.5 0.5 0.5 0.5 0.5 0.5 0.5 0.5 1.0 0.0 0.5 0.5 0.5 0.5 0.5 0.5 0.5 0.5 0.5 0.5 0.5 0.5 0.0 1.0 0.5 0.5 0.5 0.5 0.5 0.5 1.0 0.0 0.5 0.5 0.5 0.5 0.5 0.5 0.5 0.5 0.5 0.5 0.5 0.5 0.5 0.5 0.5 0.5 1.0 0.0 1.0 0.0 1.0 0.0 0.5 0.5 0.5 0.5 0.5 0.5 0.5 0.5 0.0 1.0 0.5 0.5 0.5 0.5 1.0 0.0 1.0 0.0 1.0 0.0 0.5 0.5 0.5 0.5 0.5 0.5 0.5 0.5 0.5 0.5 0.5 0.5 0.5 0.5 1.0 0.0 1.0 0.0 0.5 0.5 0.5 0.5 0.5 0.5 0.5 0.5 0.5 0.5 0.0 1.0 0.5 0.5 0.5 0.5 1.0 0.0 1.0 0.0 1.0 0.0 0.5 0.5 0.5 0.5 0.5 0.5 0.5 0.5 0.0 1.0 0.5 0.5 0.5 0.5 1.0 0.0 1.0 0.0 1.0 0.0 0.5 0.5 0.5 0.5 0.5 0.5 0.5 0.5 0.5 0.5 0.5 0.5 1.0 0.0 1.0 0.0 1.0 0.0 1.0 0.0 0.5 0.5 0.5 0.5 0.5 0.5 0.5 0.5 0.5 0.5 0.5 0.5 0.5 0.5 1.0 0.0 1.0 0.0 1.0 0.0 0.5 0.5 0.5 0.5 0.5 0.5 0.5 0.5 0.0 1.0 0.5 0.5 0.5 0.5 1.0 0.0 1.0 0.0 1.0 0.0 0.5 0.5 0.5 0.5 0.5 0.5 0.5 0.5 0.0 1.0 0.5 0.5 0.5 0.5 1.0 0.0 0.5 0.5 1.0 0.0 0.5 0.5 0.5 0.5 0.5 0.5 0.5 0.5 0.0 1.0 0.5 0.5 1.0 0.0 1.0 0.0 0.5 0.5 1.0 0.0 0.5 0.5 0.5 0.5 0.5 0.5 0.5 0.5 0.5 0.5 0.5 0.5 0.5 0.5 1.0 0.0 1.0 0.0 0.5 0.5 0.5 0.5 0.5 0.5 0.5 0.5 0.5 0.5 0.5 0.5 0.5 0.5 0.5 0.5 1.0 0.0 0.5 0.5 0.5 0.5 0.5 0.5 0.5 0.5 0.5 0.5 0.5 0.5 0.5 0.5 0.5 0.5 0.5 0.5 1.0 0.0 0.5 0.5 0.5 0.5 0.5 0.5 0.5 0.5 0.5 0.5 0.5 0.5 0.5 0.5 0.5 0.5 0.5 0.5 1.0 0.0 1.0 0.0 0.5 0.5 0.5 0.5 0.5 0.5 0.5 0.5 0.5 0.5 0.0 1.0 0.5 0.5 0.5 0.5 0.5 0.5 0.5 0.5 0.5 0.5 0.5 0.5 0.5 0.5 0.5 0.5 0.5 0.5 0.5 0.5 0.5 0.5 1.0 0.0 0.5 0.5 0.5 0.5 0.5 0.5 0.5 0.5 0.5 0.5 0.5 0.5 0.5 0.5 0.5 0.5 0.5 0.5 0.5 0.5 1.0 0.0 0.5 0.5 0.5 0.5 0.5 0.5 0.5 0.5 0.5 0.5 0.5 0.5 0.5 0.5 0.5 0.5 0.5 0.5 1.0 0.0 0.5 0.5 0.5 0.5 0.5 0.5 0.5 0.5 0.5 0.5 0.5 0.5 0.5 0.5 0.5 0.5 0.5 0.5 1.0 0.0 0.5 0.5 0.5 0.5 0.5 0.5 0.5 0.5 0.5 0.5 0.5 0.5 0.5 0.5 0.5 0.5 0.5 0.5 1.0 0.0 0.5 0.5 0.5 0.5 0.5 0.5 0.5 0.5 0.5 0.5 0.5 0.5 0.5 0.5 0.5 0.5 1.0 0.0 0.5 0.5 0.5 0.5 0.5 0.5 0.5 0.5 0.5 0.5 0.5 0.5 0.5 0.5 0.5 0.5 0.5 0.5 1.0 0.0 0.5 0.5 0.5 0.5 0.5 0.5 0.5 0.5 0.5 0.5 0.5 0.5 0.5 0.5 1.0 0.0 0.5 0.5 0.5 0.5 0.5 0.5 0.5 0.5 0.5 0.5 0.5 0.5 0.5 0.5 0.5 0.5 0.5 0.5 0.5 0.5 0.5 0.5 0.5 0.5 0.5 0.5 0.5 0.5 0.5 0.5 0.5 0.5 0.5 0.5 0.5 0.5 1.0 0.0 </TABLE>
    </DEFINITION>
    <DEFINITION>
      <FOR>pixel</FOR>
      <TABLE>1.0 </TABLE>
    </DEFINITION>
  </NETWORK>
</BIF>
