<?xml version='1.0' encoding='utf-8'?>
<BIF VERSION="0.3">
  <NETWORK>
    <NAME>Processor</NAME>
    <VARIABLE TYPE="nature">
      <NAME>consumption</NAME>
      <OUTCOME>6</OUTCOME>
      <OUTCOME>7</OUTCOME>
      <OUTCOME>20</OUTCOME>
      <OUTCOME>22</OUTCOME>
      <OUTCOME>23</OUTCOME>
      <OUTCOME>82</OUTCOME>
      <OUTCOME>83</OUTCOME>
      <OUTCOME>84</OUTCOME>
      <OUTCOME>85</OUTCOME>
      <OUTCOME>86</OUTCOME>
      <OUTCOME>87</OUTCOME>
      <OUTCOME>88</OUTCOME>
      <OUTCOME>89</OUTCOME>
      <OUTCOME>90</OUTCOME>
      <OUTCOME>91</OUTCOME>
      <OUTCOME>92</OUTCOME>
      <OUTCOME>94</OUTCOME>
      <OUTCOME>95</OUTCOME>
      <OUTCOME>96</OUTCOME>
      <PROPERTY>weight = None</PROPERTY>
    </VARIABLE>
    <VARIABLE TYPE="nature">
      <NAME>cpu</NAME>
      <OUTCOME>0</OUTCOME>
      <OUTCOME>1</OUTCOME>
      <OUTCOME>2</OUTCOME>
      <OUTCOME>3</OUTCOME>
      <OUTCOME>4</OUTCOME>
      <OUTCOME>5</OUTCOME>
      <OUTCOME>6</OUTCOME>
      <OUTCOME>7</OUTCOME>
      <OUTCOME>8</OUTCOME>
      <OUTCOME>9</OUTCOME>
      <OUTCOME>10</OUTCOME>
      <OUTCOME>11</OUTCOME>
      <OUTCOME>12</OUTCOME>
      <OUTCOME>13</OUTCOME>
      <OUTCOME>14</OUTCOME>
      <OUTCOME>15</OUTCOME>
      <OUTCOME>16</OUTCOME>
      <OUTCOME>17</OUTCOME>
      <OUTCOME>18</OUTCOME>
      <OUTCOME>19</OUTCOME>
      <OUTCOME>20</OUTCOME>
      <OUTCOME>21</OUTCOME>
      <OUTCOME>22</OUTCOME>
      <OUTCOME>23</OUTCOME>
      <OUTCOME>24</OUTCOME>
      <OUTCOME>25</OUTCOME>
      <OUTCOME>26</OUTCOME>
      <OUTCOME>27</OUTCOME>
      <OUTCOME>28</OUTCOME>
      <OUTCOME>29</OUTCOME>
      <OUTCOME>30</OUTCOME>
      <OUTCOME>31</OUTCOME>
      <OUTCOME>32</OUTCOME>
      <OUTCOME>33</OUTCOME>
      <OUTCOME>34</OUTCOME>
      <OUTCOME>35</OUTCOME>
      <OUTCOME>36</OUTCOME>
      <OUTCOME>37</OUTCOME>
      <OUTCOME>38</OUTCOME>
      <OUTCOME>39</OUTCOME>
      <OUTCOME>40</OUTCOME>
      <OUTCOME>41</OUTCOME>
      <OUTCOME>42</OUTCOME>
      <OUTCOME>43</OUTCOME>
      <OUTCOME>44</OUTCOME>
      <OUTCOME>45</OUTCOME>
      <OUTCOME>46</OUTCOME>
      <OUTCOME>47</OUTCOME>
      <OUTCOME>48</OUTCOME>
      <OUTCOME>49</OUTCOME>
      <OUTCOME>50</OUTCOME>
      <OUTCOME>51</OUTCOME>
      <OUTCOME>52</OUTCOME>
      <OUTCOME>53</OUTCOME>
      <OUTCOME>54</OUTCOME>
      <OUTCOME>55</OUTCOME>
      <OUTCOME>56</OUTCOME>
      <OUTCOME>57</OUTCOME>
      <OUTCOME>58</OUTCOME>
      <OUTCOME>59</OUTCOME>
      <OUTCOME>60</OUTCOME>
      <OUTCOME>61</OUTCOME>
      <OUTCOME>62</OUTCOME>
      <OUTCOME>63</OUTCOME>
      <OUTCOME>65</OUTCOME>
      <OUTCOME>66</OUTCOME>
      <OUTCOME>67</OUTCOME>
      <OUTCOME>79</OUTCOME>
      <PROPERTY>weight = None</PROPERTY>
    </VARIABLE>
    <VARIABLE TYPE="nature">
      <NAME>delta</NAME>
      <OUTCOME>9</OUTCOME>
      <OUTCOME>10</OUTCOME>
      <OUTCOME>11</OUTCOME>
      <OUTCOME>12</OUTCOME>
      <OUTCOME>13</OUTCOME>
      <OUTCOME>15</OUTCOME>
      <OUTCOME>16</OUTCOME>
      <OUTCOME>17</OUTCOME>
      <OUTCOME>18</OUTCOME>
      <OUTCOME>19</OUTCOME>
      <OUTCOME>20</OUTCOME>
      <OUTCOME>21</OUTCOME>
      <OUTCOME>22</OUTCOME>
      <OUTCOME>23</OUTCOME>
      <OUTCOME>24</OUTCOME>
      <OUTCOME>25</OUTCOME>
      <OUTCOME>26</OUTCOME>
      <OUTCOME>27</OUTCOME>
      <OUTCOME>28</OUTCOME>
      <OUTCOME>29</OUTCOME>
      <OUTCOME>30</OUTCOME>
      <OUTCOME>31</OUTCOME>
      <OUTCOME>32</OUTCOME>
      <OUTCOME>33</OUTCOME>
      <OUTCOME>34</OUTCOME>
      <OUTCOME>35</OUTCOME>
      <OUTCOME>36</OUTCOME>
      <OUTCOME>37</OUTCOME>
      <OUTCOME>38</OUTCOME>
      <OUTCOME>39</OUTCOME>
      <OUTCOME>40</OUTCOME>
      <OUTCOME>41</OUTCOME>
      <OUTCOME>42</OUTCOME>
      <OUTCOME>43</OUTCOME>
      <OUTCOME>44</OUTCOME>
      <OUTCOME>45</OUTCOME>
      <OUTCOME>46</OUTCOME>
      <OUTCOME>47</OUTCOME>
      <OUTCOME>48</OUTCOME>
      <OUTCOME>49</OUTCOME>
      <OUTCOME>50</OUTCOME>
      <OUTCOME>51</OUTCOME>
      <OUTCOME>52</OUTCOME>
      <OUTCOME>55</OUTCOME>
      <OUTCOME>58</OUTCOME>
      <OUTCOME>59</OUTCOME>
      <OUTCOME>60</OUTCOME>
      <OUTCOME>61</OUTCOME>
      <OUTCOME>62</OUTCOME>
      <OUTCOME>63</OUTCOME>
      <OUTCOME>64</OUTCOME>
      <OUTCOME>65</OUTCOME>
      <OUTCOME>66</OUTCOME>
      <OUTCOME>67</OUTCOME>
      <OUTCOME>68</OUTCOME>
      <OUTCOME>69</OUTCOME>
      <OUTCOME>70</OUTCOME>
      <OUTCOME>71</OUTCOME>
      <OUTCOME>72</OUTCOME>
      <OUTCOME>73</OUTCOME>
      <OUTCOME>74</OUTCOME>
      <OUTCOME>75</OUTCOME>
      <OUTCOME>76</OUTCOME>
      <OUTCOME>77</OUTCOME>
      <OUTCOME>78</OUTCOME>
      <OUTCOME>79</OUTCOME>
      <OUTCOME>80</OUTCOME>
      <OUTCOME>81</OUTCOME>
      <OUTCOME>82</OUTCOME>
      <OUTCOME>83</OUTCOME>
      <OUTCOME>84</OUTCOME>
      <OUTCOME>85</OUTCOME>
      <OUTCOME>86</OUTCOME>
      <OUTCOME>87</OUTCOME>
      <OUTCOME>88</OUTCOME>
      <OUTCOME>90</OUTCOME>
      <OUTCOME>93</OUTCOME>
      <OUTCOME>109</OUTCOME>
      <OUTCOME>302</OUTCOME>
      <OUTCOME>2269</OUTCOME>
      <OUTCOME>8587</OUTCOME>
      <PROPERTY>weight = None</PROPERTY>
    </VARIABLE>
    <VARIABLE TYPE="nature">
      <NAME>device_type</NAME>
      <OUTCOME>Laptop</OUTCOME>
      <OUTCOME>Orin</OUTCOME>
      <OUTCOME>PC</OUTCOME>
      <PROPERTY>weight = None</PROPERTY>
    </VARIABLE>
    <VARIABLE TYPE="nature">
      <NAME>fps</NAME>
      <OUTCOME>15</OUTCOME>
      <OUTCOME>20</OUTCOME>
      <OUTCOME>25</OUTCOME>
      <OUTCOME>30</OUTCOME>
      <OUTCOME>35</OUTCOME>
      <PROPERTY>weight = None</PROPERTY>
    </VARIABLE>
    <VARIABLE TYPE="nature">
      <NAME>gpu</NAME>
      <OUTCOME>0</OUTCOME>
      <OUTCOME>1</OUTCOME>
      <OUTCOME>2</OUTCOME>
      <OUTCOME>3</OUTCOME>
      <OUTCOME>4</OUTCOME>
      <OUTCOME>5</OUTCOME>
      <OUTCOME>6</OUTCOME>
      <OUTCOME>7</OUTCOME>
      <OUTCOME>8</OUTCOME>
      <OUTCOME>9</OUTCOME>
      <OUTCOME>10</OUTCOME>
      <OUTCOME>11</OUTCOME>
      <OUTCOME>12</OUTCOME>
      <OUTCOME>13</OUTCOME>
      <OUTCOME>14</OUTCOME>
      <OUTCOME>15</OUTCOME>
      <OUTCOME>16</OUTCOME>
      <OUTCOME>17</OUTCOME>
      <OUTCOME>18</OUTCOME>
      <OUTCOME>19</OUTCOME>
      <OUTCOME>20</OUTCOME>
      <OUTCOME>21</OUTCOME>
      <OUTCOME>22</OUTCOME>
      <OUTCOME>23</OUTCOME>
      <OUTCOME>24</OUTCOME>
      <OUTCOME>25</OUTCOME>
      <OUTCOME>26</OUTCOME>
      <OUTCOME>27</OUTCOME>
      <OUTCOME>28</OUTCOME>
      <OUTCOME>30</OUTCOME>
      <OUTCOME>31</OUTCOME>
      <OUTCOME>32</OUTCOME>
      <OUTCOME>33</OUTCOME>
      <OUTCOME>34</OUTCOME>
      <OUTCOME>40</OUTCOME>
      <OUTCOME>45</OUTCOME>
      <OUTCOME>65</OUTCOME>
      <OUTCOME>75</OUTCOME>
      <OUTCOME>80</OUTCOME>
      <PROPERTY>weight = None</PROPERTY>
    </VARIABLE>
    <VARIABLE TYPE="nature">
      <NAME>in_time</NAME>
      <OUTCOME>False</OUTCOME>
      <OUTCOME>True</OUTCOME>
      <PROPERTY>weight = None</PROPERTY>
    </VARIABLE>
    <VARIABLE TYPE="nature">
      <NAME>pixel</NAME>
      <OUTCOME>480</OUTCOME>
      <OUTCOME>720</OUTCOME>
      <OUTCOME>1080</OUTCOME>
      <PROPERTY>weight = None</PROPERTY>
    </VARIABLE>
    <DEFINITION>
      <FOR>consumption</FOR>
      <GIVEN>device_type</GIVEN>
      <TABLE>0.05263157894736842 0.05263157894736842 0.05263157894736842 0.05263157894736842 0.05263157894736842 0.05263157894736842 0.05263157894736842 0.05263157894736842 0.05263157894736842 0.05263157894736842 0.05263157894736842 0.05263157894736842 0.05263157894736842 0.05263157894736842 0.05263157894736842 0.05263157894736842 0.05263157894736842 0.05263157894736842 0.05263157894736842 0.9873997709049256 0.012600229095074456 0.0 0.0 0.0 0.0 0.0 0.0 0.0 0.0 0.0 0.0 0.0 0.0 0.0 0.0 0.0 0.0 0.0 0.0 0.0 0.0 0.0 0.0 0.01168384879725086 0.27376861397479957 0.4632302405498282 0.15234822451317298 0.050400916380297825 0.02313860252004582 0.010080183276059565 0.005040091638029783 0.005269186712485682 0.0013745704467353953 0.0013745704467353953 0.001145475372279496 0.0004581901489117984 0.0006872852233676976 </TABLE>
    </DEFINITION>
    <DEFINITION>
      <FOR>cpu</FOR>
      <GIVEN>consumption</GIVEN>
      <TABLE>0.0 0.0 0.0 0.0 0.0 0.0 0.0 0.0 0.0 0.0 0.0002320185614849188 0.0004640371229698376 0.0006960556844547563 0.004408352668213457 0.007424593967517401 0.008352668213457077 0.019025522041763342 0.023433874709976796 0.04686774941995359 0.027378190255220418 0.0568445475638051 0.05359628770301624 0.0494199535962877 0.06983758700696056 0.04269141531322506 0.12505800464037123 0.06682134570765662 0.0568445475638051 0.06844547563805105 0.05614849187935035 0.05568445475638051 0.04060324825986079 0.0357308584686775 0.031322505800464036 0.020649651972157772 0.014617169373549885 0.0069605568445475635 0.0030162412993039443 0.002552204176334107 0.0027842227378190253 0.0020881670533642693 0.0 0.0 0.0 0.0 0.0 0.0 0.0 0.0 0.0 0.0 0.0 0.0 0.0 0.0 0.0 0.0 0.0 0.0 0.0 0.0 0.0 0.0 0.0 0.0 0.0 0.0 0.0 0.0 0.0 0.0 0.0 0.0 0.0 0.0 0.0 0.0 0.0 0.0 0.0 0.0 0.0 0.0 0.0 0.0 0.0 0.0 0.0 0.0 0.0 0.0 0.0 0.0 0.0 0.0 0.0 0.0 0.0 0.0 0.0 0.0 0.0 0.0 0.0 0.0 0.0 0.0 0.0 0.09090909090909091 0.07272727272727272 0.09090909090909091 0.05454545454545454 0.07272727272727272 0.10909090909090909 0.07272727272727272 0.01818181818181818 0.10909090909090909 0.0 0.05454545454545454 0.05454545454545454 0.03636363636363636 0.0 0.03636363636363636 0.03636363636363636 0.0 0.05454545454545454 0.0 0.01818181818181818 0.0 0.0 0.0 0.0 0.0 0.0 0.0 0.01818181818181818 0.014705882352941176 0.014705882352941176 0.014705882352941176 0.014705882352941176 0.014705882352941176 0.014705882352941176 0.014705882352941176 0.014705882352941176 0.014705882352941176 0.014705882352941176 0.014705882352941176 0.014705882352941176 0.014705882352941176 0.014705882352941176 0.014705882352941176 0.014705882352941176 0.014705882352941176 0.014705882352941176 0.014705882352941176 0.014705882352941176 0.014705882352941176 0.014705882352941176 0.014705882352941176 0.014705882352941176 0.014705882352941176 0.014705882352941176 0.014705882352941176 0.014705882352941176 0.014705882352941176 0.014705882352941176 0.014705882352941176 0.014705882352941176 0.014705882352941176 0.014705882352941176 0.014705882352941176 0.014705882352941176 0.014705882352941176 0.014705882352941176 0.014705882352941176 0.014705882352941176 0.014705882352941176 0.014705882352941176 0.014705882352941176 0.014705882352941176 0.014705882352941176 0.014705882352941176 0.014705882352941176 0.014705882352941176 0.014705882352941176 0.014705882352941176 0.014705882352941176 0.014705882352941176 0.014705882352941176 0.014705882352941176 0.014705882352941176 0.014705882352941176 0.014705882352941176 0.014705882352941176 0.014705882352941176 0.014705882352941176 0.014705882352941176 0.014705882352941176 0.014705882352941176 0.014705882352941176 0.014705882352941176 0.014705882352941176 0.014705882352941176 0.014705882352941176 0.014705882352941176 0.014705882352941176 0.014705882352941176 0.014705882352941176 0.014705882352941176 0.014705882352941176 0.014705882352941176 0.014705882352941176 0.014705882352941176 0.014705882352941176 0.014705882352941176 0.014705882352941176 0.014705882352941176 0.014705882352941176 0.014705882352941176 0.014705882352941176 0.014705882352941176 0.014705882352941176 0.014705882352941176 0.014705882352941176 0.014705882352941176 0.014705882352941176 0.014705882352941176 0.014705882352941176 0.014705882352941176 0.014705882352941176 0.014705882352941176 0.014705882352941176 0.014705882352941176 0.014705882352941176 0.014705882352941176 0.014705882352941176 0.014705882352941176 0.014705882352941176 0.014705882352941176 0.014705882352941176 0.014705882352941176 0.014705882352941176 0.014705882352941176 0.014705882352941176 0.014705882352941176 0.014705882352941176 0.014705882352941176 0.014705882352941176 0.014705882352941176 0.014705882352941176 0.014705882352941176 0.014705882352941176 0.014705882352941176 0.014705882352941176 0.014705882352941176 0.014705882352941176 0.014705882352941176 0.014705882352941176 0.014705882352941176 0.014705882352941176 0.014705882352941176 0.014705882352941176 0.014705882352941176 0.014705882352941176 0.014705882352941176 0.014705882352941176 0.014705882352941176 0.014705882352941176 0.014705882352941176 0.014705882352941176 0.014705882352941176 0.014705882352941176 0.014705882352941176 0.014705882352941176 0.014705882352941176 0.014705882352941176 0.014705882352941176 0.014705882352941176 0.014705882352941176 0.014705882352941176 0.014705882352941176 0.014705882352941176 0.014705882352941176 0.014705882352941176 0.014705882352941176 0.014705882352941176 0.014705882352941176 0.014705882352941176 0.014705882352941176 0.014705882352941176 0.014705882352941176 0.014705882352941176 0.014705882352941176 0.014705882352941176 0.014705882352941176 0.014705882352941176 0.014705882352941176 0.014705882352941176 0.014705882352941176 0.014705882352941176 0.014705882352941176 0.014705882352941176 0.014705882352941176 0.014705882352941176 0.014705882352941176 0.014705882352941176 0.014705882352941176 0.014705882352941176 0.014705882352941176 0.014705882352941176 0.014705882352941176 0.014705882352941176 0.014705882352941176 0.014705882352941176 0.014705882352941176 0.014705882352941176 0.014705882352941176 0.014705882352941176 0.014705882352941176 0.014705882352941176 0.014705882352941176 0.014705882352941176 0.014705882352941176 0.014705882352941176 0.014705882352941176 0.014705882352941176 0.014705882352941176 0.014705882352941176 0.014705882352941176 0.014705882352941176 0.014705882352941176 0.014705882352941176 0.014705882352941176 0.014705882352941176 0.014705882352941176 0.014705882352941176 0.014705882352941176 0.014705882352941176 0.014705882352941176 0.014705882352941176 1.0 0.0 0.0 0.0 0.0 0.0 0.0 0.0 0.0 0.0 0.0 0.0 0.0 0.0 0.0 0.0 0.0 0.0 0.0 0.0 0.0 0.0 0.0 0.0 0.0 0.0 0.0 0.0 0.0 0.0 0.0 0.0 0.0 0.0 0.0 0.0 0.0 0.0 0.0 0.0 0.0 0.0 0.0 0.0 0.0 0.0 0.0 0.0 0.0 0.0 0.0 0.0 0.0 0.0 0.0 0.0 0.0 0.0 0.0 0.0 0.0 0.0 0.0 0.0 0.0 0.0 0.0 0.0 0.3623430962343096 0.6376569037656904 0.0 0.0 0.0 0.0 0.0 0.0 0.0 0.0 0.0 0.0 0.0 0.0 0.0 0.0 0.0 0.0 0.0 0.0 0.0 0.0 0.0 0.0 0.0 0.0 0.0 0.0 0.0 0.0 0.0 0.0 0.0 0.0 0.0 0.0 0.0 0.0 0.0 0.0 0.0 0.0 0.0 0.0 0.0 0.0 0.0 0.0 0.0 0.0 0.0 0.0 0.0 0.0 0.0 0.0 0.0 0.0 0.0 0.0 0.0 0.0 0.0 0.0 0.0 0.0 0.0 0.0 0.0 0.28486646884273 0.7151335311572701 0.0 0.0 0.0 0.0 0.0 0.0 0.0 0.0 0.0 0.0 0.0 0.0 0.0 0.0 0.0 0.0 0.0 0.0 0.0 0.0 0.0 0.0 0.0 0.0 0.0 0.0 0.0 0.0 0.0 0.0 0.0 0.0 0.0 0.0 0.0 0.0 0.0 0.0 0.0 0.0 0.0 0.0 0.0 0.0 0.0 0.0 0.0 0.0 0.0 0.0 0.0 0.0 0.0 0.0 0.0 0.0 0.0 0.0 0.0 0.0 0.0 0.0 0.0 0.0 0.0 0.0 0.0 0.016541353383458645 0.9834586466165414 0.0 0.0 0.0 0.0 0.0 0.0 0.0 0.0 0.0 0.0 0.0 0.0 0.0 0.0 0.0 0.0 0.0 0.0 0.0 0.0 0.0 0.0 0.0 0.0 0.0 0.0 0.0 0.0 0.0 0.0 0.0 0.0 0.0 0.0 0.0 0.0 0.0 0.0 0.0 0.0 0.0 0.0 0.0 0.0 0.0 0.0 0.0 0.0 0.0 0.0 0.0 0.0 0.0 0.0 0.0 0.0 0.0 0.0 0.0 0.0 0.0 0.0 0.0 0.0 0.0 0.0 0.0 0.0 0.9272727272727272 0.07272727272727272 0.0 0.0 0.0 0.0 0.0 0.0 0.0 0.0 0.0 0.0 0.0 0.0 0.0 0.0 0.0 0.0 0.0 0.0 0.0 0.0 0.0 0.0 0.0 0.0 0.0 0.0 0.0 0.0 0.0 0.0 0.0 0.0 0.0 0.0 0.0 0.0 0.0 0.0 0.0 0.0 0.0 0.0 0.0 0.0 0.0 0.0 0.0 0.0 0.0 0.0 0.0 0.0 0.0 0.0 0.0 0.0 0.0 0.0 0.0 0.0 0.0 0.0 0.0 0.0 0.0 0.0 0.0 0.6237623762376238 0.37623762376237624 0.0 0.0 0.0 0.0 0.0 0.0 0.0 0.0 0.0 0.0 0.0 0.0 0.0 0.0 0.0 0.0 0.0 0.0 0.0 0.0 0.0 0.0 0.0 0.0 0.0 0.0 0.0 0.0 0.0 0.0 0.0 0.0 0.0 0.0 0.0 0.0 0.0 0.0 0.0 0.0 0.0 0.0 0.0 0.0 0.0 0.0 0.0 0.0 0.0 0.0 0.0 0.0 0.0 0.0 0.0 0.0 0.0 0.0 0.0 0.0 0.0 0.0 0.0 0.0 0.0 0.0 0.0 0.1590909090909091 0.8409090909090909 0.0 0.0 0.0 0.0 0.0 0.0 0.0 0.0 0.0 0.0 0.0 0.0 0.0 0.0 0.0 0.0 0.0 0.0 0.0 0.0 0.0 0.0 0.0 0.0 0.0 0.0 0.0 0.0 0.0 0.0 0.0 0.0 0.0 0.0 0.0 0.0 0.0 0.0 0.0 0.0 0.0 0.0 0.0 0.0 0.0 0.0 0.0 0.0 0.0 0.0 0.0 0.0 0.0 0.0 0.0 0.0 0.0 0.0 0.0 0.0 0.0 0.0 0.0 0.0 0.0 0.0 0.0 0.45454545454545453 0.5454545454545454 0.0 0.0 0.0 0.0 0.0 0.0 0.0 0.0 0.0 0.0 0.0 0.0 0.0 0.0 0.0 0.0 0.0 0.0 0.0 0.0 0.0 0.0 0.0 0.0 0.0 0.0 0.0 0.0 0.0 0.0 0.0 0.0 0.0 0.0 0.0 0.0 0.0 0.0 0.0 0.0 0.0 0.0 0.0 0.0 0.0 0.0 0.0 0.0 0.0 0.0 0.0 0.0 0.0 0.0 0.0 0.0 0.0 0.0 0.0 0.0 0.0 0.0 0.0 0.0 0.0 0.0 0.0 0.391304347826087 0.6086956521739131 0.0 0.0 0.0 0.0 0.0 0.0 0.0 0.0 0.0 0.0 0.0 0.0 0.0 0.0 0.0 0.0 0.0 0.0 0.0 0.0 0.0 0.0 0.0 0.0 0.0 0.0 0.0 0.0 0.0 0.0 0.0 0.0 0.0 0.0 0.0 0.0 0.0 0.0 0.0 0.0 0.0 0.0 0.0 0.0 0.0 0.0 0.0 0.0 0.0 0.0 0.0 0.0 0.0 0.0 0.0 0.0 0.0 0.0 0.0 0.0 0.0 0.0 0.0 0.0 0.0 0.0 0.0 0.0 1.0 0.0 0.0 0.0 0.0 0.0 0.0 0.0 0.0 0.0 0.0 0.0 0.0 0.0 0.0 0.0 0.0 0.0 0.0 0.0 0.0 0.0 0.0 0.0 0.0 0.0 0.0 0.0 0.0 0.0 0.0 0.0 0.0 0.0 0.0 0.0 0.0 0.0 0.0 0.0 0.0 0.0 0.0 0.0 0.0 0.0 0.0 0.0 0.0 0.0 0.0 0.0 0.0 0.0 0.0 0.0 0.0 0.0 0.0 0.0 0.0 0.0 0.0 0.0 0.0 0.0 0.0 0.0 0.0 1.0 0.0 0.0 0.0 0.0 0.0 0.0 0.0 0.0 0.0 0.0 0.0 0.0 0.0 0.0 0.0 0.0 0.0 0.0 0.0 0.0 0.0 0.0 0.0 0.0 0.0 0.0 0.0 0.0 0.0 0.0 0.0 0.0 0.0 0.0 0.0 0.0 0.0 0.0 0.0 0.0 0.0 0.0 0.0 0.0 0.0 0.0 0.0 0.0 0.0 0.0 0.0 0.0 0.0 0.0 0.0 0.0 0.0 0.0 0.0 0.0 0.0 0.0 0.0 0.0 0.0 0.0 0.0 0.0 0.0 1.0 0.0 0.0 0.0 0.0 0.0 0.0 0.0 0.0 0.0 0.0 0.0 0.0 0.0 0.0 0.0 0.0 0.0 0.0 0.0 0.0 0.0 0.0 0.0 0.0 0.0 0.0 0.0 0.0 0.0 0.0 0.0 0.0 0.0 0.0 0.0 0.0 0.0 0.0 0.0 0.0 0.0 0.0 0.0 0.0 0.0 0.0 0.0 0.0 0.0 0.0 0.0 0.0 0.0 0.0 0.0 0.0 0.0 0.0 0.0 0.0 0.0 0.0 0.0 0.0 0.0 0.0 0.0 0.0 0.0 1.0 0.0 0.0 0.0 0.0 0.0 0.0 0.0 0.0 0.0 0.0 0.0 0.0 0.0 0.0 0.0 0.0 0.0 0.0 0.0 0.0 0.0 0.0 0.0 0.0 0.0 0.0 0.0 0.0 0.0 0.0 0.0 0.0 0.0 0.0 0.0 0.0 0.0 0.0 0.0 0.0 0.0 0.0 0.0 0.0 0.0 0.0 0.0 0.0 0.0 0.0 0.0 0.0 0.0 0.0 0.0 0.0 0.0 0.0 0.0 0.0 0.0 0.0 0.0 0.0 0.0 0.0 0.0 0.0 1.0 0.0 0.0 0.0 0.0 0.0 0.0 0.0 0.0 0.0 0.0 0.0 0.0 0.0 0.0 0.0 0.0 0.0 0.0 0.0 0.0 0.0 0.0 0.0 0.0 0.0 0.0 0.0 0.0 0.0 0.0 0.0 0.0 0.0 0.0 0.0 0.0 0.0 0.0 0.0 0.0 0.0 0.0 0.0 0.0 0.0 0.0 0.0 0.0 0.0 0.0 0.0 </TABLE>
    </DEFINITION>
    <DEFINITION>
      <FOR>delta</FOR>
      <GIVEN>device_type</GIVEN>
      <GIVEN>in_time</GIVEN>
      <GIVEN>pixel</GIVEN>
      <TABLE>0.012345679012345678 0.012345679012345678 0.012345679012345678 0.012345679012345678 0.012345679012345678 0.012345679012345678 0.012345679012345678 0.012345679012345678 0.012345679012345678 0.012345679012345678 0.012345679012345678 0.012345679012345678 0.012345679012345678 0.012345679012345678 0.012345679012345678 0.012345679012345678 0.012345679012345678 0.012345679012345678 0.012345679012345678 0.012345679012345678 0.012345679012345678 0.012345679012345678 0.012345679012345678 0.012345679012345678 0.012345679012345678 0.012345679012345678 0.012345679012345678 0.012345679012345678 0.012345679012345678 0.012345679012345678 0.012345679012345678 0.012345679012345678 0.012345679012345678 0.012345679012345678 0.012345679012345678 0.012345679012345678 0.012345679012345678 0.012345679012345678 0.012345679012345678 0.012345679012345678 0.012345679012345678 0.012345679012345678 0.012345679012345678 0.012345679012345678 0.012345679012345678 0.012345679012345678 0.012345679012345678 0.012345679012345678 0.012345679012345678 0.012345679012345678 0.012345679012345678 0.012345679012345678 0.012345679012345678 0.012345679012345678 0.012345679012345678 0.012345679012345678 0.012345679012345678 0.012345679012345678 0.012345679012345678 0.012345679012345678 0.012345679012345678 0.012345679012345678 0.012345679012345678 0.012345679012345678 0.012345679012345678 0.012345679012345678 0.012345679012345678 0.012345679012345678 0.012345679012345678 0.012345679012345678 0.012345679012345678 0.012345679012345678 0.012345679012345678 0.012345679012345678 0.012345679012345678 0.012345679012345678 0.012345679012345678 0.012345679012345678 0.012345679012345678 0.012345679012345678 0.012345679012345678 0.012345679012345678 0.012345679012345678 0.012345679012345678 0.012345679012345678 0.012345679012345678 0.012345679012345678 0.012345679012345678 0.012345679012345678 0.012345679012345678 0.012345679012345678 0.012345679012345678 0.012345679012345678 0.012345679012345678 0.012345679012345678 0.012345679012345678 0.012345679012345678 0.012345679012345678 0.012345679012345678 0.012345679012345678 0.012345679012345678 0.012345679012345678 0.012345679012345678 0.012345679012345678 0.012345679012345678 0.012345679012345678 0.012345679012345678 0.012345679012345678 0.012345679012345678 0.012345679012345678 0.012345679012345678 0.012345679012345678 0.012345679012345678 0.012345679012345678 0.012345679012345678 0.012345679012345678 0.012345679012345678 0.012345679012345678 0.012345679012345678 0.012345679012345678 0.012345679012345678 0.012345679012345678 0.012345679012345678 0.012345679012345678 0.012345679012345678 0.012345679012345678 0.012345679012345678 0.012345679012345678 0.012345679012345678 0.012345679012345678 0.012345679012345678 0.012345679012345678 0.012345679012345678 0.012345679012345678 0.012345679012345678 0.012345679012345678 0.012345679012345678 0.012345679012345678 0.012345679012345678 0.012345679012345678 0.012345679012345678 0.012345679012345678 0.012345679012345678 0.012345679012345678 0.012345679012345678 0.012345679012345678 0.012345679012345678 0.012345679012345678 0.012345679012345678 0.012345679012345678 0.012345679012345678 0.012345679012345678 0.012345679012345678 0.012345679012345678 0.012345679012345678 0.012345679012345678 0.012345679012345678 0.012345679012345678 0.012345679012345678 0.012345679012345678 0.012345679012345678 0.012345679012345678 0.012345679012345678 0.012345679012345678 0.012345679012345678 0.012345679012345678 0.012345679012345678 0.012345679012345678 0.012345679012345678 0.012345679012345678 0.012345679012345678 0.012345679012345678 0.012345679012345678 0.012345679012345678 0.012345679012345678 0.012345679012345678 0.012345679012345678 0.012345679012345678 0.012345679012345678 0.012345679012345678 0.012345679012345678 0.012345679012345678 0.012345679012345678 0.012345679012345678 0.012345679012345678 0.012345679012345678 0.012345679012345678 0.012345679012345678 0.012345679012345678 0.012345679012345678 0.012345679012345678 0.012345679012345678 0.012345679012345678 0.012345679012345678 0.012345679012345678 0.012345679012345678 0.012345679012345678 0.012345679012345678 0.012345679012345678 0.012345679012345678 0.012345679012345678 0.012345679012345678 0.012345679012345678 0.012345679012345678 0.012345679012345678 0.012345679012345678 0.012345679012345678 0.012345679012345678 0.012345679012345678 0.012345679012345678 0.012345679012345678 0.012345679012345678 0.012345679012345678 0.012345679012345678 0.012345679012345678 0.012345679012345678 0.012345679012345678 0.012345679012345678 0.012345679012345678 0.012345679012345678 0.012345679012345678 0.012345679012345678 0.012345679012345678 0.012345679012345678 0.012345679012345678 0.012345679012345678 0.012345679012345678 0.012345679012345678 0.012345679012345678 0.012345679012345678 0.012345679012345678 0.012345679012345678 0.012345679012345678 0.012345679012345678 0.012345679012345678 0.012345679012345678 0.012345679012345678 0.012345679012345678 0.012345679012345678 0.012345679012345678 0.012345679012345678 0.012345679012345678 0.012345679012345678 0.012345679012345678 0.012345679012345678 0.012345679012345678 0.012345679012345678 0.012345679012345678 0.012345679012345678 0.012345679012345678 0.012345679012345678 0.012345679012345678 0.012345679012345678 0.012345679012345678 0.012345679012345678 0.012345679012345678 0.012345679012345678 0.012345679012345678 0.012345679012345678 0.012345679012345678 0.012345679012345678 0.012345679012345678 0.012345679012345678 0.012345679012345678 0.012345679012345678 0.012345679012345678 0.012345679012345678 0.012345679012345678 0.012345679012345678 0.012345679012345678 0.012345679012345678 0.012345679012345678 0.012345679012345678 0.012345679012345678 0.012345679012345678 0.012345679012345678 0.012345679012345678 0.012345679012345678 0.012345679012345678 0.012345679012345678 0.012345679012345678 0.012345679012345678 0.012345679012345678 0.012345679012345678 0.012345679012345678 0.012345679012345678 0.012345679012345678 0.012345679012345678 0.012345679012345678 0.012345679012345678 0.012345679012345678 0.012345679012345678 0.012345679012345678 0.012345679012345678 0.012345679012345678 0.012345679012345678 0.012345679012345678 0.012345679012345678 0.012345679012345678 0.012345679012345678 0.012345679012345678 0.012345679012345678 0.012345679012345678 0.012345679012345678 0.012345679012345678 0.012345679012345678 0.012345679012345678 0.012345679012345678 0.012345679012345678 0.012345679012345678 0.012345679012345678 0.012345679012345678 0.012345679012345678 0.012345679012345678 0.012345679012345678 0.012345679012345678 0.012345679012345678 0.012345679012345678 0.012345679012345678 0.012345679012345678 0.012345679012345678 0.012345679012345678 0.012345679012345678 0.012345679012345678 0.012345679012345678 0.012345679012345678 0.012345679012345678 0.012345679012345678 0.012345679012345678 0.012345679012345678 0.012345679012345678 0.012345679012345678 0.012345679012345678 0.012345679012345678 0.012345679012345678 0.012345679012345678 0.012345679012345678 0.012345679012345678 0.012345679012345678 0.012345679012345678 0.012345679012345678 0.012345679012345678 0.012345679012345678 0.012345679012345678 0.012345679012345678 0.012345679012345678 0.012345679012345678 0.012345679012345678 0.012345679012345678 0.012345679012345678 0.012345679012345678 0.012345679012345678 0.012345679012345678 0.012345679012345678 0.012345679012345678 0.012345679012345678 0.012345679012345678 0.012345679012345678 0.012345679012345678 0.012345679012345678 0.012345679012345678 0.012345679012345678 0.012345679012345678 0.012345679012345678 0.012345679012345678 0.012345679012345678 0.012345679012345678 0.012345679012345678 0.012345679012345678 0.012345679012345678 0.012345679012345678 0.012345679012345678 0.012345679012345678 0.012345679012345678 0.012345679012345678 0.012345679012345678 0.012345679012345678 0.012345679012345678 0.012345679012345678 0.012345679012345678 0.012345679012345678 0.012345679012345678 0.012345679012345678 0.012345679012345678 0.012345679012345678 0.012345679012345678 0.012345679012345678 0.012345679012345678 0.012345679012345678 0.012345679012345678 0.012345679012345678 0.012345679012345678 0.012345679012345678 0.012345679012345678 0.012345679012345678 0.012345679012345678 0.012345679012345678 0.012345679012345678 0.012345679012345678 0.012345679012345678 0.012345679012345678 0.012345679012345678 0.012345679012345678 0.012345679012345678 0.012345679012345678 0.012345679012345678 0.012345679012345678 0.012345679012345678 0.012345679012345678 0.012345679012345678 0.012345679012345678 0.012345679012345678 0.012345679012345678 0.012345679012345678 0.012345679012345678 0.012345679012345678 0.012345679012345678 0.012345679012345678 0.012345679012345678 0.012345679012345678 0.012345679012345678 0.012345679012345678 0.012345679012345678 0.012345679012345678 0.012345679012345678 0.012345679012345678 0.012345679012345678 0.012345679012345678 0.012345679012345678 0.012345679012345678 0.012345679012345678 0.012345679012345678 0.012345679012345678 0.012345679012345678 0.012345679012345678 0.012345679012345678 0.012345679012345678 0.012345679012345678 0.012345679012345678 0.012345679012345678 0.012345679012345678 0.012345679012345678 0.012345679012345678 0.012345679012345678 0.012345679012345678 0.012345679012345678 0.012345679012345678 0.012345679012345678 0.012345679012345678 0.012345679012345678 0.012345679012345678 0.012345679012345678 0.012345679012345678 0.012345679012345678 0.012345679012345678 0.012345679012345678 0.012345679012345678 0.012345679012345678 0.012345679012345678 0.012345679012345678 0.012345679012345678 0.012345679012345678 0.012345679012345678 0.012345679012345678 0.012345679012345678 0.012345679012345678 0.012345679012345678 0.012345679012345678 0.012345679012345678 0.012345679012345678 0.012345679012345678 0.012345679012345678 0.012345679012345678 0.012345679012345678 0.012345679012345678 0.012345679012345678 0.012345679012345678 0.012345679012345678 0.012345679012345678 0.012345679012345678 0.012345679012345678 0.012345679012345678 0.012345679012345678 0.012345679012345678 0.012345679012345678 0.012345679012345678 0.0 0.0 0.0 0.0 0.0 0.0 0.0 0.0 0.0 0.0 0.0 0.0 0.0 0.0 0.0 0.0 0.0 0.0 0.0 0.1643835616438356 0.12054794520547946 0.07397260273972603 0.021917808219178082 0.06575342465753424 0.22465753424657534 0.1780821917808219 0.07671232876712329 0.0410958904109589 0.0273972602739726 0.005479452054794521 0.0 0.0 0.0 0.0 0.0 0.0 0.0 0.0 0.0 0.0 0.0 0.0 0.0 0.0 0.0 0.0 0.0 0.0 0.0 0.0 0.0 0.0 0.0 0.0 0.0 0.0 0.0 0.0 0.0 0.0 0.0 0.0 0.0 0.0 0.0 0.0 0.0 0.0 0.0 0.0 0.0 0.0 0.0 0.0 0.0 0.0 0.0 0.0 0.0 0.0 0.0 0.0 0.0 0.0 0.0 0.0 0.0 0.0 0.0 0.0 0.0 0.0 0.0 0.0 0.0 0.0 0.0 0.0 0.0 0.0 0.0 0.0 0.027659574468085105 0.10425531914893617 0.10638297872340426 0.08297872340425531 0.027659574468085105 0.04893617021276596 0.16808510638297872 0.18723404255319148 0.12978723404255318 0.06808510638297872 0.029787234042553193 0.014893617021276596 0.00425531914893617 0.0 0.0 0.0 0.0 0.0 0.0 0.0 0.0 0.0 0.0 0.0 0.0 0.0 0.0 0.0 0.0 0.0 0.0 0.0 0.0 0.0 0.0 0.0 0.0 0.0 0.0 0.0 0.0 0.0 0.0 0.0 0.0 0.0 0.0 0.0 0.0 0.0 0.0 0.0 0.0 0.0 0.0 0.0 0.0 0.0 0.0 0.0 0.0 0.0 0.0 0.0 0.0 0.0 0.0 0.0 0.0 0.0 0.0 0.0 0.0 0.0 0.0 0.0 0.0 0.0 0.0 0.0 0.0 0.0 0.0 0.0 0.0 0.0 0.0 0.0 0.01555023923444976 0.02751196172248804 0.03349282296650718 0.023923444976076555 0.0215311004784689 0.0645933014354067 0.16507177033492823 0.16507177033492823 0.22129186602870812 0.15430622009569378 0.06578947368421052 0.034688995215311005 0.0035885167464114833 0.0023923444976076554 0.0 0.0 0.0 0.0 0.0 0.0 0.0 0.0 0.0 0.0 0.0 0.0 0.0 0.0 0.0 0.0 0.0 0.0 0.0 0.0 0.0 0.0 0.0 0.0 0.0 0.0 0.0 0.0 0.0 0.0 0.0 0.0 0.0 0.0 0.0 0.0 0.0 0.0 0.0011961722488038277 0.0 0.0 0.0 0.0 0.0 0.0 0.0 0.0 0.0 0.0 0.0 0.0 0.0 0.0 0.0 0.0 0.0 0.0 0.07064220183486239 0.25412844036697246 0.326605504587156 0.12201834862385322 0.0779816513761468 0.1018348623853211 0.03577981651376147 0.008256880733944955 0.0009174311926605505 0.0009174311926605505 0.0009174311926605505 0.0 0.0 0.0 0.0 0.0 0.0 0.0 0.0 0.0 0.0 0.0 0.0 0.0 0.0 0.0 0.0 0.0 0.0 0.0 0.0 0.0 0.0 0.0 0.0 0.0 0.0 0.0 0.0 0.0 0.0 0.0 0.0 0.0 0.0 0.0 0.0 0.0 0.0 0.0 0.0 0.0 0.0 0.0 0.0 0.0 0.0 0.0 0.0 0.0 0.0 0.0 0.0 0.0 0.0 0.0 0.0 0.0 0.0 0.0 0.0 0.0 0.0 0.0 0.0 0.0 0.0 0.0 0.0 0.0 0.0 0.0 0.0 0.0 0.03248730964467005 0.13908629441624365 0.2548223350253807 0.1918781725888325 0.1065989847715736 0.1401015228426396 0.08223350253807106 0.03553299492385787 0.009137055837563452 0.005076142131979695 0.003045685279187817 0.0 0.0 0.0 0.0 0.0 0.0 0.0 0.0 0.0 0.0 0.0 0.0 0.0 0.0 0.0 0.0 0.0 0.0 0.0 0.0 0.0 0.0 0.0 0.0 0.0 0.0 0.0 0.0 0.0 0.0 0.0 0.0 0.0 0.0 0.0 0.0 0.0 0.0 0.0 0.0 0.0 0.0 0.0 0.0 0.0 0.0 0.0 0.0 0.0 0.0 0.0 0.0 0.0 0.0 0.0 0.0 0.0 0.0 0.0 0.0 0.0 0.0 0.0 0.0 0.0 0.0 0.0 0.0 0.0 0.0 0.0 0.0 0.0 0.0 0.0 0.0 0.0 0.030694668820678513 0.06462035541195477 0.1631663974151858 0.172859450726979 0.08239095315024232 0.06785137318255251 0.1147011308562197 0.1518578352180937 0.09369951534733441 0.0420032310177706 0.012924071082390954 0.0016155088852988692 0.0 0.0 0.0 0.0 0.0016155088852988692 0.0 0.0 0.0 0.0 0.0 0.0 0.0 0.0 0.0 0.0 0.0 0.0 0.0 0.0 0.0 0.0 0.0 0.0 0.0 0.0 0.0 0.0 0.0 0.0 0.0 0.0 0.0 0.0 0.0 0.0 0.0 0.0 0.0 0.0 0.0 0.0 0.0 0.0 0.0 0.0 0.0 0.0 0.0 0.0 0.0 0.0 0.0 0.0 0.0 0.0 0.0 0.0 0.0 0.0 0.0 0.0 0.0 0.0 0.0 0.0 0.0 0.0 0.0 0.0 0.0 0.0 0.0 0.0 0.0 0.0 0.0 0.0 0.0 0.0 0.0 0.0 0.0 0.0 0.0 0.0 0.0 0.0 0.0 0.0 0.0 0.0 0.0 0.0 0.0 0.0 0.0 0.0 0.0 0.0 0.0 0.0 0.0 0.0 0.0 0.0 0.0 0.0 0.0 0.0 0.0 0.0 0.0 0.0 0.0 0.0 0.0 0.0 1.0 0.0 0.0 0.0 0.0 0.0 0.0 0.0 0.0 0.0 0.0 0.0 0.0 0.0 0.0 0.0 0.0 0.0 0.0 0.0 0.0 0.0 0.0 0.0 0.4117647058823529 0.23529411764705882 0.058823529411764705 0.058823529411764705 0.11764705882352941 0.0 0.0 0.0 0.0 0.0 0.0 0.0 0.0 0.0 0.0 0.0 0.0 0.0 0.0 0.0 0.0 0.0 0.0 0.0 0.0 0.0 0.0 0.0 0.0 0.0 0.0 0.0 0.0 0.0 0.0 0.0 0.0 0.0 0.0 0.0 0.0 0.0 0.0 0.0 0.0 0.0 0.0 0.0 0.0 0.0 0.0 0.0 0.0 0.0 0.0 0.0 0.0 0.0 0.058823529411764705 0.058823529411764705 0.0 0.0 0.0 0.0 0.0 0.0 0.0 0.0 0.0 0.0 0.0 0.0 0.0 0.0 0.0 0.0 0.0 0.0 0.0 0.0 0.0 0.4787234042553192 0.1595744680851064 0.10638297872340426 0.13829787234042554 0.02127659574468085 0.010638297872340425 0.0 0.010638297872340425 0.031914893617021274 0.0 0.0 0.02127659574468085 0.010638297872340425 0.0 0.0 0.0 0.0 0.0 0.0 0.0 0.0 0.0 0.0 0.0 0.0 0.0 0.0 0.0 0.0 0.0 0.0 0.0 0.0 0.0 0.0 0.0 0.0 0.0 0.0 0.0 0.0 0.0 0.0 0.0 0.0 0.0 0.0 0.0 0.0 0.0 0.0 0.0 0.0 0.0 0.0 0.0 0.0 0.0 0.0 0.0 0.010638297872340425 0.0 0.0 0.0 0.0 0.0 0.0 0.0 0.0 0.0 0.0 0.0 0.0 0.0 0.0 0.0020632737276478678 0.13342503438789546 0.5405777166437414 0.14305364511691884 0.03576341127922971 0.03782668500687758 0.033012379642365884 0.021320495185694635 0.012379642365887207 0.017881705639614855 0.006189821182943604 0.005502063273727648 0.002751031636863824 0.0034387895460797797 0.001375515818431912 0.0020632737276478678 0.000687757909215956 0.000687757909215956 0.0 0.0 0.0 0.0 0.0 0.0 0.0 0.0 0.0 0.0 0.0 0.0 0.0 0.0 0.0 0.0 0.0 0.0 0.0 0.0 0.0 0.0 0.0 0.0 0.0 0.0 0.0 0.0 0.0 0.0 0.0 0.0 0.0 0.0 0.0 0.0 0.0 0.0 0.0 0.0 0.0 0.0 0.0 0.0 0.0 0.0 0.0 0.0 0.0 0.0 0.005563282336578581 0.008344923504867872 0.0006954102920723226 0.0 0.0 0.0 0.002086230876216968 0.002086230876216968 0.002086230876216968 0.0 0.0 0.0 0.0006954102920723226 0.002086230876216968 0.006954102920723227 0.14534075104311545 0.5570236439499304 0.13908205841446453 0.07301808066759388 0.03616133518776078 0.014603616133518776 0.002086230876216968 0.0013908205841446453 0.0006954102920723226 0.0 0.0 0.0 0.0 0.0 0.0 0.0 0.0 0.0 0.0 0.0 0.0 0.0 0.0 0.0 0.0 0.0 0.0 0.0 0.0 0.0 0.0 0.0 0.0 0.0 0.0 0.0 0.0 0.0 0.0 0.0 0.0 0.0 0.0 0.0 0.0 0.0 0.0 0.0 0.0 0.0 0.0 0.0 0.0 0.0 0.0 0.0 0.0 0.0 0.0 0.0 0.0 0.0 0.0 0.0 0.0 0.0 0.0 0.0029390154298310064 0.010286554004408524 0.013960323291697281 0.002204261572373255 0.002204261572373255 0.0036737692872887582 0.0014695077149155032 0.002204261572373255 0.005878030859662013 0.002204261572373255 0.0014695077149155032 0.0014695077149155032 0.00440852314474651 0.0036737692872887582 0.0036737692872887582 0.009551800146950772 0.13152094048493754 0.4680382072005878 0.15429831006612785 0.03820720058780309 0.03379867744305658 0.03379867744305658 0.01689933872152829 0.015429831006612785 0.011021307861866276 0.010286554004408524 0.005878030859662013 0.00440852314474651 0.0036737692872887582 0.0014695077149155032 0.0 0.0 0.0 0.0 0.0 0.0 0.0 0.0 0.0 0.0 0.0 0.0 0.0 0.0 0.0 0.0 0.0 0.0 0.0 0.0 0.0 0.0 0.0 0.0 0.0 0.0 0.0 0.0 0.0 0.0 0.0 0.0 0.0 0.0 0.0 0.0 0.0 0.0 0.0 0.0 0.0 0.0 0.0 0.0 0.0 0.0 0.0 0.0 0.0 0.0 </TABLE>
    </DEFINITION>
    <DEFINITION>
      <FOR>device_type</FOR>
      <GIVEN>gpu</GIVEN>
      <TABLE>0.0 0.0 1.0 0.0 0.0 1.0 0.0 0.0 1.0 0.0 0.0 1.0 0.0 0.0 1.0 0.0 0.0 1.0 0.0 0.0 1.0 0.0 0.0 1.0 0.0 0.0 1.0 0.0 0.0 1.0 0.0 0.0 1.0 0.0 0.0 1.0 0.0 0.0 1.0 0.0 0.0 1.0 0.0 0.0 1.0 0.0 0.0 1.0 0.0 0.0 1.0 0.0 0.0 1.0 0.0 0.0 1.0 0.0 0.0 1.0 0.0 0.0 1.0 0.0 0.0 1.0 0.0 0.0 1.0 0.0 0.0 1.0 0.0 0.0 1.0 0.0 0.0 1.0 0.0 0.0 1.0 0.0 0.0 1.0 0.0 0.0 1.0 0.0 0.9776035834266518 0.022396416573348264 0.0 0.0 1.0 0.0 0.0 1.0 0.0 0.0 1.0 0.0 0.0 1.0 0.0 1.0 0.0 0.0 0.0 1.0 0.0 1.0 0.0 0.0 0.9988558352402745 0.0011441647597254005 0.0 1.0 0.0 </TABLE>
    </DEFINITION>
    <DEFINITION>
      <FOR>fps</FOR>
      <GIVEN>gpu</GIVEN>
      <GIVEN>pixel</GIVEN>
      <TABLE>0.2 0.2 0.2 0.2 0.2 0.0 0.0 0.0 1.0 0.0 0.2 0.2 0.2 0.2 0.2 0.2 0.2 0.2 0.2 0.2 0.0 0.0 1.0 0.0 0.0 1.0 0.0 0.0 0.0 0.0 0.2 0.2 0.2 0.2 0.2 0.0 0.0 1.0 0.0 0.0 1.0 0.0 0.0 0.0 0.0 0.2 0.2 0.2 0.2 0.2 0.0 0.0 1.0 0.0 0.0 0.3076923076923077 0.0 0.0 0.0 0.6923076923076923 0.2 0.2 0.2 0.2 0.2 0.2 0.2 0.2 0.2 0.2 0.25 0.0 0.0 0.0 0.75 0.2 0.2 0.2 0.2 0.2 0.2 0.2 0.2 0.2 0.2 1.0 0.0 0.0 0.0 0.0 0.2 0.2 0.2 0.2 0.2 0.0 0.0 1.0 0.0 0.0 0.2 0.2 0.2 0.2 0.2 0.2 0.2 0.2 0.2 0.2 0.2 0.2 0.2 0.2 0.2 1.0 0.0 0.0 0.0 0.0 0.2 0.2 0.2 0.2 0.2 0.2 0.2 0.2 0.2 0.2 1.0 0.0 0.0 0.0 0.0 0.2 0.2 0.2 0.2 0.2 0.2 0.2 0.2 0.2 0.2 1.0 0.0 0.0 0.0 0.0 0.5454545454545454 0.36363636363636365 0.0 0.09090909090909091 0.0 0.5609756097560976 0.2926829268292683 0.14634146341463414 0.0 0.0 0.4444444444444444 0.14814814814814814 0.14814814814814814 0.1111111111111111 0.14814814814814814 0.7272727272727273 0.18181818181818182 0.09090909090909091 0.0 0.0 0.6071428571428571 0.23214285714285715 0.16071428571428573 0.0 0.0 0.6285714285714286 0.22857142857142856 0.0 0.0 0.14285714285714285 0.7058823529411765 0.2549019607843137 0.0392156862745098 0.0 0.0 0.34146341463414637 0.3170731707317073 0.2926829268292683 0.0 0.04878048780487805 0.6666666666666666 0.14285714285714285 0.14285714285714285 0.0 0.047619047619047616 0.3191489361702128 0.3404255319148936 0.2978723404255319 0.0425531914893617 0.0 0.3076923076923077 0.46153846153846156 0.23076923076923078 0.0 0.0 0.4186046511627907 0.3023255813953488 0.18604651162790697 0.046511627906976744 0.046511627906976744 0.3170731707317073 0.5365853658536586 0.14634146341463414 0.0 0.0 0.15384615384615385 0.38461538461538464 0.46153846153846156 0.0 0.0 0.3125 0.4375 0.25 0.0 0.0 0.47058823529411764 0.23529411764705882 0.23529411764705882 0.058823529411764705 0.0 0.1 0.5666666666666667 0.3333333333333333 0.0 0.0 0.3076923076923077 0.3333333333333333 0.2564102564102564 0.0 0.10256410256410256 0.40384615384615385 0.21153846153846154 0.3076923076923077 0.038461538461538464 0.038461538461538464 0.11538461538461539 0.38461538461538464 0.3076923076923077 0.19230769230769232 0.0 0.3333333333333333 0.5 0.16666666666666666 0.0 0.0 0.5 0.14285714285714285 0.14285714285714285 0.21428571428571427 0.0 0.25 0.16666666666666666 0.3611111111111111 0.2222222222222222 0.0 0.2857142857142857 0.5 0.14285714285714285 0.0 0.07142857142857142 0.23076923076923078 0.46153846153846156 0.2564102564102564 0.05128205128205128 0.0 0.3333333333333333 0.3333333333333333 0.3333333333333333 0.0 0.0 0.4666666666666667 0.3111111111111111 0.2222222222222222 0.0 0.0 0.25301204819277107 0.14457831325301204 0.24096385542168675 0.1686746987951807 0.1927710843373494 0.2077922077922078 0.14285714285714285 0.36363636363636365 0.15584415584415584 0.12987012987012986 0.13559322033898305 0.1016949152542373 0.2033898305084746 0.2033898305084746 0.3559322033898305 0.1510791366906475 0.06474820143884892 0.22302158273381295 0.22302158273381295 0.3381294964028777 0.25882352941176473 0.18235294117647058 0.18823529411764706 0.21764705882352942 0.15294117647058825 0.09183673469387756 0.1836734693877551 0.19387755102040816 0.3469387755102041 0.1836734693877551 0.1111111111111111 0.07207207207207207 0.13213213213213212 0.23123123123123124 0.45345345345345345 0.2196969696969697 0.2878787878787879 0.24242424242424243 0.15656565656565657 0.09343434343434344 0.20603015075376885 0.24120603015075376 0.271356783919598 0.19095477386934673 0.09045226130653267 0.1417910447761194 0.26865671641791045 0.20149253731343283 0.30223880597014924 0.08582089552238806 0.011695906432748537 0.12280701754385964 0.11695906432748537 0.40350877192982454 0.34502923976608185 0.15057915057915058 0.20077220077220076 0.2857142857142857 0.23166023166023167 0.13127413127413126 0.10204081632653061 0.2585034013605442 0.29931972789115646 0.23129251700680273 0.10884353741496598 0.015625 0.0 0.0 0.34375 0.640625 0.09322033898305085 0.15254237288135594 0.1906779661016949 0.3601694915254237 0.2033898305084746 0.08823529411764706 0.3088235294117647 0.36764705882352944 0.029411764705882353 0.20588235294117646 0.0 0.0 0.0 0.30303030303030304 0.696969696969697 0.025974025974025976 0.2857142857142857 0.22077922077922077 0.23376623376623376 0.23376623376623376 0.0 0.12903225806451613 0.3548387096774194 0.3225806451612903 0.1935483870967742 0.0 0.0 0.0 0.5 0.5 0.021739130434782608 0.1956521739130435 0.21739130434782608 0.30434782608695654 0.2608695652173913 0.038461538461538464 0.2692307692307692 0.0 0.3076923076923077 0.38461538461538464 0.0 0.0 0.0 0.47619047619047616 0.5238095238095238 0.0 0.0 0.18181818181818182 0.2727272727272727 0.5454545454545454 0.0 0.0 0.0 0.6666666666666666 0.3333333333333333 0.0 0.0 0.0 0.52 0.48 0.0 0.05714285714285714 0.05714285714285714 0.37142857142857144 0.5142857142857142 0.0 0.0 0.0 1.0 0.0 0.0 0.0 0.0 0.4444444444444444 0.5555555555555556 0.0 0.0 0.0 0.3157894736842105 0.6842105263157895 1.0 0.0 0.0 0.0 0.0 0.9864406779661017 0.0 0.0 0.006779661016949152 0.006779661016949152 0.9478827361563518 0.0 0.0 0.0 0.05211726384364821 0.2 0.2 0.2 0.2 0.2 0.0 0.0 0.0 0.0 1.0 0.0 0.0 0.0 0.0 1.0 0.2 0.2 0.2 0.2 0.2 0.0 0.0 0.0 0.0 1.0 0.0 0.0 0.0 0.0 1.0 0.2 0.2 0.2 0.2 0.2 0.2 0.2 0.2 0.2 0.2 0.0 0.0 0.0 0.0 1.0 0.2 0.2 0.2 0.2 0.2 0.0 0.0 0.0 0.0 1.0 0.0 0.0 0.0 0.0 1.0 0.0 1.0 0.0 0.0 0.0 0.0 1.0 0.0 0.0 0.0 0.0 1.0 0.0 0.0 0.0 0.2 0.2 0.2 0.2 0.2 0.2 0.2 0.2 0.2 0.2 1.0 0.0 0.0 0.0 0.0 0.0 0.0 1.0 0.0 0.0 0.0 0.0 1.0 0.0 0.0 0.0 0.0 1.0 0.0 0.0 0.0 0.0 0.0 1.0 0.0 0.0 0.0 0.0 1.0 0.0 0.003424657534246575 0.0 0.0 0.9965753424657534 0.0 0.0 0.0 0.0 0.0 1.0 0.0 0.0 0.0 0.0 1.0 0.0 0.0 0.0 0.0 1.0 </TABLE>
    </DEFINITION>
    <DEFINITION>
      <FOR>gpu</FOR>
      <TABLE>0.0001145475372279496 0.0010309278350515464 0.0003436426116838488 0.004581901489117984 0.0009163802978235968 0.0003436426116838488 0.0002290950744558992 0.0001145475372279496 0.0002290950744558992 0.000572737686139748 0.010309278350515464 0.019358533791523483 0.015349369988545246 0.013287514318442153 0.01134020618556701 0.011798396334478808 0.01168384879725086 0.010538373424971364 0.012371134020618556 0.025085910652920963 0.04662084765177549 0.10630011454753722 0.07995418098510881 0.058533791523482245 0.02038946162657503 0.011111111111111112 0.007903780068728522 0.008934707903780068 0.004925544100801833 0.10229095074455899 0.0010309278350515464 0.000572737686139748 0.0004581901489117984 0.0010309278350515464 0.1 0.0002290950744558992 0.1 0.10011454753722795 0.1 </TABLE>
    </DEFINITION>
    <DEFINITION>
      <FOR>in_time</FOR>
      <GIVEN>gpu</GIVEN>
      <GIVEN>pixel</GIVEN>
      <TABLE>0.5 0.5 1.0 0.0 0.5 0.5 0.5 0.5 0.0 1.0 0.0 1.0 0.5 0.5 0.0 1.0 0.0 1.0 0.5 0.5 0.0 1.0 0.0 1.0 0.5 0.5 0.5 0.5 0.0 1.0 0.5 0.5 0.5 0.5 0.0 1.0 0.5 0.5 0.0 1.0 0.5 0.5 0.5 0.5 0.5 0.5 0.0 1.0 0.5 0.5 0.5 0.5 0.0 1.0 0.5 0.5 0.5 0.5 0.0 1.0 0.045454545454545456 0.9545454545454546 0.0 1.0 0.0 1.0 0.0 1.0 0.008928571428571428 0.9910714285714286 0.0 1.0 0.0 1.0 0.024390243902439025 0.975609756097561 0.0 1.0 0.0 1.0 0.0 1.0 0.0 1.0 0.0 1.0 0.0 1.0 0.0 1.0 0.0 1.0 0.0 1.0 0.0 1.0 0.0 1.0 0.0 1.0 0.0 1.0 0.0 1.0 0.0 1.0 0.0 1.0 0.0 1.0 0.0 1.0 0.0 1.0 0.0 1.0 0.0 1.0 0.1016949152542373 0.8983050847457628 0.0 1.0 0.011764705882352941 0.9882352941176471 0.04081632653061224 0.9591836734693877 0.0 1.0 0.005050505050505051 0.9949494949494949 0.035175879396984924 0.964824120603015 0.0 1.0 0.011695906432748537 0.9883040935672515 0.05405405405405406 0.9459459459459459 0.0 1.0 0.03125 0.96875 0.09322033898305085 0.9067796610169492 0.0 1.0 0.06060606060606061 0.9393939393939394 0.05194805194805195 0.948051948051948 0.0 1.0 0.0 1.0 0.043478260869565216 0.9565217391304348 0.0 1.0 0.047619047619047616 0.9523809523809523 0.22727272727272727 0.7727272727272727 0.0 1.0 0.0 1.0 0.2571428571428571 0.7428571428571429 0.0 1.0 0.0 1.0 0.21052631578947367 0.7894736842105263 0.0 1.0 0.0 1.0 0.02280130293159609 0.9771986970684039 0.5 0.5 0.0 1.0 0.5714285714285714 0.42857142857142855 0.5 0.5 0.3333333333333333 0.6666666666666666 0.5 0.5 0.5 0.5 0.5 0.5 0.0 1.0 0.5 0.5 0.0 1.0 0.7142857142857143 0.2857142857142857 0.0 1.0 0.0 1.0 0.0 1.0 0.5 0.5 0.5 0.5 0.0 1.0 0.0 1.0 0.0 1.0 0.8694158075601375 0.13058419243986255 0.29553264604810997 0.7044673539518901 0.6151202749140894 0.3848797250859107 1.0 0.0 0.9587628865979382 0.041237113402061855 1.0 0.0 1.0 0.0 </TABLE>
    </DEFINITION>
    <DEFINITION>
      <FOR>pixel</FOR>
      <GIVEN>cpu</GIVEN>
      <TABLE>0.3574380165289256 0.39669421487603307 0.24586776859504134 0.3460388639760837 0.37070254110612855 0.28325859491778776 0.33150308853809196 0.3205216197666438 0.34797529169526425 0.35015290519877673 0.27217125382262997 0.37767584097859325 0.23529411764705882 0.28431372549019607 0.4803921568627451 0.2911392405063291 0.26582278481012656 0.4430379746835443 0.26666666666666666 0.26666666666666666 0.4666666666666667 0.23404255319148937 0.2553191489361702 0.5106382978723404 0.23809523809523808 0.3333333333333333 0.42857142857142855 0.35714285714285715 0.21428571428571427 0.42857142857142855 0.42857142857142855 0.42857142857142855 0.14285714285714285 0.25 0.375 0.375 1.0 0.0 0.0 0.4583333333333333 0.125 0.4166666666666667 0.5625 0.28125 0.15625 0.2631578947368421 0.10526315789473684 0.631578947368421 0.5764705882352941 0.2235294117647059 0.2 0.33663366336633666 0.15841584158415842 0.504950495049505 0.47029702970297027 0.26732673267326734 0.2623762376237624 0.2966101694915254 0.17796610169491525 0.5254237288135594 0.30612244897959184 0.27346938775510204 0.4204081632653061 0.3852813852813853 0.24675324675324675 0.36796536796536794 0.22065727699530516 0.215962441314554 0.5633802816901409 0.34219269102990035 0.292358803986711 0.3654485049833887 0.31521739130434784 0.1956521739130435 0.4891304347826087 0.2987012987012987 0.29684601113172543 0.4044526901669759 0.34375 0.2916666666666667 0.3645833333333333 0.21224489795918366 0.2653061224489796 0.5224489795918368 0.29152542372881357 0.3728813559322034 0.33559322033898303 0.38016528925619836 0.38016528925619836 0.2396694214876033 0.37916666666666665 0.42083333333333334 0.2 0.29714285714285715 0.5257142857142857 0.17714285714285713 0.3116883116883117 0.5844155844155844 0.1038961038961039 0.4 0.5555555555555556 0.044444444444444446 0.3258426966292135 0.651685393258427 0.02247191011235955 0.42857142857142855 0.5238095238095238 0.047619047619047616 0.2 0.7666666666666667 0.03333333333333333 0.7692307692307693 0.15384615384615385 0.07692307692307693 0.18181818181818182 0.6363636363636364 0.18181818181818182 0.3333333333333333 0.5 0.16666666666666666 0.21428571428571427 0.7142857142857143 0.07142857142857142 0.0 0.25 0.75 0.0 0.6 0.4 0.0 1.0 0.0 0.0 0.75 0.25 0.6666666666666666 0.3333333333333333 0.0 0.0 0.75 0.25 0.0 1.0 0.0 0.0 1.0 0.0 0.3333333333333333 0.3333333333333333 0.3333333333333333 0.3333333333333333 0.6666666666666666 0.0 0.3333333333333333 0.6666666666666666 0.0 0.0 0.0 1.0 0.3333333333333333 0.3333333333333333 0.3333333333333333 0.0 0.5 0.5 0.5 0.5 0.0 0.3333333333333333 0.3333333333333333 0.3333333333333333 0.6666666666666666 0.3333333333333333 0.0 0.3333333333333333 0.3333333333333333 0.3333333333333333 0.0 1.0 0.0 0.3333333333333333 0.3333333333333333 0.3333333333333333 0.3333333333333333 0.3333333333333333 0.3333333333333333 0.3333333333333333 0.3333333333333333 0.3333333333333333 0.3333333333333333 0.3333333333333333 0.3333333333333333 0.3333333333333333 0.3333333333333333 0.3333333333333333 0.3333333333333333 0.3333333333333333 0.3333333333333333 0.3333333333333333 0.3333333333333333 0.3333333333333333 1.0 0.0 0.0 </TABLE>
    </DEFINITION>
  </NETWORK>
</BIF>
