<?xml version='1.0' encoding='utf-8'?>
<BIF VERSION="0.3">
  <NETWORK>
    <NAME>UNTITLED</NAME>
    <VARIABLE TYPE="nature">
      <NAME>consumption</NAME>
      <OUTCOME>6</OUTCOME>
      <OUTCOME>7</OUTCOME>
      <OUTCOME>21</OUTCOME>
      <OUTCOME>22</OUTCOME>
      <OUTCOME>23</OUTCOME>
      <OUTCOME>24</OUTCOME>
      <OUTCOME>82</OUTCOME>
      <OUTCOME>83</OUTCOME>
      <OUTCOME>84</OUTCOME>
      <OUTCOME>85</OUTCOME>
      <OUTCOME>86</OUTCOME>
      <OUTCOME>87</OUTCOME>
      <OUTCOME>88</OUTCOME>
      <OUTCOME>89</OUTCOME>
      <OUTCOME>90</OUTCOME>
      <OUTCOME>91</OUTCOME>
      <OUTCOME>92</OUTCOME>
      <OUTCOME>93</OUTCOME>
      <OUTCOME>94</OUTCOME>
      <OUTCOME>95</OUTCOME>
      <OUTCOME>96</OUTCOME>
      <OUTCOME>97</OUTCOME>
      <OUTCOME>98</OUTCOME>
      <OUTCOME>100</OUTCOME>
      <PROPERTY>weight = None</PROPERTY>
    </VARIABLE>
    <VARIABLE TYPE="nature">
      <NAME>cpu</NAME>
      <OUTCOME>0</OUTCOME>
      <OUTCOME>1</OUTCOME>
      <OUTCOME>2</OUTCOME>
      <OUTCOME>3</OUTCOME>
      <OUTCOME>4</OUTCOME>
      <OUTCOME>5</OUTCOME>
      <OUTCOME>6</OUTCOME>
      <OUTCOME>7</OUTCOME>
      <OUTCOME>8</OUTCOME>
      <OUTCOME>9</OUTCOME>
      <OUTCOME>10</OUTCOME>
      <OUTCOME>11</OUTCOME>
      <OUTCOME>12</OUTCOME>
      <OUTCOME>13</OUTCOME>
      <OUTCOME>14</OUTCOME>
      <OUTCOME>15</OUTCOME>
      <OUTCOME>16</OUTCOME>
      <OUTCOME>17</OUTCOME>
      <OUTCOME>18</OUTCOME>
      <OUTCOME>19</OUTCOME>
      <OUTCOME>20</OUTCOME>
      <OUTCOME>21</OUTCOME>
      <OUTCOME>22</OUTCOME>
      <OUTCOME>23</OUTCOME>
      <OUTCOME>24</OUTCOME>
      <OUTCOME>25</OUTCOME>
      <OUTCOME>26</OUTCOME>
      <OUTCOME>27</OUTCOME>
      <OUTCOME>28</OUTCOME>
      <OUTCOME>29</OUTCOME>
      <OUTCOME>30</OUTCOME>
      <OUTCOME>31</OUTCOME>
      <OUTCOME>32</OUTCOME>
      <OUTCOME>33</OUTCOME>
      <OUTCOME>34</OUTCOME>
      <OUTCOME>35</OUTCOME>
      <OUTCOME>36</OUTCOME>
      <OUTCOME>37</OUTCOME>
      <OUTCOME>38</OUTCOME>
      <OUTCOME>39</OUTCOME>
      <OUTCOME>40</OUTCOME>
      <OUTCOME>41</OUTCOME>
      <OUTCOME>42</OUTCOME>
      <OUTCOME>43</OUTCOME>
      <OUTCOME>44</OUTCOME>
      <OUTCOME>45</OUTCOME>
      <OUTCOME>46</OUTCOME>
      <OUTCOME>47</OUTCOME>
      <OUTCOME>48</OUTCOME>
      <OUTCOME>49</OUTCOME>
      <OUTCOME>50</OUTCOME>
      <OUTCOME>51</OUTCOME>
      <OUTCOME>52</OUTCOME>
      <OUTCOME>53</OUTCOME>
      <OUTCOME>54</OUTCOME>
      <OUTCOME>55</OUTCOME>
      <OUTCOME>56</OUTCOME>
      <OUTCOME>57</OUTCOME>
      <OUTCOME>58</OUTCOME>
      <OUTCOME>59</OUTCOME>
      <OUTCOME>60</OUTCOME>
      <OUTCOME>61</OUTCOME>
      <OUTCOME>62</OUTCOME>
      <OUTCOME>63</OUTCOME>
      <OUTCOME>64</OUTCOME>
      <OUTCOME>65</OUTCOME>
      <OUTCOME>66</OUTCOME>
      <OUTCOME>67</OUTCOME>
      <OUTCOME>68</OUTCOME>
      <OUTCOME>69</OUTCOME>
      <OUTCOME>71</OUTCOME>
      <OUTCOME>72</OUTCOME>
      <OUTCOME>77</OUTCOME>
      <PROPERTY>weight = None</PROPERTY>
    </VARIABLE>
    <VARIABLE TYPE="nature">
      <NAME>delta</NAME>
      <OUTCOME>10</OUTCOME>
      <OUTCOME>11</OUTCOME>
      <OUTCOME>12</OUTCOME>
      <OUTCOME>13</OUTCOME>
      <OUTCOME>14</OUTCOME>
      <OUTCOME>15</OUTCOME>
      <OUTCOME>16</OUTCOME>
      <OUTCOME>17</OUTCOME>
      <OUTCOME>18</OUTCOME>
      <OUTCOME>19</OUTCOME>
      <OUTCOME>20</OUTCOME>
      <OUTCOME>21</OUTCOME>
      <OUTCOME>22</OUTCOME>
      <OUTCOME>23</OUTCOME>
      <OUTCOME>24</OUTCOME>
      <OUTCOME>25</OUTCOME>
      <OUTCOME>26</OUTCOME>
      <OUTCOME>27</OUTCOME>
      <OUTCOME>28</OUTCOME>
      <OUTCOME>29</OUTCOME>
      <OUTCOME>30</OUTCOME>
      <OUTCOME>31</OUTCOME>
      <OUTCOME>32</OUTCOME>
      <OUTCOME>33</OUTCOME>
      <OUTCOME>34</OUTCOME>
      <OUTCOME>35</OUTCOME>
      <OUTCOME>36</OUTCOME>
      <OUTCOME>37</OUTCOME>
      <OUTCOME>38</OUTCOME>
      <OUTCOME>39</OUTCOME>
      <OUTCOME>40</OUTCOME>
      <OUTCOME>41</OUTCOME>
      <OUTCOME>42</OUTCOME>
      <OUTCOME>43</OUTCOME>
      <OUTCOME>44</OUTCOME>
      <OUTCOME>45</OUTCOME>
      <OUTCOME>46</OUTCOME>
      <OUTCOME>47</OUTCOME>
      <OUTCOME>48</OUTCOME>
      <OUTCOME>49</OUTCOME>
      <OUTCOME>50</OUTCOME>
      <OUTCOME>51</OUTCOME>
      <OUTCOME>52</OUTCOME>
      <OUTCOME>53</OUTCOME>
      <OUTCOME>54</OUTCOME>
      <OUTCOME>55</OUTCOME>
      <OUTCOME>56</OUTCOME>
      <OUTCOME>57</OUTCOME>
      <OUTCOME>58</OUTCOME>
      <OUTCOME>59</OUTCOME>
      <OUTCOME>60</OUTCOME>
      <OUTCOME>61</OUTCOME>
      <OUTCOME>62</OUTCOME>
      <OUTCOME>63</OUTCOME>
      <OUTCOME>64</OUTCOME>
      <OUTCOME>65</OUTCOME>
      <OUTCOME>66</OUTCOME>
      <OUTCOME>67</OUTCOME>
      <OUTCOME>68</OUTCOME>
      <OUTCOME>69</OUTCOME>
      <OUTCOME>70</OUTCOME>
      <OUTCOME>71</OUTCOME>
      <OUTCOME>72</OUTCOME>
      <OUTCOME>73</OUTCOME>
      <OUTCOME>74</OUTCOME>
      <OUTCOME>75</OUTCOME>
      <OUTCOME>76</OUTCOME>
      <OUTCOME>78</OUTCOME>
      <OUTCOME>79</OUTCOME>
      <OUTCOME>81</OUTCOME>
      <OUTCOME>90</OUTCOME>
      <OUTCOME>261</OUTCOME>
      <OUTCOME>2376</OUTCOME>
      <OUTCOME>8508</OUTCOME>
      <PROPERTY>weight = None</PROPERTY>
    </VARIABLE>
    <VARIABLE TYPE="nature">
      <NAME>device_type</NAME>
      <OUTCOME>Laptop</OUTCOME>
      <OUTCOME>Orin</OUTCOME>
      <OUTCOME>PC</OUTCOME>
      <PROPERTY>weight = None</PROPERTY>
    </VARIABLE>
    <VARIABLE TYPE="nature">
      <NAME>fps</NAME>
      <OUTCOME>15</OUTCOME>
      <OUTCOME>20</OUTCOME>
      <OUTCOME>25</OUTCOME>
      <OUTCOME>30</OUTCOME>
      <OUTCOME>35</OUTCOME>
      <PROPERTY>weight = None</PROPERTY>
    </VARIABLE>
    <VARIABLE TYPE="nature">
      <NAME>in_time</NAME>
      <OUTCOME>False</OUTCOME>
      <OUTCOME>True</OUTCOME>
      <PROPERTY>weight = None</PROPERTY>
    </VARIABLE>
    <VARIABLE TYPE="nature">
      <NAME>pixel</NAME>
      <OUTCOME>480</OUTCOME>
      <OUTCOME>720</OUTCOME>
      <OUTCOME>1080</OUTCOME>
      <PROPERTY>weight = None</PROPERTY>
    </VARIABLE>
    <DEFINITION>
      <FOR>consumption</FOR>
      <TABLE>0.326536846124475 0.006796487208858343 7.636502481863306e-05 0.32859870179457806 0.004581901489117984 7.636502481863306e-05 0.018480336006109203 0.15647193585337915 0.058419243986254296 0.05933562428407789 0.020007636502481864 0.008858342878961435 0.003665521191294387 0.0032073310423825887 0.0013745704467353953 0.0012982054219167621 0.0002290950744558992 0.0004581901489117984 0.00030546009927453225 0.0004581901489117984 0.00015273004963726612 0.00038182512409316535 7.636502481863306e-05 0.00015273004963726612 </TABLE>
    </DEFINITION>
    <DEFINITION>
      <FOR>cpu</FOR>
      <GIVEN>consumption</GIVEN>
      <TABLE>0.0 0.0 0.0 0.0 0.0 0.0 0.0 0.0 0.00023386342376052386 0.0 0.0 0.00023386342376052386 0.0004677268475210477 0.002806361085126286 0.005612722170252572 0.018007483629560336 0.006548175865294668 0.03461178671655753 0.02595884003741815 0.03554724041159962 0.04303086997193639 0.05121608980355472 0.05355472404115996 0.050046772684752105 0.04817586529466791 0.09962581852198316 0.07483629560336763 0.06361085126286249 0.06898971000935454 0.07039289055191768 0.055659494855004675 0.040458372310570624 0.04981290926099158 0.0304022450888681 0.027829747427502338 0.016136576239476147 0.009588400374181478 0.007483629560336763 0.003975678203928906 0.003975678203928906 0.0011693171188026192 0.0 0.0 0.0 0.0 0.0 0.0 0.0 0.0 0.0 0.0 0.0 0.0 0.0 0.0 0.0 0.0 0.0 0.0 0.0 0.0 0.0 0.0 0.0 0.0 0.0 0.0 0.0 0.0 0.0 0.0 0.0 0.0 0.0 0.0 0.0 0.0 0.0 0.0 0.0 0.0 0.0 0.0 0.0 0.0 0.0 0.0 0.0 0.0 0.0 0.0 0.0 0.0 0.0 0.0 0.0 0.0 0.0 0.0 0.0 0.0 0.0 0.0 0.0 0.0 0.0 0.0 0.0 0.0 0.0 0.0 0.0 0.0 0.1348314606741573 0.1348314606741573 0.0898876404494382 0.10112359550561797 0.07865168539325842 0.06741573033707865 0.1348314606741573 0.0449438202247191 0.033707865168539325 0.02247191011235955 0.011235955056179775 0.02247191011235955 0.011235955056179775 0.011235955056179775 0.02247191011235955 0.02247191011235955 0.011235955056179775 0.011235955056179775 0.011235955056179775 0.011235955056179775 0.0 0.0 0.011235955056179775 0.0 0.0 0.0 0.0 0.0 0.0 0.0 0.0 0.0 0.0 0.0 0.0 0.0 0.0 0.0 0.0 0.0 0.0 0.0 0.0 0.0 0.0 0.0 0.0 0.0 0.0 0.0 0.0 0.0 0.0 0.0 0.0 0.0 0.0 0.0 0.0 0.0 0.0 0.0 0.0 0.0 0.0 0.0 0.0 0.0 1.0 0.0 0.0 0.0 0.0 0.0 0.0 0.0 0.0 0.0 0.0 0.0 0.0 0.0 0.0 0.0 0.0 0.0 0.0 0.0 0.0 0.0 0.0 0.0 0.0 0.0 0.0 0.0 0.0 0.0 0.0 0.0 0.0 0.0 0.0 0.0 0.0 0.0 0.0 0.0 0.0 0.0 0.0 0.0 0.0 0.0 0.0 0.0 0.0 0.0 0.0 0.0 0.0 0.0 0.0 0.0 0.0 0.0 0.0 0.0 0.0 0.0 0.0 0.0 0.0 0.0 0.0 0.0 0.0 0.0 0.0 0.0 0.0 0.0 0.0 0.0 0.0 0.0 0.0 0.0 0.0 0.0 0.0 0.0 0.0 0.0009295840111550081 0.007436672089240065 0.031141064373692774 0.11643039739716476 0.11108528933302347 0.16686033000232395 0.19846618638159425 0.15036021380432257 0.10202184522426214 0.05298628863583547 0.031605856379270277 0.014640948175691379 0.01138740413664885 0.004647920055775041 0.0 0.0 0.0 0.0 0.0 0.0 0.0 0.0 0.0 0.0 0.0 0.0 0.0 0.0 0.0 0.0 0.0 0.0 0.0 0.0 0.0 0.0 0.0 0.0 0.0 0.0 0.0 0.0 0.0 0.0 0.0 0.0 0.0 0.0 0.0 0.0 0.0 0.0 0.0 0.0 0.0 0.0 0.0 0.0 0.0 0.0 0.0 0.0 0.0 0.0 0.0 0.0 0.0 0.0 0.0 0.0 0.0 0.0 0.0 0.0 0.0 0.0 0.0 0.0 0.0 0.0 0.0 0.0 0.0 0.0 0.0 0.0 0.15 0.3 0.18333333333333332 0.05 0.08333333333333333 0.06666666666666667 0.03333333333333333 0.016666666666666666 0.05 0.016666666666666666 0.016666666666666666 0.03333333333333333 0.0 0.0 0.0 0.0 0.0 0.0 0.0 0.0 0.0 0.0 0.0 0.0 0.0 0.0 0.0 0.0 0.0 0.0 0.0 0.0 0.0 0.0 0.0 0.0 0.0 0.0 0.0 0.0 0.0 0.0 0.0 0.0 0.0 0.0 0.0 0.0 0.0 0.0 0.0 0.0 0.0 0.0 0.0 0.0 0.0 0.0 0.0 0.0 0.0 0.0 0.0 0.0 0.0 0.0 0.0 0.0 0.0 0.0 0.0 0.0 0.0 0.0 0.0 0.0 0.0 0.0 0.0 0.0 0.0 0.0 0.0 0.0 0.0 1.0 1.0 0.0 0.0 0.0 0.0 0.0 0.0 0.0 0.0 0.0 0.0 0.0 0.0 0.0 0.0 0.0 0.0 0.0 0.0 0.0 0.0 0.0 0.0 0.0 0.0 0.0 0.0 0.0 0.0 0.0 0.0 0.0 0.0 0.0 0.0 0.0 0.0 0.0 0.0 0.0 0.0 0.0 0.0 0.0 0.0 0.0 0.0 0.0 0.0 0.0 0.0 0.0 0.0 0.0 0.0 0.0 0.0 0.0 0.0 0.0 0.0 0.0 0.0 0.0 0.0 0.0 0.0 0.0 0.0 0.0 0.0 0.0 0.0 0.016105417276720352 0.9838945827232797 0.0 0.0 0.0 0.0 0.0 0.0 0.0 0.0 0.0 0.0 0.0 0.0 0.0 0.0 0.0 0.0 0.0 0.0 0.0 0.0 0.0 0.0 0.0 0.0 0.0 0.0 0.0 0.0 0.0 0.0 0.0 0.0 0.0 0.0 0.0 0.0 0.0 0.0 0.0 0.0 0.0 0.0 0.0 0.0 0.0 0.0 0.0 0.0 0.0 0.0 0.0 0.0 0.0 0.0 0.0 0.0 0.0 0.0 0.0 0.0 0.0 0.0 0.0 0.0 0.0 0.0 0.0 0.0 0.0 0.0 0.0 0.0 0.06928104575163399 0.930718954248366 0.0 0.0 0.0 0.0 0.0 0.0 0.0 0.0 0.0 0.0 0.0 0.0 0.0 0.0 0.0 0.0 0.0 0.0 0.0 0.0 0.0 0.0 0.0 0.0 0.0 0.0 0.0 0.0 0.0 0.0 0.0 0.0 0.0 0.0 0.0 0.0 0.0 0.0 0.0 0.0 0.0 0.0 0.0 0.0 0.0 0.0 0.0 0.0 0.0 0.0 0.0 0.0 0.0 0.0 0.0 0.0 0.0 0.0 0.0 0.0 0.0 0.0 0.0 0.0 0.0 0.0 0.0 0.0 0.0 0.0 0.0 0.0 0.021879021879021878 0.9781209781209781 0.0 0.0 0.0 0.0 0.0 0.0 0.0 0.0 0.0 0.0 0.0 0.0 0.0 0.0 0.0 0.0 0.0 0.0 0.0 0.0 0.0 0.0 0.0 0.0 0.0 0.0 0.0 0.0 0.0 0.0 0.0 0.0 0.0 0.0 0.0 0.0 0.0 0.0 0.0 0.0 0.0 0.0 0.0 0.0 0.0 0.0 0.0 0.0 0.0 0.0 0.0 0.0 0.0 0.0 0.0 0.0 0.0 0.0 0.0 0.0 0.0 0.0 0.0 0.0 0.0 0.0 0.0 0.0 0.0 0.0 0.0 0.0 0.0 0.9045801526717557 0.09541984732824428 0.0 0.0 0.0 0.0 0.0 0.0 0.0 0.0 0.0 0.0 0.0 0.0 0.0 0.0 0.0 0.0 0.0 0.0 0.0 0.0 0.0 0.0 0.0 0.0 0.0 0.0 0.0 0.0 0.0 0.0 0.0 0.0 0.0 0.0 0.0 0.0 0.0 0.0 0.0 0.0 0.0 0.0 0.0 0.0 0.0 0.0 0.0 0.0 0.0 0.0 0.0 0.0 0.0 0.0 0.0 0.0 0.0 0.0 0.0 0.0 0.0 0.0 0.0 0.0 0.0 0.0 0.0 0.0 0.0 0.0 0.0 0.0 0.3620689655172414 0.6379310344827587 0.0 0.0 0.0 0.0 0.0 0.0 0.0 0.0 0.0 0.0 0.0 0.0 0.0 0.0 0.0 0.0 0.0 0.0 0.0 0.0 0.0 0.0 0.0 0.0 0.0 0.0 0.0 0.0 0.0 0.0 0.0 0.0 0.0 0.0 0.0 0.0 0.0 0.0 0.0 0.0 0.0 0.0 0.0 0.0 0.0 0.0 0.0 0.0 0.0 0.0 0.0 0.0 0.0 0.0 0.0 0.0 0.0 0.0 0.0 0.0 0.0 0.0 0.0 0.0 0.0 0.0 0.0 0.0 0.0 0.0 0.0 0.0 0.4375 0.5625 0.0 0.0 0.0 0.0 0.0 0.0 0.0 0.0 0.0 0.0 0.0 0.0 0.0 0.0 0.0 0.0 0.0 0.0 0.0 0.0 0.0 0.0 0.0 0.0 0.0 0.0 0.0 0.0 0.0 0.0 0.0 0.0 0.0 0.0 0.0 0.0 0.0 0.0 0.0 0.0 0.0 0.0 0.0 0.0 0.0 0.0 0.0 0.0 0.0 0.0 0.0 0.0 0.0 0.0 0.0 0.0 0.0 0.0 0.0 0.0 0.0 0.0 0.0 0.0 0.0 0.0 0.0 0.0 0.0 0.0 0.0 0.0 0.42857142857142855 0.5714285714285714 0.0 0.0 0.0 0.0 0.0 0.0 0.0 0.0 0.0 0.0 0.0 0.0 0.0 0.0 0.0 0.0 0.0 0.0 0.0 0.0 0.0 0.0 0.0 0.0 0.0 0.0 0.0 0.0 0.0 0.0 0.0 0.0 0.0 0.0 0.0 0.0 0.0 0.0 0.0 0.0 0.0 0.0 0.0 0.0 0.0 0.0 0.0 0.0 0.0 0.0 0.0 0.0 0.0 0.0 0.0 0.0 0.0 0.0 0.0 0.0 0.0 0.0 0.0 0.0 0.0 0.0 0.0 0.0 0.0 0.0 0.0 0.0 0.3888888888888889 0.6111111111111112 0.0 0.0 0.0 0.0 0.0 0.0 0.0 0.0 0.0 0.0 0.0 0.0 0.0 0.0 0.0 0.0 0.0 0.0 0.0 0.0 0.0 0.0 0.0 0.0 0.0 0.0 0.0 0.0 0.0 0.0 0.0 0.0 0.0 0.0 0.0 0.0 0.0 0.0 0.0 0.0 0.0 0.0 0.0 0.0 0.0 0.0 0.0 0.0 0.0 0.0 0.0 0.0 0.0 0.0 0.0 0.0 0.0 0.0 0.0 0.0 0.0 0.0 0.0 0.0 0.0 0.0 0.0 0.0 0.0 0.0 0.0 0.0 0.0 1.0 0.0 0.0 0.0 0.0 0.0 0.0 0.0 0.0 0.0 0.0 0.0 0.0 0.0 0.0 0.0 0.0 0.0 0.0 0.0 0.0 0.0 0.0 0.0 0.0 0.0 0.0 0.0 0.0 0.0 0.0 0.0 0.0 0.0 0.0 0.0 0.0 0.0 0.0 0.0 0.0 0.0 0.0 0.0 0.0 0.0 0.0 0.0 0.0 0.0 0.0 0.0 0.0 0.0 0.0 0.0 0.0 0.0 0.0 0.0 0.0 0.0 0.0 0.0 0.0 0.0 0.0 0.0 0.0 0.0 0.0 0.0 0.0 0.0 1.0 0.0 0.0 0.0 0.0 0.0 0.0 0.0 0.0 0.0 0.0 0.0 0.0 0.0 0.0 0.0 0.0 0.0 0.0 0.0 0.0 0.0 0.0 0.0 0.0 0.0 0.0 0.0 0.0 0.0 0.0 0.0 0.0 0.0 0.0 0.0 0.0 0.0 0.0 0.0 0.0 0.0 0.0 0.0 0.0 0.0 0.0 0.0 0.0 0.0 0.0 0.0 0.0 0.0 0.0 0.0 0.0 0.0 0.0 0.0 0.0 0.0 0.0 0.0 0.0 0.0 0.0 0.0 0.0 0.0 0.0 0.0 0.0 0.0 0.8333333333333334 0.16666666666666666 0.0 0.0 0.0 0.0 0.0 0.0 0.0 0.0 0.0 0.0 0.0 0.0 0.0 0.0 0.0 0.0 0.0 0.0 0.0 0.0 0.0 0.0 0.0 0.0 0.0 0.0 0.0 0.0 0.0 0.0 0.0 0.0 0.0 0.0 0.0 0.0 0.0 0.0 0.0 0.0 0.0 0.0 0.0 0.0 0.0 0.0 0.0 0.0 0.0 0.0 0.0 0.0 0.0 0.0 0.0 0.0 0.0 0.0 0.0 0.0 0.0 0.0 0.0 0.0 0.0 0.0 0.0 0.0 0.0 0.0 0.0 0.0 0.25 0.75 0.0 0.0 0.0 0.0 0.0 0.0 0.0 0.0 0.0 0.0 0.0 0.0 0.0 0.0 0.0 0.0 0.0 0.0 0.0 0.0 0.0 0.0 0.0 0.0 0.0 0.0 0.0 0.0 0.0 0.0 0.0 0.0 0.0 0.0 0.0 0.0 0.0 0.0 0.0 0.0 0.0 0.0 0.0 0.0 0.0 0.0 0.0 0.0 0.0 0.0 0.0 0.0 0.0 0.0 0.0 0.0 0.0 0.0 0.0 0.0 0.0 0.0 0.0 0.0 0.0 0.0 0.0 0.0 0.0 0.0 0.0 0.0 0.5 0.5 0.0 0.0 0.0 0.0 0.0 0.0 0.0 0.0 0.0 0.0 0.0 0.0 0.0 0.0 0.0 0.0 0.0 0.0 0.0 0.0 0.0 0.0 0.0 0.0 0.0 0.0 0.0 0.0 0.0 0.0 0.0 0.0 0.0 0.0 0.0 0.0 0.0 0.0 0.0 0.0 0.0 0.0 0.0 0.0 0.0 0.0 0.0 0.0 0.0 0.0 0.0 0.0 0.0 0.0 0.0 0.0 0.0 0.0 0.0 0.0 0.0 0.0 0.0 0.0 0.0 0.0 0.0 0.0 0.0 0.0 0.0 0.0 0.5 0.5 0.0 0.0 0.0 0.0 0.0 0.0 0.0 0.0 0.0 0.0 0.0 0.0 0.0 0.0 0.0 0.0 0.0 0.0 0.0 0.0 0.0 0.0 0.0 0.0 0.0 0.0 0.0 0.0 0.0 0.0 0.0 0.0 0.0 0.0 0.0 0.0 0.0 0.0 0.0 0.0 0.0 0.0 0.0 0.0 0.0 0.0 0.0 0.0 0.0 0.0 0.0 0.0 0.0 0.0 0.0 0.0 0.0 0.0 0.0 0.0 0.0 0.0 0.0 0.0 0.0 0.0 0.0 0.0 0.0 0.0 0.0 0.0 0.2 0.8 0.0 0.0 0.0 0.0 0.0 0.0 0.0 0.0 0.0 0.0 0.0 0.0 0.0 0.0 0.0 0.0 0.0 0.0 0.0 0.0 0.0 0.0 0.0 0.0 0.0 0.0 0.0 0.0 0.0 0.0 0.0 0.0 0.0 0.0 0.0 0.0 0.0 0.0 0.0 0.0 0.0 0.0 0.0 0.0 0.0 0.0 0.0 0.0 0.0 0.0 0.0 0.0 0.0 0.0 0.0 0.0 0.0 0.0 0.0 0.0 0.0 0.0 0.0 0.0 0.0 0.0 0.0 0.0 0.0 0.0 0.0 0.0 0.0 1.0 0.0 0.0 0.0 0.0 0.0 0.0 0.0 0.0 0.0 0.0 0.0 0.0 0.0 0.0 0.0 0.0 0.0 0.0 0.0 0.0 0.0 0.0 0.0 0.0 0.0 0.0 0.0 0.0 0.0 0.0 0.0 0.0 0.0 0.0 0.0 0.0 0.0 0.0 0.0 0.0 0.0 0.0 0.0 0.0 0.0 0.0 0.0 0.0 0.0 0.0 0.0 0.0 0.0 0.0 0.0 0.0 0.0 0.0 0.0 0.0 0.0 0.0 0.0 0.0 0.0 0.0 0.0 0.0 0.0 0.0 0.0 0.0 0.0 0.0 1.0 0.0 0.0 0.0 0.0 0.0 0.0 0.0 0.0 0.0 0.0 0.0 0.0 0.0 0.0 0.0 0.0 0.0 0.0 0.0 0.0 0.0 0.0 0.0 0.0 0.0 0.0 0.0 0.0 0.0 0.0 0.0 0.0 0.0 0.0 0.0 0.0 0.0 0.0 0.0 0.0 0.0 0.0 0.0 0.0 0.0 0.0 0.0 0.0 0.0 0.0 0.0 0.0 </TABLE>
    </DEFINITION>
    <DEFINITION>
      <FOR>delta</FOR>
      <GIVEN>device_type</GIVEN>
      <GIVEN>fps</GIVEN>
      <GIVEN>pixel</GIVEN>
      <TABLE>0.0 0.0 0.0 0.0 0.0 0.0 0.0 0.0 0.0 0.0 0.0 0.0 0.0 0.0 0.0 0.0 0.0 0.0 0.0 0.0 0.0 0.0 0.0 0.0 0.0 0.0 0.0 0.0 0.0 0.0 0.0 0.0 0.0 0.010309278350515464 0.14432989690721648 0.5257731958762887 0.2646048109965636 0.037800687285223365 0.006872852233676976 0.0 0.006872852233676976 0.0 0.0 0.0 0.0 0.003436426116838488 0.0 0.0 0.0 0.0 0.0 0.0 0.0 0.0 0.0 0.0 0.0 0.0 0.0 0.0 0.0 0.0 0.0 0.0 0.0 0.0 0.0 0.0 0.0 0.0 0.0 0.0 0.0 0.0 0.0 0.0 0.0 0.0 0.0 0.0 0.0 0.0 0.0 0.0 0.0 0.0 0.0 0.0 0.0 0.0 0.0 0.0 0.0 0.0 0.0 0.0 0.0 0.0 0.2646048109965636 0.12714776632302405 0.048109965635738834 0.01718213058419244 0.061855670103092786 0.08247422680412371 0.037800687285223365 0.024054982817869417 0.010309278350515464 0.003436426116838488 0.003436426116838488 0.0 0.003436426116838488 0.003436426116838488 0.003436426116838488 0.0 0.0 0.0 0.003436426116838488 0.003436426116838488 0.003436426116838488 0.003436426116838488 0.0 0.003436426116838488 0.003436426116838488 0.0 0.003436426116838488 0.006872852233676976 0.003436426116838488 0.003436426116838488 0.0 0.006872852233676976 0.003436426116838488 0.003436426116838488 0.006872852233676976 0.006872852233676976 0.006872852233676976 0.010309278350515464 0.13745704467353953 0.07560137457044673 0.003436426116838488 0.0 0.0 0.003436426116838488 0.003436426116838488 0.003436426116838488 0.0 0.0 0.0 0.0 0.0 0.0 0.0 0.0 0.0 0.0 0.0 0.0 0.0 0.0 0.0 0.0 0.0 0.0 0.0 0.0 0.0 0.0 0.0 0.0 0.0 0.0 0.0 0.0 0.0 0.0 0.07560137457044673 0.23024054982817868 0.1718213058419244 0.11683848797250859 0.11683848797250859 0.12371134020618557 0.07216494845360824 0.05154639175257732 0.01718213058419244 0.0 0.010309278350515464 0.0 0.0 0.003436426116838488 0.0 0.0 0.003436426116838488 0.0 0.003436426116838488 0.0 0.0 0.003436426116838488 0.0 0.0 0.0 0.0 0.0 0.0 0.0 0.0 0.0 0.0 0.0 0.0 0.0 0.0 0.0 0.0 0.0 0.0 0.0 0.0 0.0 0.0 0.0 0.0 0.0 0.0 0.0 0.0 0.0 0.0 0.0 0.0 0.0 0.0 0.0 0.0 0.0 0.0 0.0 0.0 0.0 0.0 0.0 0.0 0.0 0.0 0.0 0.0 0.0 0.0 0.0 0.0 0.0 0.0 0.0 0.0 0.0 0.0 0.0 0.0 0.0 0.0 0.0 0.006872852233676976 0.054982817869415807 0.27491408934707906 0.49828178694158076 0.16151202749140894 0.003436426116838488 0.0 0.0 0.0 0.0 0.0 0.0 0.0 0.0 0.0 0.0 0.0 0.0 0.0 0.0 0.0 0.0 0.0 0.0 0.0 0.0 0.0 0.0 0.0 0.0 0.0 0.0 0.0 0.0 0.0 0.0 0.0 0.0 0.0 0.0 0.0 0.0 0.0 0.0 0.0 0.0 0.0 0.0 0.0 0.0 0.0 0.0 0.0 0.0 0.0 0.0 0.0 0.0 0.0 0.0 0.0 0.0 0.0 0.0 0.0 0.0 0.0 0.0 0.0 0.0 0.0 0.0 0.0 0.0 0.0 0.0 0.0 0.0 0.0 0.0 0.0 0.0 0.0 0.0 0.0 0.0 0.0 0.0 0.0 0.0 0.0 0.0 0.006872852233676976 0.006872852233676976 0.1134020618556701 0.43986254295532645 0.2611683848797251 0.12714776632302405 0.037800687285223365 0.003436426116838488 0.003436426116838488 0.0 0.0 0.0 0.0 0.0 0.0 0.0 0.0 0.0 0.0 0.0 0.0 0.0 0.0 0.0 0.0 0.0 0.0 0.0 0.0 0.0 0.0 0.0 0.0 0.0 0.0 0.0 0.0 0.0 0.0 0.0 0.0 0.0 0.0 0.0 0.0 0.0 0.0 0.0 0.0 0.0 0.01718213058419244 0.17525773195876287 0.40893470790378006 0.29896907216494845 0.030927835051546393 0.013745704467353952 0.006872852233676976 0.003436426116838488 0.0 0.003436426116838488 0.0 0.0 0.0 0.003436426116838488 0.006872852233676976 0.013745704467353952 0.006872852233676976 0.003436426116838488 0.006872852233676976 0.0 0.0 0.0 0.0 0.0 0.0 0.0 0.0 0.0 0.0 0.0 0.0 0.0 0.0 0.0 0.0 0.0 0.0 0.0 0.0 0.0 0.0 0.0 0.0 0.0 0.0 0.0 0.0 0.0 0.0 0.0 0.0 0.0 0.0 0.0 0.0 0.0 0.0 0.0 0.0 0.0 0.0 0.0 0.0 0.0 0.0 0.0 0.0 0.0 0.0 0.0 0.0 0.0 0.0 0.0 0.0 0.0 0.0 0.3024054982817869 0.30927835051546393 0.11683848797250859 0.003436426116838488 0.0 0.013745704467353952 0.12371134020618557 0.10652920962199312 0.013745704467353952 0.003436426116838488 0.006872852233676976 0.0 0.0 0.0 0.0 0.0 0.0 0.0 0.0 0.0 0.0 0.0 0.0 0.0 0.0 0.0 0.0 0.0 0.0 0.0 0.0 0.0 0.0 0.0 0.0 0.0 0.0 0.0 0.0 0.0 0.0 0.0 0.0 0.0 0.0 0.0 0.0 0.0 0.0 0.0 0.0 0.0 0.0 0.0 0.0 0.0 0.0 0.0 0.0 0.0 0.0 0.0 0.0 0.0 0.0 0.0 0.0 0.0 0.0 0.0 0.0 0.0 0.0 0.0 0.0 0.0 0.0 0.0 0.0 0.0 0.0 0.0 0.0 0.0 0.0 0.0 0.0 0.0 0.0 0.0 0.0 0.0 0.0 0.0 0.027491408934707903 0.024054982817869417 0.048109965635738834 0.36082474226804123 0.25773195876288657 0.17525773195876287 0.058419243986254296 0.020618556701030927 0.006872852233676976 0.006872852233676976 0.006872852233676976 0.003436426116838488 0.003436426116838488 0.0 0.0 0.0 0.0 0.0 0.0 0.0 0.0 0.0 0.0 0.0 0.0 0.0 0.0 0.0 0.0 0.0 0.0 0.0 0.0 0.0 0.0 0.0 0.0 0.0 0.0 0.0 0.0 0.0 0.0 0.0 0.0 0.0 0.0 0.0 0.0 0.0 0.0 0.003436426116838488 0.12371134020618557 0.41580756013745707 0.35051546391752575 0.07560137457044673 0.020618556701030927 0.003436426116838488 0.006872852233676976 0.0 0.0 0.0 0.0 0.0 0.0 0.0 0.0 0.0 0.0 0.0 0.0 0.0 0.0 0.0 0.0 0.0 0.0 0.0 0.0 0.0 0.0 0.0 0.0 0.0 0.0 0.0 0.0 0.0 0.0 0.0 0.0 0.0 0.0 0.0 0.0 0.0 0.0 0.0 0.0 0.0 0.0 0.0 0.0 0.0 0.0 0.0 0.0 0.0 0.0 0.0 0.0 0.0 0.0 0.0 0.0 0.0 0.0 0.0 0.0 0.0 0.0 0.0 0.0 0.0 0.0 0.0 0.0 0.0 0.0 0.0 0.0 0.0 0.03436426116838488 0.27147766323024053 0.5051546391752577 0.1718213058419244 0.013745704467353952 0.0 0.0 0.0 0.0 0.003436426116838488 0.0 0.0 0.0 0.0 0.0 0.0 0.0 0.0 0.0 0.0 0.0 0.0 0.0 0.0 0.0 0.0 0.0 0.0 0.0 0.0 0.0 0.0 0.0 0.0 0.0 0.0 0.0 0.0 0.0 0.0 0.0 0.0 0.0 0.0 0.0 0.0 0.0 0.0 0.0 0.0 0.0 0.0 0.0 0.0 0.0 0.0 0.0 0.0 0.0 0.0 0.0 0.0 0.0 0.0 0.0 0.0 0.0 0.0 0.0 0.0 0.0 0.0 0.0 0.0 0.0 0.0 0.0 0.003436426116838488 0.010309278350515464 0.020618556701030927 0.07216494845360824 0.1718213058419244 0.058419243986254296 0.013745704467353952 0.003436426116838488 0.0 0.006872852233676976 0.0 0.0 0.010309278350515464 0.01718213058419244 0.0 0.006872852233676976 0.17525773195876287 0.19931271477663232 0.027491408934707903 0.041237113402061855 0.140893470790378 0.01718213058419244 0.0 0.0 0.0 0.0 0.003436426116838488 0.0 0.0 0.0 0.0 0.0 0.0 0.0 0.0 0.0 0.0 0.0 0.0 0.0 0.0 0.0 0.0 0.0 0.0 0.0 0.0 0.0 0.0 0.0 0.0 0.0 0.0 0.0 0.0 0.0 0.0 0.0 0.0 0.0 0.0 0.0 0.0 0.0 0.0 0.16151202749140894 0.5738831615120275 0.18213058419243985 0.061855670103092786 0.010309278350515464 0.003436426116838488 0.003436426116838488 0.0 0.0 0.0 0.0 0.0 0.0 0.0 0.003436426116838488 0.0 0.0 0.0 0.0 0.0 0.0 0.0 0.0 0.0 0.0 0.0 0.0 0.0 0.0 0.0 0.0 0.0 0.0 0.0 0.0 0.0 0.0 0.0 0.0 0.0 0.0 0.0 0.0 0.0 0.0 0.0 0.0 0.0 0.0 0.0 0.0 0.0 0.0 0.0 0.0 0.0 0.0 0.0 0.0 0.0 0.0 0.0 0.0 0.0 0.0 0.0 0.0 0.0 0.0 0.0 0.0 0.0 0.0 0.0 0.0 0.0 0.13402061855670103 0.06529209621993128 0.024054982817869417 0.0 0.0 0.003436426116838488 0.0 0.0 0.0 0.0 0.003436426116838488 0.003436426116838488 0.0 0.006872852233676976 0.0 0.003436426116838488 0.10652920962199312 0.3539518900343643 0.17869415807560138 0.058419243986254296 0.030927835051546393 0.024054982817869417 0.003436426116838488 0.0 0.0 0.0 0.0 0.0 0.0 0.0 0.0 0.0 0.0 0.0 0.0 0.0 0.0 0.0 0.0 0.0 0.0 0.0 0.0 0.0 0.0 0.0 0.0 0.0 0.0 0.0 0.0 0.0 0.0 0.0 0.0 0.0 0.0 0.0 0.0 0.0 0.0 0.0 0.0 0.0 0.0 0.0 0.0 0.0 0.0 0.0 0.0 0.0 0.0 0.0 0.0 0.006872852233676976 0.020618556701030927 0.32646048109965636 0.38144329896907214 0.14432989690721648 0.07216494845360824 0.010309278350515464 0.0 0.010309278350515464 0.010309278350515464 0.003436426116838488 0.003436426116838488 0.010309278350515464 0.0 0.0 0.0 0.0 0.0 0.0 0.0 0.0 0.0 0.0 0.0 0.0 0.0 0.0 0.0 0.0 0.0 0.0 0.0 0.0 0.0 0.0 0.0 0.0 0.0 0.0 0.0 0.0 0.0 0.0 0.0 0.0 0.0 0.0 0.0 0.0 0.0 0.0 0.0 0.0 0.0 0.0 0.0 0.0 0.0 0.0 0.0 0.0 0.0 0.0 0.0 0.0 0.0 0.0 0.0 0.0 0.0 0.003436426116838488 0.21305841924398625 0.44673539518900346 0.24054982817869416 0.07560137457044673 0.010309278350515464 0.006872852233676976 0.0 0.0 0.003436426116838488 0.0 0.0 0.0 0.0 0.0 0.0 0.0 0.0 0.0 0.0 0.0 0.0 0.0 0.0 0.0 0.0 0.0 0.0 0.0 0.0 0.0 0.0 0.0 0.0 0.0 0.0 0.0 0.0 0.0 0.0 0.0 0.0 0.0 0.0 0.0 0.0 0.0 0.0 0.0 0.0 0.0 0.0 0.0 0.0 0.0 0.0 0.0 0.0 0.0 0.0 0.0 0.030927835051546393 0.30927835051546393 0.12027491408934708 0.010309278350515464 0.19931271477663232 0.27147766323024053 0.01718213058419244 0.010309278350515464 0.010309278350515464 0.01718213058419244 0.003436426116838488 0.0 0.0 0.0 0.0 0.0 0.0 0.0 0.0 0.0 0.0 0.0 0.0 0.0 0.0 0.0 0.0 0.0 0.0 0.0 0.0 0.0 0.0 0.0 0.0 0.0 0.0 0.0 0.0 0.0 0.0 0.0 0.0 0.0 0.0 0.0 0.0 0.0 0.0 0.0 0.0 0.0 0.0 0.0 0.0 0.0 0.0 0.0 0.0 0.0 0.0 0.0 0.0 0.0 0.0 0.0 0.0 0.0 0.0 0.0 0.0 0.0 0.0 0.0 0.0 0.0 0.0 0.05154639175257732 0.14432989690721648 0.12027491408934708 0.15463917525773196 0.2027491408934708 0.20962199312714777 0.05154639175257732 0.020618556701030927 0.020618556701030927 0.006872852233676976 0.010309278350515464 0.003436426116838488 0.003436426116838488 0.0 0.0 0.0 0.0 0.0 0.0 0.0 0.0 0.0 0.0 0.0 0.0 0.0 0.0 0.0 0.0 0.0 0.0 0.0 0.0 0.0 0.0 0.0 0.0 0.0 0.0 0.0 0.0 0.0 0.0 0.0 0.0 0.0 0.0 0.0 0.0 0.0 0.0 0.0 0.0 0.0 0.0 0.0 0.0 0.0 0.0 0.0 0.0 0.0 0.0 0.0 0.0 0.0 0.0 0.0 0.0 0.0 0.0 0.0 0.0 0.0 0.0 0.0 0.0 0.0 0.0 0.0 0.0 0.006872852233676976 0.11683848797250859 0.2508591065292096 0.32989690721649484 0.18900343642611683 0.06872852233676977 0.027491408934707903 0.003436426116838488 0.0 0.0 0.0 0.003436426116838488 0.0 0.0 0.0 0.0 0.0 0.0 0.0 0.0 0.0 0.0 0.0 0.0 0.0 0.0 0.0 0.0 0.0 0.0 0.0 0.0 0.0 0.0 0.0 0.0 0.0 0.0 0.0 0.0 0.0 0.0 0.0 0.0 0.0 0.003436426116838488 0.0 0.0 0.0 0.0 0.0 0.0 0.0 0.0 0.0 0.0 0.0 0.0 0.0 0.0 0.0 0.0 0.0 0.0 0.010309278350515464 0.12027491408934708 0.41924398625429554 0.3161512027491409 0.08934707903780069 0.024054982817869417 0.010309278350515464 0.003436426116838488 0.006872852233676976 0.0 0.0 0.0 0.0 0.0 0.0 0.0 0.0 0.0 0.0 0.0 0.0 0.0 0.0 0.0 0.0 0.0 0.0 0.0 0.0 0.0 0.0 0.0 0.0 0.0 0.0 0.0 0.0 0.0 0.0 0.0 0.0 0.0 0.0 0.0 0.0 0.0 0.0 0.0 0.0 0.0 0.0 0.0 0.0 0.0 0.0 0.0 0.0 0.0 0.0 0.0 0.0 0.0 0.0 0.0 0.0 0.0 0.0 0.0 0.0 0.0 0.0 0.0 0.0 0.0 0.0 0.0 0.0 0.003436426116838488 0.037800687285223365 0.2611683848797251 0.3333333333333333 0.23024054982817868 0.07560137457044673 0.05154639175257732 0.006872852233676976 0.0 0.0 0.0 0.0 0.0 0.0 0.0 0.0 0.0 0.0 0.0 0.0 0.0 0.0 0.0 0.0 0.0 0.0 0.0 0.0 0.0 0.0 0.0 0.0 0.0 0.0 0.0 0.0 0.0 0.0 0.0 0.0 0.0 0.0 0.0 0.0 0.0 0.0 0.0 0.0 0.0 0.0 0.0 0.0 0.0 0.0 0.0 0.0 0.0 0.0 0.0 0.0 0.0 0.0 0.0 0.0 0.0 0.0 0.0 0.0 0.0 0.0 0.0 0.0 0.0 0.0 0.0 0.0 0.0 0.0 0.0 0.0 0.0 0.0 0.003436426116838488 0.013745704467353952 0.0 0.024054982817869417 0.09278350515463918 0.18213058419243985 0.30584192439862545 0.18900343642611683 0.12027491408934708 0.041237113402061855 0.020618556701030927 0.003436426116838488 0.003436426116838488 0.0 0.0 0.0 0.0 0.0 0.0 0.0 0.0 0.0 0.0 0.0 0.0 0.0 0.0 0.0 0.0 0.0 0.0 0.0 0.0 0.0 0.0 0.0 0.0 0.0 0.0 0.0 0.0 0.0 0.0 0.0 0.0 0.0 0.0 0.0 0.0 0.0 0.0 0.0 0.0 0.0 0.0 0.0 0.0 0.0 0.0 0.0 0.0 0.0 0.0 0.048109965635738834 0.27147766323024053 0.20618556701030927 0.140893470790378 0.15807560137457044 0.13745704467353953 0.030927835051546393 0.006872852233676976 0.0 0.0 0.0 0.0 0.0 0.0 0.0 0.0 0.0 0.0 0.0 0.0 0.0 0.0 0.0 0.0 0.0 0.0 0.0 0.0 0.0 0.0 0.0 0.0 0.0 0.0 0.0 0.0 0.0 0.0 0.0 0.0 0.0 0.0 0.0 0.0 0.0 0.0 0.0 0.0 0.0 0.0 0.0 0.0 0.0 0.0 0.0 0.0 0.0 0.0 0.0 0.0 0.0 0.0 0.0 0.0 0.0 0.0 0.0 0.0 0.0 0.0 0.0 0.0 0.0 0.0 0.0 0.0 0.0 0.01718213058419244 0.17869415807560138 0.11683848797250859 0.13058419243986255 0.14776632302405499 0.18900343642611683 0.11683848797250859 0.07903780068728522 0.013745704467353952 0.006872852233676976 0.003436426116838488 0.0 0.0 0.0 0.0 0.0 0.0 0.0 0.0 0.0 0.0 0.0 0.0 0.0 0.0 0.0 0.0 0.0 0.0 0.0 0.0 0.0 0.0 0.0 0.0 0.0 0.0 0.0 0.0 0.0 0.0 0.0 0.0 0.0 0.0 0.0 0.0 0.0 0.0 0.0 0.0 0.0 0.0 0.0 0.0 0.0 0.0 0.0 0.0 0.0 0.0 0.0 0.0 0.0 0.0 0.0 0.0 0.0 0.0 0.0 0.0 0.0 0.0 0.0 0.0 0.0 0.0 0.0 0.0 0.0 0.0 0.006872852233676976 0.07903780068728522 0.09278350515463918 0.06872852233676977 0.061855670103092786 0.058419243986254296 0.09278350515463918 0.12371134020618557 0.15463917525773196 0.09965635738831616 0.10309278350515463 0.03436426116838488 0.01718213058419244 0.003436426116838488 0.0 0.003436426116838488 0.0 0.0 0.0 0.0 0.0 0.0 0.0 0.0 0.0 0.0 0.0 0.0 0.0 0.0 0.0 0.0 0.0 0.0 0.0 0.0 0.0 0.0 0.0 0.0 0.0 0.0 0.0 0.0 0.0 0.0 0.0 0.0 0.0 0.0 0.0 0.0 0.0 0.0 0.0 0.0 0.0 0.0 0.0 0.0 0.0 0.0 0.0 0.003436426116838488 0.024054982817869417 0.1134020618556701 0.2027491408934708 0.14432989690721648 0.03436426116838488 0.14776632302405499 0.15807560137457044 0.09621993127147767 0.05154639175257732 0.020618556701030927 0.0 0.003436426116838488 0.0 0.0 0.0 0.0 0.0 0.0 0.0 0.0 0.0 0.0 0.0 0.0 0.0 0.0 0.0 0.0 0.0 0.0 0.0 0.0 0.0 0.0 0.0 0.0 0.0 0.0 0.0 0.0 0.0 0.0 0.0 0.0 0.0 0.0 0.0 0.0 0.0 0.0 0.0 0.0 0.0 0.0 0.0 0.0 0.0 0.0 0.0 0.0 0.0 0.0 0.0 0.0 0.0 0.0 0.0 0.0 0.0 0.0 0.0 0.0 0.0 0.0 0.0 0.0 0.0 0.027491408934707903 0.16151202749140894 0.20962199312714777 0.07903780068728522 0.027491408934707903 0.07903780068728522 0.06529209621993128 0.11683848797250859 0.10996563573883161 0.1134020618556701 0.006872852233676976 0.003436426116838488 0.0 0.0 0.0 0.0 0.0 0.0 0.0 0.0 0.0 0.0 0.0 0.0 0.0 0.0 0.0 0.0 0.0 0.0 0.0 0.0 0.0 0.0 0.0 0.0 0.0 0.0 0.0 0.0 0.0 0.0 0.0 0.0 0.0 0.0 0.0 0.0 0.0 0.0 0.0 0.0 0.0 0.0 0.0 0.0 0.0 0.0 0.0 0.0 0.0 0.0 0.0 0.0 0.0 0.0 0.0 0.0 0.0 0.0 0.0 0.0 0.0 0.0 0.0 0.0 0.0 0.0 0.0 0.0 0.0 0.003436426116838488 0.07903780068728522 0.11683848797250859 0.09621993127147767 0.05154639175257732 0.06872852233676977 0.1134020618556701 0.1134020618556701 0.12714776632302405 0.10309278350515463 0.054982817869415807 0.048109965635738834 0.020618556701030927 0.003436426116838488 0.0 0.0 0.0 0.0 0.0 0.0 0.0 0.0 0.0 0.0 0.0 0.0 0.0 0.0 0.0 0.0 0.0 0.0 0.0 0.0 0.0 0.0 0.0 0.0 0.0 0.0 0.0 0.0 0.0 0.0 0.0 0.0 0.0 0.0 0.0 0.0 0.0 0.0 0.0 0.0 0.0 0.0 0.0 0.0 0.0 0.0 0.0 0.0 0.0 0.0 0.03436426116838488 0.15120274914089346 0.15120274914089346 0.13058419243986255 0.06529209621993128 0.1958762886597938 0.12027491408934708 0.08934707903780069 0.037800687285223365 0.013745704467353952 0.003436426116838488 0.006872852233676976 0.0 0.0 0.0 0.0 0.0 0.0 0.0 0.0 0.0 0.0 0.0 0.0 0.0 0.0 0.0 0.0 0.0 0.0 0.0 0.0 0.0 0.0 0.0 0.0 0.0 0.0 0.0 0.0 0.0 0.0 0.0 0.0 0.0 0.0 0.0 0.0 0.0 0.0 0.0 0.0 0.0 0.0 0.0 0.0 0.0 0.0 0.0 0.0 0.0 0.0 0.0 0.0 0.0 0.0 0.0 0.0 0.0 0.0 0.0 0.0 0.0 0.0 0.0 0.0 0.0 0.003436426116838488 0.1134020618556701 0.18213058419243985 0.13402061855670103 0.07560137457044673 0.061855670103092786 0.09965635738831616 0.10309278350515463 0.12371134020618557 0.0859106529209622 0.013745704467353952 0.003436426116838488 0.0 0.0 0.0 0.0 0.0 0.0 0.0 0.0 0.0 0.0 0.0 0.0 0.0 0.0 0.0 0.0 0.0 0.0 0.0 0.0 0.0 0.0 0.0 0.0 0.0 0.0 0.0 0.0 0.0 0.0 0.0 0.0 0.0 0.0 0.0 0.0 0.0 0.0 0.0 0.0 0.0 0.0 0.0 0.0 0.0 0.0 0.0 0.0 0.0 0.0 0.0 0.0 0.0 0.0 0.0 0.0 0.0 0.0 0.0 0.0 0.0 0.0 0.0 0.0 0.0 0.0 0.0 0.0 0.0 0.0 0.08247422680412371 0.09278350515463918 0.10996563573883161 0.08934707903780069 0.07560137457044673 0.08247422680412371 0.13745704467353953 0.13058419243986255 0.08934707903780069 0.05154639175257732 0.03436426116838488 0.020618556701030927 0.003436426116838488 0.0 0.0 0.0 0.0 0.0 0.0 0.0 0.0 0.0 0.0 0.0 0.0 0.0 0.0 0.0 0.0 0.0 0.0 0.0 0.0 0.0 0.0 0.0 0.0 0.0 0.0 0.0 0.0 0.0 0.0 0.0 0.0 0.0 0.0 0.0 0.0 0.0 0.0 0.0 0.0 0.0 0.0 0.0 0.0 0.03436426116838488 0.49828178694158076 0.37800687285223367 0.048109965635738834 0.010309278350515464 0.020618556701030927 0.006872852233676976 0.003436426116838488 0.0 0.0 0.0 0.0 0.0 0.0 0.0 0.0 0.0 0.0 0.0 0.0 0.0 0.0 0.0 0.0 0.0 0.0 0.0 0.0 0.0 0.0 0.0 0.0 0.0 0.0 0.0 0.0 0.0 0.0 0.0 0.0 0.0 0.0 0.0 0.0 0.0 0.0 0.0 0.0 0.0 0.0 0.0 0.0 0.0 0.0 0.0 0.0 0.0 0.0 0.0 0.0 0.0 0.0 0.0 0.0 0.0 0.0 0.0 0.0 0.0 0.0 0.0 0.0 0.0 0.0 0.01718213058419244 0.0859106529209622 0.46048109965635736 0.3951890034364261 0.030927835051546393 0.006872852233676976 0.0 0.0 0.0 0.0 0.003436426116838488 0.0 0.0 0.0 0.0 0.0 0.0 0.0 0.0 0.0 0.0 0.0 0.0 0.0 0.0 0.0 0.0 0.0 0.0 0.0 0.0 0.0 0.0 0.0 0.0 0.0 0.0 0.0 0.0 0.0 0.0 0.0 0.0 0.0 0.0 0.0 0.0 0.0 0.0 0.0 0.0 0.0 0.0 0.0 0.0 0.0 0.0 0.0 0.0 0.0 0.0 0.0 0.024054982817869417 0.030927835051546393 0.006872852233676976 0.010309278350515464 0.006872852233676976 0.020618556701030927 0.010309278350515464 0.006872852233676976 0.010309278350515464 0.006872852233676976 0.006872852233676976 0.010309278350515464 0.020618556701030927 0.006872852233676976 0.010309278350515464 0.13402061855670103 0.4020618556701031 0.17525773195876287 0.054982817869415807 0.03436426116838488 0.003436426116838488 0.003436426116838488 0.0 0.0 0.0 0.0 0.0 0.0 0.0 0.0 0.0 0.0 0.0 0.0 0.0 0.0 0.0 0.0 0.0 0.0 0.0 0.0 0.0 0.0 0.0 0.0 0.0 0.0 0.0 0.0 0.0 0.0 0.0 0.0 0.0 0.0 0.0 0.0 0.0 0.0 0.0 0.0 0.0 0.0 0.0 0.0 0.0 0.0 0.0 0.0 0.0 0.0 0.003436426116838488 0.0 0.0 0.0 0.0 0.0 0.0 0.0 0.0 0.0 0.0 0.0 0.0 0.0 0.010309278350515464 0.29553264604810997 0.30927835051546393 0.041237113402061855 0.003436426116838488 0.024054982817869417 0.041237113402061855 0.05154639175257732 0.044673539518900345 0.030927835051546393 0.037800687285223365 0.027491408934707903 0.03436426116838488 0.020618556701030927 0.01718213058419244 0.003436426116838488 0.003436426116838488 0.0 0.0 0.003436426116838488 0.0 0.0 0.0 0.0 0.0 0.0 0.0 0.0 0.0 0.0 0.0 0.0 0.0 0.0 0.0 0.0 0.0 0.0 0.0 0.0 0.0 0.0 0.0 0.0 0.0 0.0 0.0 0.0 0.0 0.0 0.0 0.0 0.0 0.0 0.0 0.0 0.0 0.0 0.0 0.0 0.0 0.0 0.0 0.0 0.0 0.0 0.0 0.0 0.0 0.0 0.0 0.0 0.0 0.0 0.0 0.07903780068728522 0.32989690721649484 0.24398625429553264 0.013745704467353952 0.006872852233676976 0.037800687285223365 0.05154639175257732 0.044673539518900345 0.03436426116838488 0.044673539518900345 0.024054982817869417 0.03436426116838488 0.01718213058419244 0.01718213058419244 0.003436426116838488 0.003436426116838488 0.010309278350515464 0.0 0.0 0.0 0.003436426116838488 0.0 0.0 0.0 0.0 0.0 0.0 0.0 0.0 0.0 0.0 0.0 0.0 0.0 0.0 0.0 0.0 0.0 0.0 0.0 0.0 0.0 0.0 0.0 0.0 0.0 0.0 0.0 0.0 0.0 0.0 0.0 0.0 0.0 0.0 0.0 0.0 0.0 0.0 0.0 0.0 0.006872852233676976 0.10652920962199312 0.003436426116838488 0.0 0.0 0.0 0.013745704467353952 0.013745704467353952 0.027491408934707903 0.006872852233676976 0.0 0.003436426116838488 0.003436426116838488 0.013745704467353952 0.013745704467353952 0.1134020618556701 0.3127147766323024 0.09278350515463918 0.006872852233676976 0.020618556701030927 0.013745704467353952 0.037800687285223365 0.037800687285223365 0.030927835051546393 0.024054982817869417 0.041237113402061855 0.020618556701030927 0.006872852233676976 0.010309278350515464 0.0 0.003436426116838488 0.003436426116838488 0.006872852233676976 0.003436426116838488 0.0 0.0 0.0 0.0 0.0 0.0 0.0 0.0 0.0 0.0 0.0 0.0 0.0 0.0 0.0 0.0 0.0 0.0 0.0 0.0 0.0 0.0 0.0 0.0 0.0 0.0 0.0 0.0 0.0 0.0 0.0 0.0 0.0 0.0 0.0 0.0 0.0 0.0 0.0 0.0 0.0 0.0 0.0 0.0 0.0 0.0 0.0 0.0 0.0 0.0 0.0 0.0 0.027491408934707903 0.422680412371134 0.2646048109965636 0.030927835051546393 0.01718213058419244 0.020618556701030927 0.044673539518900345 0.058419243986254296 0.041237113402061855 0.01718213058419244 0.010309278350515464 0.020618556701030927 0.003436426116838488 0.006872852233676976 0.010309278350515464 0.003436426116838488 0.0 0.0 0.0 0.0 0.0 0.0 0.0 0.0 0.0 0.0 0.0 0.0 0.0 0.0 0.0 0.0 0.0 0.0 0.0 0.0 0.0 0.0 0.0 0.0 0.0 0.0 0.0 0.0 0.0 0.0 0.0 0.0 0.0 0.0 0.0 0.0 0.0 0.0 0.0 0.0 0.0 0.0 0.0 0.0 0.0 0.0 0.0 0.0 0.0 0.0 0.0 0.0 0.0 0.0 0.0 0.0 0.0 0.0 0.0 0.054982817869415807 0.41924398625429554 0.2611683848797251 0.01718213058419244 0.013745704467353952 0.037800687285223365 0.058419243986254296 0.041237113402061855 0.020618556701030927 0.01718213058419244 0.01718213058419244 0.013745704467353952 0.006872852233676976 0.006872852233676976 0.0 0.010309278350515464 0.0 0.0 0.0 0.0 0.0 0.0 0.0 0.0 0.0 0.0 0.0 0.0 0.0 0.0 0.0 0.0 0.0 0.0 0.0 0.0 0.0 0.0 0.0 0.0 0.0 0.0 0.0 0.0 0.0 0.0 0.0 0.0 0.0 0.0 0.0 0.0 0.0 0.0 0.0 0.0 0.0 0.003436426116838488 0.0 0.0 0.0 0.0 0.0 0.0 0.0 0.0 0.0 0.0 0.0 0.0 0.0 0.0 0.0 0.0 0.0 0.003436426116838488 0.27835051546391754 0.436426116838488 0.09621993127147767 0.048109965635738834 0.030927835051546393 0.037800687285223365 0.03436426116838488 0.006872852233676976 0.01718213058419244 0.0 0.003436426116838488 0.0 0.006872852233676976 0.0 0.0 0.0 0.0 0.0 0.0 0.0 0.0 0.0 0.0 0.0 0.0 0.0 0.0 0.0 0.0 0.0 0.0 0.0 0.0 0.0 0.0 0.0 0.0 0.0 0.0 0.0 0.0 0.0 0.0 0.0 0.0 0.0 0.0 0.0 0.0 0.0 0.0 0.0 0.0 0.0 0.0 0.0 0.0 0.0 0.0 0.0 0.0 0.0 0.0 0.0 0.0 0.0 0.0 0.0 0.0 0.0 0.0 0.041237113402061855 0.33676975945017185 0.3024054982817869 0.037800687285223365 0.020618556701030927 0.037800687285223365 0.07903780068728522 0.041237113402061855 0.044673539518900345 0.01718213058419244 0.01718213058419244 0.003436426116838488 0.010309278350515464 0.006872852233676976 0.003436426116838488 0.0 0.0 0.0 0.0 0.0 0.0 0.0 0.0 0.0 0.0 0.0 0.0 0.0 0.0 0.0 0.0 0.0 0.0 0.0 0.0 0.0 0.0 0.0 0.0 0.0 0.0 0.0 0.0 0.0 0.0 0.0 0.0 0.0 0.0 0.0 0.0 0.0 0.0 0.0 0.0 0.0 0.0 0.0 0.0 0.0 0.0 0.0 0.0 0.0 0.0 0.0 0.0 0.0 0.0 0.0 0.0 0.0 0.0 0.0 0.024054982817869417 0.12371134020618557 0.436426116838488 0.15463917525773196 0.03436426116838488 0.06529209621993128 0.06872852233676977 0.037800687285223365 0.030927835051546393 0.010309278350515464 0.0 0.006872852233676976 0.0 0.0 0.0 0.0 0.0 0.0 0.0 0.0 0.0 0.0 0.0 0.0 0.0 0.0 0.0 0.0 0.0 0.0 0.0 0.0 0.0 0.0 0.0 0.0 0.0 0.0 0.0 0.0 0.0 0.0 0.0 0.0 0.0 0.0 0.0 0.0 0.0 0.0 0.0 0.0 0.0 0.0 0.003436426116838488 0.0 0.0 0.0 0.0 0.003436426116838488 0.0 0.0 0.0 0.0 0.0 0.0 0.0 0.0 0.0 0.0 0.0 0.0 0.0 0.0 0.0 0.0 0.003436426116838488 0.21305841924398625 0.4329896907216495 0.07903780068728522 0.03436426116838488 0.020618556701030927 0.020618556701030927 0.030927835051546393 0.06872852233676977 0.024054982817869417 0.030927835051546393 0.010309278350515464 0.006872852233676976 0.006872852233676976 0.010309278350515464 0.003436426116838488 0.0 0.0 0.0 0.003436426116838488 0.0 0.0 0.0 0.0 0.0 0.0 0.0 0.0 0.0 0.0 0.0 0.0 0.0 0.0 0.0 0.0 0.0 0.0 0.0 0.0 0.0 0.0 0.0 0.0 0.0 0.0 0.0 0.0 0.0 0.0 0.0 0.0 0.0 0.0 0.0 0.0 0.0 0.0 0.0 0.0 0.0 0.0 0.0 0.0 0.0 0.0 0.0 0.0 0.0 0.0 0.0 0.054982817869415807 0.281786941580756 0.2646048109965636 0.08934707903780069 0.048109965635738834 0.058419243986254296 0.03436426116838488 0.054982817869415807 0.020618556701030927 0.024054982817869417 0.013745704467353952 0.003436426116838488 0.01718213058419244 0.010309278350515464 0.010309278350515464 0.0 0.003436426116838488 0.006872852233676976 0.0 0.003436426116838488 0.0 0.0 0.0 0.0 0.0 0.0 0.0 0.0 0.0 0.0 0.0 0.0 0.0 0.0 0.0 0.0 0.0 0.0 0.0 0.0 0.0 0.0 0.0 0.0 0.0 0.0 0.0 0.0 0.0 0.0 0.0 0.0 0.0 0.0 0.0 0.0 0.0 0.0 0.0 0.0 0.0 0.0 0.0 0.0 0.0 0.0 0.0 0.0 0.0 0.0 0.0 0.0 0.0 0.0 0.0 0.020618556701030927 0.20618556701030927 0.3161512027491409 0.12714776632302405 0.07216494845360824 0.030927835051546393 0.054982817869415807 0.037800687285223365 0.020618556701030927 0.020618556701030927 0.027491408934707903 0.006872852233676976 0.006872852233676976 0.01718213058419244 0.006872852233676976 0.006872852233676976 0.003436426116838488 0.006872852233676976 0.0 0.003436426116838488 0.0 0.0 0.003436426116838488 0.0 0.003436426116838488 0.0 0.0 0.0 0.0 0.0 0.0 0.0 0.0 0.0 0.0 0.0 0.0 0.0 0.0 0.0 0.0 0.0 0.0 0.0 0.0 0.0 0.0 0.0 0.0 0.0 0.0 0.0 0.0 0.0 0.0 0.0 0.0 0.0 0.0 0.0 0.0 0.0 0.0 0.0 0.0 0.0 0.0 0.0 0.0 0.0 0.0 0.0 0.0 0.0 0.0 0.010309278350515464 0.1718213058419244 0.3436426116838488 0.15120274914089346 0.07216494845360824 0.037800687285223365 0.03436426116838488 0.044673539518900345 0.037800687285223365 0.020618556701030927 0.013745704467353952 0.01718213058419244 0.013745704467353952 0.01718213058419244 0.006872852233676976 0.003436426116838488 0.0 0.0 0.0 0.003436426116838488 0.0 0.0 0.0 0.0 0.0 0.0 0.0 0.0 0.0 0.0 0.0 0.0 0.0 0.0 0.0 0.0 0.0 0.0 0.0 0.0 0.0 0.0 0.0 0.0 0.0 0.0 0.0 0.0 0.0 0.0 0.0 0.0 0.0 0.0 0.0 0.0 0.0 0.0 0.0 0.0 0.0 </TABLE>
    </DEFINITION>
    <DEFINITION>
      <FOR>device_type</FOR>
      <GIVEN>consumption</GIVEN>
      <TABLE>0.0 1.0 0.0 0.0 1.0 0.0 1.0 0.0 0.0 1.0 0.0 0.0 1.0 0.0 0.0 1.0 0.0 0.0 0.0 0.0 1.0 0.0 0.0 1.0 0.0 0.0 1.0 0.0 0.0 1.0 0.0 0.0 1.0 0.0 0.0 1.0 0.0 0.0 1.0 0.0 0.0 1.0 0.0 0.0 1.0 0.0 0.0 1.0 0.0 0.0 1.0 0.0 0.0 1.0 0.0 0.0 1.0 0.0 0.0 1.0 0.0 0.0 1.0 0.0 0.0 1.0 0.0 0.0 1.0 0.0 0.0 1.0 </TABLE>
    </DEFINITION>
    <DEFINITION>
      <FOR>fps</FOR>
      <GIVEN>cpu</GIVEN>
      <GIVEN>pixel</GIVEN>
      <TABLE>0.26506024096385544 0.0963855421686747 0.18072289156626506 0.20481927710843373 0.25301204819277107 0.17647058823529413 0.12745098039215685 0.0784313725490196 0.24509803921568626 0.37254901960784315 0.16666666666666666 0.24444444444444444 0.16666666666666666 0.18888888888888888 0.23333333333333334 0.21712158808933002 0.19851116625310175 0.19602977667493796 0.1687344913151365 0.2196029776674938 0.23660130718954248 0.2065359477124183 0.1869281045751634 0.2065359477124183 0.16339869281045752 0.11044176706827309 0.21285140562248997 0.2751004016064257 0.1927710843373494 0.20883534136546184 0.2558139534883721 0.32170542635658916 0.13953488372093023 0.1511627906976744 0.13178294573643412 0.3004484304932735 0.3542600896860987 0.14798206278026907 0.08520179372197309 0.11210762331838565 0.20161290322580644 0.3185483870967742 0.18951612903225806 0.12903225806451613 0.16129032258064516 0.09009009009009009 0.12612612612612611 0.2972972972972973 0.3153153153153153 0.17117117117117117 0.0811965811965812 0.13247863247863248 0.2863247863247863 0.21794871794871795 0.28205128205128205 0.09210526315789473 0.125 0.22039473684210525 0.34539473684210525 0.21710526315789475 0.07407407407407407 0.07407407407407407 0.25925925925925924 0.3148148148148148 0.2777777777777778 0.014084507042253521 0.04225352112676056 0.29577464788732394 0.3380281690140845 0.30985915492957744 0.16964285714285715 0.05357142857142857 0.16071428571428573 0.2767857142857143 0.3392857142857143 0.2727272727272727 0.2727272727272727 0.0 0.45454545454545453 0.0 0.23076923076923078 0.15384615384615385 0.15384615384615385 0.23076923076923078 0.23076923076923078 0.46511627906976744 0.23255813953488372 0.023255813953488372 0.06976744186046512 0.20930232558139536 0.07692307692307693 0.15384615384615385 0.15384615384615385 0.38461538461538464 0.23076923076923078 0.03333333333333333 0.13333333333333333 0.3333333333333333 0.2 0.3 0.5192307692307693 0.15384615384615385 0.057692307692307696 0.1346153846153846 0.1346153846153846 0.0 0.5 0.0 0.5 0.0 0.125 0.0 0.375 0.375 0.125 0.7142857142857143 0.2571428571428571 0.0 0.0 0.02857142857142857 0.25 0.25 0.0 0.0 0.5 0.0 0.0 0.5 0.5 0.0 0.6538461538461539 0.2692307692307692 0.038461538461538464 0.0 0.038461538461538464 0.2 0.2 0.2 0.2 0.2 0.0 0.0 0.0 1.0 0.0 0.5 0.3 0.0 0.0 0.2 0.0 0.0 0.0 1.0 0.0 0.0 0.25 0.5 0.0 0.25 0.75 0.16666666666666666 0.0 0.0 0.08333333333333333 0.2 0.2 0.2 0.2 0.2 0.2 0.2 0.2 0.2 0.2 1.0 0.0 0.0 0.0 0.0 1.0 0.0 0.0 0.0 0.0 0.5 0.0 0.0 0.0 0.5 1.0 0.0 0.0 0.0 0.0 1.0 0.0 0.0 0.0 0.0 1.0 0.0 0.0 0.0 0.0 1.0 0.0 0.0 0.0 0.0 0.875 0.125 0.0 0.0 0.0 0.6666666666666666 0.0 0.3333333333333333 0.0 0.0 0.9090909090909091 0.0 0.0 0.0 0.09090909090909091 0.972972972972973 0.0 0.0 0.0 0.02702702702702703 1.0 0.0 0.0 0.0 0.0 0.8529411764705882 0.08823529411764706 0.029411764705882353 0.0 0.029411764705882353 0.75 0.25 0.0 0.0 0.0 1.0 0.0 0.0 0.0 0.0 0.6666666666666666 0.0 0.0 0.3333333333333333 0.0 0.8529411764705882 0.08823529411764706 0.04411764705882353 0.014705882352941176 0.0 0.9642857142857143 0.03571428571428571 0.0 0.0 0.0 0.8392857142857143 0.16071428571428573 0.0 0.0 0.0 0.7903225806451613 0.14516129032258066 0.06451612903225806 0.0 0.0 1.0 0.0 0.0 0.0 0.0 0.47368421052631576 0.2631578947368421 0.21052631578947367 0.05263157894736842 0.0 0.6140350877192983 0.3333333333333333 0.05263157894736842 0.0 0.0 1.0 0.0 0.0 0.0 0.0 0.8666666666666667 0.08 0.013333333333333334 0.02666666666666667 0.013333333333333334 0.7321428571428571 0.125 0.10714285714285714 0.017857142857142856 0.017857142857142856 0.9230769230769231 0.03076923076923077 0.0 0.03076923076923077 0.015384615384615385 0.47692307692307695 0.27692307692307694 0.07692307692307693 0.09230769230769231 0.07692307692307693 0.08571428571428572 0.6285714285714286 0.18571428571428572 0.05714285714285714 0.04285714285714286 0.6097560975609756 0.36585365853658536 0.024390243902439025 0.0 0.0 0.5092592592592593 0.09259259259259259 0.09259259259259259 0.16666666666666666 0.1388888888888889 0.25 0.5 0.19642857142857142 0.0 0.05357142857142857 0.7538461538461538 0.18461538461538463 0.046153846153846156 0.0 0.015384615384615385 0.2777777777777778 0.4166666666666667 0.10185185185185185 0.1388888888888889 0.06481481481481481 0.07894736842105263 0.6447368421052632 0.15789473684210525 0.06578947368421052 0.05263157894736842 0.19298245614035087 0.6140350877192983 0.08771929824561403 0.08771929824561403 0.017543859649122806 0.08641975308641975 0.16049382716049382 0.2839506172839506 0.24691358024691357 0.2222222222222222 0.057971014492753624 0.36231884057971014 0.37681159420289856 0.14492753623188406 0.057971014492753624 0.2631578947368421 0.49122807017543857 0.14035087719298245 0.05263157894736842 0.05263157894736842 0.0375 0.35 0.15 0.2125 0.25 0.0 0.2748091603053435 0.366412213740458 0.15267175572519084 0.20610687022900764 0.045871559633027525 0.48623853211009177 0.1559633027522936 0.14678899082568808 0.1651376146788991 0.005376344086021506 0.3118279569892473 0.1989247311827957 0.25268817204301075 0.23118279569892472 0.0 0.25 0.25 0.23 0.27 0.07142857142857142 0.3877551020408163 0.20408163265306123 0.21428571428571427 0.12244897959183673 0.03278688524590164 0.1721311475409836 0.22131147540983606 0.30327868852459017 0.27049180327868855 0.0 0.14666666666666667 0.4666666666666667 0.28 0.10666666666666667 0.045454545454545456 0.3977272727272727 0.38636363636363635 0.11363636363636363 0.056818181818181816 0.0 0.23853211009174313 0.21100917431192662 0.22935779816513763 0.3211009174311927 0.0 0.1134020618556701 0.18556701030927836 0.3711340206185567 0.32989690721649484 0.011235955056179775 0.38202247191011235 0.23595505617977527 0.16853932584269662 0.20224719101123595 0.0 0.2018348623853211 0.26605504587155965 0.2018348623853211 0.3302752293577982 0.0 0.027777777777777776 0.3055555555555556 0.2777777777777778 0.3888888888888889 0.0 0.07766990291262135 0.4077669902912621 0.2621359223300971 0.2524271844660194 0.011111111111111112 0.08888888888888889 0.3 0.28888888888888886 0.3111111111111111 0.0 0.02127659574468085 0.2127659574468085 0.425531914893617 0.3404255319148936 0.0 0.17045454545454544 0.3068181818181818 0.32954545454545453 0.19318181818181818 0.0 0.17857142857142858 0.25 0.23214285714285715 0.3392857142857143 0.0 0.024390243902439025 0.2682926829268293 0.3170731707317073 0.3902439024390244 0.0 0.03260869565217391 0.31521739130434784 0.31521739130434784 0.33695652173913043 0.05 0.025 0.325 0.325 0.275 0.0 0.016129032258064516 0.1774193548387097 0.43548387096774194 0.3709677419354839 0.0 0.01652892561983471 0.2396694214876033 0.33884297520661155 0.4049586776859504 0.0 0.06666666666666667 0.3 0.4 0.23333333333333334 0.0 0.0 0.09523809523809523 0.4523809523809524 0.4523809523809524 0.0 0.013333333333333334 0.24 0.26666666666666666 0.48 0.0 0.15384615384615385 0.3076923076923077 0.23076923076923078 0.3076923076923077 0.0 0.0 0.05128205128205128 0.358974358974359 0.5897435897435898 0.0273972602739726 0.0 0.2328767123287671 0.3972602739726027 0.3424657534246575 0.0 0.0 0.0 0.42857142857142855 0.5714285714285714 0.0 0.0 0.1111111111111111 0.5 0.3888888888888889 0.043478260869565216 0.043478260869565216 0.10869565217391304 0.391304347826087 0.41304347826086957 0.16666666666666666 0.16666666666666666 0.3333333333333333 0.3333333333333333 0.0 0.0 0.125 0.125 0.125 0.625 0.14814814814814814 0.0 0.037037037037037035 0.37037037037037035 0.4444444444444444 0.0 0.0 0.6666666666666666 0.16666666666666666 0.16666666666666666 0.0 0.14285714285714285 0.0 0.5 0.35714285714285715 0.125 0.0 0.125 0.4375 0.3125 0.0 0.0 0.5 0.5 0.0 0.0 0.0 0.0 0.0 1.0 0.18181818181818182 0.2727272727272727 0.18181818181818182 0.2727272727272727 0.09090909090909091 0.0 0.0 0.5 0.5 0.0 0.0 0.125 0.0 0.5 0.375 0.0 0.25 0.0 0.5 0.25 0.2 0.4 0.4 0.0 0.0 0.0 0.0 0.3333333333333333 0.3333333333333333 0.3333333333333333 0.3333333333333333 0.16666666666666666 0.3333333333333333 0.0 0.16666666666666666 0.0 0.0 0.875 0.125 0.0 0.2 0.2 0.2 0.2 0.2 0.0 0.25 0.25 0.25 0.25 0.0 0.0 1.0 0.0 0.0 0.0 0.5 0.0 0.0 0.5 0.0 0.0 0.5 0.5 0.0 0.0 0.25 0.75 0.0 0.0 0.2 0.2 0.2 0.2 0.2 0.0 0.0 0.5 0.0 0.5 0.14285714285714285 0.0 0.8571428571428571 0.0 0.0 0.0 0.3333333333333333 0.0 0.6666666666666666 0.0 0.0 0.0 1.0 0.0 0.0 0.0 0.0 0.6666666666666666 0.3333333333333333 0.0 0.2 0.2 0.2 0.2 0.2 0.0 0.0 0.0 0.0 1.0 0.0 0.0 0.75 0.0 0.25 0.0 0.5 0.0 0.5 0.0 0.0 0.0 0.2857142857142857 0.14285714285714285 0.5714285714285714 0.0 0.0 0.3333333333333333 0.3333333333333333 0.3333333333333333 0.0 0.0 1.0 0.0 0.0 0.6666666666666666 0.0 0.3333333333333333 0.0 0.0 0.5 0.25 0.25 0.0 0.0 0.9230769230769231 0.0 0.0 0.07692307692307693 0.0 0.8571428571428571 0.14285714285714285 0.0 0.0 0.0 1.0 0.0 0.0 0.0 0.0 0.875 0.041666666666666664 0.08333333333333333 0.0 0.0 1.0 0.0 0.0 0.0 0.0 0.8589743589743589 0.10256410256410256 0.01282051282051282 0.01282051282051282 0.01282051282051282 0.8235294117647058 0.0748663101604278 0.0106951871657754 0.06417112299465241 0.026737967914438502 0.968421052631579 0.010526315789473684 0.021052631578947368 0.0 0.0 0.5727272727272728 0.16818181818181818 0.08636363636363636 0.09090909090909091 0.08181818181818182 0.3316582914572864 0.1507537688442211 0.19597989949748743 0.18090452261306533 0.1407035175879397 0.5245901639344263 0.06557377049180328 0.11475409836065574 0.14754098360655737 0.14754098360655737 0.22727272727272727 0.32727272727272727 0.2 0.09090909090909091 0.15454545454545454 0.11363636363636363 0.2159090909090909 0.19696969696969696 0.2196969696969697 0.2537878787878788 0.1702127659574468 0.3120567375886525 0.19148936170212766 0.2695035460992908 0.05673758865248227 0.0732484076433121 0.2197452229299363 0.22611464968152867 0.2802547770700637 0.20063694267515925 0.016778523489932886 0.2684563758389262 0.22818791946308725 0.2550335570469799 0.23154362416107382 0.08681672025723473 0.2282958199356913 0.2765273311897106 0.2572347266881029 0.15112540192926044 0.016260162601626018 0.17073170731707318 0.3008130081300813 0.24796747967479674 0.26422764227642276 0.005494505494505495 0.2802197802197802 0.24175824175824176 0.24725274725274726 0.22527472527472528 0.05917159763313609 0.27218934911242604 0.25443786982248523 0.22189349112426035 0.19230769230769232 0.0 0.20155038759689922 0.20155038759689922 0.2558139534883721 0.34108527131782945 0.0 0.2765957446808511 0.20567375886524822 0.2624113475177305 0.2553191489361702 0.11682242990654206 0.2102803738317757 0.2616822429906542 0.27102803738317754 0.14018691588785046 0.03488372093023256 0.19767441860465115 0.18604651162790697 0.32558139534883723 0.2558139534883721 0.0 0.171875 0.28125 0.265625 0.28125 0.08870967741935484 0.14516129032258066 0.1935483870967742 0.18548387096774194 0.3870967741935484 0.0 0.07317073170731707 0.3170731707317073 0.24390243902439024 0.36585365853658536 0.0 0.13333333333333333 0.36666666666666664 0.1 0.4 0.23529411764705882 0.11764705882352941 0.04411764705882353 0.07352941176470588 0.5294117647058824 0.0 0.10256410256410256 0.23076923076923078 0.41025641025641024 0.2564102564102564 0.0 0.05 0.55 0.1 0.3 0.13043478260869565 0.043478260869565216 0.0 0.08695652173913043 0.7391304347826086 0.0 0.19047619047619047 0.3333333333333333 0.2857142857142857 0.19047619047619047 0.06666666666666667 0.0 0.6 0.06666666666666667 0.26666666666666666 0.0625 0.125 0.0 0.0 0.8125 0.0 0.15789473684210525 0.15789473684210525 0.21052631578947367 0.47368421052631576 0.0 0.09090909090909091 0.36363636363636365 0.2727272727272727 0.2727272727272727 0.2 0.2 0.0 0.0 0.6 0.0 0.25 0.625 0.125 0.0 0.0 0.4 0.2 0.2 0.2 0.0 0.3333333333333333 0.0 0.16666666666666666 0.5 0.0 0.14285714285714285 0.14285714285714285 0.2857142857142857 0.42857142857142855 0.0 0.0 1.0 0.0 0.0 0.0 0.0 0.0 0.0 1.0 0.0 0.6 0.0 0.4 0.0 0.5 0.0 0.0 0.0 0.5 0.2 0.2 0.2 0.2 0.2 0.0 0.0 0.0 0.0 1.0 0.2 0.2 0.2 0.2 0.2 0.0 0.0 0.0 0.0 1.0 0.0 0.0 0.3333333333333333 0.3333333333333333 0.3333333333333333 0.2 0.2 0.2 0.2 0.2 0.5 0.0 0.0 0.5 0.0 0.0 0.0 0.5 0.0 0.5 0.0 0.0 0.0 1.0 0.0 0.0 1.0 0.0 0.0 0.0 0.2 0.2 0.2 0.2 0.2 0.2 0.2 0.2 0.2 0.2 0.2 0.2 0.2 0.2 0.2 0.0 0.0 0.0 0.0 1.0 0.5 0.0 0.0 0.0 0.5 0.0 0.0 1.0 0.0 0.0 0.2 0.2 0.2 0.2 0.2 0.2 0.2 0.2 0.2 0.2 0.0 0.0 0.0 0.0 1.0 0.2 0.2 0.2 0.2 0.2 0.2 0.2 0.2 0.2 0.2 0.2 0.2 0.2 0.2 0.2 0.0 0.0 1.0 0.0 0.0 0.0 0.0 1.0 0.0 0.0 0.2 0.2 0.2 0.2 0.2 0.0 0.0 1.0 0.0 0.0 0.2 0.2 0.2 0.2 0.2 0.0 0.0 0.0 0.0 1.0 0.2 0.2 0.2 0.2 0.2 </TABLE>
    </DEFINITION>
    <DEFINITION>
      <FOR>in_time</FOR>
      <GIVEN>delta</GIVEN>
      <GIVEN>fps</GIVEN>
      <TABLE>0.0 1.0 0.0 1.0 0.5 0.5 0.5 0.5 0.5 0.5 0.0 1.0 0.0 1.0 0.5 0.5 0.5 0.5 0.5 0.5 0.0 1.0 0.0 1.0 0.5 0.5 0.5 0.5 0.5 0.5 0.0 1.0 0.5 0.5 0.5 0.5 0.5 0.5 0.5 0.5 0.0 1.0 0.5 0.5 0.5 0.5 0.5 0.5 0.5 0.5 0.0 1.0 0.5 0.5 0.5 0.5 0.5 0.5 0.5 0.5 0.0 1.0 0.0 1.0 0.5 0.5 0.5 0.5 0.5 0.5 0.0 1.0 0.0 1.0 0.5 0.5 0.5 0.5 0.5 0.5 0.0 1.0 0.0 1.0 0.5 0.5 0.5 0.5 0.5 0.5 0.0 1.0 0.0 1.0 0.5 0.5 0.5 0.5 0.5 0.5 0.0 1.0 0.5 0.5 0.5 0.5 0.5 0.5 0.5 0.5 0.0 1.0 0.0 1.0 0.5 0.5 0.5 0.5 0.0 1.0 0.0 1.0 0.0 1.0 0.0 1.0 0.0 1.0 0.0 1.0 0.0 1.0 0.0 1.0 0.0 1.0 0.0 1.0 0.0 1.0 0.0 1.0 0.0 1.0 0.0 1.0 0.0 1.0 0.0 1.0 0.0 1.0 0.0 1.0 0.0 1.0 0.0 1.0 0.0 1.0 0.0 1.0 0.0 1.0 0.0 1.0 0.0 1.0 0.0 1.0 0.0 1.0 0.0 1.0 0.0 1.0 0.0 1.0 0.0 1.0 0.0 1.0 0.0 1.0 0.0 1.0 0.0 1.0 0.0 1.0 0.0 1.0 0.0 1.0 0.0 1.0 0.0 1.0 1.0 0.0 0.0 1.0 0.0 1.0 0.0 1.0 0.0 1.0 1.0 0.0 0.0 1.0 0.0 1.0 0.0 1.0 0.0 1.0 1.0 0.0 0.0 1.0 0.0 1.0 0.0 1.0 0.0 1.0 1.0 0.0 0.0 1.0 0.0 1.0 0.0 1.0 0.0 1.0 1.0 0.0 0.0 1.0 0.0 1.0 0.0 1.0 1.0 0.0 1.0 0.0 0.0 1.0 0.0 1.0 0.0 1.0 1.0 0.0 1.0 0.0 0.0 1.0 0.0 1.0 0.0 1.0 1.0 0.0 1.0 0.0 0.0 1.0 0.0 1.0 0.0 1.0 1.0 0.0 1.0 0.0 0.0 1.0 0.0 1.0 0.0 1.0 1.0 0.0 1.0 0.0 0.0 1.0 0.0 1.0 0.0 1.0 1.0 0.0 1.0 0.0 0.0 1.0 0.0 1.0 0.0 1.0 1.0 0.0 1.0 0.0 0.0 1.0 0.0 1.0 1.0 0.0 1.0 0.0 1.0 0.0 0.0 1.0 0.0 1.0 1.0 0.0 1.0 0.0 1.0 0.0 0.0 1.0 0.0 1.0 1.0 0.0 1.0 0.0 1.0 0.0 0.0 1.0 0.0 1.0 1.0 0.0 1.0 0.0 1.0 0.0 0.0 1.0 0.0 1.0 1.0 0.0 1.0 0.0 1.0 0.0 0.0 1.0 0.0 1.0 1.0 0.0 1.0 0.0 1.0 0.0 0.0 1.0 0.0 1.0 1.0 0.0 1.0 0.0 1.0 0.0 0.0 1.0 0.0 1.0 1.0 0.0 1.0 0.0 1.0 0.0 0.0 1.0 0.0 1.0 1.0 0.0 1.0 0.0 1.0 0.0 0.0 1.0 0.0 1.0 1.0 0.0 1.0 0.0 1.0 0.0 0.5 0.5 1.0 0.0 1.0 0.0 1.0 0.0 1.0 0.0 0.0 1.0 1.0 0.0 1.0 0.0 1.0 0.0 0.5 0.5 0.0 1.0 0.5 0.5 1.0 0.0 1.0 0.0 1.0 0.0 0.0 1.0 1.0 0.0 1.0 0.0 1.0 0.0 1.0 0.0 0.0 1.0 1.0 0.0 0.5 0.5 1.0 0.0 1.0 0.0 0.5 0.5 1.0 0.0 0.5 0.5 1.0 0.0 1.0 0.0 0.0 1.0 1.0 0.0 0.5 0.5 1.0 0.0 1.0 0.0 0.0 1.0 1.0 0.0 0.5 0.5 1.0 0.0 0.5 0.5 0.5 0.5 1.0 0.0 0.5 0.5 0.5 0.5 1.0 0.0 0.0 1.0 0.5 0.5 0.5 0.5 1.0 0.0 1.0 0.0 0.0 1.0 0.5 0.5 0.5 0.5 0.5 0.5 1.0 0.0 0.0 1.0 0.5 0.5 0.5 0.5 0.5 0.5 1.0 0.0 0.0 1.0 0.5 0.5 0.5 0.5 1.0 0.0 1.0 0.0 0.5 0.5 0.5 0.5 1.0 0.0 1.0 0.0 1.0 0.0 0.0 1.0 1.0 0.0 1.0 0.0 0.5 0.5 1.0 0.0 0.0 1.0 1.0 0.0 1.0 0.0 1.0 0.0 1.0 0.0 1.0 0.0 1.0 0.0 1.0 0.0 1.0 0.0 0.5 0.5 1.0 0.0 1.0 0.0 1.0 0.0 1.0 0.0 0.5 0.5 1.0 0.0 1.0 0.0 1.0 0.0 1.0 0.0 0.5 0.5 1.0 0.0 1.0 0.0 1.0 0.0 1.0 0.0 0.5 0.5 1.0 0.0 1.0 0.0 1.0 0.0 1.0 0.0 0.5 0.5 1.0 0.0 1.0 0.0 1.0 0.0 1.0 0.0 0.5 0.5 1.0 0.0 1.0 0.0 1.0 0.0 0.5 0.5 0.5 0.5 1.0 0.0 0.5 0.5 1.0 0.0 0.5 0.5 0.5 0.5 0.5 0.5 0.5 0.5 1.0 0.0 0.5 0.5 0.5 0.5 0.5 0.5 0.5 0.5 1.0 0.0 1.0 0.0 0.5 0.5 1.0 0.0 0.5 0.5 0.5 0.5 1.0 0.0 0.5 0.5 1.0 0.0 0.5 0.5 0.5 0.5 0.5 0.5 0.5 0.5 1.0 0.0 0.5 0.5 0.5 0.5 0.5 0.5 0.5 0.5 0.5 0.5 0.5 0.5 1.0 0.0 0.5 0.5 0.5 0.5 0.5 0.5 0.5 0.5 0.5 0.5 1.0 0.0 0.5 0.5 1.0 0.0 0.5 0.5 0.5 0.5 0.5 0.5 0.5 0.5 1.0 0.0 0.5 0.5 0.5 0.5 0.5 0.5 0.5 0.5 </TABLE>
    </DEFINITION>
    <DEFINITION>
      <FOR>pixel</FOR>
      <GIVEN>cpu</GIVEN>
      <TABLE>0.3018181818181818 0.3709090909090909 0.32727272727272727 0.3895601739971 0.3697438376027066 0.24069598840019332 0.35390946502057613 0.3058984910836763 0.3401920438957476 0.29210526315789476 0.3078947368421053 0.4 0.22784810126582278 0.29957805907172996 0.47257383966244726 0.16417910447761194 0.19402985074626866 0.6417910447761194 0.1368421052631579 0.3157894736842105 0.5473684210526316 0.044444444444444446 0.17777777777777778 0.7777777777777778 0.125 0.0625 0.8125 0.0 0.09090909090909091 0.9090909090909091 0.058823529411764705 0.23529411764705882 0.7058823529411765 0.0 0.0 1.0 0.14285714285714285 0.2857142857142857 0.5714285714285714 0.5 0.07142857142857142 0.42857142857142855 0.5333333333333333 0.1 0.36666666666666664 0.4567901234567901 0.12345679012345678 0.41975308641975306 0.8 0.1 0.1 0.4473684210526316 0.18421052631578946 0.3684210526315789 0.5535714285714286 0.2767857142857143 0.16964285714285715 0.375 0.13157894736842105 0.4934210526315789 0.3010752688172043 0.34946236559139787 0.34946236559139787 0.319634703196347 0.1872146118721461 0.4931506849315068 0.2445414847161572 0.2838427947598253 0.47161572052401746 0.35514018691588783 0.26635514018691586 0.37850467289719625 0.33495145631067963 0.2766990291262136 0.3883495145631068 0.3075117370892019 0.25586854460093894 0.43661971830985913 0.3125 0.30625 0.38125 0.2757352941176471 0.3235294117647059 0.4007352941176471 0.3288135593220339 0.3016949152542373 0.3694915254237288 0.3588039867109635 0.34219269102990035 0.29900332225913623 0.3949579831932773 0.3697478991596639 0.23529411764705882 0.23699421965317918 0.5317919075144508 0.23121387283236994 0.29107981220657275 0.568075117370892 0.14084507042253522 0.3230769230769231 0.5769230769230769 0.1 0.3277310924369748 0.6134453781512605 0.058823529411764705 0.2571428571428571 0.6571428571428571 0.08571428571428572 0.1951219512195122 0.6585365853658537 0.14634146341463414 0.4375 0.5 0.0625 0.23529411764705882 0.6470588235294118 0.11764705882352941 0.47058823529411764 0.23529411764705882 0.29411764705882354 0.17647058823529413 0.35294117647058826 0.47058823529411764 0.0 0.3333333333333333 0.6666666666666666 0.25 0.25 0.5 0.0 0.2222222222222222 0.7777777777777778 0.42857142857142855 0.14285714285714285 0.42857142857142855 0.0 0.3333333333333333 0.6666666666666666 0.16666666666666666 0.5833333333333334 0.25 0.125 0.375 0.5 0.37142857142857144 0.2 0.42857142857142855 0.17647058823529413 0.25 0.5735294117647058 0.37250996015936255 0.1892430278884462 0.43824701195219123 0.41458333333333336 0.12708333333333333 0.4583333333333333 0.3671766342141864 0.19610570236439498 0.43671766342141866 0.3485380116959064 0.36374269005847953 0.28771929824561404 0.28043143297380585 0.5208012326656395 0.1987673343605547 0.3197278911564626 0.4852607709750567 0.19501133786848074 0.2794759825327511 0.5414847161572053 0.17903930131004367 0.21897810218978103 0.49635036496350365 0.2846715328467153 0.3125 0.359375 0.328125 0.3 0.32 0.38 0.3793103448275862 0.3448275862068966 0.27586206896551724 0.2777777777777778 0.3333333333333333 0.3888888888888889 0.08333333333333333 0.5 0.4166666666666667 0.6666666666666666 0.0 0.3333333333333333 0.0 0.4 0.6 0.0 0.5 0.5 0.5 0.5 0.0 0.0 0.0 1.0 0.6666666666666666 0.3333333333333333 0.0 0.0 1.0 0.0 0.0 0.0 1.0 0.5 0.0 0.5 0.0 1.0 0.0 </TABLE>
    </DEFINITION>
  </NETWORK>
</BIF>
